{
  "benchmark_id": "S4",
  "series": "S",
  "architecture": "S4Net",
  "timesteps": 20,
  "precision": {
    "weight_bits": 4,
    "signed": true
  },
  "layers": [
    {
      "name": "fc1",
      "type": "linear",
      "in_features": 8,
      "out_features": 64,
      "weights": [
        [
          0.10719691962003708,
          0.14094097912311554,
          -0.03958932310342789,
          -0.26080086827278137,
          0.5287894010543823,
          0.5457714200019836,
          0.26794809103012085,
          -0.257082462310791
        ],
        [
          0.06947105377912521,
          0.09189964085817337,
          -0.28454717993736267,
          -0.10063303261995316,
          -0.007030642591416836,
          0.03427530825138092,
          0.6131610870361328,
          0.2217901051044464
        ],
        [
          0.20164203643798828,
          0.2881389260292053,
          -0.18820078670978546,
          -0.18367555737495422,
          -0.16765283048152924,
          -0.16762769222259521,
          0.17678676545619965,
          0.08922725170850754
        ],
        [
          -0.17918071150779724,
          0.32524093985557556,
          0.04156704246997833,
          -0.039297644048929214,
          0.4234296977519989,
          0.09217315912246704,
          -0.33746254444122314,
          0.3263999819755554
        ],
        [
          -0.30353978276252747,
          -0.3936428427696228,
          0.1286696195602417,
          0.35790470242500305,
          0.03034728765487671,
          -0.4925329089164734,
          0.059182919561862946,
          0.5499307513237
        ],
        [
          -0.31395235657691956,
          -0.32149648666381836,
          -0.27173781394958496,
          -0.21986831724643707,
          0.5300291776657104,
          -0.23119616508483887,
          -0.09048939496278763,
          0.5521861910820007
        ],
        [
          0.1777552366256714,
          0.4383351802825928,
          -0.012273228727281094,
          -0.08423987030982971,
          0.025338679552078247,
          0.16242863237857819,
          -0.3217349648475647,
          -0.24625346064567566
        ],
        [
          -0.35620564222335815,
          0.0321187898516655,
          -0.37570810317993164,
          0.10921142995357513,
          0.46157553791999817,
          0.2825385630130768,
          -0.1093485876917839,
          0.07504969090223312
        ],
        [
          -0.4374130070209503,
          0.13080671429634094,
          -0.020554235205054283,
          -0.001120397704653442,
          0.2608913779258728,
          -0.03751285746693611,
          -0.013788888230919838,
          0.38377729058265686
        ],
        [
          0.24416054785251617,
          0.06847615540027618,
          -0.26100969314575195,
          0.2266746610403061,
          0.6454489827156067,
          -0.29841914772987366,
          0.2120419442653656,
          -0.20215150713920593
        ],
        [
          -0.04237911477684975,
          -0.41404780745506287,
          -0.4102511405944824,
          0.006837369874119759,
          0.6057397127151489,
          -0.3717816174030304,
          -0.13112477958202362,
          0.24906696379184723
        ],
        [
          0.23495279252529144,
          -0.5934348106384277,
          0.06848809123039246,
          -0.22313489019870758,
          -0.10041347146034241,
          -0.3399999737739563,
          -0.48532846570014954,
          -0.2101397067308426
        ],
        [
          0.3809342682361603,
          -0.1567135751247406,
          -0.21866101026535034,
          -0.2753748893737793,
          0.3345445990562439,
          0.24205490946769714,
          -0.2506757080554962,
          -0.21181392669677734
        ],
        [
          0.005179380066692829,
          0.5589054822921753,
          -0.12926723062992096,
          0.1465790569782257,
          0.2129507064819336,
          0.15179674327373505,
          0.15992745757102966,
          0.30203306674957275
        ],
        [
          0.2446794956922531,
          0.19452936947345734,
          0.23131394386291504,
          -0.1447424739599228,
          -0.40358489751815796,
          0.244903564453125,
          -0.24717757105827332,
          -0.33993300795555115
        ],
        [
          0.03498111292719841,
          0.35399189591407776,
          0.02446111850440502,
          -0.11125282943248749,
          -0.015768028795719147,
          -0.40578776597976685,
          -0.3833799660205841,
          0.34274283051490784
        ],
        [
          0.1625571846961975,
          -0.8322795629501343,
          0.04677458480000496,
          0.11506865173578262,
          -0.006711728870868683,
          -0.2976249158382416,
          -0.06053461506962776,
          -0.1950569897890091
        ],
        [
          0.033866096287965775,
          0.10050313174724579,
          0.3169276714324951,
          0.1132311075925827,
          -0.508263885974884,
          -0.353621244430542,
          -0.2251814752817154,
          -0.4619411826133728
        ],
        [
          -0.3599638342857361,
          -0.0351586788892746,
          -0.006396721117198467,
          -0.05740313604474068,
          -0.36272692680358887,
          -0.6761074662208557,
          0.10510753095149994,
          0.19408690929412842
        ],
        [
          0.10533159971237183,
          0.427264004945755,
          0.001334733096882701,
          -0.1682330071926117,
          0.008761825039982796,
          0.023607250303030014,
          -0.18244647979736328,
          -0.21147391200065613
        ],
        [
          0.28202593326568604,
          -0.5114454627037048,
          -0.1449478566646576,
          -0.6437452435493469,
          -0.32682347297668457,
          -0.04034437984228134,
          -0.35782402753829956,
          -0.26295149326324463
        ],
        [
          0.1498912274837494,
          -0.04216936230659485,
          0.41805580258369446,
          -0.22603246569633484,
          -0.5704957246780396,
          -0.22907665371894836,
          0.4634787142276764,
          -0.00560592720285058
        ],
        [
          0.05568483844399452,
          -0.0591731034219265,
          -0.08179377019405365,
          -0.4162868857383728,
          -0.09719892591238022,
          0.14034347236156464,
          0.34848126769065857,
          -0.261730432510376
        ],
        [
          0.544315755367279,
          -0.172501802444458,
          -0.03972384333610535,
          -0.28999993205070496,
          -0.2245466411113739,
          -0.06916188448667526,
          -0.30244526267051697,
          -0.14138056337833405
        ],
        [
          0.1989288032054901,
          0.3911111354827881,
          -0.0023489310406148434,
          -0.07533355802297592,
          -0.5447267293930054,
          0.22944457828998566,
          -0.22653064131736755,
          -0.4118814170360565
        ],
        [
          0.2143443524837494,
          0.44396451115608215,
          -0.05637158080935478,
          -0.3032374382019043,
          0.10765314847230911,
          0.17094303667545319,
          -0.3032664656639099,
          -0.4472821056842804
        ],
        [
          0.23771469295024872,
          -0.6178687214851379,
          -0.24548877775669098,
          0.13127708435058594,
          0.122603639960289,
          -0.46109434962272644,
          -0.002281027380377054,
          -0.007185507100075483
        ],
        [
          0.12324794381856918,
          0.10788587480783463,
          0.0007813302217982709,
          -0.3052472472190857,
          0.5776450634002686,
          0.5054401159286499,
          0.21456864476203918,
          -0.3597950339317322
        ],
        [
          -0.2587732970714569,
          0.166979119181633,
          0.38878270983695984,
          0.6414315700531006,
          0.045192278921604156,
          -0.2876426577568054,
          0.27770501375198364,
          -0.21182820200920105
        ],
        [
          0.2581043541431427,
          0.1948436051607132,
          -0.44989636540412903,
          -0.5183079838752747,
          0.17164751887321472,
          -0.1475805938243866,
          -0.21234676241874695,
          -0.15371528267860413
        ],
        [
          0.08241672813892365,
          0.4507080316543579,
          0.05850324407219887,
          -0.3148038387298584,
          0.054273899644613266,
          0.1993955373764038,
          -0.29042452573776245,
          -0.34489595890045166
        ],
        [
          -0.029613951221108437,
          -0.2219998985528946,
          0.09417016804218292,
          -0.08944731205701828,
          -0.18764425814151764,
          0.19301772117614746,
          -0.35305753350257874,
          -0.1538648158311844
        ],
        [
          -0.10033278167247772,
          0.21253962814807892,
          -0.22285403311252594,
          0.06830201297998428,
          0.08548075705766678,
          -0.4696606397628784,
          -0.4897557497024536,
          -0.023121807724237442
        ],
        [
          -0.17643919587135315,
          0.17153330147266388,
          -0.05505026504397392,
          -0.0636202022433281,
          0.2793174982070923,
          0.17394192516803741,
          0.038607340306043625,
          0.34727001190185547
        ],
        [
          0.24043236672878265,
          0.06375409662723541,
          0.18839481472969055,
          -0.26073136925697327,
          -0.0059927524998784065,
          0.5340622067451477,
          0.6013824939727783,
          0.2326662838459015
        ],
        [
          0.2709793150424957,
          -0.08236350119113922,
          -0.21798446774482727,
          -0.2639138400554657,
          -0.3514764904975891,
          -0.18919886648654938,
          0.10959207266569138,
          0.3877449929714203
        ],
        [
          -0.21221691370010376,
          -0.21525567770004272,
          0.26791730523109436,
          0.09491423517465591,
          -0.24401067197322845,
          -0.13080312311649323,
          -0.38920891284942627,
          -0.08442993462085724
        ],
        [
          -0.28479325771331787,
          0.06260955333709717,
          0.2572745084762573,
          0.16227152943611145,
          0.18089908361434937,
          -0.14275488257408142,
          -0.6153424382209778,
          -0.13842171430587769
        ],
        [
          0.49873656034469604,
          -0.030828623101115227,
          -0.14266857504844666,
          -0.523115873336792,
          -0.2886345386505127,
          0.17759136855602264,
          0.13867998123168945,
          -0.5174031257629395
        ],
        [
          -0.16505615413188934,
          0.41353288292884827,
          0.06456168740987778,
          -0.31199485063552856,
          -0.6010481715202332,
          0.10394753515720367,
          -0.15871423482894897,
          0.26042440533638
        ],
        [
          -0.17491964995861053,
          0.08625120669603348,
          0.22009073197841644,
          0.24667032063007355,
          0.1854456514120102,
          -0.10647062212228775,
          -0.6036943793296814,
          -0.12327998131513596
        ],
        [
          -0.29270774126052856,
          0.29160335659980774,
          -0.09637127816677094,
          0.11694537103176117,
          0.3541521430015564,
          0.5834470391273499,
          0.18639414012432098,
          -0.3043501675128937
        ],
        [
          0.3682752549648285,
          0.0063554891385138035,
          -0.16339470446109772,
          -0.3540073335170746,
          0.17377343773841858,
          0.09539800882339478,
          -0.3538763225078583,
          -0.2459181547164917
        ],
        [
          -0.24653220176696777,
          0.19645455479621887,
          0.5161645412445068,
          0.6040893197059631,
          -0.30499058961868286,
          -0.3798274099826813,
          0.3363674581050873,
          0.016157587990164757
        ],
        [
          0.05011521279811859,
          0.278893381357193,
          0.05032802000641823,
          -0.14331112802028656,
          0.1564445197582245,
          0.38146016001701355,
          -0.4116465151309967,
          -0.4148660898208618
        ],
        [
          -0.31848570704460144,
          0.15986044704914093,
          0.3848246932029724,
          0.11353924125432968,
          -0.17289549112319946,
          0.48207414150238037,
          0.4790438711643219,
          0.2955157458782196
        ],
        [
          0.012039819732308388,
          -0.1324150413274765,
          -0.3477364480495453,
          -0.4719489812850952,
          0.2983091473579407,
          -0.4221300780773163,
          -0.4800902307033539,
          -0.11757267266511917
        ],
        [
          -0.2035941779613495,
          -0.3255612552165985,
          0.1967119723558426,
          0.30774345993995667,
          -0.3513522148132324,
          -0.4427421987056732,
          -0.5224606990814209,
          -0.22150535881519318
        ],
        [
          -0.47593313455581665,
          -0.009495639242231846,
          -0.1190728023648262,
          0.1964779943227768,
          0.49779975414276123,
          -0.3221636116504669,
          0.10837709903717041,
          -0.21655137836933136
        ],
        [
          -0.025089265778660774,
          0.09140016883611679,
          -0.22968338429927826,
          0.006082633975893259,
          0.17740213871002197,
          -0.4223785698413849,
          -0.4708307385444641,
          -0.05925586819648743
        ],
        [
          -0.30544623732566833,
          -0.02080410160124302,
          0.019094981253147125,
          0.34298378229141235,
          0.0602540485560894,
          -0.27172529697418213,
          0.20813247561454773,
          0.25011318922042847
        ],
        [
          0.09712806344032288,
          -0.18343085050582886,
          0.09832721948623657,
          -0.15839286148548126,
          -0.17159199714660645,
          -0.4667603671550751,
          -0.22424547374248505,
          -0.3283633291721344
        ],
        [
          0.07289191335439682,
          0.16819193959236145,
          0.18824107944965363,
          -0.024375641718506813,
          -0.319349080324173,
          0.340221107006073,
          -0.25037428736686707,
          -0.27840715646743774
        ],
        [
          -0.14577677845954895,
          0.08914291858673096,
          0.39474621415138245,
          0.2919626832008362,
          -0.12780791521072388,
          -0.4795764982700348,
          -0.06526824831962585,
          -0.4350004196166992
        ],
        [
          -0.5721218585968018,
          -0.2342405766248703,
          0.4208085238933563,
          0.3950369954109192,
          0.047331035137176514,
          -0.09960741549730301,
          0.28367745876312256,
          0.23090209066867828
        ],
        [
          0.12327687442302704,
          0.04525251314043999,
          0.23466210067272186,
          -0.16717559099197388,
          0.054186493158340454,
          0.26371484994888306,
          0.5655308961868286,
          0.14330294728279114
        ],
        [
          -0.5086913704872131,
          0.20268292725086212,
          0.23614266514778137,
          0.6512038111686707,
          0.45528289675712585,
          0.27528712153434753,
          -0.14615236222743988,
          -0.18918831646442413
        ],
        [
          0.06597421318292618,
          0.3006078600883484,
          -0.3976403474807739,
          -0.0951436311006546,
          0.41222018003463745,
          0.10471780598163605,
          0.22993004322052002,
          -0.21167343854904175
        ],
        [
          0.17861124873161316,
          -0.3334658145904541,
          0.3434598743915558,
          -0.34239184856414795,
          -0.4096485376358032,
          -0.07712528854608536,
          0.18026916682720184,
          0.3787987232208252
        ],
        [
          0.14051571488380432,
          -0.51473468542099,
          -0.42064180970191956,
          0.07088755816221237,
          0.08827238529920578,
          -0.36251530051231384,
          -0.07923620939254761,
          -0.024121249094605446
        ],
        [
          0.03275342285633087,
          0.4602327346801758,
          0.272981733083725,
          -0.23496566712856293,
          -0.5223082900047302,
          -0.015942081809043884,
          -0.10252543538808823,
          0.24337778985500336
        ],
        [
          -0.16509678959846497,
          0.043281275779008865,
          -0.05108652636408806,
          0.49546608328819275,
          -0.009774448350071907,
          0.5754982829093933,
          0.3499096930027008,
          -0.214637890458107
        ],
        [
          -0.26474034786224365,
          0.39684608578681946,
          0.08572547137737274,
          0.2138211578130722,
          0.3530147075653076,
          0.46803924441337585,
          -0.14192736148834229,
          -0.147492915391922
        ],
        [
          0.4011092483997345,
          0.07381616532802582,
          0.18266460299491882,
          -0.6200963258743286,
          -0.3677912950515747,
          0.1272072196006775,
          -0.09569129347801208,
          -0.09575603157281876
        ]
      ],
      "bias": null
    },
    {
      "name": "fc2",
      "type": "linear",
      "in_features": 64,
      "out_features": 10,
      "weights": [
        [
          0.6251226663589478,
          0.39810943603515625,
          -0.40858370065689087,
          0.35093045234680176,
          -0.04400040581822395,
          0.193080335855484,
          -0.7458285093307495,
          0.37329035997390747,
          0.3558994233608246,
          0.24794410169124603,
          -0.029358243569731712,
          -0.500608503818512,
          -0.6379260420799255,
          0.28263479471206665,
          -0.4281230866909027,
          -0.7326864004135132,
          -1.6504006385803223,
          -0.46070414781570435,
          -0.7436272501945496,
          -0.4716450273990631,
          -0.7936347126960754,
          -1.0116500854492188,
          -0.011669375002384186,
          -0.4522978365421295,
          -0.5930695533752441,
          -0.6015099287033081,
          -0.8429991602897644,
          0.33992546796798706,
          0.31391027569770813,
          -0.722370982170105,
          -0.6549861431121826,
          -0.08796335011720657,
          -0.5263711810112,
          0.16386853158473969,
          0.30489978194236755,
          -1.6213757991790771,
          -0.3291637599468231,
          -0.46960437297821045,
          -0.6919223070144653,
          -0.4990995228290558,
          -0.5137994289398193,
          0.3136378228664398,
          -0.45632973313331604,
          -0.15951548516750336,
          -0.5304015874862671,
          0.22343195974826813,
          -0.8364995718002319,
          -0.5622161030769348,
          0.14503270387649536,
          -0.713212788105011,
          0.20398159325122833,
          -0.2301686704158783,
          -0.5979488492012024,
          -0.1764622926712036,
          0.3646946847438812,
          0.27826187014579773,
          0.3360536992549896,
          0.3981037437915802,
          -1.1467341184616089,
          -0.8162938952445984,
          -0.6305108666419983,
          0.5946230292320251,
          0.5088882446289062,
          -0.4072847366333008
        ],
        [
          0.404631108045578,
          0.22420547902584076,
          0.003375112544745207,
          -1.0054504871368408,
          -0.4948667287826538,
          0.2134958952665329,
          -0.7297738790512085,
          -0.5589763522148132,
          -0.6683966517448425,
          0.30157172679901123,
          0.27591708302497864,
          0.2992683947086334,
          1.0719640254974365,
          -0.5527965426445007,
          -0.14792707562446594,
          -0.5859885811805725,
          0.38199707865715027,
          -0.1884513646364212,
          -1.0981061458587646,
          -0.42368102073669434,
          0.46705135703086853,
          -0.19287124276161194,
          0.5237686634063721,
          0.21776257455348969,
          -0.43629685044288635,
          -0.06278635561466217,
          1.2335604429244995,
          0.12615932524204254,
          -0.4933345317840576,
          0.2515657842159271,
          -0.41402867436408997,
          -0.3358197510242462,
          -0.9554357528686523,
          -0.43803414702415466,
          0.41602930426597595,
          0.31483787298202515,
          -0.6148831248283386,
          -0.49679428339004517,
          0.2755798399448395,
          -0.4116576611995697,
          -0.49730339646339417,
          -0.36263811588287354,
          0.36059367656707764,
          -0.3849441409111023,
          -0.36748558282852173,
          -0.35906311869621277,
          0.1790340393781662,
          -0.8331307768821716,
          -0.5626035332679749,
          -0.15002526342868805,
          -0.7876312136650085,
          0.14821653068065643,
          -0.4333735704421997,
          -0.3214782178401947,
          -0.585557758808136,
          0.24562114477157593,
          -0.3145507276058197,
          0.019216075539588928,
          0.3668527901172638,
          0.2204977124929428,
          -0.33209165930747986,
          -0.9973879456520081,
          -0.43782684206962585,
          0.3508926033973694
        ],
        [
          0.08669700473546982,
          -0.023704053834080696,
          0.2218354046344757,
          -0.827220618724823,
          -0.6829844117164612,
          -0.8695138096809387,
          0.6173161268234253,
          -0.8869179487228394,
          -0.7866753339767456,
          -0.29665929079055786,
          -0.508517861366272,
          -0.4108072519302368,
          -0.4806482195854187,
          0.14485864341259003,
          0.26984331011772156,
          -0.6657251119613647,
          -0.4360789954662323,
          0.3463823199272156,
          -0.99278724193573,
          0.14963269233703613,
          -1.0776848793029785,
          0.31304463744163513,
          0.294055700302124,
          -0.4242750108242035,
          0.33035045862197876,
          0.3020950257778168,
          -0.26854974031448364,
          0.3542783558368683,
          0.11334189027547836,
          -0.15969395637512207,
          0.10154984891414642,
          -0.4583578407764435,
          -0.6566508412361145,
          -0.4894344210624695,
          0.04853515699505806,
          -0.49231499433517456,
          -0.29316484928131104,
          -0.18444912135601044,
          0.3933942914009094,
          0.3018326461315155,
          -0.2471923530101776,
          0.2668665051460266,
          -0.2796876132488251,
          0.19239959120750427,
          0.3075686991214752,
          0.10894595831632614,
          -0.6543202996253967,
          -0.45279476046562195,
          -0.34858158230781555,
          -0.37750741839408875,
          -0.8408735990524292,
          -0.21899385750293732,
          0.3651661276817322,
          0.10365236550569534,
          -0.8048773407936096,
          0.3094475567340851,
          0.1290913075208664,
          0.2116893082857132,
          -0.6041775345802307,
          -0.30353474617004395,
          0.2782416045665741,
          0.7838166356086731,
          0.2648613154888153,
          0.164688840508461
        ],
        [
          -1.0404932498931885,
          0.8895635604858398,
          0.3634394705295563,
          0.09943853318691254,
          0.10696673393249512,
          0.13116835057735443,
          -0.40275102853775024,
          0.22032137215137482,
          0.20971934497356415,
          0.19296477735042572,
          0.15581396222114563,
          -0.6337769031524658,
          -0.2872495651245117,
          0.2539110481739044,
          -0.19120915234088898,
          0.2787707448005676,
          -0.8723145127296448,
          -0.5453446507453918,
          0.7257974147796631,
          -0.25992459058761597,
          -1.0183422565460205,
          -2.742133855819702,
          -0.19141632318496704,
          -0.5591157078742981,
          -0.2542645335197449,
          -0.43374118208885193,
          0.7077561616897583,
          -0.6323196887969971,
          -0.5761597156524658,
          0.250691682100296,
          -0.6759964227676392,
          -0.10693173855543137,
          0.26418232917785645,
          0.33795908093452454,
          -0.8112890124320984,
          0.41844335198402405,
          -0.3483544886112213,
          -0.7244860529899597,
          -0.713397741317749,
          -0.46111494302749634,
          -0.8245229125022888,
          -0.8981832265853882,
          -0.36100849509239197,
          -1.0948991775512695,
          -0.3602236211299896,
          -1.1432853937149048,
          0.28336527943611145,
          -0.9029175639152527,
          0.1842266172170639,
          0.313522070646286,
          0.211259126663208,
          -0.6055601835250854,
          -0.1855626404285431,
          -0.779428243637085,
          -0.4413753151893616,
          -0.4185975193977356,
          -0.828932523727417,
          0.32344672083854675,
          -0.515680730342865,
          0.2830425202846527,
          -0.7280056476593018,
          -0.8617430925369263,
          -0.5808101892471313,
          -0.49708855152130127
        ],
        [
          -1.6291426420211792,
          -2.2932422161102295,
          -0.7722925543785095,
          -0.2924034595489502,
          0.335326224565506,
          0.31219592690467834,
          -0.5159544348716736,
          -0.1942315697669983,
          -0.013630799017846584,
          0.11968334019184113,
          0.2818940281867981,
          0.3376738429069519,
          -0.4674608111381531,
          -0.6619005799293518,
          -0.5387743711471558,
          0.04618850350379944,
          1.1631057262420654,
          0.3058740794658661,
          0.15511563420295715,
          -0.20574671030044556,
          -0.07756307721138,
          -0.10537391155958176,
          -0.07758823037147522,
          -0.2937318980693817,
          -1.0160075426101685,
          -0.5917438268661499,
          0.3381754755973816,
          -1.0737038850784302,
          0.47516965866088867,
          -0.562445342540741,
          -0.8697046637535095,
          -0.21452711522579193,
          0.2750655710697174,
          -0.6019665598869324,
          -0.8989347219467163,
          -0.6882712244987488,
          0.11639707535505295,
          0.4706607460975647,
          -1.6222416162490845,
          -0.5262082815170288,
          0.6004513502120972,
          -0.4690662622451782,
          -0.49208107590675354,
          0.31637483835220337,
          -0.6077385544776917,
          -0.41954636573791504,
          0.22330455482006073,
          0.45192691683769226,
          0.318433552980423,
          0.1633094996213913,
          0.35884302854537964,
          0.5429985523223877,
          -0.702794075012207,
          0.3584596514701843,
          0.34642651677131653,
          -0.6095151305198669,
          0.288972944021225,
          -0.6648855209350586,
          -0.06561028957366943,
          0.12752237915992737,
          -0.47838929295539856,
          -0.25686028599739075,
          -0.526977002620697,
          -0.6218190789222717
        ],
        [
          0.5063758492469788,
          -1.3168095350265503,
          -0.11144619435071945,
          0.20072628557682037,
          -0.4709649085998535,
          0.11467799544334412,
          0.27095627784729004,
          0.1768764704465866,
          0.2889726459980011,
          0.1781562715768814,
          0.14245329797267914,
          -0.4029368460178375,
          0.2638278603553772,
          0.1540796458721161,
          -0.5982460975646973,
          0.2470642328262329,
          -1.1760435104370117,
          -0.7299745678901672,
          -2.561793804168701,
          0.4356258511543274,
          -0.4805688261985779,
          -0.6312482953071594,
          -0.04154786095023155,
          -0.7078857421875,
          -0.6782363653182983,
          0.44860759377479553,
          -0.8042440414428711,
          0.5032321214675903,
          -0.44129809737205505,
          0.25825682282447815,
          0.439480721950531,
          -0.4377017319202423,
          0.081759512424469,
          0.3518863618373871,
          -0.9398975372314453,
          -0.6864010691642761,
          -0.6613998413085938,
          0.16790004074573517,
          -0.6606079936027527,
          -0.196946918964386,
          0.37386956810951233,
          0.2646912634372711,
          0.17877903580665588,
          -1.2379087209701538,
          0.42786917090415955,
          -1.094828724861145,
          0.22507697343826294,
          -0.535259485244751,
          0.16104790568351746,
          0.11798238009214401,
          -0.4506264328956604,
          -0.40127238631248474,
          -0.47847768664360046,
          -0.44370976090431213,
          -0.8924922347068787,
          -1.1414326429367065,
          0.3554046154022217,
          0.3262910842895508,
          -0.5013788938522339,
          -0.37833118438720703,
          -0.20601901412010193,
          -1.218909502029419,
          0.22604501247406006,
          -0.5568349957466125
        ],
        [
          -0.8824165463447571,
          0.27841657400131226,
          0.4452390670776367,
          -0.08602023124694824,
          0.24122069776058197,
          0.2104368805885315,
          -0.3476921021938324,
          -0.6474973559379578,
          0.15460868179798126,
          -0.7171383500099182,
          -0.3719111680984497,
          -0.3497880697250366,
          -0.7791253328323364,
          0.18136835098266602,
          -0.5506613850593567,
          0.10505171865224838,
          -1.041918158531189,
          -1.1634550094604492,
          0.8831243515014648,
          -0.07863269746303558,
          -1.0654592514038086,
          0.8780559301376343,
          0.028219539672136307,
          -1.0221248865127563,
          -0.5128210186958313,
          -0.7254059314727783,
          -0.9371578693389893,
          -0.9882490038871765,
          -0.02670479193329811,
          -0.8673813343048096,
          -0.2353564202785492,
          -0.42083799839019775,
          -0.42366737127304077,
          0.11948786675930023,
          0.0834326297044754,
          1.0583323240280151,
          -0.49639636278152466,
          -0.28771379590034485,
          -0.9270671010017395,
          0.4891315996646881,
          -0.4558006227016449,
          -0.722083330154419,
          -0.6775131225585938,
          0.2408844381570816,
          -0.8024449348449707,
          0.2341032475233078,
          -0.7855554223060608,
          -0.8791415691375732,
          -0.5908781290054321,
          -0.6086398959159851,
          0.32195600867271423,
          -0.07988963276147842,
          -0.9442474246025085,
          -0.2137463390827179,
          0.2332223653793335,
          0.28669077157974243,
          -0.5229988098144531,
          -0.5333771705627441,
          0.8359219431877136,
          -0.9300112724304199,
          0.7358396053314209,
          -0.8695316314697266,
          -0.9945173263549805,
          -0.025100097060203552
        ],
        [
          -0.7231940627098083,
          -0.5351690649986267,
          -0.3493078052997589,
          0.11228718608617783,
          -1.0305192470550537,
          -0.7214322090148926,
          0.30567267537117004,
          -0.2055261731147766,
          -0.24907268583774567,
          -0.6749253273010254,
          -0.7403125166893005,
          0.2753516733646393,
          -0.063205786049366,
          -0.6283692121505737,
          0.21649594604969025,
          0.15334956347942352,
          -0.4784638583660126,
          0.31147071719169617,
          -0.3909180462360382,
          0.43295708298683167,
          0.4549165368080139,
          -0.5518810153007507,
          -0.3274995982646942,
          0.35105928778648376,
          0.49496516585350037,
          0.3306264281272888,
          -0.3863077163696289,
          -0.7218154668807983,
          -0.5100136399269104,
          0.17046211659908295,
          0.31341058015823364,
          0.2507646679878235,
          0.20833663642406464,
          -0.6127012372016907,
          -0.5743072628974915,
          -0.19660340249538422,
          0.11397663503885269,
          0.029852841049432755,
          0.01631767675280571,
          0.33922189474105835,
          0.16152767837047577,
          -0.6843014359474182,
          0.2482873946428299,
          -0.5735086798667908,
          0.198970764875412,
          -0.3496537506580353,
          0.11849076300859451,
          0.30422043800354004,
          -0.578719973564148,
          0.14815320074558258,
          -0.5430806875228882,
          0.21929991245269775,
          0.4412991404533386,
          0.3808113634586334,
          -0.5731473565101624,
          -0.3794691264629364,
          -0.12291494756937027,
          -0.7121112942695618,
          -0.19082072377204895,
          -0.32029762864112854,
          0.26257455348968506,
          -1.1675958633422852,
          0.003219346981495619,
          0.333852618932724
        ],
        [
          -1.2817610502243042,
          -0.5505151748657227,
          -0.5261545181274414,
          -0.3657425343990326,
          -0.14797593653202057,
          -0.2097693830728531,
          -0.17776554822921753,
          -0.32909873127937317,
          -0.3090200424194336,
          -0.4019772410392761,
          -0.3067290782928467,
          -0.17963780462741852,
          -0.677322506904602,
          -0.24393917620182037,
          -0.22908557951450348,
          -0.41688188910484314,
          -0.4686906635761261,
          -0.38487815856933594,
          -0.5824354290962219,
          -0.24167297780513763,
          -0.4658324718475342,
          -0.8460949063301086,
          -0.1253891885280609,
          -0.23320609331130981,
          -0.6938930153846741,
          -0.20103411376476288,
          -0.2625040113925934,
          -0.4587261974811554,
          -0.5656784772872925,
          -0.39797475934028625,
          -0.4853004515171051,
          -0.17568828165531158,
          -0.2349245399236679,
          -0.27758532762527466,
          -0.6625902056694031,
          -0.6974358558654785,
          -0.2900773286819458,
          -0.5314654111862183,
          -0.4113759696483612,
          -0.3600839078426361,
          -0.5567610263824463,
          -0.6628372073173523,
          -0.28436145186424255,
          -0.4488964080810547,
          -0.4973061978816986,
          -0.3413749039173126,
          -0.24390654265880585,
          -0.4468822777271271,
          -0.38039740920066833,
          -0.21508535742759705,
          -0.3084897994995117,
          -0.4878101944923401,
          -0.8484583497047424,
          -0.41461512446403503,
          -0.40681153535842896,
          -0.15900969505310059,
          -0.40333759784698486,
          -0.3661896884441376,
          -0.6455013155937195,
          -0.23789529502391815,
          -0.7525694370269775,
          -0.8125097155570984,
          -0.548061192035675,
          -0.5494959950447083
        ],
        [
          -2.067656993865967,
          -0.3910887539386749,
          -0.641144871711731,
          -0.3687347173690796,
          -0.4230993688106537,
          -0.624822199344635,
          -0.37255945801734924,
          -0.40801113843917847,
          -0.23842431604862213,
          -0.8651559948921204,
          -0.5606878995895386,
          -0.26171618700027466,
          -0.40794235467910767,
          -0.5010160207748413,
          -0.3388574719429016,
          -0.1927781105041504,
          -0.4661422669887543,
          -0.19924935698509216,
          -1.7423937320709229,
          -0.5363386869430542,
          -1.6346243619918823,
          -2.0539891719818115,
          -0.38136401772499084,
          -0.34271031618118286,
          -0.5482034683227539,
          -0.43821749091148376,
          -0.5906851887702942,
          -0.8432759046554565,
          -0.6581343412399292,
          -0.7824673652648926,
          -0.4507869482040405,
          -0.18741123378276825,
          -0.4486221373081207,
          -0.42560088634490967,
          -0.283882737159729,
          -0.7163805961608887,
          -0.350602924823761,
          -0.5650503039360046,
          -0.5840761065483093,
          -0.3725941777229309,
          -0.330791175365448,
          -1.806923508644104,
          -0.4804895520210266,
          -0.5268268585205078,
          -0.3012079894542694,
          -0.18050070106983185,
          -0.7747412919998169,
          -0.3829164505004883,
          -1.0131276845932007,
          -0.3909710943698883,
          -0.803085207939148,
          -0.5422967672348022,
          -0.23856456577777863,
          -1.0379269123077393,
          -0.28265348076820374,
          -0.25096750259399414,
          -0.3645755350589752,
          -0.8695963025093079,
          -0.6270847320556641,
          -0.32789307832717896,
          -0.4404819905757904,
          -2.0743777751922607,
          -0.5680689215660095,
          -0.17515377700328827
        ]
      ],
      "bias": null
    }
  ],
  "metadata": {
    "task": "classification"
  }
}