{
  "benchmark_id": "P4",
  "series": "P",
  "architecture": "P4Net",
  "timesteps": 20,
  "precision": {
    "weight_bits": 4,
    "signed": true
  },
  "layers": [
    {
      "name": "fc1",
      "type": "linear",
      "in_features": 10,
      "out_features": 64,
      "weights": [
        [
          0.1447659432888031,
          0.17176499962806702,
          -0.0605752170085907,
          -0.2912728488445282,
          0.22120510041713715,
          -0.023946771398186684,
          -0.20350806415081024,
          -0.2270471453666687,
          0.09649988263845444,
          0.39999958872795105
        ],
        [
          0.26727819442749023,
          0.3004480004310608,
          0.11167749762535095,
          -0.013510686345398426,
          0.0793619453907013,
          -0.09883692115545273,
          -0.32753175497055054,
          -0.18726009130477905,
          0.24510635435581207,
          -0.23356057703495026
        ],
        [
          0.21760940551757812,
          -0.25347694754600525,
          -0.19462144374847412,
          0.1884918212890625,
          0.09099611639976501,
          -0.15909573435783386,
          -0.03037852793931961,
          0.03384074941277504,
          -0.17505426704883575,
          -0.20312055945396423
        ],
        [
          0.16983483731746674,
          -0.0262431800365448,
          -0.10390187054872513,
          -0.09392692148685455,
          -0.18591193854808807,
          -0.18274451792240143,
          -0.2845386862754822,
          0.24628333747386932,
          0.3171725273132324,
          0.2616143822669983
        ],
        [
          0.2444586455821991,
          0.1566726118326187,
          -0.21092155575752258,
          0.09825030714273453,
          0.12450988590717316,
          -0.05244845896959305,
          0.28884732723236084,
          0.3309294879436493,
          -0.21567302942276,
          -0.2840466797351837
        ],
        [
          -0.12413769960403442,
          0.22075216472148895,
          -0.2139732390642166,
          -0.0846528559923172,
          -0.23561152815818787,
          -0.08805342763662338,
          0.10778249800205231,
          0.19770610332489014,
          -0.25544610619544983,
          0.31954869627952576
        ],
        [
          0.22707070410251617,
          -0.2083439826965332,
          -0.3501265347003937,
          -0.20381473004817963,
          0.04838939011096954,
          -0.10895644128322601,
          0.1437482386827469,
          -0.1357324868440628,
          0.11025112867355347,
          -0.1829843521118164
        ],
        [
          0.2794908285140991,
          -0.20230044424533844,
          0.0012678186176344752,
          0.27270379662513733,
          0.11959123611450195,
          0.25062230229377747,
          -0.2896287143230438,
          -0.04830308258533478,
          -0.2082558423280716,
          -0.3051517903804779
        ],
        [
          0.22849935293197632,
          0.05718948319554329,
          -0.22415028512477875,
          0.09354596585035324,
          -0.22148868441581726,
          -0.3864089250564575,
          0.1449844390153885,
          -0.03578832373023033,
          0.23521235585212708,
          -0.008650233037769794
        ],
        [
          0.22090677917003632,
          0.2975480258464813,
          -0.31283706426620483,
          0.42626848816871643,
          -0.31868526339530945,
          -0.08098916709423065,
          -0.2937246859073639,
          -0.0297060776501894,
          -0.04283856227993965,
          0.16321192681789398
        ],
        [
          0.35798031091690063,
          0.16153715550899506,
          0.09504470229148865,
          -0.021500395610928535,
          0.1707964390516281,
          -0.1937599629163742,
          -0.28404736518859863,
          0.31660300493240356,
          0.16877782344818115,
          0.0406959243118763
        ],
        [
          0.2604965269565582,
          -0.02143271267414093,
          0.029689427465200424,
          0.04499004781246185,
          0.15336495637893677,
          -0.38950830698013306,
          0.10175834596157074,
          0.3236536979675293,
          0.0915631353855133,
          0.18289610743522644
        ],
        [
          -0.045399174094200134,
          -0.13475008308887482,
          -0.17140471935272217,
          0.2247323840856552,
          -0.12280413508415222,
          -0.3711150288581848,
          0.03488906845450401,
          -0.03439842164516449,
          -0.1172478199005127,
          0.10596464574337006
        ],
        [
          -0.2493666559457779,
          0.0894966870546341,
          -0.13254231214523315,
          0.04809575155377388,
          0.06326468288898468,
          -0.025096939876675606,
          -0.3103347718715668,
          -0.28062888979911804,
          0.039658453315496445,
          0.15839965641498566
        ],
        [
          -0.23010224103927612,
          -0.20932886004447937,
          -0.3166474997997284,
          0.1289268434047699,
          -0.0923551693558693,
          0.2650976777076721,
          -0.1997559368610382,
          0.10348208248615265,
          0.10214438289403915,
          -0.3142182230949402
        ],
        [
          0.0007182823610492051,
          -0.34508442878723145,
          0.22205223143100739,
          0.0042593409307301044,
          -0.27191099524497986,
          -0.04644924774765968,
          0.18093539774417877,
          0.15743669867515564,
          0.22217492759227753,
          0.24461810290813446
        ],
        [
          0.030442630872130394,
          0.018080037087202072,
          0.3981187343597412,
          0.21408841013908386,
          -0.11664365977048874,
          -0.16003140807151794,
          0.08098025619983673,
          -0.23848699033260345,
          -0.005936348810791969,
          0.381488561630249
        ],
        [
          -0.32521337270736694,
          0.16515934467315674,
          -0.23713988065719604,
          0.2104959338903427,
          0.15677066147327423,
          0.3444158434867859,
          -0.36774390935897827,
          -0.43175429105758667,
          0.24136289954185486,
          0.22065727412700653
        ],
        [
          -0.2714584469795227,
          0.02945367433130741,
          0.2574085295200348,
          0.19165779650211334,
          -0.23729562759399414,
          -0.13539060950279236,
          -0.11263785511255264,
          -0.10511621087789536,
          0.24715641140937805,
          0.09234189242124557
        ],
        [
          -0.02794874832034111,
          0.15953890979290009,
          0.10131257027387619,
          0.25165870785713196,
          0.22373352944850922,
          0.03152908384799957,
          -0.1587943434715271,
          -0.09984676539897919,
          0.23582856357097626,
          -0.0880480408668518
        ],
        [
          0.028637243434786797,
          -0.017787331715226173,
          0.2504841089248657,
          0.1788719743490219,
          0.04252288490533829,
          0.2595599293708801,
          -0.24954120814800262,
          -0.24118183553218842,
          0.038239702582359314,
          0.021641571074724197
        ],
        [
          -0.06635385751724243,
          -0.22612233459949493,
          -0.14708606898784637,
          0.10362131893634796,
          -0.23859429359436035,
          0.029589135199785233,
          0.19982783496379852,
          0.1293678730726242,
          -0.12916716933250427,
          0.24591787159442902
        ],
        [
          -0.11362331360578537,
          -0.004171036649495363,
          -0.2009071409702301,
          0.25384554266929626,
          0.07966853678226471,
          -0.018707716837525368,
          0.06304752826690674,
          0.21493621170520782,
          0.2290094643831253,
          0.103511281311512
        ],
        [
          0.12370726466178894,
          0.22043845057487488,
          0.16463755071163177,
          0.03009341098368168,
          -0.19795428216457367,
          0.24827928841114044,
          0.20035184919834137,
          -0.013934670016169548,
          0.2611720860004425,
          0.24073666334152222
        ],
        [
          -0.3152778744697571,
          0.1491737812757492,
          -0.28781184554100037,
          0.3325444757938385,
          -0.06948356330394745,
          -0.21197792887687683,
          0.18210017681121826,
          -0.3433460593223572,
          0.06527932733297348,
          -0.14050810039043427
        ],
        [
          0.1144372820854187,
          0.3650851845741272,
          -0.04545581713318825,
          0.22077691555023193,
          0.31003573536872864,
          0.06308365613222122,
          -0.21813355386257172,
          -0.2007485330104828,
          0.1794070601463318,
          -0.10815751552581787
        ],
        [
          0.1736551970243454,
          -0.1627071648836136,
          0.20801927149295807,
          0.15378621220588684,
          -0.010224386118352413,
          -0.20593366026878357,
          0.26439499855041504,
          0.1495012491941452,
          0.24278950691223145,
          0.04886747896671295
        ],
        [
          0.015909992158412933,
          -0.1316578984260559,
          -0.09510546922683716,
          0.09425773471593857,
          0.09005387127399445,
          -0.013581065461039543,
          -0.04842737317085266,
          -0.3723791241645813,
          -0.11498608440160751,
          0.025791455060243607
        ],
        [
          -0.05551650747656822,
          0.09916462004184723,
          0.2946408689022064,
          -0.02319227159023285,
          -0.1856919229030609,
          -0.0035783059429377317,
          -0.10411800444126129,
          0.13919661939144135,
          -0.024189967662096024,
          0.22267581522464752
        ],
        [
          0.05691065639257431,
          0.14155854284763336,
          -0.23533813655376434,
          0.14941827952861786,
          0.26558876037597656,
          0.299857497215271,
          0.12657037377357483,
          -0.2202131599187851,
          0.08253846317529678,
          -0.022241124883294106
        ],
        [
          -0.15341055393218994,
          0.02975175715982914,
          -0.2519141137599945,
          0.2497934103012085,
          -0.013774771243333817,
          -0.05244980379939079,
          -0.15484076738357544,
          0.10169114917516708,
          0.04776245355606079,
          0.09455175697803497
        ],
        [
          0.17484964430332184,
          0.35122737288475037,
          -0.10069571435451508,
          -0.27680182456970215,
          0.24504058063030243,
          -0.19425344467163086,
          -0.15250201523303986,
          0.18952594697475433,
          0.2643284499645233,
          0.266513854265213
        ],
        [
          0.16885343194007874,
          0.2726818919181824,
          -0.18267598748207092,
          0.292768657207489,
          -0.20842164754867554,
          0.3188316226005554,
          -0.09536112844944,
          -0.3787417709827423,
          0.21849453449249268,
          0.12106891721487045
        ],
        [
          0.29986798763275146,
          0.23043227195739746,
          0.11350946873426437,
          0.33038759231567383,
          0.1856144517660141,
          -0.2416653335094452,
          0.22210676968097687,
          -0.035175394266843796,
          0.22448669373989105,
          -0.3537954092025757
        ],
        [
          -0.06036696210503578,
          0.049797896295785904,
          -0.1319611668586731,
          -0.37186136841773987,
          -0.24856892228126526,
          -0.17074328660964966,
          -0.2987251877784729,
          0.09513401240110397,
          -0.12385009229183197,
          -0.21641872823238373
        ],
        [
          -0.40094679594039917,
          0.08038200438022614,
          -0.07557301223278046,
          0.12186653167009354,
          0.03928780555725098,
          0.3251810073852539,
          0.29443931579589844,
          -0.2819004952907562,
          0.09544043987989426,
          0.18081817030906677
        ],
        [
          -0.009128564968705177,
          0.26272791624069214,
          0.28896939754486084,
          -0.08371149003505707,
          0.005821438040584326,
          -0.11020471155643463,
          -0.08733531832695007,
          0.2334061563014984,
          0.12749946117401123,
          0.2134936898946762
        ],
        [
          0.31339624524116516,
          0.28214338421821594,
          0.20232371985912323,
          0.289013147354126,
          -0.1366003155708313,
          -0.23458607494831085,
          0.052967868745326996,
          0.05956260859966278,
          0.3065703809261322,
          -0.2282523363828659
        ],
        [
          0.16259443759918213,
          -0.05891283601522446,
          -0.19659380614757538,
          0.08852583914995193,
          -0.0778089165687561,
          -0.32864782214164734,
          0.09319382160902023,
          0.11423861980438232,
          0.07407035678625107,
          0.17679011821746826
        ],
        [
          0.3677840828895569,
          -0.26496556401252747,
          0.2502470910549164,
          0.17039096355438232,
          0.1431601643562317,
          0.18994131684303284,
          0.2888489365577698,
          0.21161659061908722,
          -0.09125276654958725,
          0.010800101794302464
        ],
        [
          0.06536345183849335,
          0.10656393319368362,
          -0.198285311460495,
          -0.10684763640165329,
          -0.16393090784549713,
          0.08005549758672714,
          0.21331049501895905,
          -0.07337243109941483,
          -0.15709462761878967,
          0.25279542803764343
        ],
        [
          0.21394014358520508,
          0.13072726130485535,
          0.29150399565696716,
          0.007549786474555731,
          0.03526967391371727,
          -0.26152098178863525,
          0.00015254615573212504,
          -0.23094542324543,
          -0.009258031845092773,
          0.05033056065440178
        ],
        [
          -0.24310298264026642,
          -0.0829315111041069,
          0.16610445082187653,
          0.0035408646799623966,
          -0.23763614892959595,
          -0.06447279453277588,
          -0.01774025335907936,
          -0.004588291980326176,
          0.25520607829093933,
          0.27719971537590027
        ],
        [
          0.001170545700006187,
          -0.0950414165854454,
          0.2472311109304428,
          0.3338339924812317,
          -0.02743951603770256,
          0.009217953309416771,
          -0.18390221893787384,
          0.1796356737613678,
          -0.27539128065109253,
          -0.1819026917219162
        ],
        [
          -0.06138141453266144,
          0.0904582291841507,
          0.05847856402397156,
          -0.15945862233638763,
          -0.19401316344738007,
          0.21119427680969238,
          -0.19411331415176392,
          0.039039768278598785,
          0.04355408251285553,
          -0.2858595848083496
        ],
        [
          -0.03905712440609932,
          0.18541228771209717,
          -0.1452184021472931,
          0.23975291848182678,
          -0.1434435248374939,
          -0.04434097930788994,
          -0.21942928433418274,
          0.1337878257036209,
          0.1835596114397049,
          -0.3050471842288971
        ],
        [
          -0.16942480206489563,
          -0.30260828137397766,
          0.11637779325246811,
          0.065971240401268,
          -0.05621575936675072,
          -0.06735225021839142,
          -0.14845961332321167,
          0.3325314521789551,
          -0.213492751121521,
          -0.0609927661716938
        ],
        [
          -0.08924640715122223,
          0.04484125226736069,
          0.02666250802576542,
          0.19011935591697693,
          0.2829557955265045,
          0.1270081251859665,
          0.10424116253852844,
          -0.22069481015205383,
          -0.02962072566151619,
          -0.16633881628513336
        ],
        [
          0.3090786039829254,
          0.20902924239635468,
          -0.09334975481033325,
          -0.04658159241080284,
          -0.10594489425420761,
          0.10858599096536636,
          -0.30576130747795105,
          0.08516895771026611,
          -0.10859035700559616,
          0.040784768760204315
        ],
        [
          0.25733280181884766,
          0.16515366733074188,
          0.13785633444786072,
          -0.25813454389572144,
          0.04637749120593071,
          -0.24820514023303986,
          -0.31695330142974854,
          0.05696633458137512,
          0.15515562891960144,
          -0.30776411294937134
        ],
        [
          -0.039983153343200684,
          -0.14408738911151886,
          -0.22245685756206512,
          0.11679575592279434,
          0.25464969873428345,
          0.06730523705482483,
          -0.07000806927680969,
          0.025140199810266495,
          0.2665025591850281,
          -0.18759986758232117
        ],
        [
          0.117470383644104,
          0.11160369217395782,
          -0.17466650903224945,
          -0.1881178468465805,
          0.024270037189126015,
          -0.24021749198436737,
          -0.07862794399261475,
          -0.2238842248916626,
          -0.13265524804592133,
          0.1964748054742813
        ],
        [
          -0.1499648541212082,
          -0.14879727363586426,
          -0.1659025400876999,
          0.0195038840174675,
          -0.1759757548570633,
          -0.17895354330539703,
          0.1351546049118042,
          -0.014047550037503242,
          -0.04956505075097084,
          0.20607440173625946
        ],
        [
          0.04149496555328369,
          0.34264838695526123,
          0.22373472154140472,
          0.004285305272787809,
          0.19326379895210266,
          0.2992766201496124,
          -0.3468913435935974,
          -0.019539952278137207,
          -0.1676560342311859,
          0.007374212611466646
        ],
        [
          -0.05425088107585907,
          0.17878927290439606,
          -0.022225424647331238,
          -0.014816570095717907,
          -0.09903635084629059,
          0.40530821681022644,
          0.20808608829975128,
          -0.0535319484770298,
          -0.33852121233940125,
          -0.38443824648857117
        ],
        [
          -0.31993618607521057,
          -0.17742979526519775,
          0.04082342982292175,
          0.02293599210679531,
          -0.10383456945419312,
          -0.15611553192138672,
          0.2157333344221115,
          -0.17189989984035492,
          -0.1978539079427719,
          0.33730602264404297
        ],
        [
          -0.052945222705602646,
          -0.1312519609928131,
          0.2019912451505661,
          -0.1049695834517479,
          -0.2802985906600952,
          -0.2757899761199951,
          0.14073888957500458,
          0.28624066710472107,
          -0.13578546047210693,
          -0.05644746124744415
        ],
        [
          -0.3680981397628784,
          -0.04134725406765938,
          -0.15164631605148315,
          -0.12014755606651306,
          0.26137909293174744,
          -0.04102334752678871,
          -0.43378251791000366,
          -0.4231027066707611,
          0.10031472146511078,
          0.17005157470703125
        ],
        [
          0.16262874007225037,
          -0.09753745049238205,
          -0.041344139724969864,
          0.22496375441551208,
          -0.19420230388641357,
          0.20718123018741608,
          -0.12440703809261322,
          0.3565221130847931,
          0.27359694242477417,
          0.015266381204128265
        ],
        [
          0.2363811582326889,
          0.24736051261425018,
          0.3039975166320801,
          0.0465194471180439,
          0.08695268630981445,
          0.1519131064414978,
          -0.3143089711666107,
          -0.38395974040031433,
          0.030219661071896553,
          -0.11491338163614273
        ],
        [
          0.22083662450313568,
          -0.021757762879133224,
          -0.010464665479958057,
          -0.20443707704544067,
          -0.26320919394493103,
          -0.15400627255439758,
          0.1697831004858017,
          -0.34282955527305603,
          -0.2312880903482437,
          0.24783456325531006
        ],
        [
          0.1822812259197235,
          -0.03658035770058632,
          -0.25623175501823425,
          -0.008909978903830051,
          -0.037544135004282,
          -0.09254936128854752,
          0.18111209571361542,
          -0.30908331274986267,
          -0.15332479774951935,
          -0.36804407835006714
        ],
        [
          -0.04006065055727959,
          0.19143931567668915,
          0.048078641295433044,
          -0.11166346818208694,
          -0.22181276977062225,
          -0.06462133675813675,
          0.11695865541696548,
          -0.12515540421009064,
          0.3614552617073059,
          0.36359137296676636
        ],
        [
          0.30526456236839294,
          -0.2734747529029846,
          -0.1523829698562622,
          0.1700616031885147,
          0.2520931661128998,
          0.2543604373931885,
          0.017476005479693413,
          0.44448089599609375,
          -0.1433688849210739,
          0.042464129626750946
        ]
      ],
      "bias": null
    },
    {
      "name": "fc2",
      "type": "linear",
      "in_features": 64,
      "out_features": 32,
      "weights": [
        [
          -0.12313734740018845,
          0.05398828536272049,
          -0.010717011988162994,
          0.037722814828157425,
          -0.09716607630252838,
          0.07605518400669098,
          -0.02836756408214569,
          0.16708406805992126,
          0.06967265158891678,
          0.0759635716676712,
          0.04332394897937775,
          0.21404455602169037,
          -0.022383494302630424,
          0.04908081889152527,
          -0.012920386157929897,
          0.08092306554317474,
          -0.16448985040187836,
          0.10599721223115921,
          -0.06852373480796814,
          0.18771089613437653,
          0.132263645529747,
          -0.002812015125527978,
          -0.026411211118102074,
          -0.17569828033447266,
          0.12981769442558289,
          0.19118307530879974,
          0.19857272505760193,
          0.006090009585022926,
          -0.07790656387805939,
          0.13118235766887665,
          -0.028289757668972015,
          -0.1515938937664032,
          0.022790452465415,
          0.23752066493034363,
          0.056397609412670135,
          0.028230998665094376,
          -0.1414196491241455,
          0.039686452597379684,
          0.04145307093858719,
          0.06596499681472778,
          -0.02680332027375698,
          -0.11804021894931793,
          -0.041240252554416656,
          0.13520969450473785,
          -0.04945826902985573,
          0.0234411358833313,
          0.13572698831558228,
          0.1293937712907791,
          0.09952038526535034,
          -0.013255304656922817,
          0.1114424467086792,
          -0.03647051751613617,
          0.07173944264650345,
          0.007102771196514368,
          0.09228318929672241,
          -0.11930085718631744,
          0.13373620808124542,
          -0.10186288505792618,
          -0.08556663244962692,
          0.059803374111652374,
          -0.12946093082427979,
          0.07536238431930542,
          -0.07580169290304184,
          -0.0034832318779081106
        ],
        [
          -0.03468073159456253,
          -0.048468075692653656,
          0.10974990576505661,
          0.17276006937026978,
          -0.039060112088918686,
          0.11229650676250458,
          0.027850180864334106,
          -0.06325516104698181,
          0.21721729636192322,
          0.18026317656040192,
          -0.04801862686872482,
          0.24199675023555756,
          0.09772047400474548,
          0.08413521945476532,
          -0.047036994248628616,
          0.18714413046836853,
          -0.008552133105695248,
          0.13388782739639282,
          -0.041982751339673996,
          -0.10018055140972137,
          -0.13314855098724365,
          -0.030082376673817635,
          0.1427723914384842,
          -0.00787938479334116,
          0.1736367642879486,
          -0.1941242516040802,
          0.008721834979951382,
          0.128642737865448,
          -0.07166600972414017,
          -0.04962296038866043,
          -0.00305453734472394,
          -0.054258882999420166,
          -0.054487522691488266,
          0.09127876907587051,
          -0.030013881623744965,
          0.05507523566484451,
          -0.12233924865722656,
          0.02484023943543434,
          -0.013378677889704704,
          0.06617524474859238,
          -0.018969718366861343,
          -0.1431664079427719,
          0.09833391010761261,
          0.133426696062088,
          -0.05952555313706398,
          0.014765609055757523,
          0.1151520162820816,
          -0.0626869648694992,
          0.0859881117939949,
          -0.00031924527138471603,
          0.09481074661016464,
          0.12932690978050232,
          0.1525544673204422,
          -0.01495602447539568,
          -0.15002119541168213,
          -0.023786164820194244,
          0.10653997212648392,
          -0.03714386746287346,
          -0.01551010925322771,
          -0.20365868508815765,
          0.16775396466255188,
          0.05650400370359421,
          0.010506702587008476,
          0.008564379997551441
        ],
        [
          -0.06131216138601303,
          0.05820437893271446,
          -0.02671400085091591,
          0.03384917601943016,
          -0.09956500679254532,
          -0.21184001863002777,
          -0.0458562970161438,
          0.03435061126947403,
          -0.11044994741678238,
          0.14985543489456177,
          -0.06567147374153137,
          0.003821001620963216,
          -0.012149189598858356,
          0.04244916886091232,
          -0.03561636060476303,
          -0.08872026205062866,
          0.0390438511967659,
          0.10566852986812592,
          0.011525877751410007,
          0.0852150171995163,
          0.0084462845697999,
          -0.18133677542209625,
          -0.10890764743089676,
          -0.08091868460178375,
          0.020619327202439308,
          0.1274283230304718,
          -0.17548561096191406,
          0.2654955983161926,
          -0.05261752009391785,
          0.21894332766532898,
          0.03609510511159897,
          0.06550366431474686,
          0.045543693006038666,
          0.04875227436423302,
          -0.10848068445920944,
          0.09427342563867569,
          0.06876852363348007,
          -0.05420283228158951,
          -0.14734598994255066,
          -0.18515856564044952,
          -0.02628818340599537,
          -0.00842500664293766,
          -0.08996748924255371,
          0.0313265398144722,
          0.015529812313616276,
          0.15622945129871368,
          0.021794086322188377,
          0.22144673764705658,
          0.10097052901983261,
          -0.001528627471998334,
          -0.018789464607834816,
          -0.09348076581954956,
          -0.10008803755044937,
          0.05476263538002968,
          0.1317024827003479,
          0.010963007807731628,
          -0.039185717701911926,
          0.12746548652648926,
          -0.1594589650630951,
          0.12761515378952026,
          -0.12518376111984253,
          -0.04552336037158966,
          0.011925891973078251,
          0.06285618990659714
        ],
        [
          0.13409171998500824,
          0.06544838100671768,
          -0.04776012897491455,
          0.20406293869018555,
          -0.09042459726333618,
          0.09411466121673584,
          0.09655188024044037,
          0.037562426179647446,
          0.05761700123548508,
          0.11439778655767441,
          0.18577954173088074,
          0.03746293485164642,
          0.15141355991363525,
          0.06412877887487411,
          0.11410802602767944,
          0.14739187061786652,
          0.090004101395607,
          0.0054159644059836864,
          -0.0575949065387249,
          0.10724844038486481,
          -0.003998637665063143,
          0.07421410828828812,
          0.13584066927433014,
          0.12302064895629883,
          0.17376627027988434,
          -0.05620900169014931,
          0.16757091879844666,
          -0.009844350628554821,
          -0.04324019327759743,
          0.022697776556015015,
          0.17005187273025513,
          0.16336825489997864,
          0.01778656430542469,
          0.08167725801467896,
          -0.030252330005168915,
          0.13535399734973907,
          0.0011598696000874043,
          0.03537760674953461,
          0.09704490005970001,
          0.04998316988348961,
          -0.026208190247416496,
          -0.08183695375919342,
          0.10426875203847885,
          0.0008954762015491724,
          -0.09698615968227386,
          -0.03345689922571182,
          -0.0217388067394495,
          0.10190079361200333,
          0.13144822418689728,
          0.008357176557183266,
          0.12156754732131958,
          0.10216829925775528,
          0.08088549971580505,
          0.046354688704013824,
          -0.159309521317482,
          0.04627033323049545,
          -0.09053346514701843,
          0.0016857301816344261,
          0.1653580367565155,
          0.0190727636218071,
          -0.016625942662358284,
          0.06390119343996048,
          0.157213494181633,
          -0.07127724587917328
        ],
        [
          0.09626772999763489,
          -0.06995130330324173,
          -0.047765716910362244,
          0.14750416576862335,
          -0.04787682741880417,
          0.08872523158788681,
          0.06242065876722336,
          0.0475139319896698,
          0.22258566319942474,
          0.16112402081489563,
          0.09770229458808899,
          0.07384901493787766,
          0.05206805095076561,
          0.07206367701292038,
          0.06244286522269249,
          -0.014013812877237797,
          -0.10328247398138046,
          -0.060584500432014465,
          0.04077354073524475,
          -0.11865144968032837,
          -0.13176311552524567,
          0.12198591232299805,
          0.13084204494953156,
          -0.07009903341531754,
          0.14656676352024078,
          -0.2002132087945938,
          0.1932564526796341,
          0.02824546955525875,
          -0.0038640634156763554,
          0.0019520092755556107,
          -0.017672868445515633,
          -0.010540409944951534,
          -0.09986422955989838,
          0.21502685546875,
          -0.13958871364593506,
          0.1236046627163887,
          -0.04002915695309639,
          0.034262947738170624,
          0.16078469157218933,
          0.17617680132389069,
          0.04672028124332428,
          -0.041688527911901474,
          -0.05061103403568268,
          0.002331505063921213,
          -0.12200647592544556,
          0.0006693092291243374,
          -0.03295009210705757,
          -0.18215714395046234,
          -0.073122039437294,
          -0.06443846225738525,
          0.11390877515077591,
          0.13943661749362946,
          0.15711021423339844,
          -0.07038194686174393,
          -0.213275745511055,
          -0.008415669202804565,
          0.10360407084226608,
          0.04815804585814476,
          0.0439143143594265,
          0.03897438570857048,
          0.1025007888674736,
          0.11146154254674911,
          -0.1006297618150711,
          0.07149291038513184
        ],
        [
          -0.05961145833134651,
          0.23521196842193604,
          -0.06938054412603378,
          0.06987398117780685,
          -0.1618831306695938,
          0.142030730843544,
          -0.16334286332130432,
          -0.03802698478102684,
          0.14553479850292206,
          -0.03335657715797424,
          0.07622571289539337,
          -0.15871401131153107,
          0.15827596187591553,
          -0.008114613592624664,
          0.03006226010620594,
          0.1354573518037796,
          -0.010816004127264023,
          0.04491085931658745,
          0.06560635566711426,
          0.08181340992450714,
          0.1939026415348053,
          0.05546202138066292,
          -0.023001383990049362,
          0.1309664398431778,
          0.07819902151823044,
          0.004855142906308174,
          -0.20680896937847137,
          0.12173754721879959,
          0.007226720917969942,
          0.06751923263072968,
          0.10260602086782455,
          -0.05112701654434204,
          0.03254186362028122,
          0.006535997614264488,
          0.1397363692522049,
          0.13769710063934326,
          0.05269402638077736,
          0.19106005132198334,
          -0.055248115211725235,
          -0.2238195389509201,
          0.20377935469150543,
          0.21649475395679474,
          0.041624799370765686,
          0.05855223536491394,
          0.022066280245780945,
          0.03676309436559677,
          0.01539459265768528,
          0.13321374356746674,
          0.00706371758133173,
          0.0958622395992279,
          0.0007638762472197413,
          0.10358107089996338,
          0.06005774810910225,
          0.22786375880241394,
          0.03596657142043114,
          0.1909099966287613,
          -0.22118178009986877,
          0.0041702850721776485,
          -0.048039402812719345,
          0.04782693460583687,
          0.1275143176317215,
          0.11580564081668854,
          0.15584519505500793,
          -0.17633183300495148
        ],
        [
          0.14598630368709564,
          0.014200469478964806,
          -0.0241832435131073,
          0.08134231716394424,
          -0.03164127841591835,
          0.038437265902757645,
          -0.21517787873744965,
          -0.13112473487854004,
          -0.013419398106634617,
          0.029925253242254257,
          0.24537593126296997,
          -0.14326243102550507,
          -0.10588037222623825,
          0.0014262640615925193,
          -0.17728351056575775,
          0.04307890683412552,
          0.04354417696595192,
          0.009114595130085945,
          0.09886915236711502,
          0.11051278561353683,
          0.021214129403233528,
          -0.018711335957050323,
          -0.015428250655531883,
          0.11222540587186813,
          -0.22760379314422607,
          0.04815201461315155,
          -0.16388005018234253,
          -0.10691581666469574,
          0.06520503014326096,
          -0.2559012770652771,
          0.028861166909337044,
          0.15628699958324432,
          0.08552867919206619,
          -0.13362284004688263,
          0.03818130865693092,
          0.10943081974983215,
          0.089453786611557,
          0.11119744181632996,
          0.026613842695951462,
          0.014696662314236164,
          0.04409259185194969,
          0.05064484849572182,
          0.01671936921775341,
          -0.12673094868659973,
          0.1292351335287094,
          0.07954249531030655,
          -0.01643119379878044,
          -0.12396898120641708,
          0.14383235573768616,
          0.005310084670782089,
          -0.2016914039850235,
          -0.007303624879568815,
          -0.16557689011096954,
          0.121732696890831,
          -0.008238070644438267,
          -0.08413198590278625,
          -0.034358296543359756,
          -0.09934425354003906,
          -0.005651972722262144,
          0.13596762716770172,
          0.06434160470962524,
          -0.20256024599075317,
          0.1383703202009201,
          -0.019101714715361595
        ],
        [
          0.031125392764806747,
          -0.06384515017271042,
          -0.005282294936478138,
          0.021978013217449188,
          -0.07572364807128906,
          0.01642928645014763,
          0.05316295102238655,
          -0.03910788148641586,
          0.10558249056339264,
          0.0018446036847308278,
          0.027424342930316925,
          -0.12325970083475113,
          0.07566174119710922,
          0.11039477586746216,
          -0.011557864025235176,
          0.09030362963676453,
          0.05564708262681961,
          0.09218910336494446,
          -0.03458339348435402,
          -0.052057020366191864,
          0.054063763469457626,
          0.17247585952281952,
          0.11777862161397934,
          -0.0412578247487545,
          0.040658626705408096,
          -0.017441703006625175,
          0.011384822428226471,
          -0.01841089129447937,
          -0.1192048192024231,
          0.0909159928560257,
          0.09877093136310577,
          -0.010527372360229492,
          0.0011127876350656152,
          0.015152642503380775,
          0.03948378935456276,
          0.1915048360824585,
          -0.23438310623168945,
          -0.19429974257946014,
          0.06658615171909332,
          -0.08695470541715622,
          0.05744122713804245,
          -0.17539680004119873,
          -0.0010964698158204556,
          -0.06042422354221344,
          0.0040273224003612995,
          -0.11475091427564621,
          -0.18402239680290222,
          -0.09823139011859894,
          -0.012044736184179783,
          -0.08104776591062546,
          -0.026181073859333992,
          0.11397536844015121,
          -0.008137774653732777,
          -0.026101859286427498,
          -0.04461301490664482,
          0.09362130612134933,
          -0.000653357245028019,
          0.08040212839841843,
          -0.036702342331409454,
          -0.1442945897579193,
          0.18413245677947998,
          0.044715795665979385,
          0.006137056276202202,
          0.06440198421478271
        ],
        [
          -0.021275319159030914,
          0.0756261795759201,
          0.10678230971097946,
          0.04998812451958656,
          0.02193068340420723,
          -0.15103237330913544,
          -0.07084987312555313,
          0.07180674374103546,
          -0.14980411529541016,
          0.06643322110176086,
          -0.046862442046403885,
          -0.14729321002960205,
          -0.04253290966153145,
          0.01007214467972517,
          -0.03733808919787407,
          -0.04908185079693794,
          0.10288646817207336,
          -0.013877635821700096,
          0.08779890835285187,
          0.17564454674720764,
          0.05587279796600342,
          -0.07133609056472778,
          -0.15726758539676666,
          0.08736982196569443,
          0.10354102402925491,
          0.18072743713855743,
          -0.20158761739730835,
          0.0008781063370406628,
          0.07403828203678131,
          0.06640010327100754,
          -0.10096170008182526,
          0.17003217339515686,
          0.061240144073963165,
          -0.037242911756038666,
          0.0010569567093625665,
          -0.08936766535043716,
          0.058791764080524445,
          0.0619867779314518,
          -0.05836847424507141,
          0.0989626869559288,
          0.048844631761312485,
          -0.020334716886281967,
          0.08867776393890381,
          -0.029811060056090355,
          0.0679832175374031,
          0.09226404875516891,
          0.020259693264961243,
          0.11097683757543564,
          0.10459602624177933,
          -0.046079378575086594,
          0.1089589074254036,
          0.008043506182730198,
          -0.07035571336746216,
          0.08324439078569412,
          0.08442388474941254,
          -0.18907997012138367,
          0.05673105642199516,
          0.0057206349447369576,
          0.03419198840856552,
          0.1385207623243332,
          -0.13840430974960327,
          0.15764829516410828,
          0.13248716294765472,
          0.15012578666210175
        ],
        [
          0.05003096163272858,
          0.10350324213504791,
          -0.01950221322476864,
          0.08445896208286285,
          -0.13477256894111633,
          -0.12918780744075775,
          -0.09807689487934113,
          -0.07765493541955948,
          -0.149097740650177,
          0.0843023732304573,
          -0.031078632920980453,
          -0.07192818820476532,
          -0.0810512900352478,
          0.15915270149707794,
          -0.02536774054169655,
          -0.03373667225241661,
          -0.03248760476708412,
          0.11434917151927948,
          0.09844014793634415,
          0.1518097072839737,
          0.05721472203731537,
          -0.12644989788532257,
          -0.1467849463224411,
          0.005997050553560257,
          0.1355995535850525,
          0.08004451543092728,
          -0.08619114756584167,
          0.05633360892534256,
          0.14080771803855896,
          0.005061660893261433,
          0.05885077640414238,
          -0.03733896464109421,
          0.12481484562158585,
          0.06362322717905045,
          0.09201162308454514,
          -0.0663801059126854,
          0.14576664566993713,
          0.11829906702041626,
          -0.006343597546219826,
          -0.14633002877235413,
          0.014892557635903358,
          -0.013536247424781322,
          -0.07236935943365097,
          0.05503682419657707,
          0.11827909201383591,
          0.07364758849143982,
          -0.03060254268348217,
          0.24611574411392212,
          0.010962267406284809,
          0.04761575907468796,
          0.059544213116168976,
          -0.024308988824486732,
          -0.16803593933582306,
          0.03385007753968239,
          0.0022961122449487448,
          0.05551663786172867,
          -0.094850555062294,
          0.11858851462602615,
          -0.12785090506076813,
          0.19841685891151428,
          -0.09610098600387573,
          -0.02866542525589466,
          0.09657847136259079,
          -0.07827339321374893
        ],
        [
          0.07552778720855713,
          0.06406567990779877,
          -0.08803055435419083,
          0.05281131714582443,
          -0.07517162710428238,
          -0.01239963062107563,
          0.02380545809864998,
          -0.12498034536838531,
          -0.02806687168776989,
          0.18215911090373993,
          -0.0042557320557534695,
          -0.08930614590644836,
          0.023938369005918503,
          0.1700935959815979,
          0.042700428515672684,
          0.013797121122479439,
          0.21099808812141418,
          0.17253705859184265,
          0.16640113294124603,
          0.1329796463251114,
          0.09188642352819443,
          -0.017934463918209076,
          0.0514683723449707,
          0.11949694156646729,
          -0.0653274655342102,
          0.07384718209505081,
          -0.11175798624753952,
          0.0511835478246212,
          0.16576044261455536,
          0.08098376542329788,
          -0.0029602309223264456,
          0.1801580786705017,
          0.061937663704156876,
          0.03334732726216316,
          -0.06798537075519562,
          0.007338085677474737,
          -0.05439704656600952,
          0.05440470203757286,
          -0.12353938072919846,
          -0.24604634940624237,
          -0.07930193841457367,
          0.020111484453082085,
          0.08466178178787231,
          -0.07053940743207932,
          -0.04625122621655464,
          0.061631325632333755,
          0.0062417034059762955,
          -0.05734068155288696,
          0.11627910286188126,
          0.0864574983716011,
          0.0031443487387150526,
          -0.01119303796440363,
          -0.13090527057647705,
          0.09297917783260345,
          0.12241324037313461,
          -0.13354964554309845,
          -0.11572011560201645,
          0.05611583590507507,
          -0.0548170767724514,
          -0.017196642234921455,
          0.1295461654663086,
          0.06888777017593384,
          0.06394156813621521,
          -0.13960739970207214
        ],
        [
          -0.08381173759698868,
          -0.12918409705162048,
          0.19245392084121704,
          -0.048359859734773636,
          0.18745894730091095,
          -0.17100444436073303,
          0.1925516575574875,
          0.0075471713207662106,
          -0.302350789308548,
          0.01832585409283638,
          -0.018339766189455986,
          -0.25503969192504883,
          -0.11059140413999557,
          -0.12665386497974396,
          0.07671692222356796,
          -0.06950218975543976,
          0.11233874410390854,
          -0.22128809988498688,
          -0.0762493833899498,
          -0.28023862838745117,
          -0.3512544631958008,
          -0.010386060923337936,
          0.03827478736639023,
          0.07433564215898514,
          -0.07911636680364609,
          -0.17023073136806488,
          -0.31087812781333923,
          -0.22536700963974,
          0.1288500875234604,
          -0.16786162555217743,
          -0.006247579585760832,
          -0.010715335607528687,
          -0.13194604218006134,
          -0.01996971108019352,
          -0.003223876468837261,
          -0.10491309314966202,
          0.026234352961182594,
          0.05952118709683418,
          -0.2651483118534088,
          0.09272788465023041,
          -0.018602415919303894,
          0.0715641900897026,
          0.0016363669419661164,
          0.09828472882509232,
          -0.0008323153015226126,
          0.05859093368053436,
          0.1954784393310547,
          -0.050135135650634766,
          -0.024799145758152008,
          -0.00728713208809495,
          0.17322616279125214,
          -0.07258868962526321,
          -0.0034318009857088327,
          -0.34521016478538513,
          0.22407974302768707,
          -0.03035828471183777,
          0.1244676411151886,
          -0.2035977840423584,
          0.050764571875333786,
          -0.2295154333114624,
          -0.03338158130645752,
          0.0036823293194174767,
          -0.1202605590224266,
          0.2217431664466858
        ],
        [
          0.09918113052845001,
          -0.017968634143471718,
          -0.005158080719411373,
          -0.061259739100933075,
          -0.10194873809814453,
          0.03677107021212578,
          0.07057785987854004,
          -0.15325285494327545,
          0.09148211777210236,
          0.1270509958267212,
          -0.056639645248651505,
          -0.03551507741212845,
          -0.027907947078347206,
          -0.01108140405267477,
          0.1766926497220993,
          0.15954792499542236,
          0.047582630068063736,
          0.1761237382888794,
          0.03970444202423096,
          -0.14388157427310944,
          -0.15863709151744843,
          0.06532715260982513,
          0.1666894108057022,
          0.008752847090363503,
          0.16282549500465393,
          -0.0039413003250956535,
          -0.06508754938840866,
          -0.02761763334274292,
          -0.016665156930685043,
          -0.043681949377059937,
          0.021729111671447754,
          0.030230704694986343,
          0.1766485720872879,
          -0.16930219531059265,
          -0.006326805800199509,
          -0.007703674491494894,
          -0.16826149821281433,
          -0.22213226556777954,
          -0.03560439869761467,
          -0.05385508015751839,
          0.10859819501638412,
          -0.18455228209495544,
          0.14953437447547913,
          -0.14376570284366608,
          -0.12062998116016388,
          -0.1381915956735611,
          -0.0652506873011589,
          -0.14850486814975739,
          0.022077400237321854,
          -0.040774427354335785,
          0.08847600966691971,
          0.0359748937189579,
          0.009838704019784927,
          -0.20164693892002106,
          -0.15514247119426727,
          0.060351695865392685,
          0.06527583301067352,
          -0.05358821153640747,
          -0.08454088866710663,
          -0.15569432079792023,
          0.0680200606584549,
          0.029279306530952454,
          0.17345543205738068,
          -0.13466264307498932
        ],
        [
          -0.04750558361411095,
          -0.01727788709104061,
          0.128711998462677,
          -0.07308048754930496,
          0.05445629358291626,
          -0.14814358949661255,
          0.04685642570257187,
          0.09531573951244354,
          -0.007521128281950951,
          0.03761144354939461,
          0.1029895693063736,
          -0.18063470721244812,
          -0.10246070474386215,
          0.06490306556224823,
          0.1528795063495636,
          -0.06532435864210129,
          0.16846299171447754,
          -0.05197104439139366,
          0.12267137318849564,
          0.05341210216283798,
          0.1059415191411972,
          -0.0016364471521228552,
          -0.0391324982047081,
          0.1460602581501007,
          -0.021825769916176796,
          0.11178449541330338,
          -0.08736122399568558,
          0.08891946077346802,
          0.03249093145132065,
          0.024193866178393364,
          -0.02717629261314869,
          0.13584628701210022,
          0.13674719631671906,
          0.08094359934329987,
          0.024352112784981728,
          0.14902667701244354,
          0.11378665268421173,
          -0.02295895852148533,
          -0.02912592515349388,
          0.024521231651306152,
          -0.13035279512405396,
          -0.038387127220630646,
          0.1413474977016449,
          0.030850468203425407,
          0.013727998360991478,
          0.014387078583240509,
          0.12511706352233887,
          0.04802560433745384,
          0.1569981873035431,
          0.1269189566373825,
          0.12119244784116745,
          -0.08271817117929459,
          0.012473894283175468,
          0.12063650786876678,
          0.2349369078874588,
          -0.13115233182907104,
          -0.02874535694718361,
          0.0010045376839116216,
          0.16937002539634705,
          0.1889030635356903,
          0.04158365726470947,
          0.23369978368282318,
          -0.05392209067940712,
          0.01897582598030567
        ],
        [
          -0.07053817063570023,
          0.18299756944179535,
          0.14077454805374146,
          0.005150526762008667,
          0.15132315456867218,
          -0.0173663180321455,
          0.08752342313528061,
          0.2069818377494812,
          0.1150662899017334,
          -0.0677383542060852,
          0.15967774391174316,
          0.09240452200174332,
          0.01708337850868702,
          0.10649925470352173,
          0.19229571521282196,
          0.1442207396030426,
          0.0071197571232914925,
          0.13067811727523804,
          -0.033947885036468506,
          0.07942084223031998,
          0.12229032069444656,
          -0.045875970274209976,
          -0.07639537751674652,
          0.011147748678922653,
          -0.05754188075661659,
          -0.009993760846555233,
          0.1450747400522232,
          0.001423026667907834,
          0.029530273750424385,
          -0.05010346695780754,
          0.06060565263032913,
          0.01564539596438408,
          0.010888958349823952,
          0.17474062740802765,
          0.07004423439502716,
          -0.10703382641077042,
          0.10820243507623672,
          0.14183466136455536,
          -0.11284429579973221,
          0.18116521835327148,
          -0.011095069348812103,
          0.09941297769546509,
          -0.027946151793003082,
          0.08908943086862564,
          0.18008366227149963,
          0.17442873120307922,
          0.027127623558044434,
          0.18565750122070312,
          0.11512130498886108,
          0.1301136463880539,
          0.08566700667142868,
          0.04622228071093559,
          -0.1169423833489418,
          0.10886622965335846,
          0.16735845804214478,
          -0.013498282991349697,
          0.1938020884990692,
          -0.08441179245710373,
          0.085293248295784,
          0.023115770891308784,
          0.022953836247324944,
          0.05375748127698898,
          -0.12332546710968018,
          -0.020816011354327202
        ],
        [
          -0.04933726787567139,
          0.07463760673999786,
          0.11450062692165375,
          0.10283488035202026,
          -0.04286918416619301,
          0.06620698422193527,
          0.07423295080661774,
          0.0008935249643400311,
          0.18754400312900543,
          0.0927000567317009,
          -0.08287318795919418,
          0.021044418215751648,
          0.21210625767707825,
          0.09369668364524841,
          0.18174852430820465,
          -0.009501909837126732,
          -0.07593933492898941,
          0.0007529649301432073,
          0.0014383979141712189,
          0.13024157285690308,
          -0.026182636618614197,
          0.021275220438838005,
          0.07416835427284241,
          -0.171052947640419,
          0.29799002408981323,
          0.05196258798241615,
          0.22240003943443298,
          0.2802889943122864,
          -0.15500500798225403,
          0.2658367455005646,
          0.14157134294509888,
          -0.17615008354187012,
          -0.007889828644692898,
          0.06903376430273056,
          -0.10137574374675751,
          -0.032910458743572235,
          -0.08851616829633713,
          0.14163821935653687,
          0.22965624928474426,
          0.02624359540641308,
          0.14875401556491852,
          -0.049936432391405106,
          -0.005473722703754902,
          0.20486129820346832,
          -0.12598049640655518,
          0.09827663004398346,
          -0.10176733881235123,
          0.19405624270439148,
          -0.10102849453687668,
          -0.055445317178964615,
          0.025675959885120392,
          -0.05412277206778526,
          0.09671025723218918,
          0.0956336036324501,
          -0.16770018637180328,
          0.1675657331943512,
          0.03463531658053398,
          0.13556908071041107,
          0.00047472165897488594,
          -0.08605598658323288,
          0.10166621953248978,
          0.09203998744487762,
          -0.1841413676738739,
          0.009279833175241947
        ],
        [
          0.037887055426836014,
          0.1928737610578537,
          -0.07394520193338394,
          0.17238838970661163,
          -0.11774946004152298,
          0.18866653740406036,
          -0.15391169488430023,
          0.05449221655726433,
          -0.03921441361308098,
          0.139070063829422,
          -0.08453764766454697,
          -0.07295296341180801,
          -0.02097245492041111,
          -0.012152692303061485,
          -0.06271900236606598,
          0.012881734408438206,
          0.06834191083908081,
          0.1657821536064148,
          0.07711105793714523,
          0.20162490010261536,
          0.10741015523672104,
          0.1079128161072731,
          -0.08316493779420853,
          0.07205032557249069,
          0.14905507862567902,
          -0.03368403762578964,
          -0.09489205479621887,
          -0.03965207561850548,
          0.053033724427223206,
          0.17785266041755676,
          0.14651767909526825,
          0.16255541145801544,
          0.18874125182628632,
          -0.08226751536130905,
          -0.08053384721279144,
          0.0010797944851219654,
          0.04964831471443176,
          -0.044633638113737106,
          0.07876978814601898,
          -0.1597754955291748,
          -0.011748765595257282,
          0.134036123752594,
          0.08537906408309937,
          -0.09455814957618713,
          0.05259318649768829,
          0.11222302913665771,
          0.06753985583782196,
          0.17533762753009796,
          0.001349122729152441,
          0.058206602931022644,
          0.04098447784781456,
          0.19594381749629974,
          0.11897193640470505,
          0.13607993721961975,
          0.14104747772216797,
          0.03816830739378929,
          -0.11360026895999908,
          0.20267128944396973,
          -0.038364384323358536,
          0.09593985229730606,
          -0.02805633284151554,
          0.0004680274869315326,
          0.05530596151947975,
          -0.12026617676019669
        ],
        [
          0.09969191998243332,
          -0.0186422448605299,
          0.1168043315410614,
          -0.06911579519510269,
          -0.052551280707120895,
          -0.14034464955329895,
          -0.18519237637519836,
          -0.003782345913350582,
          -0.17842665314674377,
          -0.0030592503026127815,
          0.027734871953725815,
          -0.12073150277137756,
          0.012804422527551651,
          0.15437385439872742,
          0.13836103677749634,
          0.021375296637415886,
          0.08482800424098969,
          0.080624520778656,
          0.12144914269447327,
          0.18520627915859222,
          -0.0052570318803191185,
          -0.07508400082588196,
          -0.1360624134540558,
          0.15458953380584717,
          0.135555699467659,
          0.10636689513921738,
          -0.11873681843280792,
          -0.1447729766368866,
          0.014575476758182049,
          -0.03813876584172249,
          -0.047422487288713455,
          0.0014564914163202047,
          0.054056521505117416,
          -0.06620421260595322,
          -0.054749298840761185,
          0.036118004471063614,
          0.17612847685813904,
          0.15969187021255493,
          -0.11105339974164963,
          -0.12645088136196136,
          0.0011032222537323833,
          -0.025136426091194153,
          0.02387325093150139,
          0.1460147649049759,
          0.10191241651773453,
          0.11392612755298615,
          0.13136489689350128,
          0.025464016944169998,
          -0.05397672578692436,
          0.14576727151870728,
          -0.014909443445503712,
          -0.06858155876398087,
          -0.11533813178539276,
          0.07408326864242554,
          0.13608188927173615,
          -0.20154571533203125,
          -0.028782963752746582,
          0.15596254169940948,
          0.07245562225580215,
          -0.019742870703339577,
          -0.11483067274093628,
          0.12813523411750793,
          0.14331144094467163,
          0.04545733332633972
        ],
        [
          -0.19248344004154205,
          -0.008508112281560898,
          0.035595864057540894,
          -0.3354487121105194,
          -0.15603488683700562,
          -0.16429059207439423,
          -0.3426826000213623,
          0.017884187400341034,
          -0.19356366991996765,
          0.15668383240699768,
          -0.13713566958904266,
          -0.08677756041288376,
          0.10786178708076477,
          0.18022125959396362,
          0.03638836368918419,
          -0.16381825506687164,
          -0.1101110577583313,
          0.09029818326234818,
          -0.015497294254601002,
          0.01741250604391098,
          0.1843123435974121,
          -0.08042880147695541,
          -0.03230080008506775,
          -0.0640944242477417,
          0.21138764917850494,
          0.1800866425037384,
          -0.008821549825370312,
          0.1469089835882187,
          -0.17653888463974,
          0.13762755692005157,
          -0.06020934507250786,
          -0.13164129853248596,
          0.013578034937381744,
          0.0464119017124176,
          0.03513195738196373,
          0.12675553560256958,
          -0.2686767280101776,
          0.0866803303360939,
          -0.25830814242362976,
          -0.1943170726299286,
          -0.29249313473701477,
          0.007931352593004704,
          -0.20673203468322754,
          0.16576805710792542,
          0.1279706060886383,
          0.028588928282260895,
          -0.08054172992706299,
          0.26519012451171875,
          -0.012853027321398258,
          -0.06614899635314941,
          0.10298241674900055,
          -0.238469660282135,
          -0.3010365068912506,
          0.13716945052146912,
          0.06142003834247589,
          -0.1907685101032257,
          -0.17303182184696198,
          0.02320336364209652,
          -0.11302221566438675,
          0.052835941314697266,
          -0.07392078638076782,
          0.09145716577768326,
          -0.12754620611667633,
          -0.22799812257289886
        ],
        [
          -0.025463039055466652,
          0.11686582863330841,
          0.1103488951921463,
          -0.039923276752233505,
          -0.08037357032299042,
          0.19319382309913635,
          0.06232050433754921,
          -0.052518557757139206,
          0.11979138106107712,
          0.13912731409072876,
          -0.10748652368783951,
          -0.16199436783790588,
          -0.09165896475315094,
          0.05461825430393219,
          -0.025635745376348495,
          0.03305230289697647,
          -0.020920688286423683,
          0.1832873672246933,
          0.1378760039806366,
          0.18774637579917908,
          0.09507793188095093,
          -0.010844336822628975,
          0.10064965486526489,
          0.15816938877105713,
          0.2120617777109146,
          0.016077183187007904,
          0.041287317872047424,
          -0.04039842262864113,
          0.05945271998643875,
          0.16717064380645752,
          -0.007578113581985235,
          0.034892529249191284,
          0.15530763566493988,
          0.07157716155052185,
          -0.03059273399412632,
          0.20497453212738037,
          -0.04958696290850639,
          0.028581934049725533,
          0.09253698587417603,
          -0.10975877940654755,
          0.12254951149225235,
          0.0950247049331665,
          0.19577719271183014,
          0.0790703073143959,
          0.07218210399150848,
          0.07462263852357864,
          -0.1817081719636917,
          0.03647454455494881,
          -0.07804352045059204,
          0.014309647493064404,
          -0.08240991085767746,
          0.07951448112726212,
          0.10669787973165512,
          0.013972588814795017,
          0.0034412634558975697,
          0.022110488265752792,
          0.0026410752907395363,
          0.18725842237472534,
          -0.026529714465141296,
          0.15266111493110657,
          0.0396074578166008,
          0.0613015815615654,
          0.14037199318408966,
          -0.18365603685379028
        ],
        [
          -0.008739783428609371,
          0.13202542066574097,
          0.0423918217420578,
          0.1038682758808136,
          -0.19503092765808105,
          0.05720222368836403,
          -0.04415826499462128,
          -0.06086036562919617,
          -0.013166715390980244,
          0.057551950216293335,
          -0.1233421191573143,
          0.04549698159098625,
          0.13758908212184906,
          0.0031578424386680126,
          0.007062267977744341,
          0.12438716739416122,
          -0.18950091302394867,
          0.16165541112422943,
          0.1109078899025917,
          0.07649774104356766,
          0.14314641058444977,
          -0.04714458808302879,
          0.0027676078025251627,
          -0.1789330244064331,
          0.06953811645507812,
          0.03822125121951103,
          0.02144533209502697,
          0.16896730661392212,
          -0.1978985220193863,
          0.27240338921546936,
          -0.06375386565923691,
          -0.060710690915584564,
          0.16593730449676514,
          0.06162804365158081,
          -0.026254793629050255,
          0.11507797241210938,
          -0.1616140455007553,
          -0.16842703521251678,
          0.04662582278251648,
          -0.12305495887994766,
          0.16494299471378326,
          -0.2125117927789688,
          -0.02755349688231945,
          0.030026476830244064,
          -0.05148748680949211,
          0.13256651163101196,
          -0.0847526341676712,
          0.019905511289834976,
          -0.17880713939666748,
          -0.1095312312245369,
          0.13115482032299042,
          0.1418146789073944,
          0.13797953724861145,
          0.09159234911203384,
          0.19049358367919922,
          -0.02610364742577076,
          -0.1772315800189972,
          0.17947939038276672,
          0.04270092770457268,
          -0.04047154262661934,
          0.09785543382167816,
          0.005963818170130253,
          0.018390830606222153,
          -0.13311782479286194
        ],
        [
          0.011806361377239227,
          0.10472339391708374,
          0.011809119023382664,
          0.053809717297554016,
          0.23395201563835144,
          -0.10410729050636292,
          0.2292424887418747,
          0.11261513829231262,
          0.13402146100997925,
          -0.09941992163658142,
          0.0900808572769165,
          -0.06030956655740738,
          -0.024744510650634766,
          -0.21951593458652496,
          0.013565710745751858,
          0.1191306784749031,
          -0.10792125761508942,
          -0.0802081748843193,
          -0.16313818097114563,
          0.0075807590037584305,
          -0.1215604916214943,
          0.15323273837566376,
          0.01605168543756008,
          -0.10181693732738495,
          -0.07315296679735184,
          -0.177756205201149,
          0.1665036380290985,
          0.017282195389270782,
          -0.027022041380405426,
          -0.14607316255569458,
          -0.05634455010294914,
          -0.02485300786793232,
          -0.060954269021749496,
          0.13144707679748535,
          0.009038539603352547,
          -0.1646411418914795,
          -0.006971121300011873,
          -0.00356470444239676,
          0.08123644441366196,
          0.16842864453792572,
          -0.03759538754820824,
          -0.03764107823371887,
          -0.15293441712856293,
          0.1668798178434372,
          0.16279907524585724,
          0.12170053273439407,
          0.13394609093666077,
          -0.012144810520112514,
          0.05676717311143875,
          0.0773005411028862,
          0.11014335602521896,
          0.04355484992265701,
          0.14681042730808258,
          -0.13697810471057892,
          -0.09111668914556503,
          -0.1716451495885849,
          0.12384828925132751,
          -0.03996025770902634,
          0.0660148411989212,
          0.0016614109044894576,
          0.03125765547156334,
          0.046264391392469406,
          -0.12053750455379486,
          0.03480027988553047
        ],
        [
          0.10932475328445435,
          0.003134757513180375,
          0.08340494334697723,
          0.04841037467122078,
          0.027046604081988335,
          0.00882562156766653,
          0.10671092569828033,
          -0.11589212715625763,
          0.17070765793323517,
          -0.01803247630596161,
          0.24721485376358032,
          0.10374617576599121,
          0.15397778153419495,
          0.07806333899497986,
          0.05690951272845268,
          0.04306398332118988,
          0.2041342705488205,
          0.023826593533158302,
          0.12986014783382416,
          -0.043769147247076035,
          -0.04187299683690071,
          -0.026145216077566147,
          0.14993201196193695,
          0.18504400551319122,
          -0.032440971583127975,
          -0.13334596157073975,
          0.1340717077255249,
          -0.023297838866710663,
          0.0875384584069252,
          0.0606401264667511,
          -0.012033053673803806,
          0.017752468585968018,
          0.08631661534309387,
          0.02089901641011238,
          -0.06334831565618515,
          0.07063630223274231,
          0.08786546438932419,
          0.2091207057237625,
          0.052350081503391266,
          0.17273342609405518,
          0.05006802827119827,
          0.06113099306821823,
          0.11728668957948685,
          -0.07174933701753616,
          -0.11556877940893173,
          0.014483018778264523,
          0.07873125374317169,
          -0.28412777185440063,
          0.024373702704906464,
          0.022506598383188248,
          0.08276244252920151,
          0.11318527162075043,
          0.014941425994038582,
          0.06303484737873077,
          -0.22838369011878967,
          0.010298258624970913,
          0.07239729166030884,
          0.043120719492435455,
          0.016888881102204323,
          0.05287346616387367,
          -0.02187328226864338,
          0.012366747483611107,
          0.1622626632452011,
          -0.002800468821078539
        ],
        [
          0.12449157238006592,
          0.09053657203912735,
          -0.041968222707509995,
          0.0726286917924881,
          -0.034710004925727844,
          0.17501331865787506,
          0.009794780053198338,
          0.03951225057244301,
          0.2063865065574646,
          0.1145801991224289,
          0.027881242334842682,
          0.0022028088569641113,
          -0.011145307682454586,
          0.18276409804821014,
          0.07536385208368301,
          -0.015028143301606178,
          0.20566463470458984,
          0.0024087615311145782,
          -0.004357552621513605,
          0.12949584424495697,
          -0.012491409666836262,
          0.06829014420509338,
          0.1927591860294342,
          0.07163693755865097,
          0.13106082379817963,
          0.19180536270141602,
          -0.025127151980996132,
          0.09102547913789749,
          -0.02637115679681301,
          -0.04585276171565056,
          0.15369606018066406,
          0.04595886543393135,
          -0.028392890468239784,
          0.06896000355482101,
          -0.05342242866754532,
          0.027419129386544228,
          0.00800593476742506,
          0.20424692332744598,
          0.10314903408288956,
          -0.023097196593880653,
          0.13660874962806702,
          0.03561905398964882,
          0.12057618051767349,
          0.012674891389906406,
          0.1344662606716156,
          0.03959878906607628,
          -0.043039802461862564,
          0.14372768998146057,
          0.1496928334236145,
          0.10693281888961792,
          0.12820470333099365,
          0.036730796098709106,
          0.09661180526018143,
          0.08007048070430756,
          -0.10624399036169052,
          0.01226103212684393,
          0.03894089534878731,
          -0.02557563968002796,
          0.13895751535892487,
          0.11762771755456924,
          0.180352583527565,
          -0.013390361331403255,
          0.07544923573732376,
          -0.028621770441532135
        ],
        [
          0.05754128843545914,
          0.15121079981327057,
          0.03415456786751747,
          0.08047445118427277,
          0.1407967060804367,
          0.11975183337926865,
          0.16852149367332458,
          0.09843351691961288,
          0.027576887980103493,
          -0.032040033489465714,
          0.12978340685367584,
          0.12339825183153152,
          0.10725001990795135,
          0.13654746115207672,
          0.05434149131178856,
          0.041451528668403625,
          0.031814802438020706,
          -0.03953628987073898,
          -0.038526661694049835,
          -0.058006804436445236,
          0.14234966039657593,
          0.012630325742065907,
          0.08652008324861526,
          0.15911951661109924,
          0.1254967898130417,
          -0.07072993367910385,
          0.14130862057209015,
          -0.03135975822806358,
          -0.04046012461185455,
          0.09515247493982315,
          0.0054342788644135,
          0.08793780952692032,
          -0.02219785563647747,
          -0.004100437741726637,
          0.1872248500585556,
          0.006810253951698542,
          0.1405777633190155,
          0.18750551342964172,
          0.009404839016497135,
          0.014892594888806343,
          0.15492670238018036,
          0.01691441982984543,
          0.03570099174976349,
          0.08699174970388412,
          0.0755547508597374,
          0.03494497016072273,
          0.08229786902666092,
          0.14582160115242004,
          0.1209496557712555,
          0.13989397883415222,
          0.23267358541488647,
          -0.011908515356481075,
          0.051532015204429626,
          0.15456168353557587,
          0.021375492215156555,
          -0.018017278984189034,
          0.04429299384355545,
          0.04076523706316948,
          0.19393759965896606,
          0.015672899782657623,
          0.19449055194854736,
          0.029638156294822693,
          0.16996906697750092,
          0.20102903246879578
        ],
        [
          0.007530761882662773,
          0.03168979659676552,
          -0.05523169785737991,
          0.023393992334604263,
          0.006396537646651268,
          0.2112596333026886,
          0.07375450432300568,
          0.05803372338414192,
          0.0480419285595417,
          0.046067118644714355,
          0.022176841273903847,
          -0.009157733991742134,
          -0.0776292234659195,
          0.11165579408407211,
          0.12267907708883286,
          0.010810739360749722,
          -0.13083451986312866,
          0.12468048930168152,
          0.012879337184131145,
          -0.08481583744287491,
          -0.025862842798233032,
          0.10361235588788986,
          0.1327829360961914,
          -0.07704292982816696,
          0.1389792561531067,
          0.10268382728099823,
          -0.07450779527425766,
          0.2065792679786682,
          -0.18139861524105072,
          0.2925925552845001,
          -0.01821136102080345,
          0.020237881690263748,
          0.075587198138237,
          0.14151999354362488,
          -0.16902947425842285,
          0.16597145795822144,
          -0.19261503219604492,
          0.06663697212934494,
          -0.08989585936069489,
          -0.030236074700951576,
          0.1752578765153885,
          -0.021556925028562546,
          -0.1291443556547165,
          -0.033918995410203934,
          -0.048213399946689606,
          0.012119578197598457,
          -0.08565595000982285,
          0.2135775089263916,
          0.022037945687770844,
          -0.11304523050785065,
          -0.06510142982006073,
          0.08900505304336548,
          0.06215665861964226,
          -0.03618412837386131,
          0.12467197328805923,
          0.1534000039100647,
          -0.0057753692381083965,
          0.10639540106058121,
          -0.057217150926589966,
          0.08073774725198746,
          0.06420855224132538,
          -0.005177694838494062,
          0.0987250804901123,
          -0.028285596519708633
        ],
        [
          0.09682509303092957,
          0.14798647165298462,
          -0.03050994500517845,
          0.017849791795015335,
          -0.1028294488787651,
          -0.05463989078998566,
          -0.10626990348100662,
          0.030403180047869682,
          -0.08447463810443878,
          -0.03332176059484482,
          0.06057940796017647,
          -0.01051589660346508,
          -0.11614768952131271,
          0.02334536984562874,
          -0.06659040600061417,
          0.12145386636257172,
          0.11401455104351044,
          -0.030153576284646988,
          0.07164514064788818,
          0.049492839723825455,
          0.03117750771343708,
          -0.04486425966024399,
          -0.11331082880496979,
          0.19390113651752472,
          -0.003099932335317135,
          -0.04953952133655548,
          0.0884825736284256,
          -0.0908610001206398,
          -0.04549288749694824,
          0.04155336692929268,
          0.02145359292626381,
          -0.007831222377717495,
          0.15047764778137207,
          0.07016374915838242,
          -0.11273932456970215,
          0.10256638377904892,
          0.13461142778396606,
          0.08198074251413345,
          -0.01424801629036665,
          0.024435201659798622,
          0.03222978860139847,
          -0.023769307881593704,
          0.09588325768709183,
          0.04473499953746796,
          0.11268637329339981,
          -0.07996771484613419,
          0.016274508088827133,
          0.06488964706659317,
          -0.04955649375915527,
          -0.010872241109609604,
          -0.09398337453603745,
          0.08169744163751602,
          0.08009077608585358,
          -0.038208141922950745,
          -0.1001826673746109,
          0.13948006927967072,
          -0.05725866183638573,
          0.1319384127855301,
          0.034520186483860016,
          0.13009017705917358,
          0.016714351251721382,
          0.03924646973609924,
          0.15609347820281982,
          -0.09654213488101959
        ],
        [
          0.11292847990989685,
          -0.01459842175245285,
          0.09004152566194534,
          -0.01575755886733532,
          -0.07776723057031631,
          -0.07221175730228424,
          -0.20003336668014526,
          0.07357069849967957,
          -0.03549901396036148,
          0.14641931653022766,
          0.014939003624022007,
          -0.12746691703796387,
          -0.010185410268604755,
          0.16923943161964417,
          -0.014516470022499561,
          -0.10245209187269211,
          0.01465100608766079,
          0.031600285321474075,
          0.00984117016196251,
          0.19020643830299377,
          -0.011990516446530819,
          -0.08400697261095047,
          -0.023699073120951653,
          0.10225079208612442,
          0.02040880359709263,
          0.10003424435853958,
          -0.11252439767122269,
          -0.00890621542930603,
          0.06133634224534035,
          0.1209973469376564,
          -0.11111493408679962,
          -0.01097471546381712,
          0.1281871199607849,
          0.08177611976861954,
          0.14596650004386902,
          -0.009110129438340664,
          0.02998824417591095,
          0.16305723786354065,
          -0.13997623324394226,
          -0.12491177022457123,
          -0.06485635787248611,
          0.11238323897123337,
          0.06307721883058548,
          0.1742667704820633,
          0.14245450496673584,
          0.1413818895816803,
          0.0691230520606041,
          -0.02171189710497856,
          0.009776218794286251,
          -0.06888718158006668,
          -0.03765879198908806,
          0.001011582207866013,
          -0.09535663574934006,
          0.09184817969799042,
          -0.009993261657655239,
          -0.05582687258720398,
          -0.08426661044359207,
          0.02414393052458763,
          -0.013109337538480759,
          0.19058077037334442,
          -0.146931454539299,
          0.10972851514816284,
          0.00436792429536581,
          0.018280992284417152
        ],
        [
          0.10910912603139877,
          -0.10302584618330002,
          0.09754800796508789,
          0.06288625299930573,
          0.03217681869864464,
          0.09872735291719437,
          0.1533348113298416,
          0.08964548259973526,
          0.14563694596290588,
          0.15256629884243011,
          0.15434925258159637,
          0.21320267021656036,
          0.10230948776006699,
          -0.09385129064321518,
          -0.015160138718783855,
          0.21708320081233978,
          -0.10511063039302826,
          0.14715342223644257,
          -0.03806913271546364,
          -0.024522781372070312,
          -0.1204264909029007,
          0.09312359988689423,
          0.16968484222888947,
          -0.041784536093473434,
          0.06795238703489304,
          -0.10948508232831955,
          0.06575720012187958,
          0.013151438906788826,
          -0.19440943002700806,
          0.05174783989787102,
          0.15487588942050934,
          -0.08683382719755173,
          -0.10058168321847916,
          0.10364751517772675,
          0.006220119073987007,
          0.08872084319591522,
          -0.20991666615009308,
          0.029877465218305588,
          0.08029899001121521,
          -0.00763171399012208,
          0.16663765907287598,
          -0.0719744935631752,
          0.06904218345880508,
          -0.044506900012493134,
          -0.17428749799728394,
          0.13229292631149292,
          -0.10866985470056534,
          -0.10879477858543396,
          -0.04828793928027153,
          0.02285173162817955,
          -0.004022783599793911,
          0.13850708305835724,
          0.07377143949270248,
          -0.05743949115276337,
          -0.14266881346702576,
          0.127140611410141,
          0.060626499354839325,
          -0.07666527479887009,
          0.010515514761209488,
          -0.15191097557544708,
          -0.04468532279133797,
          -0.06632591038942337,
          0.024684734642505646,
          0.028498701751232147
        ],
        [
          0.03717881441116333,
          -0.09567095339298248,
          0.17231902480125427,
          -0.06784683465957642,
          0.0779811292886734,
          0.03138099983334541,
          0.21256206929683685,
          0.07234609127044678,
          0.05419271066784859,
          -0.0283218901604414,
          0.1714949756860733,
          -0.002768145641312003,
          0.11351561546325684,
          -0.16202250123023987,
          0.09826324880123138,
          0.052087873220443726,
          -0.10147831588983536,
          -0.059545475989580154,
          -0.05401921644806862,
          -0.07400096952915192,
          -0.20280344784259796,
          0.1236344501376152,
          -0.04798932373523712,
          -0.002839271444827318,
          -0.1816467046737671,
          -0.19058258831501007,
          0.052980829030275345,
          -0.014562811702489853,
          0.01824379339814186,
          -0.04258796200156212,
          0.003544742474332452,
          0.12691113352775574,
          -0.16756902635097504,
          -0.0248362198472023,
          0.11572809517383575,
          -0.15338647365570068,
          0.1430307924747467,
          0.05499442294239998,
          -0.03546140715479851,
          0.07257207483053207,
          -0.05323544517159462,
          -0.01955283060669899,
          0.05029157176613808,
          0.18728531897068024,
          0.21719543635845184,
          0.08140729367733002,
          0.2475704401731491,
          0.02157152071595192,
          0.025412485003471375,
          -0.010112837888300419,
          0.17018096148967743,
          0.028027966618537903,
          -0.03771991655230522,
          -0.11249331384897232,
          0.06619569659233093,
          -0.06777932494878769,
          0.11283791065216064,
          -0.22878989577293396,
          -0.0453437902033329,
          -0.24792234599590302,
          -0.061855122447013855,
          0.1264989674091339,
          0.07956713438034058,
          0.182365283370018
        ],
        [
          0.010521248914301395,
          0.1962040811777115,
          0.06569588929414749,
          0.08303315937519073,
          0.12214069813489914,
          -0.07152140140533447,
          0.09500464797019958,
          0.23919443786144257,
          0.09121489524841309,
          0.09331750869750977,
          0.08923421055078506,
          0.009975817985832691,
          -0.10316188633441925,
          0.07682843506336212,
          0.08413765579462051,
          0.14158204197883606,
          0.06731181591749191,
          0.009294617921113968,
          -0.09955453872680664,
          0.10822969675064087,
          0.023865733295679092,
          0.03283325955271721,
          0.09192708134651184,
          0.13597916066646576,
          -0.016854213550686836,
          -0.0195847749710083,
          0.09610127657651901,
          -0.0691646859049797,
          -0.06475337594747543,
          -0.05131368711590767,
          0.04788459837436676,
          -0.01596280373632908,
          -0.0833078995347023,
          0.05780666694045067,
          -0.005132293328642845,
          -0.15193021297454834,
          0.00021948649373371154,
          0.17673276364803314,
          0.12021277099847794,
          -0.025050703436136246,
          -0.13309015333652496,
          0.01589147560298443,
          0.008288323879241943,
          0.21692006289958954,
          0.08135854452848434,
          0.19258539378643036,
          0.04229849576950073,
          -0.05294495448470116,
          0.11172476410865784,
          0.2180761843919754,
          0.1296246200799942,
          -0.05055463686585426,
          -0.1291307657957077,
          0.12748989462852478,
          -0.05845974013209343,
          -0.11807723343372345,
          0.0942559763789177,
          -0.023819688707590103,
          0.024429213255643845,
          0.020253391936421394,
          -0.1394113004207611,
          0.1578381359577179,
          0.0669851303100586,
          0.06119512766599655
        ],
        [
          0.07970544695854187,
          0.08250503987073898,
          0.14296656847000122,
          0.13287857174873352,
          0.09024149924516678,
          -0.20459160208702087,
          0.040772486478090286,
          0.10106981545686722,
          0.061508916318416595,
          0.0581735260784626,
          0.12753042578697205,
          0.08872155100107193,
          0.125509575009346,
          -0.09259012341499329,
          -0.05067979171872139,
          0.026170190423727036,
          0.2094113677740097,
          -0.11666487157344818,
          0.08967215567827225,
          -0.06882712990045547,
          -0.13252346217632294,
          -0.017287397757172585,
          -0.030808767303824425,
          0.17404143512248993,
          -0.07891130447387695,
          -0.046598516404628754,
          0.16090619564056396,
          -0.13339824974536896,
          0.16192497313022614,
          -0.17063526809215546,
          -0.041637152433395386,
          0.18264144659042358,
          0.055829908698797226,
          -0.08699938654899597,
          0.17728954553604126,
          -0.13735412061214447,
          0.07959835231304169,
          0.20224514603614807,
          0.0018066585762426257,
          0.2030581831932068,
          -0.23813633620738983,
          0.06349913775920868,
          0.2164100557565689,
          0.1687236726284027,
          0.1383858174085617,
          0.08041052520275116,
          0.1344178020954132,
          0.007136036176234484,
          0.025136874988675117,
          0.111012764275074,
          -0.04036722704768181,
          0.03984987735748291,
          0.033109769225120544,
          -0.15072982013225555,
          -0.0672612190246582,
          -0.0875198245048523,
          0.052687615156173706,
          -0.12164650857448578,
          0.161809042096138,
          0.01751917414367199,
          -0.08836755901575089,
          0.15127740800380707,
          0.2224312722682953,
          0.09720560163259506
        ]
      ],
      "bias": null
    },
    {
      "name": "fc3",
      "type": "linear",
      "in_features": 32,
      "out_features": 32,
      "weights": [
        [
          -0.24624553322792053,
          -0.23600651323795319,
          0.10419269651174545,
          -0.010282592847943306,
          -0.1538914144039154,
          -0.3550322949886322,
          -0.18658679723739624,
          -0.294209748506546,
          0.004127929452806711,
          -0.22643102705478668,
          -0.006715687923133373,
          -0.8319995403289795,
          -0.0957917645573616,
          -0.036912139505147934,
          -0.012893431819975376,
          -0.24894145131111145,
          -0.08367011696100235,
          -0.16817925870418549,
          -0.0932694748044014,
          -0.12168702483177185,
          -0.15157952904701233,
          -0.13243861496448517,
          -0.09746107459068298,
          0.07558853924274445,
          -0.26140326261520386,
          -0.23219004273414612,
          -0.20420615375041962,
          -0.0403774231672287,
          -0.12543727457523346,
          -0.35308393836021423,
          -0.21505388617515564,
          -0.198082834482193
        ],
        [
          0.16658812761306763,
          0.24411669373512268,
          -0.22221428155899048,
          0.16710439324378967,
          0.1381843090057373,
          -0.11873206496238708,
          -0.2923285961151123,
          0.29157522320747375,
          -0.13986214995384216,
          -0.04752790927886963,
          -0.17647506296634674,
          -0.6494103074073792,
          0.10035915672779083,
          -0.15172052383422852,
          -6.110007234383374e-05,
          0.2821027636528015,
          0.012813313864171505,
          -0.26592475175857544,
          -0.03989358991384506,
          0.18337984383106232,
          -0.0072798156179487705,
          0.2548152208328247,
          0.1823730766773224,
          0.1273120641708374,
          0.22998322546482086,
          0.19540852308273315,
          0.022926868870854378,
          -0.27617135643959045,
          0.28350913524627686,
          -0.032545167952775955,
          0.046344999223947525,
          -6.33948584436439e-05
        ],
        [
          -0.11773813515901566,
          0.1862480491399765,
          -0.12142658978700638,
          0.007735490333288908,
          0.11278755962848663,
          0.44541653990745544,
          0.057143162935972214,
          0.0733594223856926,
          -0.32432058453559875,
          -0.15420958399772644,
          0.08426668494939804,
          -1.5900096893310547,
          0.23961307108402252,
          -0.1265961229801178,
          -0.0035432397853583097,
          0.20615673065185547,
          0.1728200763463974,
          -0.19679878652095795,
          -0.6365553736686707,
          0.015465443953871727,
          0.031901903450489044,
          -0.08595255017280579,
          0.13641826808452606,
          0.14823998510837555,
          -0.14220823347568512,
          0.24844537675380707,
          0.0824306532740593,
          -0.27707889676094055,
          0.08108910173177719,
          -0.15910466015338898,
          -0.22120080888271332,
          -0.21447746455669403
        ],
        [
          0.09299234300851822,
          -0.30013930797576904,
          0.17741812765598297,
          -0.17854659259319305,
          -0.10806884616613388,
          0.2388475388288498,
          0.13504338264465332,
          -0.0005205649649724364,
          0.28022313117980957,
          0.2191440463066101,
          0.1184535101056099,
          0.9045948386192322,
          -0.1725587397813797,
          0.24484990537166595,
          0.053923796862363815,
          -0.15410694479942322,
          0.11169857531785965,
          0.17693668603897095,
          0.22130627930164337,
          0.16467192769050598,
          0.051474519073963165,
          0.030098427087068558,
          -0.15481670200824738,
          0.07808123528957367,
          0.08900882303714752,
          0.11414383351802826,
          0.17014893889427185,
          0.20394237339496613,
          -0.24141736328601837,
          0.21271732449531555,
          0.12762217223644257,
          -0.04350477084517479
        ],
        [
          0.07465041428804398,
          0.11746098101139069,
          0.209665447473526,
          -0.09753052145242691,
          0.10824452340602875,
          0.7995126247406006,
          -0.06128415837883949,
          0.009050080552697182,
          0.04953662306070328,
          -0.10943859070539474,
          0.22090798616409302,
          -0.9496628046035767,
          0.1710566133260727,
          0.11485409736633301,
          0.24687069654464722,
          0.24653790891170502,
          -0.020844358950853348,
          0.26172879338264465,
          0.4097065329551697,
          0.18712840974330902,
          0.2197648286819458,
          -0.025488732382655144,
          0.21981732547283173,
          0.2082757204771042,
          0.11202231794595718,
          0.15651148557662964,
          0.21374236047267914,
          0.06808426231145859,
          -0.0026944491546601057,
          -0.05837438255548477,
          0.049682073295116425,
          0.06809508055448532
        ],
        [
          -0.08501630276441574,
          0.07280152291059494,
          0.2300591617822647,
          0.3029358983039856,
          -0.10954190045595169,
          0.29543450474739075,
          0.09271429479122162,
          -0.026426006108522415,
          -0.055116791278123856,
          0.0943164974451065,
          0.02653137966990471,
          -1.5604636669158936,
          0.18445301055908203,
          0.20381395518779755,
          -0.07875709980726242,
          0.07625798881053925,
          0.3850230872631073,
          0.09833242744207382,
          0.23683924973011017,
          0.0708998441696167,
          0.09384859353303909,
          -0.12401232123374939,
          0.08254938572645187,
          0.03854158893227577,
          -0.04055824503302574,
          0.1086106076836586,
          0.10759815573692322,
          0.18735551834106445,
          0.06613198667764664,
          -0.055171187967061996,
          -0.08768845349550247,
          0.061838697642087936
        ],
        [
          -0.030592037364840508,
          -0.16508890688419342,
          -0.09497552365064621,
          -0.19342367351055145,
          -0.11633025854825974,
          0.06378494948148727,
          -0.031330179423093796,
          -0.08566851168870926,
          0.03985435143113136,
          0.03513510897755623,
          -0.10229168832302094,
          -1.874948263168335,
          -0.26577430963516235,
          0.03058842569589615,
          -0.19163234531879425,
          -0.14477327466011047,
          -0.07119530439376831,
          -0.06614502519369125,
          -0.09554912894964218,
          -0.1577070653438568,
          -0.09312382340431213,
          -0.215186208486557,
          -0.13659457862377167,
          -0.07459309697151184,
          -0.08946391940116882,
          -0.17069853842258453,
          -0.007286209147423506,
          0.048700980842113495,
          -0.025355622172355652,
          -0.09022203832864761,
          -0.009170903824269772,
          -0.32203662395477295
        ],
        [
          -0.016978003084659576,
          -0.22480078041553497,
          -0.01788380742073059,
          0.02190186269581318,
          -0.1683022826910019,
          0.25259435176849365,
          0.09762920439243317,
          -0.17071780562400818,
          0.20661623775959015,
          0.2559412121772766,
          0.11157272011041641,
          1.6890907287597656,
          -0.2582791745662689,
          0.2044348567724228,
          0.10226597636938095,
          0.008648203685879707,
          0.05331476032733917,
          0.0949784368276596,
          0.3616456985473633,
          0.1104549691081047,
          -0.01255224458873272,
          -0.16838869452476501,
          -0.06482547521591187,
          0.0430130809545517,
          0.17987121641635895,
          -0.09932307153940201,
          0.11842295527458191,
          0.1856333315372467,
          -0.10618410259485245,
          -0.31791460514068604,
          -0.10553327947854996,
          0.001289681764319539
        ],
        [
          -0.3100256323814392,
          -0.34926560521125793,
          -0.23812304437160492,
          -0.22021783888339996,
          -0.18211759626865387,
          0.17336292564868927,
          0.5754278302192688,
          0.1299201250076294,
          0.002062489977106452,
          0.09396909922361374,
          -0.08286552876234055,
          1.0992608070373535,
          0.01288487296551466,
          0.21131926774978638,
          0.24296678602695465,
          -0.18222801387310028,
          0.06609154492616653,
          0.14738701283931732,
          -0.15883901715278625,
          -0.14487190544605255,
          -0.17022760212421417,
          -0.06083415821194649,
          -0.1682606041431427,
          -0.06318024545907974,
          0.21430042386054993,
          -0.908112108707428,
          0.09306249767541885,
          0.3009299635887146,
          -0.22647537291049957,
          0.3073652684688568,
          0.2442442625761032,
          0.1892947405576706
        ],
        [
          0.12375184148550034,
          0.11237245798110962,
          -0.04365721344947815,
          0.03853900730609894,
          0.047591350972652435,
          0.2013913244009018,
          0.2208658754825592,
          0.23170360922813416,
          -0.03563811257481575,
          0.023543935269117355,
          0.20353123545646667,
          -1.5056278705596924,
          0.04719335585832596,
          -0.048465970903635025,
          -0.1700771152973175,
          -0.04639259725809097,
          0.26983678340911865,
          0.16064560413360596,
          0.11066285520792007,
          0.24978648126125336,
          -0.018956251442432404,
          -0.176770880818367,
          0.017777662724256516,
          0.20055508613586426,
          0.13662834465503693,
          0.1407533437013626,
          0.1419946402311325,
          0.08010926097631454,
          -0.005721622612327337,
          -0.15503889322280884,
          0.09151963144540787,
          -0.12145821005105972
        ],
        [
          -0.08624493330717087,
          -0.341231107711792,
          -0.04673287644982338,
          0.10265529900789261,
          -0.2931719422340393,
          -0.0900958850979805,
          0.20763014256954193,
          0.027065888047218323,
          0.22496294975280762,
          -0.065967857837677,
          0.1044420450925827,
          0.8398014307022095,
          0.117109015583992,
          0.2603856921195984,
          0.1814020425081253,
          -0.5025765895843506,
          0.16077150404453278,
          0.17072124779224396,
          -0.37009215354919434,
          -0.1049371287226677,
          -0.1400022953748703,
          0.21343861520290375,
          0.11272679269313812,
          -0.014582139439880848,
          0.11723728477954865,
          -0.319007009267807,
          0.08782216161489487,
          0.18513204157352448,
          -0.3208916187286377,
          0.20329764485359192,
          -0.02212422527372837,
          0.16472913324832916
        ],
        [
          0.1922345757484436,
          -0.024543698877096176,
          0.14738354086875916,
          0.040516410022974014,
          0.15828271210193634,
          0.09052896499633789,
          0.2777956426143646,
          -0.36687955260276794,
          0.1339418739080429,
          0.02055252529680729,
          -0.05292554944753647,
          -1.0102075338363647,
          -0.2662215828895569,
          -0.008615020662546158,
          0.03458276763558388,
          0.23827144503593445,
          0.14663128554821014,
          -0.002067713299766183,
          0.6596412658691406,
          -0.04695730656385422,
          -0.13293743133544922,
          0.21136631071567535,
          0.09785837680101395,
          0.21199053525924683,
          -0.047480273991823196,
          -0.11138160526752472,
          0.15158827602863312,
          0.11910396814346313,
          0.13747453689575195,
          -0.016255542635917664,
          0.3091749846935272,
          0.07995728403329849
        ],
        [
          0.10294634848833084,
          -0.0571153350174427,
          -0.27271783351898193,
          0.09268508851528168,
          0.010584564879536629,
          -0.0050400663167238235,
          0.12493076175451279,
          0.318998783826828,
          0.08934745192527771,
          -0.12878774106502533,
          0.0011333621805533767,
          1.0730087757110596,
          0.09678968787193298,
          0.24224244058132172,
          0.2257562279701233,
          -0.0373343788087368,
          0.07337483018636703,
          -0.12903635203838348,
          -0.7443282604217529,
          0.003919387701898813,
