{
  "benchmark_id": "P3",
  "series": "P",
  "architecture": "P3Net",
  "timesteps": 20,
  "precision": {
    "weight_bits": 4,
    "signed": true
  },
  "layers": [
    {
      "name": "fc1",
      "type": "linear",
      "in_features": 10,
      "out_features": 64,
      "weights": [
        [
          -0.21268099546432495,
          -0.29918479919433594,
          0.05979995056986809,
          -0.12993700802326202,
          0.24208012223243713,
          -0.20628982782363892,
          -0.21163225173950195,
          -0.19795888662338257,
          -0.2616734206676483,
          -0.04380492866039276
        ],
        [
          -0.2423991560935974,
          -0.016253018751740456,
          -0.07392845302820206,
          -0.09672519564628601,
          -0.1318613439798355,
          0.19537386298179626,
          -0.059369806200265884,
          -0.2526512145996094,
          0.2795170247554779,
          -0.0769539549946785
        ],
        [
          0.19267578423023224,
          -0.2863539457321167,
          0.1254139244556427,
          -0.17853792011737823,
          0.3079683482646942,
          0.17547087371349335,
          -0.14330530166625977,
          -0.0011659765150398016,
          0.12633264064788818,
          0.15976488590240479
        ],
        [
          0.2715911269187927,
          -0.22999006509780884,
          -0.24929453432559967,
          -0.0898953303694725,
          0.03204613924026489,
          -0.016221310943365097,
          -0.2316533476114273,
          0.15814241766929626,
          0.1584283411502838,
          0.2636469304561615
        ],
        [
          -0.17809851467609406,
          0.2166980504989624,
          -0.19284184277057648,
          0.13527034223079681,
          -0.3018169701099396,
          -0.14738570153713226,
          0.004986624699085951,
          0.20169423520565033,
          -0.25445398688316345,
          0.26589274406433105
        ],
        [
          0.00670371949672699,
          -0.09059853106737137,
          -0.003539501689374447,
          0.056602418422698975,
          -0.17549169063568115,
          -0.19769075512886047,
          0.0979817733168602,
          -0.2504501938819885,
          0.05275639146566391,
          -0.2532879114151001
        ],
        [
          -0.05847484618425369,
          -0.17758001387119293,
          0.21167539060115814,
          -0.10800757259130478,
          -0.18690937757492065,
          0.1334647685289383,
          0.011495071463286877,
          -0.13307857513427734,
          0.06333474069833755,
          -0.21518446505069733
        ],
        [
          0.0653647854924202,
          -0.20945602655410767,
          0.3165530562400818,
          0.03944946452975273,
          -0.27258357405662537,
          0.0009611508576199412,
          -0.11976870149374008,
          0.222667396068573,
          0.2808779180049896,
          0.052943311631679535
        ],
        [
          -0.25788864493370056,
          0.005194265395402908,
          -0.08771834522485733,
          -0.3472355008125305,
          0.1760413944721222,
          -0.2998901605606079,
          0.21081502735614777,
          -0.23796860873699188,
          -0.054327260702848434,
          -0.021227512508630753
        ],
        [
          0.057547081261873245,
          -0.2281624972820282,
          -0.26926687359809875,
          0.11850014328956604,
          0.12630333006381989,
          -0.05597614124417305,
          -0.21533048152923584,
          0.03565344214439392,
          -0.09222842752933502,
          -0.06682692468166351
        ],
        [
          -0.1091490313410759,
          0.2684970200061798,
          -0.13136743009090424,
          0.3545893430709839,
          0.02908335067331791,
          0.07496484369039536,
          0.1507820338010788,
          -0.021799566224217415,
          -0.11463260650634766,
          -0.3693670332431793
        ],
        [
          0.20757916569709778,
          -0.01969914883375168,
          -0.21127362549304962,
          -0.1502639800310135,
          -0.2539447546005249,
          -0.02731902152299881,
          -0.11682861298322678,
          -0.05985294282436371,
          0.054905083030462265,
          0.17298519611358643
        ],
        [
          -0.0015528263757005334,
          -0.1154620349407196,
          0.2447807490825653,
          0.35224610567092896,
          -0.030543727800250053,
          -0.10053674131631851,
          -0.13666783273220062,
          0.3120376467704773,
          0.18975265324115753,
          0.1690443754196167
        ],
        [
          -0.031123122200369835,
          -0.18507523834705353,
          0.31431466341018677,
          -0.35346031188964844,
          -0.2991497814655304,
          -0.004075912293046713,
          -0.0449119508266449,
          -0.0034889187663793564,
          -0.16820256412029266,
          0.13676349818706512
        ],
        [
          -0.2838878631591797,
          0.2515476942062378,
          -0.0021030346397310495,
          0.13322331011295319,
          0.17605508863925934,
          0.3162355422973633,
          0.2344386875629425,
          -0.21069803833961487,
          -0.009750856086611748,
          -0.22679491341114044
        ],
        [
          -0.33096426725387573,
          -0.28662729263305664,
          -0.09166694432497025,
          -0.28948014974594116,
          -0.11739882081747055,
          -0.2946319580078125,
          0.1573273092508316,
          0.12517739832401276,
          -0.2509385943412781,
          0.1736660897731781
        ],
        [
          0.03610233962535858,
          0.004362763371318579,
          0.010942075401544571,
          0.24114197492599487,
          0.20834042131900787,
          0.09097924083471298,
          -0.11601322889328003,
          0.18483667075634003,
          -0.3129800856113434,
          0.12809953093528748
        ],
        [
          0.14177094399929047,
          0.031587034463882446,
          -0.1819080412387848,
          -0.06086086481809616,
          0.1750643402338028,
          0.098565474152565,
          -0.21657820045948029,
          -0.10936153680086136,
          -0.32400915026664734,
          0.3445367217063904
        ],
        [
          0.33698728680610657,
          0.16584700345993042,
          -0.12167392671108246,
          0.02812802605330944,
          0.39286917448043823,
          0.2253800481557846,
          -0.13194561004638672,
          -0.04349938780069351,
          0.10069088637828827,
          0.368106871843338
        ],
        [
          0.34679368138313293,
          -0.014425700530409813,
          -0.19014008343219757,
          0.27666208148002625,
          0.01917504519224167,
          0.02260586991906166,
          -0.062415286898612976,
          0.28098130226135254,
          0.10433898121118546,
          -0.2221844345331192
        ],
        [
          -0.25676900148391724,
          -0.137623593211174,
          0.06105323135852814,
          0.20441697537899017,
          -0.07326843589544296,
          -0.3823346197605133,
          -0.18769137561321259,
          0.1598173975944519,
          -0.12955746054649353,
          -0.020584043115377426
        ],
        [
          0.1313793808221817,
          0.05005821958184242,
          0.3678746819496155,
          0.05133645609021187,
          -0.3534550666809082,
          0.06060120835900307,
          0.24521765112876892,
          -0.05518157407641411,
          -0.10773265361785889,
          -0.24337546527385712
        ],
        [
          -0.14657822251319885,
          -0.2127552330493927,
          0.13583269715309143,
          -0.13183890283107758,
          -0.20081521570682526,
          -0.16819439828395844,
          0.21362091600894928,
          0.08714484423398972,
          0.04175065830349922,
          -0.33297404646873474
        ],
        [
          0.1273680329322815,
          -0.23307085037231445,
          -0.3449808359146118,
          -0.2010120302438736,
          -0.17710237205028534,
          0.054709069430828094,
          0.27196797728538513,
          0.2752574384212494,
          -0.0228371974080801,
          0.1893124133348465
        ],
        [
          0.24312841892242432,
          0.034513283520936966,
          0.2626510560512543,
          -0.283447265625,
          -0.3006109297275543,
          -0.33177632093429565,
          -0.21645762026309967,
          -0.09465789794921875,
          0.08160434663295746,
          0.16162097454071045
        ],
        [
          -0.11623992025852203,
          -0.08376146107912064,
          0.13135115802288055,
          -0.18989166617393494,
          -0.009210416115820408,
          -0.07125430554151535,
          0.26385822892189026,
          -0.05214952677488327,
          -0.08783002197742462,
          0.029896289110183716
        ],
        [
          -0.3583057224750519,
          -0.048926662653684616,
          0.24897652864456177,
          -0.12868143618106842,
          -0.19650180637836456,
          0.061210162937641144,
          -0.16736756265163422,
          -0.19719190895557404,
          0.07251627743244171,
          -0.30787381529808044
        ],
        [
          -0.20237323641777039,
          -0.03894670680165291,
          0.14106911420822144,
          -0.24779511988162994,
          0.15866956114768982,
          -0.3072274327278137,
          -0.16589339077472687,
          -0.08398903161287308,
          0.2826230525970459,
          -0.0700630396604538
        ],
        [
          -0.20268458127975464,
          -0.03173781931400299,
          0.2303088903427124,
          0.1534116566181183,
          -0.0224443431943655,
          0.05789810046553612,
          0.24705907702445984,
          -0.11292038857936859,
          0.1984720230102539,
          -0.04072527959942818
        ],
        [
          -0.07203010469675064,
          -0.0434771291911602,
          0.2654886245727539,
          -0.23638229072093964,
          0.146042138338089,
          -0.34343335032463074,
          -0.03349456936120987,
          0.1799515038728714,
          0.19038492441177368,
          0.14459848403930664
        ],
        [
          -0.2184753566980362,
          0.19107237458229065,
          -0.36372146010398865,
          -0.20963871479034424,
          0.23922128975391388,
          -0.2118624746799469,
          -0.336058109998703,
          -0.021294785663485527,
          -0.13176479935646057,
          0.22822736203670502
        ],
        [
          0.03923303633928299,
          -0.3004315197467804,
          -0.23604820668697357,
          0.27747654914855957,
          0.25465598702430725,
          0.19110679626464844,
          0.15093722939491272,
          0.12286990135908127,
          -0.07822105288505554,
          -0.14672759175300598
        ],
        [
          -0.062405481934547424,
          0.2864018380641937,
          0.046931490302085876,
          0.06839840114116669,
          -0.18416589498519897,
          0.22223548591136932,
          0.07575063407421112,
          -0.011745089665055275,
          0.15259623527526855,
          0.07016497105360031
        ],
        [
          -0.0783095732331276,
          -0.02826966904103756,
          -0.346242219209671,
          -0.04989484325051308,
          0.21680936217308044,
          -0.054626502096652985,
          -0.19706280529499054,
          0.2542729377746582,
          -0.2925131916999817,
          0.15619002282619476
        ],
        [
          -0.058715008199214935,
          -0.10865050554275513,
          -0.3335239589214325,
          -0.09221586585044861,
          0.09466692060232162,
          -0.1665727198123932,
          0.32948434352874756,
          0.2145339399576187,
          -0.3136833608150482,
          -0.16711297631263733
        ],
        [
          -0.27196595072746277,
          -0.07178579270839691,
          0.21408270299434662,
          -0.08782355487346649,
          -0.21112236380577087,
          -0.36238446831703186,
          -0.1196887269616127,
          0.11346889287233353,
          -0.12540873885154724,
          -0.020944207906723022
        ],
        [
          0.18786293268203735,
          0.044699110090732574,
          0.1304195523262024,
          0.10930801182985306,
          -0.31384551525115967,
          0.0350552573800087,
          -0.31682923436164856,
          -0.18624484539031982,
          -0.1645861119031906,
          0.014998478814959526
        ],
        [
          0.20681940019130707,
          -0.0022767705377191305,
          -0.03709062561392784,
          -0.2388324737548828,
          -0.14107339084148407,
          -0.14395728707313538,
          -0.08548446744680405,
          -0.30114567279815674,
          0.23873227834701538,
          -0.039187874644994736
        ],
        [
          -0.11262273788452148,
          -0.18119654059410095,
          -0.1790943294763565,
          -0.14734461903572083,
          -0.023482998833060265,
          -0.2561265528202057,
          -0.15189845860004425,
          -0.022303998470306396,
          0.047660451382398605,
          -0.22763115167617798
        ],
        [
          -0.33091697096824646,
          -0.2590795159339905,
          0.10607738047838211,
          0.24357782304286957,
          -0.2990839183330536,
          0.22775675356388092,
          0.047601405531167984,
          0.2903529405593872,
          -0.13464243710041046,
          0.16059838235378265
        ],
        [
          0.34238630533218384,
          -0.11894474923610687,
          0.25143057107925415,
          0.26815521717071533,
          0.18338194489479065,
          -0.17126768827438354,
          0.08864276856184006,
          -0.017086055129766464,
          0.13020437955856323,
          -0.290977418422699
        ],
        [
          0.20597025752067566,
          0.2577671706676483,
          0.12429536134004593,
          -0.017374113202095032,
          -0.30157530307769775,
          0.08963368833065033,
          0.3389644920825958,
          0.35671254992485046,
          -0.28442591428756714,
          0.21382378041744232
        ],
        [
          0.32839223742485046,
          -0.014739812351763248,
          0.23430563509464264,
          0.1743936836719513,
          0.15954497456550598,
          -0.013296836987137794,
          0.2816242575645447,
          0.12140688300132751,
          0.16081179678440094,
          -0.23802535235881805
        ],
        [
          0.2549743354320526,
          0.07869616150856018,
          0.2096107006072998,
          -0.11077424883842468,
          0.049482446163892746,
          -0.33111292123794556,
          0.07175301760435104,
          -0.13712893426418304,
          0.03179532662034035,
          -0.08829216659069061
        ],
        [
          0.12273503839969635,
          -0.051949042826890945,
          -0.010585122741758823,
          -0.27606427669525146,
          0.0466771274805069,
          -0.34450018405914307,
          -0.0746144950389862,
          -0.22616209089756012,
          0.21076707541942596,
          -0.24374841153621674
        ],
        [
          -0.018691305071115494,
          0.24963273108005524,
          0.004964978899806738,
          0.1117393970489502,
          -0.002679250668734312,
          0.07885894179344177,
          0.1329881250858307,
          -0.07884583622217178,
          0.2532391846179962,
          -0.04796351119875908
        ],
        [
          -0.010923181660473347,
          -0.012475552037358284,
          0.03732431307435036,
          0.03489125519990921,
          0.03862457349896431,
          -0.23138092458248138,
          0.06152348965406418,
          -0.20286846160888672,
          0.1714274138212204,
          0.19636523723602295
        ],
        [
          -0.07434501498937607,
          0.20554539561271667,
          0.31063956022262573,
          0.21899501979351044,
          -0.2539680004119873,
          -0.03598914295434952,
          0.2576618790626526,
          -0.24791516363620758,
          0.24508079886436462,
          0.07408457249403
        ],
        [
          -0.04888230562210083,
          -0.18756930530071259,
          -0.19474484026432037,
          -0.16673246026039124,
          -0.11284437030553818,
          0.18771453201770782,
          0.08406194299459457,
          0.10870613902807236,
          -0.2937770187854767,
          0.00042672036215662956
        ],
        [
          0.0012235151370987296,
          0.3378279507160187,
          0.2359251081943512,
          -0.12561561167240143,
          0.0589040145277977,
          0.07060659676790237,
          -0.028189310804009438,
          0.1021212488412857,
          -0.2633627951145172,
          0.1321762502193451
        ],
        [
          -0.28721070289611816,
          -0.2796820104122162,
          0.028348341584205627,
          -0.12919484078884125,
          0.12245975434780121,
          0.14794784784317017,
          0.13913701474666595,
          0.15920975804328918,
          0.01795213483273983,
          -0.21561899781227112
        ],
        [
          -0.22487585246562958,
          0.08029225468635559,
          0.0418814942240715,
          0.046975888311862946,
          -0.14216411113739014,
          -0.2889693081378937,
          -0.1768917441368103,
          0.1266457587480545,
          0.04648188129067421,
          0.10280891507863998
        ],
        [
          0.27849045395851135,
          -0.057280633598566055,
          0.21569983661174774,
          -0.04833308607339859,
          0.06477090716362,
          0.1437692642211914,
          0.026146747171878815,
          -0.1335461586713791,
          -0.26064324378967285,
          0.12043754011392593
        ],
        [
          -0.1584705114364624,
          0.23591190576553345,
          -0.17707931995391846,
          -0.1246609166264534,
          -0.14525514841079712,
          0.2186855673789978,
          -0.2592940032482147,
          0.2488197386264801,
          -0.15560810267925262,
          -0.3467608392238617
        ],
        [
          0.1820250153541565,
          0.3244974613189697,
          0.09836284071207047,
          -0.19455915689468384,
          0.04797191172838211,
          -0.13125120103359222,
          0.14223283529281616,
          0.31722626090049744,
          0.353999525308609,
          0.044539280235767365
        ],
        [
          0.3116116225719452,
          0.12431330978870392,
          0.042417533695697784,
          -0.05180523172020912,
          -0.017394637688994408,
          0.16670122742652893,
          0.16414858400821686,
          -0.05531827732920647,
          -0.11845420300960541,
          -0.09205558896064758
        ],
        [
          -0.010410820133984089,
          0.19132348895072937,
          -0.29661980271339417,
          -0.20111827552318573,
          -0.3333078920841217,
          -0.031213989481329918,
          -0.11936352401971817,
          -0.18164198100566864,
          -0.16431903839111328,
          -0.06188791245222092
        ],
        [
          0.0573820099234581,
          0.0062838708981871605,
          -0.2539372742176056,
          -0.15876221656799316,
          -0.36697155237197876,
          -0.05265642702579498,
          -0.23222556710243225,
          0.033956874161958694,
          -0.12283346056938171,
          -0.04440661147236824
        ],
        [
          -0.10118413716554642,
          0.14874865114688873,
          -0.1175123006105423,
          -0.24754241108894348,
          0.1724381148815155,
          -0.2213151454925537,
          0.07724124193191528,
          0.26790449023246765,
          0.35890713334083557,
          -0.3348465859889984
        ],
        [
          0.3167668581008911,
          -0.2676540017127991,
          0.06181849539279938,
          -0.13356511294841766,
          0.11162658035755157,
          -0.25830885767936707,
          0.09765453636646271,
          0.09347306936979294,
          0.13660478591918945,
          0.1847633570432663
        ],
        [
          -0.02657368965446949,
          -0.1893608719110489,
          0.11760424077510834,
          -0.12174820154905319,
          -0.25460606813430786,
          -0.18777798116207123,
          -0.3081951141357422,
          -0.26342231035232544,
          -0.1362079530954361,
          -0.2752276659011841
        ],
        [
          -0.2697674036026001,
          0.21481050550937653,
          -0.028999175876379013,
          0.22229012846946716,
          -0.23259834945201874,
          0.27776145935058594,
          0.22930026054382324,
          0.22311727702617645,
          0.15505710244178772,
          0.19355137646198273
        ],
        [
          0.04779853671789169,
          0.25632405281066895,
          0.2066762000322342,
          0.1313103884458542,
          -0.12133831530809402,
          0.2985212504863739,
          -0.3425924777984619,
          -0.06617681682109833,
          0.06878551095724106,
          -0.29842957854270935
        ],
        [
          0.2461586892604828,
          0.21621280908584595,
          0.010638798587024212,
          0.14310267567634583,
          -0.3369739055633545,
          0.08549094200134277,
          -0.05838293582201004,
          -0.059410665184259415,
          -0.06978399306535721,
          -0.25282514095306396
        ]
      ],
      "bias": null
    },
    {
      "name": "fc2",
      "type": "linear",
      "in_features": 64,
      "out_features": 64,
      "weights": [
        [
          0.13430407643318176,
          0.11228961497545242,
          -0.03246727213263512,
          -0.08256419003009796,
          0.01437356323003769,
          0.07229018956422806,
          -0.027125738561153412,
          0.02871900051832199,
          0.2067328542470932,
          -0.03464393690228462,
          -0.1343366950750351,
          0.1059848964214325,
          0.08701085299253464,
          -0.0034640440717339516,
          -0.003359160851687193,
          -0.03812470659613609,
          -0.039882488548755646,
          -0.12849025428295135,
          -0.1538131684064865,
          -0.12139187753200531,
          0.05594949796795845,
          0.041218146681785583,
          0.14486216008663177,
          0.07141868025064468,
          0.1712218075990677,
          0.067139632999897,
          0.17353403568267822,
          -0.03706203028559685,
          0.14375069737434387,
          0.09028612077236176,
          0.024870796129107475,
          0.09337972849607468,
          -0.20266462862491608,
          -0.11247067898511887,
          0.08867543190717697,
          0.057859815657138824,
          0.16976885497570038,
          0.04893859475851059,
          0.13164852559566498,
          -0.13110899925231934,
          -0.04335910081863403,
          -0.07490888237953186,
          0.11424453556537628,
          0.15233419835567474,
          0.12139436602592468,
          -0.057384371757507324,
          0.11197804659605026,
          -0.05286724120378494,
          0.12871062755584717,
          -0.07200384885072708,
          -0.06025150418281555,
          -0.06119399517774582,
          -0.026295505464076996,
          -0.15303413569927216,
          -0.08006630837917328,
          0.007023578509688377,
          0.030400484800338745,
          -0.00122271035797894,
          -0.04183313623070717,
          0.1813305765390396,
          0.08182632178068161,
          -0.01458980143070221,
          -0.19592085480690002,
          0.059682801365852356
        ],
        [
          -0.013496351428329945,
          0.11270387470722198,
          -0.0007159019587561488,
          0.051913369446992874,
          0.09488219022750854,
          0.046142518520355225,
          0.0745416134595871,
          0.09376214444637299,
          -0.14480794966220856,
          0.006808849051594734,
          0.0336126945912838,
          -0.11977916210889816,
          -0.0013291642535477877,
          -0.021603642031550407,
          0.01877075992524624,
          -0.0876976028084755,
          0.11678114533424377,
          -0.1007833182811737,
          -0.028416283428668976,
          0.12372981756925583,
          0.16076473891735077,
          0.022008152678608894,
          0.12653392553329468,
          0.0352976955473423,
          0.04004121199250221,
          -0.07458189129829407,
          0.10730771720409393,
          -0.13490204513072968,
          0.07780859619379044,
          -0.11723872274160385,
          0.0026525238063186407,
          -0.08857184648513794,
          0.05442500486969948,
          0.04790414497256279,
          -0.11505275219678879,
          0.006492173299193382,
          0.03783397749066353,
          -0.13510721921920776,
          -0.07338277250528336,
          0.16498294472694397,
          0.09605630487203598,
          -0.006622957997024059,
          -0.0015969868982210755,
          -0.1357107311487198,
          -0.04658766835927963,
          0.14003342390060425,
          0.04986923933029175,
          -0.0565064437687397,
          0.0011287067318335176,
          -0.12975230813026428,
          0.0024939309805631638,
          0.15366855263710022,
          -0.0023097333032637835,
          0.131289541721344,
          -0.062078092247247696,
          0.06039702147245407,
          0.16532684862613678,
          -0.029274189844727516,
          0.036646708846092224,
          -0.016837486997246742,
          -0.027733152732253075,
          0.0020695840939879417,
          -0.009526255540549755,
          0.15585847198963165
        ],
        [
          -0.13425283133983612,
          0.10322704166173935,
          -0.08637288212776184,
          0.04435501992702484,
          -0.017708877101540565,
          -0.005168511066585779,
          0.006228204350918531,
          0.06398838758468628,
          -0.1505642533302307,
          -0.021189123392105103,
          0.16219288110733032,
          -0.08070728182792664,
          0.03440266102552414,
          -0.16653476655483246,
          0.014862485229969025,
          0.049339622259140015,
          0.05573694780468941,
          -0.11103906482458115,
          -0.023819398134946823,
          0.11466464400291443,
          0.04697065055370331,
          -0.02060621604323387,
          0.1174740269780159,
          -0.06974875926971436,
          -0.11140286922454834,
          -0.09282061457633972,
          0.10605838149785995,
          -0.031466059386730194,
          0.08896009624004364,
          -0.07108587771654129,
          0.07140417397022247,
          0.08629598468542099,
          0.09257470071315765,
          0.018123753368854523,
          -0.025398241356015205,
          -0.0356893315911293,
          0.029505250975489616,
          0.04643549397587776,
          -0.1135195717215538,
          -0.035702548921108246,
          0.08690296113491058,
          0.16516084969043732,
          -0.06977523863315582,
          -0.1557023525238037,
          -0.029070893302559853,
          0.1536414623260498,
          0.011218213476240635,
          0.05189637839794159,
          -0.06419526040554047,
          -0.1327695995569229,
          0.01124810241162777,
          0.022221766412258148,
          -0.035878125578165054,
          0.10787979513406754,
          -0.04587620496749878,
          -0.036151740700006485,
          0.06612199544906616,
          -0.03534512221813202,
          0.107147715985775,
          -0.027674680575728416,
          0.03974197059869766,
          0.16966362297534943,
          0.039640139788389206,
          0.15722551941871643
        ],
        [
          0.08593809604644775,
          0.13108742237091064,
          0.019384967163205147,
          0.05815667286515236,
          -0.10937366634607315,
          -0.08709830790758133,
          0.006459814961999655,
          -0.09369705617427826,
          -0.15943489968776703,
          0.11398611962795258,
          -0.033213816583156586,
          0.09091682732105255,
          0.04209594056010246,
          -0.1302976757287979,
          0.051503028720617294,
          -0.021778209134936333,
          0.14939408004283905,
          0.07137104868888855,
          0.12887772917747498,
          0.06500039994716644,
          0.04320511221885681,
          0.11449205875396729,
          -0.10599543154239655,
          -0.016177302226424217,
          0.019933290779590607,
          0.015261424705386162,
          0.11513742804527283,
          -0.14193589985370636,
          0.05196790024638176,
          -0.04410936310887337,
          0.013629375956952572,
          0.07817218452692032,
          -0.0001495344185968861,
          0.08206302672624588,
          0.1625860631465912,
          -0.05138305947184563,
          -0.03430141136050224,
          0.03190569207072258,
          -0.16241689026355743,
          0.07932404428720474,
          0.08349867165088654,
          0.01833084598183632,
          0.06860873848199844,
          -0.04655887559056282,
          -0.18033771216869354,
          0.05529392883181572,
          -0.13505712151527405,
          0.14585696160793304,
          0.1521494835615158,
          -0.009677767753601074,
          0.08073582500219345,
          -0.16016149520874023,
          0.12298254668712616,
          -0.0067900484427809715,
          0.04749879613518715,
          -0.05131939426064491,
          -0.04984690621495247,
          -0.20221997797489166,
          0.16785670816898346,
          0.12081880122423172,
          -0.1623467057943344,
          0.09901957958936691,
          0.013555126264691353,
          -0.05637383460998535
        ],
        [
          0.03490305319428444,
          -0.14318595826625824,
          -0.12024582922458649,
          0.0705757886171341,
          -0.07736141234636307,
          0.0006884573958814144,
          -0.08565142005681992,
          0.01913450099527836,
          -0.16898313164710999,
          -0.0031875271815806627,
          -0.11498145759105682,
          -0.005518203601241112,
          -0.14645184576511383,
          -0.08314348012208939,
          -0.11896740645170212,
          0.059373192489147186,
          -0.12491493672132492,
          -0.08697071671485901,
          -0.07253068685531616,
          -0.052498769015073776,
          -0.01539207436144352,
          0.010805106721818447,
          -0.11997237056493759,
          -0.10067934542894363,
          -0.14465872943401337,
          -0.12192333489656448,
          0.06438304483890533,
          0.05336546525359154,
          0.027678372338414192,
          -0.08913014084100723,
          -0.07622042298316956,
          0.0181878712028265,
          0.00766096031293273,
          0.04074420407414436,
          -0.12591508030891418,
          0.06506912410259247,
          -0.03731895238161087,
          -0.13391944766044617,
          -0.08768633753061295,
          -0.09575396776199341,
          0.07361401617527008,
          0.03771934658288956,
          -0.01850469969213009,
          0.06905926764011383,
          -0.06660628318786621,
          -0.036519311368465424,
          -0.027250956743955612,
          -0.10162170231342316,
          0.026379190385341644,
          -0.1036931574344635,
          -0.06557167321443558,
          -0.15428413450717926,
          -0.024553827941417694,
          0.03641355782747269,
          -0.08383459597826004,
          -0.07984354346990585,
          0.07277962565422058,
          -0.07093583047389984,
          -0.12745685875415802,
          -0.054819703102111816,
          -0.028212178498506546,
          0.11192517727613449,
          0.021238751709461212,
          -0.12420020997524261
        ],
        [
          -0.06938065588474274,
          -0.17915943264961243,
          0.12125840783119202,
          -0.027368659153580666,
          -0.021558742970228195,
          0.11017463356256485,
          0.1313314586877823,
          0.06711038947105408,
          0.030308369547128677,
          0.11834104359149933,
          -0.033352892845869064,
          0.024094510823488235,
          0.07135358452796936,
          -0.009537518955767155,
          0.02958059124648571,
          0.10996657609939575,
          -0.19158315658569336,
          0.03751232475042343,
          -0.02229035273194313,
          0.002131604589521885,
          -0.05617884546518326,
          0.1344745010137558,
          0.10190469026565552,
          0.03515473008155823,
          0.14558647572994232,
          0.10788798332214355,
          -0.08368875086307526,
          0.013845367357134819,
          -0.11545886844396591,
          -0.016848132014274597,
          0.048914019018411636,
          0.027693504467606544,
          0.020278163254261017,
          0.04215068742632866,
          0.07824239134788513,
          0.10421040654182434,
          0.15523940324783325,
          -0.007248241920024157,
          0.15066735446453094,
          -0.14946648478507996,
          -0.029951024800539017,
          0.053117237985134125,
          0.029624100774526596,
          -0.04212580993771553,
          0.11348303407430649,
          -0.13899880647659302,
          -0.03815634176135063,
          0.06181342527270317,
          -0.00030278327176347375,
          -0.10414227098226547,
          -0.026144085451960564,
          0.07519297301769257,
          0.14114314317703247,
          -0.11388128250837326,
          -0.0836380273103714,
          -0.0946846604347229,
          -0.002635884564369917,
          0.12973807752132416,
          -0.1708972156047821,
          -0.038181014358997345,
          -0.007682953495532274,
          -0.08745988458395004,
          0.05853964015841484,
          -0.026017071679234505
        ],
        [
          0.09028388559818268,
          -0.11619715392589569,
          0.0946229100227356,
          -0.0034193031024187803,
          -0.034798771142959595,
          -0.12956824898719788,
          -0.05057254061102867,
          -0.10404954105615616,
          0.0866972878575325,
          -0.055283304303884506,
          0.1080232784152031,
          -0.03861857205629349,
          0.03443937376141548,
          -0.015154942870140076,
          -0.16102121770381927,
          0.11901482939720154,
          0.16018828749656677,
          0.15707339346408844,
          0.05366493761539459,
          0.062474045902490616,
          0.07378146052360535,
          -0.02981867827475071,
          -0.07270383089780807,
          0.08275049179792404,
          -0.016836926341056824,
          -0.11696475744247437,
          0.09503081440925598,
          0.05497307330369949,
          -0.08686859160661697,
          0.11457119882106781,
          -0.037300046533346176,
          0.0109311044216156,
          -0.1965632289648056,
          0.19085538387298584,
          0.13871720433235168,
          0.029320629313588142,
          0.045347437262535095,
          -0.17601464688777924,
          -0.08109722286462784,
          0.03637237474322319,
          0.13676254451274872,
          0.10388919711112976,
          -0.04844851419329643,
          -0.12967093288898468,
          -0.12060590833425522,
          -0.051671385765075684,
          0.08451236039400101,
          -0.05698959529399872,
          0.10172747075557709,
          -0.044917501509189606,
          0.13605457544326782,
          0.0939553827047348,
          0.056327324360609055,
          -0.013966813683509827,
          -0.15557751059532166,
          0.15953370928764343,
          -0.006891715805977583,
          0.04433979094028473,
          -0.1216435432434082,
          0.034457139670848846,
          -0.042201895266771317,
          0.045012202113866806,
          -0.04406673088669777,
          0.04720703139901161
        ],
        [
          -0.0700814425945282,
          -0.00818425789475441,
          0.13017502427101135,
          0.1392514556646347,
          -0.00809716247022152,
          -0.1387604922056198,
          -0.03762055188417435,
          -0.11142890900373459,
          0.0040455162525177,
          0.05901752784848213,
          0.003198940772563219,
          -0.13544818758964539,
          -0.11007816344499588,
          -0.08122467994689941,
          -0.10610233247280121,
          0.041036106646060944,
          0.14030757546424866,
          0.06833887845277786,
          0.0737345814704895,
          0.022151608020067215,
          0.07172141969203949,
          -0.11954180151224136,
          -0.1281764805316925,
          0.1602502167224884,
          -0.12188239395618439,
          -0.13146626949310303,
          0.0931883156299591,
          0.13524578511714935,
          0.03698624670505524,
          0.0038414502050727606,
          -0.01958511583507061,
          -0.01803184300661087,
          -0.15160655975341797,
          0.14828872680664062,
          0.017947228625416756,
          -0.1224323958158493,
          0.03923160955309868,
          -0.07422593235969543,
          -0.08004333823919296,
          -0.09023239463567734,
          0.10692811757326126,
          -0.01583896391093731,
          0.11406299471855164,
          0.05405030399560928,
          -0.05606822296977043,
          -0.12094590812921524,
          -0.09012173116207123,
          -0.040343061089515686,
          0.14437665045261383,
          0.073293536901474,
          0.03247392550110817,
          0.062202658504247665,
          0.1276889443397522,
          0.01633528247475624,
          -0.13694432377815247,
          0.15801963210105896,
          -0.1384604424238205,
          -0.02809462882578373,
          0.05116216838359833,
          0.11995963752269745,
          -0.1376456618309021,
          -0.036463458091020584,
          -0.06590671092271805,
          -0.05061492323875427
        ],
        [
          0.11235999315977097,
          -0.05372936278581619,
          -0.010323739610612392,
          0.07782754302024841,
          -0.10553629696369171,
          0.020171867683529854,
          -0.18892991542816162,
          0.022624649107456207,
          0.12648572027683258,
          0.13959938287734985,
          -0.06810187548398972,
          -0.0237477645277977,
          0.017365511506795883,
          -0.11147598922252655,
          -0.10153818130493164,
          0.043465834110975266,
          0.059353169053792953,
          0.10715225338935852,
          0.09733673185110092,
          -0.05351298302412033,
          0.05523819848895073,
          -0.027509963139891624,
          -0.1434689611196518,
          0.15752677619457245,
          -0.14352859556674957,
          0.07150311022996902,
          0.007382797077298164,
          -0.011697839945554733,
          -0.056743718683719635,
          0.06717148423194885,
          0.07560549676418304,
          0.12059738487005234,
          -0.11159147322177887,
          0.09115111082792282,
          0.1531713455915451,
          -0.003330525476485491,
          -0.034740474075078964,
          -0.16401273012161255,
          -0.06641168892383575,
          0.04871842637658119,
          0.12160443514585495,
          0.1725139021873474,
          0.034070052206516266,
          0.011472588405013084,
          -0.08676310628652573,
          -0.11337078362703323,
          0.016015587374567986,
          -0.07675401866436005,
          0.11810145527124405,
          0.0003233626775909215,
          0.1438107192516327,
          0.010889619588851929,
          0.050424974411726,
          -0.00449043232947588,
          -0.13493847846984863,
          -0.02598554641008377,
          -0.010960759595036507,
          -0.07081013172864914,
          -0.07876235991716385,
          -0.0003798880206886679,
          -0.06716340035200119,
          -0.028346143662929535,
          -0.08582386374473572,
          0.07164082676172256
        ],
        [
          -0.1562681496143341,
          0.18213456869125366,
          -0.03767592832446098,
          -0.1429740935564041,
          -0.09038060903549194,
          0.06260676681995392,
          0.04234730824828148,
          -0.010206068865954876,
          -0.1605573147535324,
          -0.028924021869897842,
          0.08373212069272995,
          0.020226813852787018,
          0.00423278147354722,
          -0.06097676604986191,
          0.17988242208957672,
          -0.15655608475208282,
          -0.03025321662425995,
          -0.16906315088272095,
          -0.053988102823495865,
          0.1097872331738472,
          -0.07440433651208878,
          0.058875199407339096,
          -0.04836249724030495,
          0.06010080873966217,
          -0.053355857729911804,
          -0.004802869167178869,
          0.14001984894275665,
          0.015534966252744198,
          0.13342532515525818,
          0.0008275898289866745,
          -0.23347121477127075,
          -0.028851458802819252,
          0.0568019300699234,
          -0.09845608472824097,
          -0.08302931487560272,
          -0.08679765462875366,
          0.14852312207221985,
          0.005304962396621704,
          -0.12502925097942352,
          -0.03606977313756943,
          -0.0610545314848423,
          0.1345861405134201,
          -0.00582148227840662,
          -0.1915503591299057,
          -0.09719833731651306,
          0.15743616223335266,
          -0.05006181821227074,
          0.0799165889620781,
          -0.1441049873828888,
          -0.0860096886754036,
          0.12343136966228485,
          -0.017676638439297676,
          -0.041716091334819794,
          0.13955068588256836,
          0.08263955265283585,
          -0.018107648938894272,
          -0.16545943915843964,
          -0.11518368870019913,
          0.10984965413808823,
          0.05293622240424156,
          -0.08268602192401886,
          -0.05791100859642029,
          0.17737053334712982,
          0.07908955216407776
        ],
        [
          0.037149880081415176,
          -0.055807340890169144,
          0.04377925395965576,
          -0.014424372464418411,
          -0.03439789637923241,
          0.01232915185391903,
          0.15983784198760986,
          -0.01758171245455742,
          -0.031085873022675514,
          0.1658785194158554,
          -0.13000084459781647,
          0.13578304648399353,
          -0.01911112107336521,
          -0.009674292989075184,
          -0.012428541667759418,
          0.10755492746829987,
          0.02208535186946392,
          -0.038555096834897995,
          0.10223297029733658,
          0.12252567708492279,
          -0.1416437327861786,
          0.018384013324975967,
          -0.03143222630023956,
          0.1783556342124939,
          -0.023191098123788834,
          -0.08237501978874207,
          -0.11445163935422897,
          -0.13282838463783264,
          -0.1837102770805359,
          -0.05470266938209534,
          -0.13949863612651825,
          0.13675329089164734,
          -0.083474300801754,
          -0.0456387884914875,
          0.16673891246318817,
          -0.15275363624095917,
          0.13125404715538025,
          0.12968795001506805,
          -0.03192231059074402,
          -0.007075360044836998,
          0.11606157571077347,
          0.11268708854913712,
          -0.05104512348771095,
          -0.04424576833844185,
          0.145440474152565,
          -0.04428882151842117,
          -0.1289563775062561,
          -0.06100928410887718,
          -0.00793220940977335,
          -0.014494790695607662,
          0.03042500838637352,
          -0.1400034874677658,
          0.12716786563396454,
          -0.13673588633537292,
          0.11043895781040192,
          -0.056649722158908844,
          0.053386952728033066,
          0.10797183215618134,
          0.062095675617456436,
          0.0798555314540863,
          -0.0801219642162323,
          -0.042078472673892975,
          0.035524286329746246,
          0.049178317189216614
        ],
        [
          0.001836122595705092,
          -0.057785358279943466,
          0.013808093965053558,
          -0.02540541999042034,
          -0.01770007610321045,
          0.1394367516040802,
          0.05574007332324982,
          -0.03523766249418259,
          0.1524142622947693,
          -0.02783106453716755,
          -0.1736149936914444,
          -0.013269739225506783,
          0.1339567005634308,
          0.15338604152202606,
          0.07130067050457001,
          -0.04587733373045921,
          -0.17381228506565094,
          -0.00330304610542953,
          -0.04821394383907318,
          -0.11749313771724701,
          0.11470156162977219,
          0.05403765290975571,
          -0.0629967451095581,
          0.053953107446432114,
          0.09892772138118744,
          0.13571323454380035,
          0.08708957582712173,
          0.16383886337280273,
          0.02564106322824955,
          -0.04311747848987579,
          -0.08267724514007568,
          -0.03338637575507164,
          -0.10481131076812744,
          -0.10067503154277802,
          0.01881316676735878,
          0.052468374371528625,
          -0.025000575929880142,
          0.13194143772125244,
          0.18153539299964905,
          0.06493915617465973,
          0.05956967920064926,
          -0.02252948470413685,
          -0.03751922398805618,
          0.14716418087482452,
          0.061435800045728683,
          -0.09053650498390198,
          0.12782692909240723,
          -0.06599780917167664,
          0.06482511013746262,
          -0.0744544118642807,
          -0.010091274976730347,
          0.07848074287176132,
          0.10461045056581497,
          -0.10968241840600967,
          -0.009459186345338821,
          0.08949580788612366,
          -0.08104314655065536,
          0.12789760529994965,
          -0.10216906666755676,
          0.15189658105373383,
          0.12594012916088104,
          0.03957413136959076,
          -0.03987028822302818,
          0.12071598321199417
        ],
        [
          0.12516941130161285,
          0.11462616920471191,
          0.1379827857017517,
          -0.014231113716959953,
          -0.10221686214208603,
          0.10818502306938171,
          0.1433878242969513,
          -0.014930221252143383,
          0.07928365468978882,
          -0.03520902618765831,
          0.006163014564663172,
          0.11872479319572449,
          0.10373280942440033,
          -0.06292732059955597,
          0.0666966512799263,
          -0.010801107622683048,
          -0.19703064858913422,
          0.010086679831147194,
          -0.20649494230747223,
          0.08188767731189728,
          0.017909562215209007,
          0.048442091792821884,
          0.13164988160133362,
          0.01989065483212471,
          0.031108926981687546,
          -0.0781189426779747,
          0.11036570370197296,
          -0.08897145837545395,
          0.029741285368800163,
          -0.059644538909196854,
          0.0022306761238723993,
          0.08669324219226837,
          -0.04745500534772873,
          -0.10344750434160233,
          0.009088786318898201,
          0.11366478353738785,
          0.02302245795726776,
          0.12127683311700821,
          -0.05299649387598038,
          -0.014145522378385067,
          0.08070250600576401,
          -0.0058967662043869495,
          -0.07372341305017471,
          -0.020434178411960602,
          0.16022223234176636,
          0.117245152592659,
          0.02900327555835247,
          0.15072934329509735,
          0.12040121853351593,
          0.011404038406908512,
          0.1407049000263214,
          0.08737590163946152,
          0.05852774903178215,
          0.06692986935377121,
          0.1033160462975502,
          0.15439607203006744,
          -0.00258554401807487,
          -0.09467952698469162,
          -0.04180353134870529,
          -0.05940169095993042,
          -0.0086749829351902,
          -0.03998032957315445,
          -0.04788428917527199,
          0.07206638902425766
        ],
        [
          4.127926513319835e-05,
          -0.023823045194149017,
          -0.04648691788315773,
          0.14104068279266357,
          0.05897241830825806,
          0.05195226892828941,
          0.01738830842077732,
          0.035271644592285156,
          0.11691370606422424,
          0.16759024560451508,
          0.03152097016572952,
          0.028982317075133324,
          0.03191995993256569,
          0.05515531450510025,
          -0.14745551347732544,
          0.03726503625512123,
          0.04124828800559044,
          -0.07050160318613052,
          0.1626342386007309,
          -0.006378330290317535,
          0.0024853863287717104,
          -0.01722855493426323,
          -0.11697397381067276,
          0.04314897954463959,
          -0.04269576072692871,
          0.07965776324272156,
          -0.023059934377670288,
          -0.033753275871276855,
          -0.09753590822219849,
          0.07541214674711227,
          0.09700818359851837,
          -0.017673887312412262,
          0.039031337946653366,
          0.1590878665447235,
          0.14712384343147278,
          -0.0943358764052391,
          -0.022345731034874916,
          -0.04086750000715256,
          0.13609503209590912,
          -0.0294033270329237,
          0.03879699856042862,
          0.03551480919122696,
          0.1290043145418167,
          0.13060495257377625,
          0.10872746258974075,
          0.009981473907828331,
          0.030587509274482727,
          -0.0716312825679779,
          0.12459489703178406,
          -0.06314398348331451,
          -0.01121598668396473,
          -0.06312195211648941,
          0.10015007853507996,
          0.03462505713105202,
          -0.16603904962539673,
          0.13634493947029114,
          0.00928652472794056,
          0.09221009910106659,
          -0.17432910203933716,
          0.1367506980895996,
          0.042891863733530045,
          -0.041278764605522156,
          0.0947209969162941,
          0.13316787779331207
        ],
        [
          -0.0056563857942819595,
          0.005402942653745413,
          0.15495891869068146,
          0.12086640298366547,
          -0.02020975574851036,
          0.01058137696236372,
          -0.005132944788783789,
          0.11842705309391022,
          -0.02967764623463154,
          0.08041700720787048,
          -0.15668390691280365,
          0.14505629241466522,
          -0.07529442012310028,
          0.10940994322299957,
          0.09423749148845673,
          0.08092757314443588,
          -0.06308083236217499,
          0.16127373278141022,
          0.08869806677103043,
          0.15011976659297943,
          -0.07879984378814697,
          0.0718545913696289,
          0.022457031533122063,
          -0.020772743970155716,
          0.012676804326474667,
          0.13166537880897522,
          0.09368948638439178,
          0.11294660717248917,
          0.0850788876414299,
          -0.03946772590279579,
          -0.18165837228298187,
          -0.028069132938981056,
          0.14826960861682892,
          0.09975581616163254,
          0.1696457862854004,
          0.027361655607819557,
          0.06372737139463425,
          0.037936218082904816,
          -0.006532464642077684,
          0.12983734905719757,
          0.09126322716474533,
          0.006726688705384731,
          0.07301363348960876,
          0.02728763036429882,
          0.11794698238372803,
          0.08900957554578781,
          -0.01600387692451477,
          0.0073558553121984005,
          -0.043341077864170074,
          -0.005058276932686567,
          0.11895818263292313,
          0.07864110171794891,
          0.012525105848908424,
          -0.134216770529747,
          -0.022892635315656662,
          0.15262705087661743,
          0.0023151724599301815,
          -0.16502593457698822,
          -0.031874798238277435,
          0.09517894685268402,
          0.10819742828607559,
          0.038353849202394485,
          -0.08539141714572906,
          -0.07254896312952042
        ],
        [
          0.02903897874057293,
          0.1146569475531578,
          -0.12063096463680267,
          -0.08663459122180939,
          -0.15396630764007568,
          0.13639028370380402,
          0.11736004054546356,
          0.06920305639505386,
          -0.05816837400197983,
          -0.12490412592887878,
          0.1605275273323059,
          -0.08279959112405777,
          0.07422742992639542,
          -0.14792592823505402,
          -0.021984897553920746,
          -0.16025128960609436,
          -0.07317841053009033,
          -0.07680478692054749,
          -0.0930161327123642,
          -0.046304233372211456,
          0.0542110912501812,
          0.03634479269385338,
          0.022845329716801643,
          -0.001849583350121975,
          -0.05226605013012886,
          -0.12538926303386688,
          -0.0702037364244461,
          0.037646904587745667,
          -0.031721387058496475,
          -0.03721791133284569,
          0.011332191526889801,
          0.12370450049638748,
          0.0775914341211319,
          0.05132702738046646,
          -0.0734163373708725,
          -0.1739080250263214,
          0.015642154961824417,
          -0.041767388582229614,
          0.002478647045791149,
          0.11744508892297745,
          0.005702061578631401,
          0.16656099259853363,
          0.16645316779613495,
          -0.13657817244529724,
          0.03626192361116409,
          0.07503769546747208,
          0.019401270896196365,
          -0.0704801008105278,
          -0.03649653121829033,
          -0.12783192098140717,
          0.16982442140579224,
          0.023512985557317734,
          0.017165442928671837,
          0.05321970209479332,
          0.16350975632667542,
          -0.03882915899157524,
          -0.17293524742126465,
          -0.13643601536750793,
          0.12267067283391953,
          -0.0627613291144371,
          -0.16681407392024994,
          0.0800575390458107,
          0.09353435784578323,
          0.014527668245136738
        ],
        [
          0.002195409033447504,
          -0.16455736756324768,
          0.00012212056026328355,
          -0.07452515512704849,
          0.2544645071029663,
          -0.06752332299947739,
          -0.18969537317752838,
          -0.014149882830679417,
          -0.0697517916560173,
          0.10780390352010727,
          0.27354273200035095,
          -0.07508046180009842,
          0.21231725811958313,
          -0.14848311245441437,
          0.001578527968376875,
          0.0812092125415802,
          -0.07840737700462341,
          0.00834511686116457,
          -0.057075418531894684,
          -0.09349890053272247,
          0.19916781783103943,
          0.014742394909262657,
          -0.22512860596179962,
          -0.16871418058872223,
          -0.35424184799194336,
          -0.18256470561027527,
          -0.2143758237361908,
          -0.0666080191731453,
          -0.1502334475517273,
          0.03750736266374588,
          0.1536637842655182,
          0.11173132807016373,
          0.007753492332994938,
          0.12216472625732422,
          0.06297154724597931,
          0.16045771539211273,
          0.10169795155525208,
          -0.33043935894966125,
          0.09135578572750092,
          0.024185366928577423,
          -0.055125489830970764,
          -0.21166694164276123,
          -0.11200866103172302,
          -0.01852392591536045,
          -0.4455346167087555,
          0.04387727007269859,
          -0.16204415261745453,
          -0.1759653240442276,
          0.04961700737476349,
          -0.11954104900360107,
          -0.17444999516010284,
          0.1590138077735901,
          -0.05402837321162224,
          0.26639533042907715,
          0.05144724249839783,
          -0.02438148856163025,
          0.27567973732948303,
          0.16846369206905365,
          -0.09144346415996552,
          -0.023546574637293816,
          0.19697952270507812,
          -0.07806509733200073,
          0.2632671892642975,
          0.07830493152141571
        ],
        [
          -0.054231785237789154,
          -0.09176073968410492,
          -0.051388178020715714,
          0.07054490596055984,
          0.06427299231290817,
          -0.06673000007867813,
          0.00843900628387928,
          0.0417238213121891,
          -0.12736745178699493,
          0.08491996675729752,
          -0.04147850722074509,
          0.09850500524044037,
          0.13413776457309723,
          -0.06298761069774628,
          -0.08088017255067825,
          -0.09344485402107239,
          0.056394100189208984,
          0.09382059425115585,
          0.086417555809021,
          0.110233373939991,
          0.11332233250141144,
          0.15356969833374023,
          0.028882671147584915,
          0.12483624368906021,
          0.016943365335464478,
          -0.16053998470306396,
          -0.08346385508775711,
          -0.12909312546253204,
          0.07380539178848267,
          -0.07521142810583115,
          0.05161161348223686,
          0.15877112746238708,
          0.06529538333415985,
          0.14188091456890106,
          0.16718363761901855,
          0.0071420795284211636,
          0.12341561168432236,
          0.09210747480392456,
          -0.09222785383462906,
          0.1501932442188263,
          0.031128786504268646,
          0.11614762246608734,
          0.09639479219913483,
          0.048556115478277206,
          -0.030153779312968254,
          -0.05987844988703728,
          -0.011974797584116459,
          -0.137147456407547,
          0.049643371254205704,
          0.006458483636379242,
          0.04647871106863022,
          0.05706217885017395,
          0.004828129429370165,
          0.12546025216579437,
          0.09388763457536697,
          0.15293891727924347,
          0.036129407584667206,
          0.14864350855350494,
          0.13898570835590363,
          0.07121129333972931,
          0.09541810303926468,
          0.13726040720939636,
          0.12462522834539413,
          -0.041550587862730026
        ],
        [
          0.0658186748623848,
          -0.05479760840535164,
          -0.022097833454608917,
          -0.04715198278427124,
          0.11135183274745941,
          0.0023008217103779316,
          -0.11453632265329361,
          0.07411255687475204,
          -0.04888901114463806,
          0.10918676108121872,
          -0.015381349250674248,
          0.12065210193395615,
          0.12224889546632767,
          -0.007272237446159124,
          -0.17494036257266998,
          -0.0008653076947666705,
          0.17002014815807343,
          -0.0006878843996673822,
          0.088226817548275,
          0.17869879305362701,
          -0.00195265281945467,
          -0.034914981573820114,
          -0.046228133141994476,
          0.09705837815999985,
          -0.028766535222530365,
          -0.08521683514118195,
          -0.15810856223106384,
          -0.022561030462384224,
          -0.1431475579738617,
          -0.06163918972015381,
          0.0072355205193161964,
          -0.007542783860117197,
          -0.103969506919384,
          0.1678730696439743,
          0.08854830265045166,
          -0.003718385472893715,
          0.12979693710803986,
          0.08673566579818726,
          0.13246223330497742,
          0.08945077657699585,
          0.0725453644990921,
          0.03164172172546387,
          0.07635445147752762,
          -0.05175287649035454,
          0.0700901597738266,
          -0.0313471220433712,
          0.05980616435408592,
          -0.10544329881668091,
          0.16246959567070007,
          -0.042607713490724564,
          -0.09255129843950272,
          0.02930310368537903,
          -0.02789645828306675,
          -0.013231674209237099,
          -0.006424798164516687,
          0.16826720535755157,
          -0.018980015069246292,
          0.11259905248880386,
          -0.04875868931412697,
          0.10543646663427353,
          0.16148003935813904,
          0.07175865769386292,
          -0.047640111297369,
          0.133297860622406
        ],
        [
          0.05544691160321236,
          0.16942918300628662,
          -0.0254912618547678,
          0.05356304720044136,
          0.016281504184007645,
          0.11091239005327225,
          0.11626268178224564,
          0.1750497967004776,
          0.15199540555477142,
          -0.025541510432958603,
          0.06053609400987625,
          0.058653976768255234,
          0.012187223881483078,
          0.06695931404829025,
          -0.0640723928809166,
          -0.05606817081570625,
          0.08966824412345886,
          -0.11879942566156387,
          0.05117058381438255,
          0.09558727592229843,
          0.03619780018925667,
          0.13302229344844818,
          0.16673430800437927,
          0.14116451144218445,
          0.019272377714514732,
          0.02878785878419876,
          0.03845386207103729,
          -0.05244288966059685,
          0.16196978092193604,
          0.060825496912002563,
          -0.01138998568058014,
          0.005342609714716673,
          -0.02465137466788292,
          0.07829327881336212,
          -0.018729332834482193,
          0.08916047215461731,
          0.021047145128250122,
          0.008951745927333832,
          0.12134423851966858,
          0.12963464856147766,
          0.0832156389951706,
          0.12858174741268158,
          -0.04497682675719261,
          0.005561797413975,
          -0.05882319062948227,
          0.1374339908361435,
          0.14688213169574738,
          0.09284507483243942,
          -0.030949456617236137,
          -0.04477943852543831,
          0.07810791581869125,
          -0.03442060574889183,
          0.12784691154956818,
          0.05399005115032196,
          -0.01927121728658676,
          0.1662740856409073,
          -0.11592749506235123,
          -0.03505647927522659,
          0.15749183297157288,
          0.0722772479057312,
          0.06384322047233582,
          0.14832717180252075,
          -0.1402764469385147,
          0.1222558543086052
        ],
        [
          0.11963780969381332,
          -0.05300495773553848,
          0.057116828858852386,
          0.033536396920681,
          -0.06868279725313187,
          0.09862248599529266,
          0.034529559314250946,
          0.01586567424237728,
          -0.024962058290839195,
          0.059949085116386414,
          0.10383959114551544,
          0.019838115200400352,
          0.11650756746530533,
          0.034584853798151016,
          0.14521020650863647,
          0.12106000632047653,
          0.06637916713953018,
          0.10863899439573288,
          0.19112130999565125,
          0.0555591955780983,
          0.0743928849697113,
          0.03430500999093056,
          0.14324170351028442,
          -0.06543250381946564,
          0.03230591490864754,
          0.14118580520153046,
          -0.01967010088264942,
          0.0650668814778328,
          0.14652329683303833,
          0.18998968601226807,
          -0.08673969656229019,
          0.12572985887527466,
          0.013325094245374203,
          0.047970984131097794,
          0.1303580403327942,
          0.09707453846931458,
          -0.09262663125991821,
          0.02220793068408966,
          0.0781172513961792,
          -0.07062338292598724,
          0.09739463776350021,
          0.029534535482525826,
          0.17352235317230225,
          -0.07438932359218597,
          -0.11293215304613113,
          -0.05157014727592468,
          0.027722874656319618,
          0.09548929333686829,
          0.08393066376447678,
          0.01391545683145523,
          0.14849020540714264,
          0.020315933972597122,
          -0.06018868088722229,
          -0.10424789041280746,
          0.15829843282699585,
          0.14129553735256195,
          -0.19224147498607635,
          -0.1904277801513672,
          -0.0020521157421171665,
          0.14074134826660156,
          0.012119346298277378,
          0.1284014880657196,
          -0.01755221001803875,
          -0.024834979325532913
        ],
        [
          0.12545433640480042,
          -0.15128174424171448,
          0.023688780143857002,
          0.14993897080421448,
          -0.11092913895845413,
          -0.0016423878259956837,
          -0.03487536311149597,
          0.04429451748728752,
          -0.09334030747413635,
          0.03753400221467018,
          -0.17409111559391022,
          -0.034421589225530624,
          0.06781898438930511,
          -0.0148773193359375,
          0.044852036982774734,
          0.01010957919061184,
          -0.025877851992845535,
          0.12116888165473938,
          0.05646812543272972,
          0.16527529060840607,
          -0.055475104600191116,
          -0.01161269098520279,
          0.06764025241136551,
          0.07736441493034363,
          0.07555075734853745,
          0.07613396644592285,
          -0.11154118925333023,
          0.05602210387587547,
          -0.11878902465105057,
          0.005429171025753021,
          -0.0718901976943016,
          0.0850195661187172,
          -0.2688028812408447,
          0.1797885149717331,
          0.11774753779172897,
          -0.05644752085208893,
          -0.004097184166312218,
          0.11566313356161118,
          -0.07809966057538986,
          0.0649229884147644,
          -0.036979787051677704,
          0.06539400666952133,
          0.13098470866680145,
          0.049196962267160416,
          0.06925420463085175,
          -0.13731153309345245,
          -0.06955664604902267,
          0.08943422883749008,
          0.14698918163776398,
          0.051124997437000275,
          0.00424370588734746,
          -0.14159946143627167,
          0.11204010248184204,
          -0.24479305744171143,
          -0.04002904146909714,
          0.18595881760120392,
          -0.08128667622804642,
          -0.03161146119236946,
          0.0029295296408236027,
          0.20385120809078217,
          0.030626920983195305,
          -0.10860920697450638,
          -0.15472657978534698,
          -0.03455669805407524
        ],
        [
          -0.04450010508298874,
          -0.03374443203210831,
          -0.08858709782361984,
          -0.026971524581313133,
          0.002248934004455805,
          0.16026879847049713,
          0.013248986564576626,
          0.048213932663202286,
          -0.15267319977283478,
          0.15692661702632904,
          0.03766865283250809,
          0.07688290625810623,
          -0.03952951729297638,
          -0.006316635757684708,
          0.04261185601353645,
          -0.017694411799311638,
          0.07594587653875351,
          0.02406674064695835,
          -0.15893176198005676,
          0.04673069342970848,
          0.16261018812656403,
          0.14025332033634186,
          -0.06556376814842224,
          0.07699675112962723,
          -0.06312565505504608,
          -0.037999462336301804,
          -0.12670063972473145,
          -0.09562734514474869,
          -0.13614583015441895,
          -0.1691705584526062,
          0.11516701430082321,
          0.1344171017408371,
          0.04014725610613823,
          -0.0847366601228714,
          -0.052167121320962906,
          -0.00124188675545156,
          0.16353394091129303,
          0.121051125228405,
          -0.043076492846012115,
          0.12950384616851807,
          -0.06991498917341232,
          -0.12863150238990784,
          -0.02395174279808998,
          0.15273813903331757,
          0.16787202656269073,
          -0.10314605385065079,
          -0.16978058218955994,
          -0.1087513118982315,
          0.0978643074631691,
          -0.13049334287643433,
          -0.03426108509302139,
          0.11160165816545486,
          0.1037830039858818,
          0.15285825729370117,
          -0.12703438103199005,
          0.02505718171596527,
          -0.016719983890652657,
          0.04859931766986847,
          0.006955807562917471,
          -0.030372975394129753,
          0.028137290850281715,
          0.07591322064399719,
          -0.05443232133984566,
          0.1538093090057373
        ],
        [
          0.13525733351707458,
          -0.050916556268930435,
          0.06193410977721214,
          -0.10498683154582977,
          0.16026127338409424,
          -0.09971775859594345,
          -0.10404505580663681,
          -0.05649638548493385,
          0.005509644281119108,
          0.1231812983751297,
          0.14957980811595917,
          0.06897725909948349,
          0.015297754667699337,
          0.009647445753216743,
          0.06531383842229843,
          -0.07691435515880585,
          0.05485503375530243,
          0.05312721058726311,
          -0.02956235222518444,
          0.08991651237010956,
          0.1220364198088646,
          0.029986359179019928,
          -0.12351024895906448,
          -0.15017488598823547,
          -0.03681070730090141,
          -0.025462960824370384,
          0.04540271311998367,
          -0.010233321227133274,
          0.05887047201395035,
          0.05501396581530571,
          -0.02496194839477539,
          -0.04518606513738632,
          -0.019547535106539726,
          0.10138270258903503,
          -0.0307972002774477,
          -0.02099250815808773,
          0.030595414340496063,
          0.05610768869519234,
          0.0868736058473587,
          0.10986830294132233,
          0.11478867381811142,
          -0.16374284029006958,
          -0.1579476147890091,
          0.060702160000801086,
          0.019713254645466805,
          -0.062078215181827545,
          -0.07313977926969528,
          -0.1608325093984604,
          -0.09886923432350159,
          0.06329571455717087,
          -0.0008886120631359518,
          0.1116422638297081,
          -0.16230714321136475,
          0.10641041398048401,
          -0.12445516139268875,
          -0.04628601297736168,
          0.14612074196338654,
          0.012894359417259693,
          -0.02129875123500824,
          -0.047307293862104416,
          0.01216595433652401,
          -0.10752648860216141,
          0.021389439702033997,
          0.14054489135742188
        ],
        [
          0.12282110750675201,
          -0.02891240082681179,
          0.00436223391443491,
          0.07215161621570587,
          0.09258262813091278,
          0.13215599954128265,
          -0.015105533413589,
          -0.06689635664224625,
          0.056263163685798645,
          0.0006067717913538218,
          -0.022053895518183708,
          0.13096344470977783,
          -0.021767765283584595,
          0.15580838918685913,
          -0.07129491120576859,
          -0.06684410572052002,
          -0.047476742416620255,
          -0.031764134764671326,
          0.08097852021455765,
          0.04701830446720123,
          0.12040777504444122,
          0.08494937419891357,
          -0.04827382043004036,
          0.17894922196865082,
          0.07363686710596085,
          0.06614092737436295,
          0.044396959245204926,
          0.1457614004611969,
          0.009218995459377766,
          0.08876188099384308,
          0.031276799738407135,
          0.0989944264292717,
          -0.18875427544116974,
          0.13210901618003845,
          0.0026579909026622772,
          0.16825716197490692,
          0.09091710299253464,
          0.16210000216960907,
          0.009634358808398247,
          -0.09157197177410126,
          -0.006178875919431448,
          0.016968224197626114,
          0.1696765273809433,
          0.06261767446994781,
          0.0028720139525830746,
          -0.04566523805260658,
          0.10806668549776077,
          0.015357274562120438,
          0.03802504390478134,
          -0.01470723282545805,
          0.07058382779359818,
          0.03454022854566574,
          0.08605926483869553,
          0.008570940233767033,
          -0.17131783068180084,
          -0.019191524013876915,
          0.15116748213768005,
          0.14255675673484802,
          0.044891804456710815,
          0.12067662179470062,
          0.0610525906085968,
          0.022710591554641724,
          0.019823869690299034,
          -0.08200999349355698
        ],
        [
          -0.0991050973534584,
          0.09875015169382095,
          -0.11141303181648254,
          -0.17452938854694366,
          -0.034536540508270264,
          -0.08897524327039719,
          -0.130164235830307,
          0.02706988714635372,
          0.0017322372877970338,
          -0.10002625733613968,
          0.009465141221880913,
          -0.00829496793448925,
          -0.14880484342575073,
          -0.13761939108371735,
          -0.07573672384023666,
          -0.11569898575544357,
          -0.11741512268781662,
          -0.112795390188694,
          -0.14661607146263123,
          -0.16226790845394135,
          0.07985728234052658,
          0.016258612275123596,
          -0.029313871636986732,
          -0.13348205387592316,
          0.047993212938308716,
          0.028142081573605537,
          -0.032116230577230453,
          -0.003864873666316271,
          0.027215804904699326,
          0.07449894398450851,
          0.0850248783826828,
          -0.023600175976753235,
          -0.0844787135720253,
          -0.010343379341065884,
          0.057624779641628265,
          0.01459172461181879,
          -0.02950472943484783,
          0.007135653402656317,
          -0.009695853106677532,
          -0.12345530837774277,
          0.06524644047021866,
          0.05194353312253952,
          -0.1603536307811737,
          0.056685060262680054,
          -0.05428127571940422,
          -0.028308598324656487,
          -0.03780872002243996,
          -0.1450197845697403,
          0.06610551476478577,
          0.07807780057191849,
          0.058058708906173706,
          0.030226917937397957,
          -0.013715281151235104,
          0.06477393209934235,
          -0.04918420687317848,
          -0.09232567995786667,
          0.03520066663622856,
          -0.00042643107008188963,
          0.005012907087802887,
          -0.0821012482047081,
          -0.07808312773704529,
          -0.09172459691762924,
          0.04150492697954178,
          -0.02392466925084591
        ],
        [
          -0.0018725995905697346,
          0.10670925676822662,
          0.1721627414226532,
          0.041955843567848206,
          0.09020333737134933,
          0.09905418008565903,
          -0.06823457032442093,
          0.1015191599726677,
          0.028494982048869133,
          0.09012985974550247,
          0.04269588738679886,
          0.014062507078051567,
          0.09431049972772598,
          -0.03299057483673096,
          0.04937518388032913,
          -0.06225794181227684,
          0.03901958465576172,
          0.07891898602247238,
          0.0011403223033994436,
          0.041020676493644714,
          0.1395927220582962,
          0.06307552754878998,
          -0.014058905653655529,
          0.017649495974183083,
          0.024774806573987007,
          -0.10992570221424103,
          -0.007167466916143894,
          0.07436013221740723,
          -0.07898520678281784,
          -0.13267777860164642,
          0.06388451904058456,
          0.11213803291320801,
          0.15398158133029938,
          0.043091095983982086,
          -0.04466909542679787,
          0.10046093165874481,
          0.034910473972558975,
          -0.14699704945087433,
          0.005480049643665552,
          -0.020478960126638412,
          0.15124991536140442,
          0.14423567056655884,
          0.16624638438224792,
          -0.10435489565134048,
          -0.05336814373731613,
          -0.08247316628694534,
          -0.05165223777294159,
          0.11306486278772354,
          0.1126953512430191,
          0.04605288431048393,
          0.11798634380102158,
          -0.0826854556798935,
          0.026352418586611748,
          0.06822718679904938,
          0.08924780040979385,
          0.14901678264141083,
          -0.07988952100276947,
          0.14460445940494537,
          0.14063486456871033,
          0.0613856166601181,
          0.07648077607154846,
          -0.07850304991006851,
          0.11859934777021408,
          0.10382119566202164
        ],
        [
          -0.10877514630556107,
          -0.13289111852645874,
          0.16314934194087982,
          0.1308269500732422,
          0.015384850092232227,
          0.04814406484365463,
          0.03340163454413414,
          0.11099661886692047,
          -0.12278544902801514,
          0.127189502120018,
          -0.006330105941742659,
          0.1409658044576645,
          -0.022641455754637718,
          -0.00738822715356946,
          -0.14618061482906342,
          0.004357514437288046,
          -0.03461242467164993,
          0.02870766818523407,
          0.0078062629327178,
          0.09427899867296219,
          -0.06346336752176285,
          0.07433620095252991,
          0.06829103082418442,
          0.15548467636108398,
          0.016750246286392212,
          0.022434400394558907,
          -0.13480454683303833,
          0.017178630456328392,
          -0.014763981103897095,
          -0.13961341977119446,
          -0.03570159897208214,
          -0.08534595370292664,
          -0.029692962765693665,
          0.0326940193772316,
          0.04664309322834015,
          -0.10384615510702133,
          0.034636326134204865,
          0.07613103836774826,
          0.09684580564498901,
          -0.08125273138284683,
          0.03938661888241768,
          0.015021936036646366,
          -0.07683589309453964,
          0.09589498490095139,
          -0.08237915486097336,
          -0.004838567692786455,
          -0.11205609142780304,
          -0.16234230995178223,
          0.1308060735464096,
          0.038501109927892685,
          0.024785218760371208,
          0.04943670704960823,
          0.12207908183336258,
          -0.037746164947748184,
          -0.13056695461273193,
          -0.013905609957873821,
          -0.004030104260891676,
          -0.031760942190885544,
          -0.15373678505420685,
          0.03914492949843407,
          0.09042170643806458,
          0.01321470271795988,
          -0.1748688519001007,
          0.04532255977392197
        ],
        [
          0.0738864317536354,
          0.21175654232501984,
          -0.06394784897565842,
          -0.04295632243156433,
          0.029032934457063675,
          -0.0007077912450768054,
          0.004603565204888582,
          0.1090465635061264,
          0.097674161195755,
          0.0017068323213607073,
          0.000742438598535955,
          -0.11634895950555801,
          0.062489546835422516,
          0.07794860750436783,
          -0.0074186548590660095,
          0.04050305485725403,
          -0.02923746593296528,
          0.08063752949237823,
          -0.04764798656105995,
          -0.026847699657082558,
          0.04790212959051132,
          0.2031838446855545,
          0.11855628341436386,
          -0.12693800032138824,
          -0.05012942850589752,
          0.26645374298095703,
          0.19579166173934937,
          0.045091018080711365,
          0.1844138652086258,
          0.22503040730953217,
          0.1019577905535698,
          -0.0030996992718428373,
          0.14406868815422058,
          0.038583457469940186,
          -0.12880128622055054,
          0.10882120579481125,
          -0.14109955728054047,
          -0.0002684880164451897,
          0.08876410871744156,
          -0.031167322769761086,
          0.03651927784085274,
          0.05026596412062645,
          0.12731753289699554,
          0.004490995779633522,
          -0.005153029225766659,
          0.02802484668791294,
          0.19516229629516602,
          0.309527188539505,
          -0.03578141704201698,
          0.004210702143609524,
          0.07136070728302002,
          0.14754131436347961,
          -0.1748572587966919,
          0.09510010480880737,
          0.05120036378502846,
          -0.10024397075176239,
          -0.04353255406022072,
          -0.12638302147388458,
          0.10724906623363495,
          0.009841522201895714,
          -0.03215714916586876,
          0.13601836562156677,
          -0.00044080291991122067,
          -0.05537192150950432
        ],
        [
          -0.026791444048285484,
          -0.053492143750190735,
          -0.0029395311139523983,
          -0.05425218865275383,
          -0.05709584802389145,
          0.06860817968845367,
          -0.0662577673792839,
          0.015092835761606693,
          0.1791030317544937,
          -0.015013955533504486,
          0.03594246134161949,
          -0.12366987764835358,
          0.10261879116296768,
          0.024158110842108727,
          0.08629656583070755,
          0.09057848900556564,
          0.0755145400762558,
          0.08219116926193237,
          1.703544285192038e-06,
          -0.10358337312936783,
          0.07984932512044907,
          0.08853691071271896,
          0.09629730880260468,
          -0.08681032806634903,
          0.1525929719209671,
          0.14089153707027435,
          0.1502620428800583,
          0.1547258198261261,
          -0.01570332981646061,
          0.07333547621965408,
          -0.008404851891100407,
          -0.08768925815820694,
          -0.06555573642253876,
          0.009889017790555954,
          -0.10053529590368271,
          0.1723647266626358,
          -0.06044190749526024,
          -0.08403173834085464,
          0.1222626268863678,
          -0.024482879787683487,
          0.1307932287454605,
          0.005515268538147211,
          0.06802870333194733,
          0.011238393373787403,
          0.0735127180814743,
          -0.13803589344024658,
          0.1122579276561737,
          -0.001389151206240058,
          -0.06742509454488754,
          0.0028519269544631243,
          0.1263847053050995,
          0.004209995735436678,
          -0.022899456322193146,
          0.03186064213514328,
          -0.041077870875597,
          -0.1437666267156601,
          0.0567590668797493,
          -0.04174598306417465,
          -0.024376967921853065,
          -0.06432431191205978,
          0.12775243818759918,
          -0.128339484333992,
          -0.07081910967826843,
          -0.1208123192191124
        ],
        [
          0.04727703705430031,
          0.15958422422409058,
          0.14331375062465668,
          -0.01844904012978077,
          -0.08903732895851135,
          -0.10028993338346481,
          -0.021324947476387024,
          0.0830298513174057,
          0.1353423148393631,
          0.10624764859676361,
          -0.02856011688709259,
          -0.08676750957965851,
          0.07488507032394409,
          0.0493246465921402,
          -0.12850172817707062,
          0.15833838284015656,
          -0.02195224165916443,
          0.19286678731441498,
          0.13290992379188538,
          -0.1318826675415039,
          -0.06527218222618103,
          0.008143543265759945,
          -0.023114755749702454,
          0.0330158993601799,
          -0.015399223193526268,
          0.13489282131195068,
          0.09656736999750137,
          0.04164258763194084,
          0.20117060840129852,
          0.11755108088254929,
          -0.12852013111114502,
          -0.014008545316755772,
          -0.12524908781051636,
          0.15200577676296234,
          0.07824312150478363,
          0.12156914174556732,
          -0.11325155198574066,
          -0.004030948970466852,
          -0.056361354887485504,
          0.06350739300251007,
          0.1671312153339386,
          0.08570777624845505,
          0.18503427505493164,
          0.007669426500797272,
          0.07789526879787445,
          -0.17182102799415588,
          0.09286706149578094,
          0.12178437411785126,
          0.05329186096787453,
          0.007177017163485289,
          -0.024949394166469574,
          0.05088313668966293,
          -0.06407003849744797,
          -0.1475844383239746,
          -0.14532221853733063,
          -0.019879644736647606,
          0.051589179784059525,
          -0.17359137535095215,
          0.0018371897749602795,
          0.009586405009031296,
          0.1012895479798317,
          0.026057718321681023,
          -0.14566878974437714,
          -0.19374947249889374
        ],
        [
          0.0755690336227417,
          -0.14755401015281677,
          0.05237983539700508,
          0.15202957391738892,
          0.06001374125480652,
          0.09771513193845749,
          -0.07160695642232895,
          0.06114763393998146,
          -0.07394453138113022,
          0.14440231025218964,
          0.10018090158700943,
          0.12394330650568008,
          -0.012350758537650108,
          -0.06213626265525818,
          0.004560334607958794,
          0.02857048436999321,
          0.11644048988819122,
          -0.0002477544767316431,
          0.07737256586551666,
          0.036609143018722534,
          0.07507835328578949,
          0.10648837685585022,
          -0.06274379789829254,
          -0.039437275379896164,
          0.07325288653373718,
          0.11939621716737747,
          0.07316136360168457,
          0.13920322060585022,
          -0.1388033628463745,
          -0.0011065382277593017,
          0.04655029997229576,
          -0.017051739618182182,
          -0.150393545627594,
          -0.06330612301826477,
          -0.0240041371434927,
          -0.06552309542894363,
          0.13779813051223755,
          0.08311834186315536,
          0.09372393786907196,
          -0.05502357706427574,
          -0.057929277420043945,
          0.016346178948879242,
          -0.06466151773929596,
          -0.01900317892432213,
          0.07041637599468231,
          0.042240262031555176,
          -0.060467835515737534,
          0.06460469961166382,
          0.14877742528915405,
          -0.08121741563081741,
          0.08638922870159149,
          -0.05113230645656586,
          0.05104884132742882,
          0.07396948337554932,
          -0.0182606540620327,
          -0.015257026068866253,
          0.15415675938129425,
          0.07500603049993515,
          -0.1536359339952469,
          0.049268219619989395,
          0.13281844556331635,
          -0.06425091624259949,
          0.10707678645849228,
          0.02407713606953621
        ],
        [
          0.005202162079513073,
          0.18022014200687408,
          -0.04180310294032097,
          -0.029383743181824684,
          0.08880019932985306,
          0.15362907946109772,
          0.043768446892499924,
          -0.07713419944047928,
          0.1044892817735672,
          0.131692036986351,
          0.12820707261562347,
          0.10275044292211533,
          0.08112915605306625,
          -0.0034801908768713474,
          0.1096818596124649,
          -0.11879538744688034,
          0.02314864471554756,
          0.12575779855251312,
          -0.1273738443851471,
          0.058445222675800323,
          0.03865160420536995,
          -0.0276672150939703,
          -0.018040265887975693,
          -0.033327825367450714,
          -0.12084374576807022,
          -0.117672860622406,
          0.16609901189804077,
          -0.07895061373710632,
          0.11899297684431076,
          -0.14221341907978058,
          0.13893088698387146,
          0.06826090812683105,
          0.1046675369143486,
          0.058896757662296295,
          0.02651188336312771,
          0.16423870623111725,
          0.06749199330806732,
          -0.1252935528755188,
          -0.03280782699584961,
          0.09039716422557831,
          0.10887667536735535,
          -0.12223519384860992,
          -0.17982961237430573,
          0.06058727577328682,
          -0.13617144525051117,
          0.19923415780067444,
          -0.07681111991405487,
          0.14339841902256012,
          -0.12201845645904541,
          0.06864206492900848,
          -0.1314721405506134,
          0.13189199566841125,
          -0.05821267515420914,
          -0.01958421990275383,
          0.1932828426361084,
          -0.15865458548069,
          -0.010870460420846939,
          0.1409691870212555,
          0.15893155336380005,
          -0.017386429011821747,
          -0.014064941555261612,
          0.10077888518571854,
          -0.035047419369220734,
          0.11790089309215546
        ],
        [
          -0.012350610457360744,
          -0.01004889328032732,
          -0.045882996171712875,
          -0.06749371439218521,
          0.1161990687251091,
          0.07525941729545593,
          0.14714229106903076,
          0.1335819959640503,
          0.040659669786691666,
          -0.10712345689535141,
          0.0631045326590538,
          -0.12354414165019989,
          0.14655517041683197,
          0.11401262134313583,
          0.14601080119609833,
          0.08048499375581741,
          0.0755276083946228,
          0.030826222151517868,
          0.07015647739171982,
          0.00882172491401434,
          0.11817702651023865,
          0.003494259202852845,
          0.1223939061164856,
          -0.11130037158727646,
          0.028139939531683922,
          0.0012053133687004447,
          0.1489783227443695,
          0.12352045625448227,
          0.10144215077161789,
          0.16614030301570892,
          0.14092789590358734,
          -0.10255417972803116,
          -0.056672338396310806,
          0.02248397283256054,
          -0.01610010303556919,
          0.11246533691883087,
          0.06510132551193237,
          -0.07023826986551285,
          0.05397166684269905,
          0.106668621301651,
          -0.035006918013095856,
          0.027451299130916595,
          0.14956910908222198,
          0.00012975507706869394,
          0.07503634691238403,
          0.03515023738145828,
          0.012067094445228577,
          0.1156112551689148,
          -0.11962070316076279,
          0.0005659011076204479,
          0.08371126651763916,
          0.023011015728116035,
          -0.00788884051144123,
          0.1385299414396286,
          -0.05776625871658325,
          -0.1247541755437851,
          0.03403789550065994,
          0.011325281113386154,
          0.027056952938437462,
          -0.09976741671562195,
          -0.04501793533563614,
          0.1358991414308548,
          0.15221242606639862,
          0.03186524659395218
        ],
        [
          -0.030318213626742363,
          0.16695255041122437,
          -0.09585534036159515,
          0.09694408625364304,
          0.07900895923376083,
          -0.0024733461905270815,
          -0.06797116994857788,
          0.003275316208600998,
          -0.1003408282995224,
          0.05384216457605362,
          0.058774109929800034,
          0.03747774660587311,
          0.16295038163661957,
          -0.11601302772760391,
          -0.0608534999191761,
          0.0521550215780735,
          0.012032898142933846,
          0.12524114549160004,
          0.10649357736110687,
          0.05420071631669998,
          0.10018180310726166,
          -0.06595344096422195,
          -0.04588083550333977,
          0.05011007934808731,
          -0.06239801645278931,
          -0.07360363751649857,
          0.05712290108203888,
          -0.07196065783500671,
          0.1472499519586563,
          0.03732461482286453,
          0.0558847151696682,
          0.09368153661489487,
          0.12379816174507141,
          -0.04064609855413437,
          -0.014620328322052956,
          0.12525741755962372,
          -0.04908778518438339,
          -0.11030033230781555,
          0.11377774924039841,
          -0.054662372916936874,
          -0.023404628038406372,
          0.04085713252425194,
          0.1379312127828598,
          -0.10185257345438004,
          -0.01614627055823803,
          0.13855354487895966,
          -0.05648704245686531,
          -0.0602552555501461,
          -0.013100392185151577,
          -0.08791220188140869,
          -0.04748402535915375,
          0.10419825464487076,
          -0.06471959501504898,
          0.14466378092765808,
          -0.02827039361000061,
          -0.07551773637533188,
          0.028513150289654732,
          0.10161139070987701,
          0.14686916768550873,
          -0.14603567123413086,
          0.013334523886442184,
          0.14150629937648773,
          0.14413738250732422,
          0.15019574761390686
        ],
        [
          -0.01601189561188221,
          0.12050159275531769,
          0.02055826596915722,
          -0.12123030424118042,
          -0.00830038171261549,
          -0.0019801370799541473,
          0.0027922773733735085,
          -0.06552663445472717,
          0.07300346344709396,
          -0.13736163079738617,
          -0.17414924502372742,
          -0.14087311923503876,
          -0.07672719657421112,
          0.0808071494102478,
          -0.022914793342351913,
          -0.0013575201155617833,
          0.10435576736927032,
          -0.12491387128829956,
          -0.1302729696035385,
          -0.1081269308924675,
          0.08697668462991714,
          0.1330288201570511,
          0.11725100874900818,
          -0.032650407403707504,
          0.0743289589881897,
          0.05085908621549606,
          0.13848347961902618,
          0.02767307497560978,
          0.07422394305467606,
          0.11092629283666611,
          -0.10386969149112701,
          0.003067182609811425,
          -0.03966884687542915,
          -0.06659699231386185,
          0.013990002684295177,
          0.08852040022611618,
          -0.03279610350728035,
          0.017384931445121765,
          0.14459481835365295,
          0.03387807309627533,
          0.18774178624153137,
          -0.010704527609050274,
          0.06985960900783539,
          0.08497440069913864,
          0.08218114823102951,
          -0.0460454486310482,
          0.20747025310993195,
          0.07059373706579208,
          -0.12915165722370148,
          0.04957633092999458,
          0.01581280305981636,
          0.11038826406002045,
          -0.00937306322157383,
          -0.1574021279811859,
          -0.1954965889453888,
          -0.18421021103858948,
          0.05621961131691933,
          -0.11605983227491379,
          0.09581466019153595,
          0.07928638905286789,
          -0.018650881946086884,
          -0.21755973994731903,
          -0.1424950212240219,
          -0.1422117054462433
        ],
        [
          -0.033735986799001694,
          0.03183437138795853,
          0.12531310319900513,
          0.17091043293476105,
          -0.058610592037439346,
          -0.06689891964197159,
          -0.14569081366062164,
          0.033433638513088226,
          0.13716252148151398,
          0.1311941146850586,
          -0.031070904806256294,
          -0.06086175516247749,
          0.014895244501531124,
          0.037236232310533524,
          0.07106217741966248,
          0.05958368629217148,
          0.17860159277915955,
          0.0950789675116539,
          0.08780194073915482,
          0.009366555139422417,
          -0.08673550188541412,
          -0.10659386962652206,
          -0.17147494852542877,
          0.045830026268959045,
          -0.02341211773455143,
          0.10137765854597092,
          -0.023532764986157417,
          -0.09400718659162521,
          -0.07902977615594864,
          0.10681697726249695,
          0.040660347789525986,
          0.10179384797811508,
          -0.08698879927396774,
          0.1692018359899521,
          0.07264958322048187,
          -0.0397602915763855,
          -0.04967357590794563,
          -0.09773727506399155,
          -0.09791747480630875,
          -0.07289566099643707,
          0.0597553476691246,
          0.11221929639577866,
          0.14559917151927948,
          -0.09090590476989746,
          -0.06290780752897263,
          -0.09169629216194153,
          0.025779826566576958,
          -0.11364773660898209,
          0.10015406459569931,
          0.016174044460058212,
          0.04340750351548195,
          0.07487234473228455,
          -0.060971833765506744,
          -0.02016795612871647,
          -0.03535348176956177,
          0.014620495960116386,
          0.09723878651857376,
          -0.08241269737482071,
          -0.08621019870042801,
          0.05059495195746422,
          -0.08255142718553543,
          -0.050361476838588715,
          -0.08522969484329224,
          0.06851489096879959
        ],
        [
          -0.07603959739208221,
          -0.03727120906114578,
          -0.17215438187122345,
          -0.11675254255533218,
          0.012307075783610344,
          -0.12437038123607635,
          -0.14674316346645355,
          -0.14326006174087524,
          0.0396236889064312,
          -0.1662358045578003,
          -0.07354819029569626,
          0.06297750771045685,
          -0.10817017406225204,
          0.02859870158135891,
          0.03599126636981964,
          -0.04264242574572563,
          0.01481376588344574,
          0.07756128162145615,
          -0.040766846388578415,
          -0.003607033984735608,
          0.04242696985602379,
          -0.13324961066246033,
          -0.1574764847755432,
          0.016950903460383415,
          -0.04964123293757439,
          0.045572854578495026,
          0.030572406947612762,
          -0.1847051978111267,
          -0.1714819222688675,
          -0.17686772346496582,
          -0.09969954192638397,
          -0.13835841417312622,
          -0.11208363622426987,
          -0.05944245308637619,
          -0.1259010285139084,
          0.03399159014225006,
          -0.01732265017926693,
          0.042133577167987823,
          -0.0919727310538292,
          -0.1450251191854477,
          -0.03288756310939789,
          -0.064503513276577,
          -0.036251362413167953,
          0.011417740024626255,
          -0.1815185695886612,
          0.05198787525296211,
          -0.111651211977005,
          -0.15921130776405334,
          -0.03792792931199074,
          -0.0010729128262028098,
          0.03599753603339195,
          0.020856749266386032,
          -0.12314749509096146,
          -0.15879406034946442,
          -0.10890676081180573,
          -0.11607185006141663,
          -0.037402600049972534,
          0.07352618128061295,
          -0.04154892638325691,
          -0.1458265334367752,
          -0.012211736291646957,
          0.07747256010770798,
          -0.0380326583981514,
          -0.07822579890489578
        ],
        [
          -0.055244654417037964,
          -0.03735317289829254,
          -0.016468470916152,
          0.016854291781783104,
          0.14521144330501556,
          0.04796821251511574,
          -0.06845150887966156,
          0.144755557179451,
          0.06033272668719292,
          0.10697291046380997,
          0.07081597298383713,
          -0.038957737386226654,
          0.1023215651512146,
          -0.10673293471336365,
          0.1257125586271286,
          -0.07620757818222046,
          0.053835179656744,
          0.1379406750202179,
          0.0191656481474638,
          -0.047911934554576874,
