{
  "benchmark_id": "E2",
  "series": "E",
  "architecture": "E2Net",
  "timesteps": 20,
  "precision": {
    "weight_bits": 4,
    "signed": true
  },
  "layers": [
    {
      "name": "fc1",
      "type": "linear",
      "in_features": 12,
      "out_features": 48,
      "weights": [
        [
          0.0,
          0.0,
          0.0,
          -0.30769670009613037,
          0.0,
          -0.6096328496932983,
          0.0,
          0.0,
          -0.0,
          -0.0,
          -0.0,
          -0.0
        ],
        [
          -0.0,
          0.0,
          0.0,
          -0.0,
          0.0,
          -0.0,
          0.0,
          0.3940120339393616,
          -0.0,
          -0.5768252015113831,
          -0.0,
          -0.0
        ],
        [
          -0.0,
          -0.0,
          -0.0,
          0.26962652802467346,
          -0.0,
          0.31190088391304016,
          0.0,
          0.08051697909832001,
          -0.0,
          -0.0,
          -0.12824785709381104,
          -0.0
        ],
        [
          -0.0,
          0.0,
          0.0,
          -0.0,
          0.0,
          -0.0,
          -0.4439973533153534,
          0.0,
          -0.0,
          -0.0,
          -0.0,
          -0.0
        ],
        [
          0.0,
          0.2615703046321869,
          0.0,
          0.0,
          0.0,
          -0.0,
          1.338896632194519,
          1.062066674232483,
          -0.8362173438072205,
          -0.0,
          -0.0,
          -0.0
        ],
        [
          0.0,
          0.0,
          -0.0,
          -0.22832781076431274,
          -0.0,
          -0.12852369248867035,
          0.0,
          0.08171629905700684,
          -0.0,
          0.0,
          -0.0,
          -0.0
        ],
        [
          -0.0,
          -0.0,
          -0.6846628785133362,
          -0.6570264101028442,
          -0.0,
          -0.246870219707489,
          -1.1582603454589844,
          -0.0,
          0.0,
          -0.5926497578620911,
          0.0,
          0.0
        ],
        [
          -0.0,
          -0.0,
          -0.0,
          -0.0,
          -0.15081696212291718,
          0.32919538021087646,
          0.13920806348323822,
          -0.0,
          0.0,
          -0.22557076811790466,
          0.0,
          0.0
        ],
        [
          0.0,
          -0.0,
          1.1189762353897095,
          -0.0,
          0.0,
          -0.0,
          -0.28242796659469604,
          0.0,
          -0.0,
          0.17098785936832428,
          0.0,
          -0.8617671728134155
        ],
        [
          0.0,
          0.0,
          0.0,
          0.8106548190116882,
          -0.5420143008232117,
          0.27082231640815735,
          0.0,
          0.0,
          -0.0,
          -0.0,
          -0.0,
          -0.0
        ],
        [
          -0.0,
          -0.0,
          0.0,
          -0.0,
          0.0,
          -0.0,
          -0.35751673579216003,
          0.5233070850372314,
          -0.0,
          -0.0,
          -0.0,
          -0.4694660007953644
        ],
        [
          -0.0,
          0.0,
          0.0,
          0.0,
          -0.0,
          0.0,
          -0.0,
          0.0,
          0.239210307598114,
          -0.2382136434316635,
          -0.0,
          -0.0
        ],
        [
          -0.0,
          -0.26476800441741943,
          0.0,
          0.0,
          0.049772799015045166,
          -0.0,
          0.0,
          0.0,
          0.08492490649223328,
          0.0,
          -0.0,
          -0.0
        ],
        [
          -0.0,
          -0.0,
          -0.7040305733680725,
          -0.0,
          0.0,
          -0.0,
          -0.0,
          -0.8313822150230408,
          0.0,
          0.0,
          0.0,
          0.0
        ],
        [
          -0.7966538667678833,
          -0.0,
          -0.0,
          -0.0,
          0.0,
          -0.0,
          2.1848831176757812,
          -0.0,
          0.0,
          0.9777851700782776,
          0.0,
          0.8164766430854797
        ],
        [
          0.0,
          -0.0,
          0.0,
          0.0,
          0.0,
          -0.0,
          0.0,
          0.0,
          -0.0,
          0.0,
          0.0,
          -0.0
        ],
        [
          -0.0,
          0.0,
          -0.17793315649032593,
          -0.0,
          -0.0,
          0.0,
          -0.0,
          0.7241000533103943,
          -0.0,
          -0.0,
          -0.43468138575553894,
          -0.0
        ],
        [
          0.0,
          -0.0,
          0.0,
          0.21498067677021027,
          0.0,
          -0.7870863676071167,
          0.0,
          0.0,
          -0.0,
          0.0,
          0.0,
          -0.0
        ],
        [
          -0.0,
          -0.0,
          -0.0,
          0.0,
          -0.6269333362579346,
          0.0,
          0.0,
          0.2435518354177475,
          -0.0,
          -0.21460126340389252,
          -0.03405214473605156,
          -0.0
        ],
        [
          -0.0,
          0.0,
          -0.0,
          0.7290346622467041,
          -0.0,
          0.0,
          0.0,
          0.4561794400215149,
          -0.0,
          -0.0,
          -0.0,
          -0.0
        ],
        [
          -0.0,
          -0.10815371572971344,
          0.26212650537490845,
          -0.0,
          0.0,
          -0.0,
          -0.026086866855621338,
          0.0,
          0.0,
          0.08913767337799072,
          -0.06669268012046814,
          0.0
        ],
        [
          0.0958729237318039,
          -0.749427855014801,
          -0.4854283332824707,
          0.15616168081760406,
          -0.12106885015964508,
          0.0,
          0.3659287989139557,
          -0.0,
          0.0,
          0.0,
          0.0,
          0.0
        ],
        [
          0.0,
          -0.0,
          -0.67262864112854,
          0.5275537967681885,
          0.0,
          0.09853105247020721,
          0.0,
          -0.0,
          -0.2299851030111313,
          0.0,
          1.3732545375823975,
          -0.0
        ],
        [
          0.0,
          -0.0,
          -0.9786486625671387,
          -0.0,
          0.0,
          -0.0,
          0.0,
          -1.089330792427063,
          0.0,
          2.568772315979004,
          0.0,
          -0.26471513509750366
        ],
        [
          -0.0,
          0.23959755897521973,
          -0.19260644912719727,
          -0.0,
          0.0,
          0.0,
          0.0,
          -0.06575269997119904,
          -0.12446416914463043,
          -0.0,
          -0.0,
          0.09098345041275024
        ],
        [
          0.0,
          -0.0,
          -0.0,
          0.009856820106506348,
          -0.0,
          -0.21312841773033142,
          -0.17617377638816833,
          -0.0,
          -0.27429720759391785,
          -0.0,
          -0.0,
          -0.0
        ],
        [
          -0.0,
          -0.1037093922495842,
          -0.5471153855323792,
          0.0,
          -0.0,
          0.0,
          0.0,
          0.0,
          -0.0,
          -0.0,
          -0.4802039861679077,
          -0.0
        ],
        [
          -0.0,
          0.5610412359237671,
          0.0664522647857666,
          -0.0,
          0.6041489243507385,
          -0.0,
          0.0,
          0.4104139506816864,
          -0.0,
          -0.38353511691093445,
          -0.0,
          -0.0
        ],
        [
          -0.0,
          -0.0,
          -0.0,
          -0.0,
          0.0,
          0.0,
          -1.555603265762329,
          -0.0,
          0.0,
          0.0,
          0.0,
          0.0
        ],
        [
          0.0,
          0.0,
          0.0,
          -0.0,
          -0.0,
          -0.0,
          0.0,
          -0.1751468926668167,
          -0.0,
          0.0,
          -0.0,
          -0.12700510025024414
        ],
        [
          0.0,
          0.17864570021629333,
          0.0,
          -0.0,
          -0.0,
          0.2401391863822937,
          -0.0,
          -0.0,
          -0.0,
          0.0,
          -0.0,
          -0.0
        ],
        [
          0.35157233476638794,
          -0.0,
          0.3779059946537018,
          -0.0,
          0.0,
          -0.4468681812286377,
          0.0,
          0.0,
          -0.0,
          0.0,
          0.0,
          -0.0
        ],
        [
          0.0,
          -0.0,
          0.0,
          0.0,
          -0.0,
          0.28208285570144653,
          0.0,
          -0.02688416838645935,
          -0.18803924322128296,
          -0.0,
          -0.18654756247997284,
          -0.0
        ],
        [
          0.0,
          -0.0,
          0.0,
          -0.0,
          0.33895963430404663,
          -0.0,
          0.0,
          0.0,
          -0.0,
          0.0,
          0.5574777126312256,
          -0.0
        ],
        [
          0.0,
          -1.233680009841919,
          -0.0,
          0.0,
          -0.0,
          0.7062663435935974,
          0.0,
          0.0,
          -0.0,
          -0.0,
          0.0,
          -0.0
        ],
        [
          -0.6302094459533691,
          0.0,
          -0.0,
          0.0,
          -0.501805305480957,
          0.0,
          0.0,
          0.0,
          -0.0,
          -0.0,
          -0.0,
          -0.0
        ],
        [
          -0.2505593001842499,
          0.0,
          0.0,
          -0.24249611794948578,
          0.23747389018535614,
          -0.0,
          -0.24612341821193695,
          0.6835520267486572,
          -0.0,
          -0.0,
          -0.0,
          -0.0
        ],
        [
          0.0,
          -0.012886518612504005,
          0.7916658520698547,
          0.0,
          0.0,
          -0.0,
          0.0,
          0.9090734124183655,
          -0.0,
          -0.0,
          -0.0,
          -1.048246145248413
        ],
        [
          -0.22935359179973602,
          -0.0,
          0.0,
          0.20613253116607666,
          -0.0,
          0.0,
          -0.0,
          0.020817816257476807,
          0.0,
          0.0,
          0.0,
          -0.2399645894765854
        ],
        [
          -0.0,
          0.0,
          -0.0,
          1.276842713356018,
          -0.0,
          0.0,
          -0.0,
          -0.0,
          0.0,
          -0.0,
          -0.0,
          0.0
        ],
        [
          -1.3783429861068726,
          -0.0,
          -0.0,
          -0.0,
          0.0,
          0.21358072757720947,
          -0.0,
          -0.0,
          0.0,
          0.0,
          0.0,
          0.0
        ],
        [
          -0.0,
          -0.0,
          -0.0,
          0.2778109312057495,
          0.11465480923652649,
          -0.0,
          0.0,
          -0.03959524631500244,
          0.0,
          -0.0,
          0.08723822236061096,
          -0.0
        ],
        [
          -0.0,
          -0.0,
          -1.3631291389465332,
          -0.0,
          0.0,
          -0.843612015247345,
          -0.0,
          0.0,
          -0.0,
          -0.0,
          0.7480737566947937,
          -1.0071492195129395
        ],
        [
          -0.0,
          1.2666206359863281,
          0.0,
          -0.0,
          0.0,
          -0.0,
          -0.0,
          0.0,
          -0.903493344783783,
          -0.0,
          -0.0,
          -0.0
        ],
        [
          -0.0,
          0.0,
          0.0,
          -0.0,
          0.0,
          0.0,
          0.0,
          -0.22746962308883667,
          0.0,
          -0.0,
          0.0,
          -0.0
        ],
        [
          0.052428752183914185,
          0.0,
          0.0,
          -0.0,
          0.0,
          0.0,
          -0.2635587453842163,
          0.2311447262763977,
          -0.2242685854434967,
          0.0,
          0.0,
          0.0
        ],
        [
          -0.0,
          0.0,
          0.0,
          -0.0,
          0.0,
          -0.0,
          -0.0,
          0.0,
          -0.0,
          -0.0,
          -0.0,
          -0.0
        ],
        [
          0.0,
          -0.0,
          -0.0,
          0.632908821105957,
          0.0,
          0.0,
          0.0,
          -0.0,
          0.007464272901415825,
          0.0,
          0.0,
          -0.16598238050937653
        ]
      ],
      "bias": null
    },
    {
      "name": "fc2",
      "type": "linear",
      "in_features": 48,
      "out_features": 5,
      "weights": [
        [
          1.5338996648788452,
          0.9063324332237244,
          -0.23358096182346344,
          0.14163361489772797,
          0.0,
          0.0,
          0.0,
          -0.5686939358711243,
          0.0,
          -0.0,
          0.9693712592124939,
          -0.0,
          -0.0,
          -0.0,
          -3.537245988845825,
          0.0,
          0.0,
          0.0,
          0.0,
          -0.0,
          -0.0,
          -1.3767496347427368,
          -1.8383866548538208,
          -0.0,
          -0.0,
          0.0,
          0.0,
          0.7496625781059265,
          0.0,
          -0.0,
          -0.0,
          0.0,
          -0.0,
          -0.0,
          -1.7535301446914673,
          -0.0,
          1.0741695165634155,
          0.0,
          0.0,
          -0.751675546169281,
          0.14423097670078278,
          -0.0,
          0.0,
          0.0,
          -0.0,
          0.0,
          0.07105512917041779,
          -0.32698848843574524
        ],
        [
          -0.0,
          0.6907112002372742,
          0.0,
          -0.0,
          0.0,
          -0.0,
          -2.8702619075775146,
          0.6850274801254272,
          -1.708767294883728,
          0.45146259665489197,
          0.0,
          -0.0,
          -0.0,
          -0.0,
          0.0,
          0.0,
          0.0,
          -0.0,
          0.7746745944023132,
          1.9631754159927368,
          -0.0,
          0.0,
          0.0,
          -0.0,
          0.0,
          -0.0,
          0.9146186113357544,
          0.0,
          -0.0,
          0.0,
          0.0,
          -0.8982567191123962,
          0.0,
          -3.443013906478882,
          0.0,
          1.0262627601623535,
          -0.0,
          0.0,
          0.0,
          0.0,
          0.0,
          0.0,
          0.0,
          0.0,
          -0.0,
          -0.0,
          -0.0,
          0.0
        ],
        [
          0.0,
          -0.0,
          -0.0,
          -0.0,
          0.0,
          0.0,
          -2.7210094928741455,
          -2.0917751789093018,
          0.0,
          -0.0,
          0.0,
          -0.0,
          0.0,
          -0.0,
          0.0,
          0.06613434851169586,
          -2.055640697479248,
          1.3127957582473755,
          -0.0,
          -0.0,
          0.0,
          0.0,
          0.0,
          0.0,
          -0.0,
          0.0,
          -0.0,
          -0.0,
          -0.0,
          0.0,
          -0.0,
          1.22612726688385,
          -0.0,
          1.0525686740875244,
          0.0,
          -0.0,
          -0.0,
          0.0,
          -0.0,
          -2.0221006870269775,
          -0.0,
          0.0,
          0.0,
          -1.9689459800720215,
          -0.0,
          -0.0,
          0.0,
          -0.0
        ],
        [
          0.0,
          -0.0,
          -0.0,
          0.0,
          -2.9807777404785156,
          0.0,
          0.0,
          -0.0,
          -0.0,
          -2.0727059841156006,
          -0.0,
          0.0,
          0.0,
          1.448836088180542,
          0.0,
          -0.0,
          -0.1527881920337677,
          -0.0,
          -0.0,
          -0.0,
          -0.0,
          0.0,
          0.0,
          0.0,
          -0.0,
          -0.0,
          -0.0,
          -0.8962334394454956,
          1.9589004516601562,
          -0.0,
          -0.0,
          -0.0,
          -0.0,
          0.0,
          0.0,
          0.0,
          -0.0,
          -2.164224863052368,
          -0.0,
          -0.0,
          1.456868290901184,
          -0.0,
          0.0,
          -1.8073135614395142,
          0.0,
          -0.0,
          0.0,
          -0.0
        ],
        [
          -0.0,
          -0.0,
          -0.7595256567001343,
          -0.0,
          -3.6315653324127197,
          -0.0,
          -3.059718370437622,
          -0.7585633993148804,
          -0.0,
          -0.0,
          -2.932527780532837,
          -0.0,
          -0.0,
          -0.0,
          -0.0,
          -0.0,
          -0.0,
          -0.0,
          -1.29849374294281,
          -0.0,
          -0.0,
          -0.0,
          -0.0,
          -2.8612146377563477,
          -0.0,
          -0.0,
          -1.3458620309829712,
          -0.0,
          -0.0,
          -0.0,
          -0.0,
          -0.0,
          -0.0,
          -0.0,
          -0.0,
          -0.0,
          -0.0,
          -0.0,
          -0.0,
          -0.0,
          -1.9015053510665894,
          -0.0,
          -1.724273920059204,
          -0.0,
          -0.0,
          -0.0,
          0.0,
          -0.0
        ]
      ],
      "bias": null
    }
  ],
  "metadata": {
    "task": "classification"
  }
}