{
  "benchmark_id": "L1",
  "series": "L",
  "architecture": "L1Net",
  "timesteps": 15,
  "precision": {
    "weight_bits": 4,
    "signed": true
  },
  "layers": [
    {
      "name": "fc1",
      "type": "linear",
      "in_features": 3,
      "out_features": 16,
      "weights": [
        [
          0.2852422297000885,
          -1.0286201238632202,
          0.8870104551315308
        ],
        [
          -0.5860579609870911,
          1.2436274290084839,
          0.6626383662223816
        ],
        [
          -1.1859272718429565,
          1.1675753593444824,
          1.2003576755523682
        ],
        [
          -0.08641169220209122,
          1.1717811822891235,
          0.7377884984016418
        ],
        [
          1.0072050094604492,
          -2.740694522857666,
          1.0320531129837036
        ],
        [
          0.21173112094402313,
          -5.288751125335693,
          2.4399545192718506
        ],
        [
          -0.2350309193134308,
          1.1778923273086548,
          0.7381049394607544
        ],
        [
          0.9394405484199524,
          -0.6610568761825562,
          1.8012505769729614
        ],
        [
          -0.5825375318527222,
          0.8311734795570374,
          0.630109965801239
        ],
        [
          -0.29385271668434143,
          2.7054290771484375,
          1.518201231956482
        ],
        [
          0.6626891493797302,
          0.028206834569573402,
          -0.3667483329772949
        ],
        [
          -0.5977602005004883,
          1.2042644023895264,
          0.7202208042144775
        ],
        [
          -0.027760041877627373,
          0.11727083474397659,
          -0.11794236302375793
        ],
        [
          -0.32875362038612366,
          3.041903495788574,
          1.751331090927124
        ],
        [
          -0.6334043145179749,
          0.8562151193618774,
          0.639421284198761
        ],
        [
          -0.2900749742984772,
          2.7459399700164795,
          1.5657882690429688
        ]
      ],
      "bias": null
    },
    {
      "name": "fc2",
      "type": "linear",
      "in_features": 16,
      "out_features": 3,
      "weights": [
        [
          1.40714693069458,
          3.1459262371063232,
          2.209293842315674,
          2.510772228240967,
          -1.0202181339263916,
          -0.784954845905304,
          2.4114978313446045,
          1.2267072200775146,
          4.799846649169922,
          -1.0667716264724731,
          0.9680406451225281,
          2.6904361248016357,
          -0.14353600144386292,
          -2.029228925704956,
          2.8613829612731934,
          -1.4514156579971313
        ],
        [
          1.4364070892333984,
          -1.7327041625976562,
          -2.460261821746826,
          -0.8251401782035828,
          0.9000719785690308,
          0.09629622101783752,
          -1.1041358709335327,
          -3.418308734893799,
          -5.932145118713379,
          2.721102237701416,
          0.9690765142440796,
          -1.870383381843567,
          0.031696949154138565,
          2.990954637527466,
          -2.8622756004333496,
          2.2931649684906006
        ],
        [
          -1.7718486785888672,
          -4.235085964202881,
          2.057269334793091,
          -6.104516983032227,
          0.9968120455741882,
          3.5773239135742188,
          -5.229741096496582,
          3.159226179122925,
          -2.6370503902435303,
          -3.723436117172241,
          -4.992934226989746,
          -3.8138644695281982,
          -0.2353338599205017,
          -1.5015026330947876,
          -1.036284327507019,
          -3.2445502281188965
        ]
      ],
      "bias": null
    }
  ],
  "metadata": {
    "task": "classification"
  }
}