{
  "benchmark_id": "N1",
  "series": "N",
  "architecture": "N1Net",
  "timesteps": 20,
  "precision": {
    "weight_bits": 4,
    "signed": true
  },
  "layers": [
    {
      "name": "fc1",
      "type": "linear",
      "in_features": 4,
      "out_features": 16,
      "weights": [
        [
          -0.3228895366191864,
          -0.0015892456285655499,
          -0.7548295855522156,
          -0.6889740824699402
        ],
        [
          0.033181559294462204,
          0.3563586473464966,
          -0.8063780069351196,
          -0.6533606052398682
        ],
        [
          -0.028654398396611214,
          0.19674937427043915,
          0.0004442502395249903,
          0.04300631210207939
        ],
        [
          -0.961948812007904,
          0.8613871932029724,
          -0.45747244358062744,
          -0.48987877368927
        ],
        [
          -0.5989494323730469,
          -0.7628809809684753,
          0.5208086371421814,
          -0.3310217261314392
        ],
        [
          -0.1578305959701538,
          -0.8768591284751892,
          0.12352004647254944,
          0.5789973735809326
        ],
        [
          0.5511844754219055,
          0.027911117300391197,
          0.43332552909851074,
          0.2564789056777954
        ],
        [
          -0.46734559535980225,
          0.03501272574067116,
          0.45006853342056274,
          0.01813245378434658
        ],
        [
          0.746733546257019,
          -0.3115825653076172,
          -0.45001181960105896,
          0.5279417037963867
        ],
        [
          -0.470029354095459,
          0.7314592003822327,
          -0.29471707344055176,
          -0.6595261096954346
        ],
        [
          0.6369226574897766,
          -0.1709594577550888,
          -0.5086305737495422,
          0.6696360111236572
        ],
        [
          0.384489506483078,
          0.27922526001930237,
          -0.27687138319015503,
          0.5711112022399902
        ],
        [
          -0.02279352955520153,
          -0.12101186066865921,
          0.6438892483711243,
          -0.32073184847831726
        ],
        [
          0.6065541505813599,
          0.2960512638092041,
          -0.2681710422039032,
          0.5326208472251892
        ],
        [
          -0.793802797794342,
          0.09058096259832382,
          -0.7128564119338989,
          -0.5990190505981445
        ],
        [
          -0.5371217131614685,
          -0.1994561403989792,
          0.526684582233429,
          -0.1536397784948349
        ]
      ],
      "bias": null
    },
    {
      "name": "fc2",
      "type": "linear",
      "in_features": 16,
      "out_features": 4,
      "weights": [
        [
          -1.4498395919799805,
          -1.1900767087936401,
          -0.000753915635868907,
          -0.4671347737312317,
          -0.9797309041023254,
          0.16094575822353363,
          0.476936936378479,
          -0.3780248165130615,
          0.8422188758850098,
          -0.45079872012138367,
          0.6577337980270386,
          0.8071557283401489,
          -0.43972110748291016,
          0.5217139720916748,
          -0.4926164448261261,
          -0.6066177487373352
        ],
        [
          -0.5719334483146667,
          -0.8365307450294495,
          -0.05572078377008438,
          -0.492787629365921,
          0.6466121673583984,
          0.5508849620819092,
          0.39996710419654846,
          1.2451481819152832,
          -0.8839015960693359,
          -1.7983382940292358,
          -0.7560997009277344,
          -1.250151515007019,
          0.4480346739292145,
          -0.502288281917572,
          -0.576117753982544,
          0.38746732473373413
        ],
        [
          0.5614224076271057,
          0.6756464242935181,
          0.10893457382917404,
          1.2120592594146729,
          -0.5489379167556763,
          -0.5464088320732117,
          -0.12428554147481918,
          -0.1090376228094101,
          -0.8992794156074524,
          0.7082405686378479,
          -0.7778527736663818,
          -0.22960598766803741,
          -0.07588016986846924,
          -0.10199622809886932,
          0.6267525553703308,
          -0.5940083861351013
        ],
        [
          0.7349661588668823,
          0.7427522540092468,
          0.11678171157836914,
          -2.48675537109375,
          0.08067819476127625,
          0.09845133870840073,
          -0.1513751745223999,
          -1.3797473907470703,
          0.27779850363731384,
          -1.0926144123077393,
          0.19869597256183624,
          -1.5280197858810425,
          -0.18555288016796112,
          -0.4346388876438141,
          0.2865579426288605,
          -0.4505702555179596
        ]
      ],
      "bias": null
    }
  ],
  "metadata": {
    "task": "classification"
  }
}