{
  "benchmark_id": "N1",
  "series": "N",
  "architecture": "N1Net",
  "timesteps": 20,
  "precision": {
    "weight_bits": 4,
    "signed": true
  },
  "layers": [
    {
      "name": "fc1",
      "type": "linear",
      "in_features": 4,
      "out_features": 16,
      "weights": [
        [
          -0.7509469985961914,
          0.8955760598182678,
          -0.5551413297653198,
          -0.09483906626701355
        ],
        [
          0.06882346421480179,
          -0.5115553140640259,
          -0.15424156188964844,
          -0.06143384426832199
        ],
        [
          -0.4219786524772644,
          -0.3154662251472473,
          0.6251123547554016,
          -0.2944314777851105
        ],
        [
          -0.3221307396888733,
          -0.07022586464881897,
          0.2523578703403473,
          0.46722841262817383
        ],
        [
          0.30674830079078674,
          -0.8937844038009644,
          0.5568662881851196,
          -0.19624651968479156
        ],
        [
          0.8127760291099548,
          0.2239224910736084,
          -0.23266321420669556,
          0.46649280190467834
        ],
        [
          0.0887867659330368,
          -0.2782197892665863,
          0.5911937355995178,
          0.24379782378673553
        ],
        [
          -0.47433194518089294,
          0.4257449507713318,
          -0.7816194295883179,
          -0.310490220785141
        ],
        [
          -0.41008076071739197,
          0.5960913896560669,
          -0.26620548963546753,
          -0.5697881579399109
        ],
        [
          0.494538277387619,
          -0.16748712956905365,
          -0.5087658762931824,
          0.6803926229476929
        ],
        [
          0.11811310797929764,
          -0.366565465927124,
          -0.19861486554145813,
          -0.024475259706377983
        ],
        [
          -0.3526947498321533,
          0.4557499885559082,
          -0.89681476354599,
          -0.7129421830177307
        ],
        [
          -0.530339241027832,
          0.04314908757805824,
          0.10307499766349792,
          0.7549026608467102
        ],
        [
          -0.30127111077308655,
          -0.03145613148808479,
          0.7405110001564026,
          -0.3854970932006836
        ],
        [
          0.6780980825424194,
          0.3172247111797333,
          -0.200719952583313,
          0.4713743031024933
        ],
        [
          -0.6267381906509399,
          0.016461851075291634,
          0.6289263963699341,
          -0.24429093301296234
        ]
      ],
      "bias": null
    },
    {
      "name": "fc2",
      "type": "linear",
      "in_features": 16,
      "out_features": 4,
      "weights": [
        [
          -0.9704621434211731,
          -0.20810867846012115,
          -0.8083090782165527,
          0.26633989810943604,
          -0.24320463836193085,
          1.5495960712432861,
          0.5509034991264343,
          -0.7479224801063538,
          -0.4724622964859009,
          0.4810103476047516,
          -0.6097626686096191,
          -1.0516390800476074,
          0.2734011709690094,
          -1.2856330871582031,
          0.5783473253250122,
          -0.665701687335968
        ],
        [
          -0.8995236754417419,
          -0.22955891489982605,
          0.4981037974357605,
          0.34297582507133484,
          0.5874044895172119,
          -1.2570093870162964,
          0.3651134669780731,
          -0.38018569350242615,
          -0.6978029012680054,
          -0.7411646246910095,
          -0.4137513041496277,
          -0.5615522265434265,
          0.328395277261734,
          0.8092740178108215,
          -0.841691255569458,
          0.43213164806365967
        ],
        [
          0.6330965161323547,
          -0.8553387522697449,
          -0.49106651544570923,
          -0.2696802020072937,
          -1.2344111204147339,
          -0.5654796957969666,
          -0.5131657719612122,
          0.7327720522880554,
          0.8440570831298828,
          -0.37786170840263367,
          -0.7010637521743774,
          1.3149110078811646,
          -0.12002592533826828,
          0.0554758720099926,
          -0.05915798619389534,
          0.036208704113960266
        ],
        [
          -0.9809980988502502,
          1.544756531715393,
          -0.4781562387943268,
          -0.5999597907066345,
          -0.10443702340126038,
          -0.9748403429985046,
          -0.07182919234037399,
          0.01105804368853569,
          -1.1832873821258545,
          0.12562251091003418,
          0.845613956451416,
          0.18839769065380096,
          -1.0895079374313354,
          -0.1182820275425911,
          -0.11287018656730652,
          -0.05332642421126366
        ]
      ],
      "bias": null
    }
  ],
  "metadata": {
    "task": "classification"
  }
}