{
  "benchmark_id": "P1",
  "series": "P",
  "architecture": "P1Net",
  "timesteps": 20,
  "precision": {
    "weight_bits": 4,
    "signed": true
  },
  "layers": [
    {
      "name": "fc1",
      "type": "linear",
      "in_features": 6,
      "out_features": 16,
      "weights": [
        [
          0.23380248248577118,
          -0.4948763847351074,
          0.016682730987668037,
          0.01681726984679699,
          0.22803853452205658,
          0.12163089215755463
        ],
        [
          -0.456550270318985,
          0.24393638968467712,
          -0.1956711709499359,
          0.24331018328666687,
          -0.2840348184108734,
          0.4066486358642578
        ],
        [
          -0.4064323604106903,
          -0.08991580456495285,
          -0.26696598529815674,
          0.127692312002182,
          0.14382459223270416,
          0.06675466150045395
        ],
        [
          0.07795366644859314,
          -0.5587314963340759,
          0.07091231644153595,
          -0.24577157199382782,
          0.1467324197292328,
          0.16855239868164062
        ],
        [
          0.00497862184420228,
          0.4271301329135895,
          -0.04766600579023361,
          -0.4375671148300171,
          -0.02315589413046837,
          -0.11261110007762909
        ],
        [
          0.3103538155555725,
          -0.4384184777736664,
          0.3110523819923401,
          0.1697760373353958,
          0.3643251359462738,
          -0.4270952641963959
        ],
        [
          -0.5026578307151794,
          -0.09639615565538406,
          -0.10719253867864609,
          0.23521235585212708,
          -0.20272378623485565,
          0.2615457773208618
        ],
        [
          -0.23088176548480988,
          -0.04725513979792595,
          0.01340495329350233,
          -0.059269536286592484,
          -0.636600136756897,
          0.34857621788978577
        ],
        [
          0.6000668406486511,
          -0.03589427098631859,
          0.17279531061649323,
          -0.17244422435760498,
          -0.030961008742451668,
          -0.13254235684871674
        ],
        [
          -0.11604883521795273,
          0.04568342864513397,
          -0.03271517530083656,
          -0.41356161236763,
          0.09788630902767181,
          -0.24679119884967804
        ],
        [
          0.34979742765426636,
          -0.28508836030960083,
          0.3806530237197876,
          -0.09853099286556244,
          -0.49926114082336426,
          -0.26724717020988464
        ],
        [
          -0.2588115334510803,
          0.10452744364738464,
          -0.30229467153549194,
          0.3411945104598999,
          -0.2325190156698227,
          0.28687798976898193
        ],
        [
          0.27247893810272217,
          0.10600750148296356,
          -0.16853418946266174,
          0.04328402876853943,
          0.7883917689323425,
          -0.03222285583615303
        ],
        [
          0.29390352964401245,
          -0.3956318199634552,
          -0.13102643191814423,
          0.32326120138168335,
          0.31183815002441406,
          -0.17864415049552917
        ],
        [
          0.07808414101600647,
          0.2002773880958557,
          0.23081430792808533,
          -0.13161803781986237,
          -0.6698621511459351,
          -0.20084556937217712
        ],
        [
          0.2179853767156601,
          -0.5033071041107178,
          0.4121602177619934,
          0.29058602452278137,
          0.1341882348060608,
          -0.48708322644233704
        ]
      ],
      "bias": null
    },
    {
      "name": "fc2",
      "type": "linear",
      "in_features": 16,
      "out_features": 16,
      "weights": [
        [
          0.18114161491394043,
          -0.06469694525003433,
          -0.09988418966531754,
          0.048203371465206146,
          0.3667384088039398,
          0.3596017360687256,
          -0.12482518702745438,
          -0.1227705255150795,
          0.4286958873271942,
          0.11532601714134216,
          0.3258742392063141,
          -0.07187672704458237,
          0.08601962774991989,
          0.21653532981872559,
          0.33163920044898987,
          0.23681189119815826
        ],
        [
          0.13766047358512878,
          0.6786441802978516,
          0.5287848711013794,
          0.1848294585943222,
          0.009382938966155052,
          -0.0003786222659982741,
          0.5867507457733154,
          0.13047611713409424,
          -0.019086329266428947,
          0.4714142978191376,
          -0.6609845161437988,
          0.6872444152832031,
          0.713455080986023,
          -0.48803359270095825,
          -0.8291604518890381,
          -0.9385005831718445
        ],
        [
          -0.04876970499753952,
          0.13031698763370514,
          0.24055466055870056,
          0.13908720016479492,
          -0.7420321106910706,
          0.47538480162620544,
          0.34689170122146606,
          0.18703946471214294,
          0.23048539459705353,
          -0.23884232342243195,
          0.10518721491098404,
          0.358521431684494,
          0.21642692387104034,
          0.3751242756843567,
          -0.004098318982869387,
          0.6997756361961365
        ],
        [
          0.20667822659015656,
          0.40829285979270935,
          0.4287322759628296,
          0.20089825987815857,
          -0.3983749449253082,
          0.17730243504047394,
          0.12463625520467758,
          0.08940736204385757,
          0.17825566232204437,
          -0.4364907443523407,
          0.3103675842285156,
          0.046387046575546265,
          -0.03603518754243851,
          0.451613187789917,
          -0.33231768012046814,
          0.5019879341125488
        ],
        [
          0.12231974303722382,
          -0.05624474957585335,
          0.3231031000614166,
          -0.01209071185439825,
          0.311199814081192,
          -0.4035974144935608,
          0.3076224625110626,
          0.32201114296913147,
          0.060596562922000885,
          -0.2634950280189514,
          0.5345054864883423,
          0.3499535322189331,
          -0.25450727343559265,
          -0.14488168060779572,
          0.37593042850494385,
          -0.2962540090084076
        ],
        [
          0.13732095062732697,
          -0.0033941392321139574,
          -0.10903417319059372,
          0.3206908106803894,
          0.10033911466598511,
          0.09465146064758301,
          -0.381552517414093,
          0.2432146966457367,
          0.35611942410469055,
          0.4915189743041992,
          0.21628601849079132,
          -0.25499215722084045,
          0.2661365270614624,
          0.0377456471323967,
          0.22204504907131195,
          0.4414600729942322
        ],
        [
          -0.09842942655086517,
          -0.3301200568675995,
          -0.2211466133594513,
          -0.06413192301988602,
          0.27345511317253113,
          -0.2771264612674713,
          0.09687348455190659,
          0.21822495758533478,
          0.12734085321426392,
          0.11492740362882614,
          0.39399898052215576,
          -0.0536922849714756,
          -0.5393744707107544,
          -0.017756961286067963,
          0.5396213531494141,
          -0.31803375482559204
        ],
        [
          0.23959232866764069,
          0.01053617149591446,
          -0.06130408123135567,
          0.17727318406105042,
          -0.05546647310256958,
          0.20572474598884583,
          -0.14959868788719177,
          -0.06560734659433365,
          0.31948092579841614,
          0.2350711077451706,
          -0.030968939885497093,
          -0.3887661099433899,
          0.4750477373600006,
          0.3117099702358246,
          -0.5745149850845337,
          0.4071752727031708
        ],
        [
          -0.05859944224357605,
          0.16553151607513428,
          0.37684550881385803,
          0.08276563137769699,
          -0.042602140456438065,
          -0.3007294535636902,
          0.2174414098262787,
          0.3292030394077301,
          0.19075171649456024,
          0.20500324666500092,
          0.20607808232307434,
          0.2760334610939026,
          -0.5330902338027954,
          0.19499613344669342,
          0.5537462830543518,
          -0.6916244626045227
        ],
        [
          0.04876205697655678,
          0.10448107123374939,
          -0.09265805780887604,
          -0.026533646509051323,
          0.2751471996307373,
          -0.20973311364650726,
          -0.19918997585773468,
          0.22832976281642914,
          -0.01076814066618681,
          0.17472045123577118,
          0.3950110375881195,
          -0.10497820377349854,
          -0.4995484948158264,
          -0.2706791162490845,
          0.4843575358390808,
          -0.22950883209705353
        ],
        [
          0.010569771751761436,
          0.15735960006713867,
          -0.33661437034606934,
          0.473262757062912,
          0.24872107803821564,
          0.31852489709854126,
          -0.5407858490943909,
          -0.05167388916015625,
          0.4063054323196411,
          0.49604690074920654,
          0.3547650873661041,
          -0.3162681460380554,
          0.3926398754119873,
          0.10980073362588882,
          0.3758852779865265,
          -0.07230064272880554
        ],
        [
          0.06720718741416931,
          0.22059188783168793,
          0.37432315945625305,
          0.18170702457427979,
          -0.31861045956611633,
          0.01335714478045702,
          0.2470046579837799,
          0.1865675300359726,
          -0.29123440384864807,
          -0.39332565665245056,
          -0.29535365104675293,
          0.31967252492904663,
          -0.032646190375089645,
          0.05188242346048355,
          0.02409489080309868,
          -0.18258905410766602
        ],
        [
          -0.021303480491042137,
          0.3356446921825409,
          0.21257363259792328,
          0.31232306361198425,
          -0.9245353937149048,
          0.2776540517807007,
          0.018583182245492935,
          0.15070846676826477,
          0.21190141141414642,
          -0.300366073846817,
          0.11646119505167007,
          0.40144482254981995,
          0.2796298563480377,
          0.31303003430366516,
          -0.012163656763732433,
          0.42095038294792175
        ],
        [
          -0.09228634089231491,
          0.19251996278762817,
          0.21890300512313843,
          0.3892732560634613,
          0.46692395210266113,
          -0.48644113540649414,
          0.4009924829006195,
          0.43372368812561035,
          0.35518521070480347,
          0.24394138157367706,
          0.03690154850482941,
          0.18498843908309937,
          0.12859725952148438,
          -0.28193017840385437,
          0.15862607955932617,
          -0.34508800506591797
        ],
        [
          0.15922221541404724,
          0.38966673612594604,
          0.47502779960632324,
          0.3746944069862366,
          0.18951475620269775,
          -0.286480188369751,
          0.1466851532459259,
          0.11694607138633728,
          -0.2640945315361023,
          0.4475422203540802,
          -0.40261703729629517,
          0.15874910354614258,
          0.5080015063285828,
          -0.10670704394578934,
          -0.37448081374168396,
          -0.6400479674339294
        ],
        [
          0.2565344572067261,
          0.41284307837486267,
          0.26737359166145325,
          0.041216351091861725,
          -0.3855796456336975,
          -0.09401459246873856,
          0.422111839056015,
          0.14419172704219818,
          -0.3458796441555023,
          -0.2499571591615677,
          -0.16378197073936462,
          0.020799333229660988,
          -0.015261287800967693,
          0.24130240082740784,
          -0.06189178675413132,
          -0.46490707993507385
        ]
      ],
      "bias": null
    },
    {
      "name": "fc3",
      "type": "linear",
      "in_features": 16,
      "out_features": 4,
      "weights": [
        [
          0.2729776203632355,
          -2.251307249069214,
          -1.1666299104690552,
          -0.7623775005340576,
          0.5704359412193298,
          0.4411371350288391,
          0.9159466028213501,
          -0.7748628258705139,
          0.7775260806083679,
          0.537572979927063,
          0.4045684039592743,
          -0.10827237367630005,
          -0.9961504340171814,
          0.7063612937927246,
          -0.4576221704483032,
          -0.363150030374527
        ],
        [
          0.5456081032752991,
          -2.514275312423706,
          1.1081326007843018,
          0.5331383943557739,
          -0.4858829081058502,
          0.5064323544502258,
          -0.7720356583595276,
          0.733401894569397,
          -0.6787869930267334,
          -0.5222123265266418,
          0.2093966156244278,
          -0.6098666787147522,
          0.8151588439941406,
          -1.0578367710113525,
          -0.870965838432312,
          -0.6407859325408936
        ],
        [
          -0.9313816428184509,
          1.7276833057403564,
          0.3465821444988251,
          0.14584599435329437,
          0.378671795129776,
          -0.5912670493125916,
          -0.47302499413490295,
          -0.5184980034828186,
          0.4010000228881836,
          -0.36809855699539185,
          -1.351396918296814,
          0.5253230333328247,
          0.4251684248447418,
          0.08011338114738464,
          0.3891967535018921,
          0.579746425151825
        ],
        [
          -0.46709969639778137,
          0.8732604384422302,
          -2.254066228866577,
          -1.9909757375717163,
          -1.2995437383651733,
          0.5335025191307068,
          -1.665565013885498,
          0.8071998953819275,
          -0.9642576575279236,
          -0.9295753836631775,
          0.5234766602516174,
          -1.347347378730774,
          -2.0676169395446777,
          0.5160515904426575,
          0.6020479202270508,
          -1.2186386585235596
        ]
      ],
      "bias": null
    }
  ],
  "metadata": {
    "task": "classification"
  }
}