{
  "benchmark_id": "A1",
  "series": "A",
  "architecture": "A1Net",
  "timesteps": 20,
  "precision": {
    "weight_bits": 4,
    "signed": true
  },
  "layers": [
    {
      "name": "fc1",
      "type": "linear",
      "in_features": 16,
      "out_features": 32,
      "weights": [
        [
          -0.25685566663742065,
          0.26826491951942444,
          -0.0870843380689621,
          0.05203438550233841,
          0.442182332277298,
          0.00945372600108385,
          -0.15278077125549316,
          0.2914186418056488,
          -0.371133416891098,
          0.2275722324848175,
          -0.3323811888694763,
          -0.12224231660366058,
          0.051017627120018005,
          0.0002464699500706047,
          0.30309930443763733,
          -0.26581618189811707
        ],
        [
          -0.32625144720077515,
          0.22188839316368103,
          -0.3012237846851349,
          -0.09700005501508713,
          -0.3475203514099121,
          -0.01887665130198002,
          0.057873643934726715,
          0.3065779209136963,
          0.2789076566696167,
          -0.028234805911779404,
          0.49564215540885925,
          0.03707202896475792,
          0.1289866417646408,
          -0.11626245081424713,
          -0.2623272240161896,
          0.3146485686302185
        ],
        [
          -0.3699173331260681,
          0.3028401732444763,
          -0.13104510307312012,
          -0.08987180143594742,
          0.7478281855583191,
          0.06884924322366714,
          -0.20182448625564575,
          0.4991806149482727,
          -0.4388304650783539,
          -0.41398754715919495,
          -0.34411007165908813,
          0.11371280252933502,
          0.24883981049060822,
          0.3217689096927643,
          -0.2569321095943451,
          0.38468050956726074
        ],
        [
          0.0070795174688100815,
          0.2768188416957855,
          -0.20191119611263275,
          -0.06437452137470245,
          -0.5369302034378052,
          0.11702203750610352,
          0.21010035276412964,
          -0.05558381602168083,
          0.1761265993118286,
          0.10007195919752121,
          0.4243139624595642,
          0.028308771550655365,
          0.059166647493839264,
          -0.1058541014790535,
          -0.02219579741358757,
          -0.16269773244857788
        ],
        [
          0.02287256345152855,
          -0.8724841475486755,
          0.652684211730957,
          0.06860223412513733,
          0.22656971216201782,
          0.09780926257371902,
          -0.38351988792419434,
          -0.13187921047210693,
          0.05757834389805794,
          -0.697868824005127,
          0.0577935054898262,
          0.31940096616744995,
          0.49499887228012085,
          0.0370798297226429,
          -0.1551109254360199,
          0.11172235012054443
        ],
        [
          0.1098906472325325,
          -0.18604443967342377,
          0.09731040149927139,
          0.05278070271015167,
          -0.0931304469704628,
          0.33928701281547546,
          0.13561005890369415,
          0.022739524021744728,
          0.297116756439209,
          0.0634392499923706,
          0.0071701910346746445,
          0.3167298138141632,
          0.23107236623764038,
          0.01109099667519331,
          0.29784396290779114,
          0.010850736871361732
        ],
        [
          0.38580381870269775,
          0.027880536392331123,
          0.127715602517128,
          0.04186076670885086,
          0.15029549598693848,
          0.25151973962783813,
          0.047013022005558014,
          0.03251244127750397,
          0.19944609701633453,
          0.27344995737075806,
          0.20075258612632751,
          -0.005833392031490803,
          0.003346112323924899,
          0.016075028106570244,
          0.23414191603660583,
          0.28008249402046204
        ],
        [
          -0.2069091498851776,
          0.2897871732711792,
          -0.3070228695869446,
          -0.006211939267814159,
          0.12369288504123688,
          0.07825150340795517,
          0.22395120561122894,
          0.36961570382118225,
          -0.06942776590585709,
          0.022815557196736336,
          0.2131178379058838,
          -0.022098014131188393,
          0.08363404124975204,
          -0.01589541882276535,
          0.19548216462135315,
          -0.27888983488082886
        ],
        [
          0.14164547622203827,
          -0.07154786586761475,
          0.2110116183757782,
          0.29218316078186035,
          0.02098855935037136,
          0.21690407395362854,
          0.18038566410541534,
          0.053778260946273804,
          0.15838120877742767,
          0.17025813460350037,
          -0.057988665997982025,
          0.12153913825750351,
          -0.10505479574203491,
          0.12211020290851593,
          0.1240287497639656,
          0.07374425232410431
        ],
        [
          -0.45810142159461975,
          -0.24936404824256897,
          -0.08405814319849014,
          -0.5058785080909729,
          0.4699232578277588,
          -0.04713702201843262,
          -0.4248184263706207,
          0.37391024827957153,
          -0.48222193121910095,
          -0.5116071701049805,
          -0.15427081286907196,
          0.24962693452835083,
          0.3598851263523102,
          0.0006478645955212414,
          -0.591298520565033,
          0.38672372698783875
        ],
        [
          0.3959406018257141,
          -0.14199016988277435,
          0.24155732989311218,
          -0.058702223002910614,
          -0.26445284485816956,
          -0.14849728345870972,
          -0.170119047164917,
          -0.1809314340353012,
          0.39555633068084717,
          -0.38874223828315735,
          0.1177457720041275,
          0.4204111695289612,
          0.2841522991657257,
          -0.1727103590965271,
          -0.23826342821121216,
          0.46449097990989685
        ],
        [
          -0.2048557847738266,
          0.3615019917488098,
          -0.15132112801074982,
          0.07110438495874405,
          -0.46522992849349976,
          -0.03314077481627464,
          -0.07457960397005081,
          0.11689267307519913,
          0.09752348065376282,
          -0.006126031745225191,
          0.164230078458786,
          0.17031964659690857,
          0.04074488580226898,
          0.026404686272144318,
          0.002356867538765073,
          0.19627201557159424
        ],
        [
          -0.2557208836078644,
          0.07613986730575562,
          -0.3209724426269531,
          -0.28648698329925537,
          0.15717639029026031,
          -0.20762145519256592,
          -0.38947105407714844,
          0.238382488489151,
          -0.3143877685070038,
          -0.4832181930541992,
          -0.25040286779403687,
          0.479240357875824,
          0.34286242723464966,
          -0.20554541051387787,
          -0.2802967429161072,
          0.15333932638168335
        ],
        [
          -0.28936347365379333,
          0.36119210720062256,
          -0.1948137730360031,
          -0.00479309493675828,
          0.1559436023235321,
          0.10442737489938736,
          -0.00130947376601398,
          0.39336857199668884,
          -0.149842768907547,
          0.228850319981575,
          0.11074567586183548,
          -0.07337527722120285,
          0.013845384120941162,
          -0.061427902430295944,
          -0.06312108784914017,
          0.16944479942321777
        ],
        [
          -0.371694415807724,
          0.3942365050315857,
          -0.046325065195560455,
          -0.06080469489097595,
          0.03610869497060776,
          0.06385011970996857,
          0.08345706760883331,
          0.46576523780822754,
          -0.10897397249937057,
          0.16389231383800507,
          0.25591233372688293,
          -0.05046418309211731,
          -0.07190040498971939,
          0.022840963676571846,
          0.06108967959880829,
          -0.058813322335481644
        ],
        [
          0.42471104860305786,
          -0.17775414884090424,
          0.2170182168483734,
          -0.02842973917722702,
          -0.3727661967277527,
          0.032963305711746216,
          0.01226296927779913,
          -0.0700559914112091,
          0.23965418338775635,
          -0.18846888840198517,
          0.1385185271501541,
          0.17890828847885132,
          0.042869310826063156,
          0.05540074035525322,
          -0.12424278259277344,
          0.1314057856798172
        ],
        [
          0.15172751247882843,
          -0.13757222890853882,
          0.24567382037639618,
          0.1019270047545433,
          0.13460540771484375,
          -0.045343153178691864,
          0.27421891689300537,
          -0.16050724685192108,
          0.008059828542172909,
          0.2920963764190674,
          0.05419064313173294,
          -0.02812669612467289,
          -0.018270380795001984,
          0.2342595010995865,
          0.21540655195713043,
          0.2711743712425232
        ],
        [
          0.29756486415863037,
          -0.2668706476688385,
          0.0932498425245285,
          -0.16739721596240997,
          -0.39644816517829895,
          0.016898389905691147,
          0.06472983211278915,
          -0.2693471610546112,
          0.24924343824386597,
          -0.1950279027223587,
          0.3136197030544281,
          0.07054157555103302,
          0.2363484799861908,
          0.12192337214946747,
          0.10563136637210846,
          0.15493643283843994
        ],
        [
          -0.425821453332901,
          -0.24193400144577026,
          -0.0007152758189477026,
          -0.28864070773124695,
          0.29381218552589417,
          -0.2942811846733093,
          -0.29487529397010803,
          0.7244820594787598,
          -0.2588745653629303,
          -0.3630017936229706,
          -0.07645148783922195,
          0.35904189944267273,
          0.0762980505824089,
          -0.13100658357143402,
          -0.24733708798885345,
          0.4459550678730011
        ],
        [
          -0.42404741048812866,
          0.0056048426777124405,
          -0.0930379256606102,
          -0.32079651951789856,
          0.18529140949249268,
          -0.1929110288619995,
          -0.26507702469825745,
          0.23462726175785065,
          -0.15103022754192352,
          -0.35750409960746765,
          -0.024440020322799683,
          0.21250542998313904,
          0.25821453332901,
          -0.08761902898550034,
          -0.20310138165950775,
          0.3455941677093506
        ],
        [
          0.09023954719305038,
          0.16389282047748566,
          -0.25310567021369934,
          -0.13006152212619781,
          -0.5042401552200317,
          0.04343747720122337,
          0.27084144949913025,
          0.10276493430137634,
          0.1484087109565735,
          0.01756202057003975,
          0.24074387550354004,
          0.05035236105322838,
          -0.03509698435664177,
          -0.10855468362569809,
          0.015833035111427307,
          0.06803746521472931
        ],
        [
          0.21697556972503662,
          0.02481883578002453,
          0.2860852777957916,
          0.1730860471725464,
          0.0953914076089859,
          0.05781235173344612,
          0.3205398619174957,
          -0.22492347657680511,
          0.11211832612752914,
          0.11053115129470825,
          0.04577159509062767,
          -0.07085666060447693,
          0.16239270567893982,
          0.2755427360534668,
          0.20013944804668427,
          0.005424965638667345
        ],
        [
          0.4875069558620453,
          -0.009479212574660778,
          0.2840106189250946,
          0.6095671653747559,
          -0.06492474675178528,
          0.26031631231307983,
          0.45407938957214355,
          -0.3386634290218353,
          0.5352439880371094,
          0.8250685334205627,
          0.2951754629611969,
          -0.002594246529042721,
          0.06105309724807739,
          0.3020608127117157,
          0.37544408440589905,
          -0.13586217164993286
        ],
        [
          0.1403430700302124,
          -0.001212972099892795,
          0.1848658323287964,
          -0.025514518842101097,
          0.022884676232933998,
          0.1933494657278061,
          -0.04374313727021217,
          -0.12070469558238983,
          0.14350031316280365,
          0.25935620069503784,
          -0.035424746572971344,
          0.16751055419445038,
          0.0354512520134449,
          0.2513149082660675,
          0.30891987681388855,
          0.010046039707958698
        ],
        [
          -0.3853239417076111,
          0.0017244362970814109,
          -0.41659849882125854,
          -0.05397344008088112,
          0.3144002854824066,
          -0.30141714215278625,
          -0.06884942948818207,
          0.370787650346756,
          -0.23417887091636658,
          -0.3818753957748413,
          -0.16595493257045746,
          0.16564756631851196,
          0.10913842916488647,
          0.11408223956823349,
          -0.3570062816143036,
          0.4117303192615509
        ],
        [
          0.16767343878746033,
          0.1103162169456482,
          0.31005731225013733,
          0.2661396563053131,
          -0.05370175838470459,
          -0.08997903019189835,
          0.19091686606407166,
          0.04498658329248428,
          -0.021094204857945442,
          0.2590674161911011,
          0.33956047892570496,
          0.22199463844299316,
          0.005622476805001497,
          0.07323569059371948,
          0.3575807809829712,
          -0.09962740540504456
        ],
        [
          -0.3452109396457672,
          -0.41935476660728455,
          -0.2031932771205902,
          -0.4740728437900543,
          0.49480345845222473,
          -0.16209837794303894,
          -0.4121609628200531,
          0.3758159279823303,
          -0.5749185681343079,
          -0.45610281825065613,
          -0.2812401056289673,
          0.3431106209754944,
          0.35533803701400757,
          -0.06802798807621002,
          -0.4739663600921631,
          0.4951203167438507
        ],
        [
          -0.2561221420764923,
          0.17366820573806763,
          -0.30790382623672485,
          0.18413548171520233,
          0.024953467771410942,
          0.1815735250711441,
          0.19688674807548523,
          0.3299899995326996,
          -0.06193922460079193,
          0.3509382903575897,
          0.08964838087558746,
          -0.04753362387418747,
          0.03371281176805496,
          0.007017383351922035,
          -0.038625314831733704,
          -0.13132542371749878
        ],
        [
          -0.09785906970500946,
          0.1476765275001526,
          -0.12332575023174286,
          -0.11264806985855103,
          0.5597436428070068,
          0.23975351452827454,
          -0.183718740940094,
          0.47181791067123413,
          -0.5056046843528748,
          0.23610013723373413,
          -0.18184128403663635,
          -0.24830804765224457,
          -0.018884506076574326,
          0.030245602130889893,
          -0.03489779308438301,
          -0.0020870857406407595
        ],
        [
          -0.12012960016727448,
          0.27229464054107666,
          -0.1977771371603012,
          0.07140522450208664,
          0.08922043442726135,
          -0.03274071589112282,
          0.25137269496917725,
          0.16524557769298553,
          -0.06874092668294907,
          0.35823923349380493,
          0.10857788473367691,
          -0.11673343181610107,
          -0.1579190492630005,
          -0.03585268184542656,
          0.10812089592218399,
          -0.14087864756584167
        ],
        [
          -0.4385868310928345,
          0.007460641209036112,
          -0.17931212484836578,
          -0.24007876217365265,
          0.18706126511096954,
          -0.3491906523704529,
          -0.08930768072605133,
          0.385759174823761,
          -0.3204871714115143,
          -0.44456180930137634,
          0.019599752500653267,
          -0.044257812201976776,
          0.15145452320575714,
          -0.23570691049098969,
          -0.2576267421245575,
          0.2956036925315857
        ],
        [
          -0.18237252533435822,
          0.3845905065536499,
          -0.16139863431453705,
          0.06246381625533104,
          -0.00951117742806673,
          0.14405697584152222,
          0.04866749793291092,
          0.3171035349369049,
          -0.1291726529598236,
          0.3472919166088104,
          0.14425557851791382,
          -0.169315904378891,
          -0.10619477927684784,
          -0.059007130563259125,
          0.1456759124994278,
          -0.18765468895435333
        ]
      ],
      "bias": null
    },
    {
      "name": "fc2",
      "type": "linear",
      "in_features": 32,
      "out_features": 4,
      "weights": [
        [
          -0.040639158338308334,
          0.3014295697212219,
          0.41140931844711304,
          -0.4292083978652954,
          0.5300393104553223,
          -0.9544532895088196,
          -0.48930472135543823,
          -0.0811743289232254,
          -0.9771663546562195,
          1.282654047012329,
          0.19427791237831116,
          0.1688588410615921,
          0.6785072088241577,
          0.32037049531936646,
          0.09058068692684174,
          -0.3582685589790344,
          -0.88621586561203,
          -0.5108230113983154,
          2.7820489406585693,
          0.48116543889045715,
          -0.0505460649728775,
          -1.1575392484664917,
          -0.5871075987815857,
          -1.3625074625015259,
          0.47608062624931335,
          -0.7923994064331055,
          1.4719247817993164,
          -0.5181119441986084,
          0.3430613577365875,
          -0.3696959316730499,
          0.47240808606147766,
          -0.8866459727287292
        ],
        [
          -0.7452809810638428,
          -0.809451162815094,
          -2.0307281017303467,
          -0.8851930499076843,
          3.0004477500915527,
          0.5174325108528137,
          0.3297652006149292,
          -0.946514904499054,
          0.4428659975528717,
          -4.200554847717285,
          0.9766753911972046,
          -0.4354667067527771,
          -2.684814453125,
          -0.8011512160301208,
          -0.6990411877632141,
          0.18144170939922333,
          0.4343099594116211,
          0.6220443844795227,
          -0.20766231417655945,
          -1.5891486406326294,
          -0.20999585092067719,
          0.32054248452186584,
          0.24613311886787415,
          0.40755796432495117,
          -1.5384048223495483,
          0.3398081362247467,
          -3.4909908771514893,
          -0.9470623731613159,
          -0.9345740079879761,
          -0.9402967095375061,
          -1.8733999729156494,
          -1.0104222297668457
        ],
        [
          1.328825831413269,
          -0.7120398879051208,
          0.19343434274196625,
          -1.2558236122131348,
          -0.9573123455047607,
          -0.06976931542158127,
          -0.0015089450171217322,
          0.627591609954834,
          0.07519208639860153,
          -2.6966099739074707,
          -1.524187445640564,
          -0.265320748090744,
          -1.7164855003356934,
          0.4967701733112335,
          0.42170193791389465,
          -0.6412338614463806,
          0.016585437580943108,
          -1.0758239030838013,
          -0.5897316336631775,
          -0.7183830738067627,
          -0.6103798747062683,
          -0.051940158009529114,
          -0.08726736903190613,
          0.03631247580051422,
          -0.6518229842185974,
          0.010223478078842163,
          -3.4012463092803955,
          0.8327169418334961,
          0.9203727841377258,
          0.6522781252861023,
          -0.46065714955329895,
          1.1713253259658813
        ],
        [
          -1.5348305702209473,
          1.2382616996765137,
          -2.3538718223571777,
          1.0082026720046997,
          -1.5880825519561768,
          -0.5285063982009888,
          -0.44100359082221985,
          0.360028475522995,
          -0.5029095411300659,
          -3.491281270980835,
          0.38959017395973206,
          0.8362235426902771,
          -2.596104145050049,
          0.4743368923664093,
          0.4980071187019348,
          0.3624204099178314,
          -0.5912111401557922,
          0.5001375675201416,
          -0.3609151542186737,
          -1.014397144317627,
          0.9415103197097778,
          -0.45160502195358276,
          -0.43826058506965637,
          -0.4928193688392639,
          -1.103188157081604,
          -0.4484706521034241,
          -3.4764857292175293,
          0.5408083200454712,
          -1.1296284198760986,
          0.5710076093673706,
          -1.057690143585205,
          0.5553123354911804
        ]
      ],
      "bias": null
    }
  ],
  "metadata": {
    "task": "classification"
  }
}