{
  "benchmark_id": "N3",
  "series": "N",
  "architecture": "N3Net",
  "timesteps": 20,
  "precision": {
    "weight_bits": 4,
    "signed": true
  },
  "layers": [
    {
      "name": "fc1",
      "type": "linear",
      "in_features": 16,
      "out_features": 128,
      "weights": [
        [
          0.17186236381530762,
          -0.01628110557794571,
          -0.13436120748519897,
          0.00487540615722537,
          -0.18599389493465424,
          0.0006870924844406545,
          -0.1935480237007141,
          0.19626805186271667,
          -0.19859646260738373,
          -0.1060200110077858,
          0.2300015240907669,
          -0.1128416359424591,
          -0.14426948130130768,
          -0.18632933497428894,
          -0.02893642894923687,
          0.11171560734510422
        ],
        [
          0.053806472569704056,
          -0.2192133665084839,
          -0.005339695606380701,
          0.024054963141679764,
          0.06444745510816574,
          0.08835957944393158,
          0.15269529819488525,
          -0.1914430409669876,
          -0.07474038749933243,
          0.24769851565361023,
          0.13588076829910278,
          -0.22479715943336487,
          -0.10586430132389069,
          -0.19521570205688477,
          -2.1666797692887485e-05,
          0.252508282661438
        ],
        [
          0.22312523424625397,
          0.12517350912094116,
          0.020424427464604378,
          -0.06734564155340195,
          0.09078006446361542,
          0.11751571297645569,
          0.12809932231903076,
          -0.15218399465084076,
          0.19599014520645142,
          0.20709574222564697,
          0.05740968883037567,
          0.12951387465000153,
          -0.07617305219173431,
          0.09990616142749786,
          -0.17366433143615723,
          0.1504531353712082
        ],
        [
          -0.14324700832366943,
          0.09909018129110336,
          0.04638472571969032,
          -0.08563129603862762,
          0.07564835995435715,
          -0.15765272080898285,
          0.24680906534194946,
          0.0015383829595521092,
          -0.13021759688854218,
          -0.23432333767414093,
          -0.14216692745685577,
          0.22389061748981476,
          -0.0334758497774601,
          -0.11557590216398239,
          0.05057143047451973,
          0.16761848330497742
        ],
        [
          -0.26976120471954346,
          0.10385828465223312,
          -0.08435871452093124,
          -0.23684225976467133,
          -0.052294738590717316,
          0.04516243189573288,
          -0.1900406926870346,
          0.015185014344751835,
          -0.1768714040517807,
          -0.13046763837337494,
          -0.012201658450067043,
          0.22876891493797302,
          -0.19874976575374603,
          -0.058359622955322266,
          0.12858141958713531,
          -0.05559302866458893
        ],
        [
          0.07891624420881271,
          -0.27462583780288696,
          0.00014780048513785005,
          -0.15768887102603912,
          0.02643767185509205,
          0.20376068353652954,
          -0.21862265467643738,
          0.10229463875293732,
          0.17552019655704498,
          -0.0545659139752388,
          0.08695604652166367,
          -0.21878550946712494,
          0.1310584843158722,
          -0.05730269476771355,
          0.08707333356142044,
          -0.15727731585502625
        ],
        [
          -0.15073853731155396,
          -0.15197664499282837,
          0.13499754667282104,
          0.053509294986724854,
          -0.13892148435115814,
          0.20929208397865295,
          0.07950524240732193,
          -0.12523481249809265,
          0.07404812425374985,
          0.22647921741008759,
          -0.012045471929013729,
          -0.17257578670978546,
          0.18401454389095306,
          0.16738225519657135,
          0.2559334337711334,
          0.07796221226453781
        ],
        [
          0.0034668089356273413,
          -0.1542683243751526,
          0.10562191903591156,
          -0.20771917700767517,
          0.004904442001134157,
          0.009085249155759811,
          -0.06378985196352005,
          -0.00988793931901455,
          0.1395619511604309,
          0.004535743501037359,
          0.02283543348312378,
          0.04885551333427429,
          -0.02373814582824707,
          0.12159469723701477,
          -0.06326640397310257,
          0.02456263080239296
        ],
        [
          -0.20344005525112152,
          0.18521256744861603,
          -0.020627664402127266,
          -0.19282561540603638,
          -0.08339285850524902,
          -0.038244228810071945,
          -0.19269925355911255,
          -0.032374292612075806,
          0.07837256789207458,
          0.20324327051639557,
          0.08100187033414841,
          -0.002829949138686061,
          -0.17935287952423096,
          -0.02413504384458065,
          -0.17907869815826416,
          0.05818326026201248
        ],
        [
          -0.2291194200515747,
          -0.022032244130969048,
          0.029379786923527718,
          0.20427867770195007,
          -0.04309563338756561,
          0.1365160495042801,
          -0.21151629090309143,
          0.24196334183216095,
          -0.13962434232234955,
          0.07136481255292892,
          0.03270749747753143,
          -0.20154866576194763,
          0.010138552635908127,
          0.18709693849086761,
          -0.2701135575771332,
          -0.14221946895122528
        ],
        [
          -0.18381807208061218,
          0.07145748287439346,
          0.01600475423038006,
          -0.1813061386346817,
          0.14905120432376862,
          0.1792246699333191,
          0.13490405678749084,
          -0.21348927915096283,
          0.15103478729724884,
          -0.010750926099717617,
          0.211115762591362,
          0.2534155249595642,
          -0.07217033952474594,
          -0.010199454613029957,
          -0.05418863147497177,
          -0.12220153957605362
        ],
        [
          -0.10013170540332794,
          -0.16734693944454193,
          -0.18001419305801392,
          0.028709735721349716,
          0.042149946093559265,
          0.19875097274780273,
          0.08185352385044098,
          -0.13139303028583527,
          -0.20999041199684143,
          -0.1634523719549179,
          0.14048375189304352,
          0.029090339317917824,
          -0.024596119299530983,
          0.05367256700992584,
          0.17789770662784576,
          0.20884406566619873
        ],
        [
          -0.16292381286621094,
          -0.08666883409023285,
          -0.19905292987823486,
          -0.2395438402891159,
          0.015048842877149582,
          -0.19290263950824738,
          0.168557807803154,
          0.22606371343135834,
          0.017064858227968216,
          0.10593592375516891,
          0.04152907058596611,
          0.1673872321844101,
          0.16484349966049194,
          0.19944654405117035,
          -0.0686921775341034,
          -0.03386663645505905
        ],
        [
          0.20863662660121918,
          -0.03342633321881294,
          -0.08666835725307465,
          0.26734021306037903,
          0.1158963143825531,
          -0.20098206400871277,
          -0.2397867739200592,
          -0.19704201817512512,
          -0.16619300842285156,
          -0.10587633401155472,
          0.25511640310287476,
          0.10415540635585785,
          -0.15058669447898865,
          -0.14790743589401245,
          -0.18540212512016296,
          0.07854443043470383
        ],
        [
          -0.19843851029872894,
          0.14719407260417938,
          -0.1948426365852356,
          0.008186684921383858,
          0.06179223582148552,
          -0.160413920879364,
          0.00805972795933485,
          0.20395097136497498,
          -0.03762686252593994,
          -0.039976805448532104,
          0.06806426495313644,
          -0.07205856591463089,
          -0.10818934440612793,
          0.0805080458521843,
          0.033612195402383804,
          0.22055372595787048
        ],
        [
          -0.10783785581588745,
          -0.19074037671089172,
          -0.03472491726279259,
          -0.17973996698856354,
          0.2277304232120514,
          -0.031041104346513748,
          0.22010384500026703,
          0.10853572189807892,
          0.04592467099428177,
          -0.006168308202177286,
          0.03761530667543411,
          0.1656559854745865,
          0.026920951902866364,
          -0.08112090080976486,
          -0.18166321516036987,
          -0.2139028161764145
        ],
        [
          -0.16796204447746277,
          -0.2840708792209625,
          -0.0014722970081493258,
          0.22978545725345612,
          0.19634374976158142,
          -0.08279413729906082,
          -0.15915445983409882,
          -0.16446852684020996,
          0.055490005761384964,
          -0.17108803987503052,
          0.20109011232852936,
          0.02131558768451214,
          -0.22262966632843018,
          -0.20639266073703766,
          0.1652565896511078,
          0.237359881401062
        ],
        [
          -0.15075477957725525,
          0.1587623804807663,
          0.2019050568342209,
          0.15981298685073853,
          0.06892441213130951,
          -0.2050725370645523,
          0.16637146472930908,
          0.11106409877538681,
          -0.18429404497146606,
          0.08382368087768555,
          0.2039615660905838,
          0.19046550989151,
          -0.10658938437700272,
          0.01485557109117508,
          0.05768613517284393,
          0.10165147483348846
        ],
        [
          0.09378813207149506,
          0.022087933495640755,
          -0.13379573822021484,
          0.10928766429424286,
          -0.07355067133903503,
          0.09488925337791443,
          -0.09160890430212021,
          -0.24164845049381256,
          0.11367736011743546,
          -0.2600865662097931,
          -0.08111176639795303,
          -0.15397554636001587,
          -0.07266422361135483,
          -0.13421845436096191,
          -0.24371673166751862,
          0.2388363480567932
        ],
        [
          -0.13848720490932465,
          -0.16904841363430023,
          0.21323703229427338,
          -0.05300499126315117,
          -0.14598433673381805,
          0.24647660553455353,
          -0.22262437641620636,
          0.061012886464595795,
          -0.22027496993541718,
          -0.08582095801830292,
          -0.18365852534770966,
          -0.09612566232681274,
          0.005818063858896494,
          0.14548741281032562,
          0.22025537490844727,
          -0.08864676207304001
        ],
        [
          0.179372638463974,
          0.04779632389545441,
          0.23028293251991272,
          0.04296074062585831,
          0.10173265635967255,
          0.05562802404165268,
          0.18076536059379578,
          -0.24158897995948792,
          0.11848698556423187,
          0.058958981186151505,
          0.012833209708333015,
          0.014074663631618023,
          -0.0808267891407013,
          0.047328025102615356,
          -0.12149745225906372,
          -0.1939992755651474
        ],
        [
          0.007231818977743387,
          0.004007754381746054,
          -0.1822131723165512,
          0.03871193528175354,
          0.18679262697696686,
          -0.255840003490448,
          0.030767720192670822,
          -0.03003157116472721,
          0.18430273234844208,
          -0.044118404388427734,
          0.2557211220264435,
          -0.028794920071959496,
          0.03124488703906536,
          -0.18108296394348145,
          -0.1607273668050766,
          0.19362299144268036
        ],
        [
          -0.2184077799320221,
          -0.04027878865599632,
          0.04715380445122719,
          0.18209537863731384,
          0.1968691498041153,
          0.25237172842025757,
          -0.116634801030159,
          -0.00095609191339463,
          -0.07281319797039032,
          -0.1357836127281189,
          0.21160000562667847,
          0.22353021800518036,
          0.15155717730522156,
          -0.00114553386811167,
          0.15936359763145447,
          0.16297747194766998
        ],
        [
          0.0871686041355133,
          -0.024776803329586983,
          -0.040601056069135666,
          0.158513605594635,
          0.20978817343711853,
          0.2091647833585739,
          -0.1740637719631195,
          -0.11411038041114807,
          0.21669001877307892,
          -0.10522369295358658,
          -0.02797842212021351,
          -0.1614401936531067,
          0.14559775590896606,
          0.1682622879743576,
          -0.18440411984920502,
          0.2364480346441269
        ],
        [
          -0.07000496238470078,
          0.20866267383098602,
          0.09291858226060867,
          0.26350101828575134,
          0.2735716700553894,
          0.14757704734802246,
          0.015716832131147385,
          0.16278477013111115,
          0.1691313087940216,
          0.21498648822307587,
          0.00042470169137232006,
          0.19783993065357208,
          -0.01716347597539425,
          0.0565992072224617,
          -0.10469912737607956,
          -0.03650348260998726
        ],
        [
          -0.10700183361768723,
          0.08081039786338806,
          -0.0031886750366538763,
          0.18975071609020233,
          -0.057836633175611496,
          0.12651142477989197,
          -0.20646068453788757,
          0.16630101203918457,
          -0.2672916054725647,
          -0.11510463804006577,
          -0.1941141039133072,
          -0.08087653666734695,
          0.23509304225444794,
          -0.20665626227855682,
          -0.18641731142997742,
          0.16742508113384247
        ],
        [
          -0.004440040327608585,
          0.15453718602657318,
          0.19446897506713867,
          -0.14753828942775726,
          0.18216930329799652,
          -0.03716102987527847,
          -0.08330536633729935,
          -0.019890071824193,
          -0.09058468788862228,
          -0.0986725464463234,
          -0.14192627370357513,
          -0.024648267775774002,
          0.05413290858268738,
          -0.09798269718885422,
          -0.27154478430747986,
          0.020654387772083282
        ],
        [
          0.21667449176311493,
          -0.12746097147464752,
          -0.15628130733966827,
          0.09176070988178253,
          -0.22227409482002258,
          -0.2042892873287201,
          0.13800391554832458,
          -0.14063765108585358,
          -0.06915833055973053,
          -0.09461773931980133,
          0.2056417614221573,
          -0.08022517710924149,
          0.07978283613920212,
          -0.11292971670627594,
          -0.28142639994621277,
          -0.24012599885463715
        ],
        [
          -0.13830974698066711,
          0.15352989733219147,
          -0.11605184525251389,
          0.1481514722108841,
          0.1639794409275055,
          0.03633942827582359,
          -0.028430594131350517,
          -0.04425206035375595,
          0.19426850974559784,
          0.19434504210948944,
          0.1041751354932785,
          -0.03442085161805153,
          0.1820182353258133,
          -0.15293385088443756,
          0.2063656896352768,
          -0.21362994611263275
        ],
        [
          -0.2059159129858017,
          0.17978344857692719,
          -0.09475849568843842,
          0.10472581535577774,
          -0.009454823099076748,
          -0.14290210604667664,
          0.07010146975517273,
          0.1898932158946991,
          0.0803195908665657,
          -0.08838435262441635,
          0.059478823095560074,
          0.12188229709863663,
          -0.09166817367076874,
          -0.21836312115192413,
          -0.12095168977975845,
          -0.16955605149269104
        ],
        [
          -0.004089156165719032,
          0.08806770294904709,
          0.003446464193984866,
          0.014300558716058731,
          -0.022257791832089424,
          0.0889996737241745,
          0.10088367760181427,
          -0.1840520203113556,
          -0.23552967607975006,
          -0.14230144023895264,
          0.237063467502594,
          -0.051150187849998474,
          0.05040339007973671,
          -0.0857686996459961,
          0.21820060908794403,
          0.017357323318719864
        ],
        [
          -0.048370327800512314,
          0.18048152327537537,
          0.018204541876912117,
          -0.06820037961006165,
          -0.10385177284479141,
          0.03351425752043724,
          -0.10300596803426743,
          -0.07945188134908676,
          -0.18261365592479706,
          -0.14887918531894684,
          0.07706664502620697,
          -0.04157164692878723,
          -0.12100068479776382,
          -0.1663522571325302,
          0.1697317361831665,
          0.014374976046383381
        ],
        [
          -0.20941659808158875,
          0.2041112780570984,
          -0.09518059343099594,
          0.16011980175971985,
          -0.13611996173858643,
          0.15549270808696747,
          -0.11875651031732559,
          0.13752004504203796,
          0.06815459579229355,
          -0.17816458642482758,
          0.007936462759971619,
          0.16335175931453705,
          0.09948542714118958,
          0.17705847322940826,
          0.2207234799861908,
          0.2016918957233429
        ],
        [
          -0.05464765802025795,
          0.14181719720363617,
          0.18517088890075684,
          -0.029103942215442657,
          -0.1269378960132599,
          -0.18494436144828796,
          0.26222464442253113,
          0.2764245569705963,
          0.19532518088817596,
          0.08390751481056213,
          0.17663754522800446,
          -0.12262610346078873,
          0.006428529042750597,
          -0.23147067427635193,
          -0.09780213981866837,
          -0.23083224892616272
        ],
        [
          -0.02538178116083145,
          -0.034952349960803986,
          0.21787892282009125,
          0.2811953127384186,
          -0.12144625186920166,
          -0.019057447090744972,
          -0.06383693218231201,
          0.06839699298143387,
          -0.06818162649869919,
          -0.1703415960073471,
          0.2778095304965973,
          0.049405813217163086,
          0.11957187205553055,
          0.004160962533205748,
          -0.07187440991401672,
          -0.17655983567237854
        ],
        [
          -0.0026939031668007374,
          0.11070617288351059,
          0.031258054077625275,
          -0.18226663768291473,
          -0.03453772887587547,
          0.23776878416538239,
          0.18574686348438263,
          0.12144320458173752,
          0.05353603512048721,
          0.03289293497800827,
          0.18631631135940552,
          -0.05302274972200394,
          0.14119195938110352,
          0.04888893663883209,
          -0.10696849226951599,
          -0.10950074344873428
        ],
        [
          -0.1907351315021515,
          -0.13302764296531677,
          -0.24918678402900696,
          0.07379315793514252,
          0.016412638127803802,
          0.21379362046718597,
          0.008838356472551823,
          -0.24472899734973907,
          0.0295580867677927,
          -0.048957839608192444,
          -0.16950955986976624,
          0.27358192205429077,
          -0.1580658257007599,
          0.215213343501091,
          0.18711917102336884,
          -0.18475885689258575
        ],
        [
          -0.16169147193431854,
          -0.20240533351898193,
          -0.20356899499893188,
          -0.08106143772602081,
          0.07375819236040115,
          0.15548591315746307,
          0.02137584425508976,
          -0.24166536331176758,
          0.1701805740594864,
          -0.2184750735759735,
          -0.030379537492990494,
          0.15541119873523712,
          0.06578890234231949,
          -0.2337876856327057,
          0.21816381812095642,
          0.18273630738258362
        ],
        [
          -0.013000180944800377,
          -0.04399343952536583,
          0.12860047817230225,
          0.15824715793132782,
          0.13628102838993073,
          0.249938502907753,
          -0.23176263272762299,
          -0.11180496960878372,
          -0.09856881946325302,
          0.10924076288938522,
          -0.19209730625152588,
          0.24157126247882843,
          0.050152018666267395,
          -0.060107987374067307,
          0.014773007482290268,
          0.16362087428569794
        ],
        [
          -0.21768750250339508,
          0.21963705122470856,
          0.15681734681129456,
          0.03701880946755409,
          -0.12801212072372437,
          0.008444438688457012,
          -0.08109112083911896,
          0.25112178921699524,
          -0.06082892790436745,
          0.12273722887039185,
          -0.14743541181087494,
          -0.0654810443520546,
          0.0351879745721817,
          0.08736319094896317,
          0.04587569832801819,
          0.17443954944610596
        ],
        [
          0.17517615854740143,
          -0.10110999643802643,
          -0.1788654625415802,
          0.07897301018238068,
          -0.18736977875232697,
          0.08999694883823395,
          0.2693999409675598,
          0.15492893755435944,
          -0.09270589053630829,
          -0.18340200185775757,
          0.039465468376874924,
          -0.08426336199045181,
          0.04475495591759682,
          -0.12761211395263672,
          -0.06977923959493637,
          -0.12549732625484467
        ],
        [
          0.21359972655773163,
          0.1605435013771057,
          -0.18441979587078094,
          -0.1634487360715866,
          0.04363860562443733,
          -0.08340833336114883,
          -0.1449803113937378,
          -0.22526989877223969,
          -0.06803203374147415,
          0.12967008352279663,
          -0.27217862010002136,
          -0.13616137206554413,
          0.08175206184387207,
          0.0009217250044457614,
          0.15181848406791687,
          -0.219931960105896
        ],
        [
          -0.04403010010719299,
          -0.045279692858457565,
          -0.21494774520397186,
          0.19241324067115784,
          -0.07354968041181564,
          -0.1455715298652649,
          0.0773632675409317,
          0.235214963555336,
          0.11574473232030869,
          -0.003908783663064241,
          0.1439599245786667,
          0.1303509920835495,
          0.03928821161389351,
          -0.040580373257398605,
          -0.16869840025901794,
          -0.05996745824813843
        ],
        [
          0.21987566351890564,
          -0.20986439287662506,
          -0.12334192544221878,
          0.20648610591888428,
          -0.03508242219686508,
          0.12476279586553574,
          -0.18390010297298431,
          0.19594921171665192,
          -0.13842816650867462,
          -0.008709326386451721,
          -0.18722523748874664,
          -0.07309231162071228,
          0.13736794888973236,
          -0.16320888698101044,
          0.1465836614370346,
          0.08580922335386276
        ],
        [
          -0.11735299974679947,
          -0.02942204847931862,
          0.2052423357963562,
          -0.10051294416189194,
          -0.08031471818685532,
          0.22729721665382385,
          -0.25464966893196106,
          -0.03887361288070679,
          -0.23281575739383698,
          -0.01925019361078739,
          0.06853971630334854,
          -0.038763634860515594,
          0.04748199135065079,
          -0.10168886929750443,
          0.03525779768824577,
          -0.060990799218416214
        ],
        [
          0.021318726241588593,
          -0.10933444648981094,
          -0.16802673041820526,
          0.013130437582731247,
          -0.2193291336297989,
          0.019871313124895096,
          0.22123375535011292,
          -0.0789085403084755,
          0.2260258048772812,
          0.17187273502349854,
          0.06301335245370865,
          -0.2374471127986908,
          -0.0006592671852558851,
          -0.12146364152431488,
          -0.25823453068733215,
          -0.05252170190215111
        ],
        [
          -0.07925112545490265,
          -0.13875091075897217,
          -0.014947735704481602,
          -0.18695729970932007,
          -0.11431379616260529,
          0.2597922682762146,
          -0.16136187314987183,
          -0.0819186419248581,
          -0.19758428633213043,
          -0.275406152009964,
          0.034917641431093216,
          0.15421412885189056,
          0.10010510683059692,
          -0.18323910236358643,
          -0.2398955523967743,
          -0.155325785279274
        ],
        [
          -0.20895817875862122,
          -0.03086138144135475,
          0.16958299279212952,
          -0.008435006253421307,
          0.005989424884319305,
          0.2748512625694275,
          0.09576774388551712,
          -0.07024894654750824,
          0.08205448091030121,
          -0.19735632836818695,
          -0.24130696058273315,
          0.23329760134220123,
          0.17892931401729584,
          0.03520216792821884,
          -0.1568424552679062,
          -0.022580459713935852
        ],
        [
          -0.2580563426017761,
          0.20655745267868042,
          -0.05411968380212784,
          -0.17068354785442352,
          -0.11438785493373871,
          0.02333558350801468,
          0.11078830808401108,
          -0.23729124665260315,
          0.07465574145317078,
          0.1306166648864746,
          0.060069866478443146,
          -0.15731583535671234,
          -0.12170833349227905,
          -0.1428714543581009,
          -0.0056231520138680935,
          -0.09576191753149033
        ],
        [
          -0.047761220484972,
          -0.13370458781719208,
          -0.10696597397327423,
          0.06117388978600502,
          -0.021332819014787674,
          0.1348278820514679,
          -0.13459357619285583,
          0.14450623095035553,
          -0.18203875422477722,
          0.19391608238220215,
          0.004688205663114786,
          -0.07154128700494766,
          -0.17246106266975403,
          -0.13284479081630707,
          -0.11337173730134964,
          -0.008678498677909374
        ],
        [
          0.029188187792897224,
          -0.06003527715802193,
          -0.015257632359862328,
          -0.17209625244140625,
          -0.10868541151285172,
          -0.22484846413135529,
          0.267750084400177,
          0.19391654431819916,
          -0.20605666935443878,
          0.17482930421829224,
          0.1792846918106079,
          -0.09564556181430817,
          -0.18325939774513245,
          0.04810670018196106,
          0.1188044473528862,
          0.039902206510305405
        ],
        [
          0.25278764963150024,
          -0.24354824423789978,
          0.23176345229148865,
          0.17305779457092285,
          0.024643220007419586,
          0.108571358025074,
          0.06750370562076569,
          0.018030457198619843,
          0.2155245542526245,
          -0.07637561112642288,
          -0.24796579778194427,
          0.2171986699104309,
          -0.18776410818099976,
          0.05389389768242836,
          0.20945040881633759,
          0.21965879201889038
        ],
        [
          -0.1603465974330902,
          -0.2582963705062866,
          0.1027577742934227,
          -0.028005538508296013,
          -0.08443409949541092,
          0.10801592469215393,
          -0.08723541349172592,
          0.03431805223226547,
          -0.08360515534877777,
          0.10892323404550552,
          0.01180222723633051,
          0.29287052154541016,
          -0.2193489521741867,
          0.018831375986337662,
          -0.11086949706077576,
          0.21872302889823914
        ],
        [
          -0.00915954727679491,
          0.2733921408653259,
          -0.13519737124443054,
          -0.2607850432395935,
          0.12184761464595795,
          -0.14789220690727234,
          -0.007105559576302767,
          0.1992296278476715,
          0.18061186373233795,
          0.06635233014822006,
          -0.15778744220733643,
          0.14775140583515167,
          -0.0032201451249420643,
          0.014808252453804016,
          -0.048495836555957794,
          -0.20737595856189728
        ],
        [
          -0.061761628836393356,
          0.1565486341714859,
          -0.04230252280831337,
          0.04557676613330841,
          -0.03497222438454628,
          -0.13198035955429077,
          0.09712860733270645,
          0.19696597754955292,
          0.22260984778404236,
          -0.06424176692962646,
          0.2162267416715622,
          -0.03762606531381607,
          -0.0009554586140438914,
          0.06104476377367973,
          0.21246963739395142,
          0.18523459136486053
        ],
        [
          0.04521074518561363,
          0.19499368965625763,
          -0.06593924015760422,
          0.10520404577255249,
          0.015432235784828663,
          0.011456119827926159,
          0.008031305857002735,
          -0.2307264506816864,
          -0.018183598294854164,
          -0.2538858950138092,
          -0.029027212411165237,
          -0.2058674395084381,
          0.2552766799926758,
          0.1284240335226059,
          -0.153233602643013,
          -0.010146509855985641
        ],
        [
          -0.00889826100319624,
          -0.05742928758263588,
          0.20872199535369873,
          0.25946152210235596,
          -0.2629029452800751,
          -0.05325799435377121,
          0.11033637821674347,
          0.1580643355846405,
          0.1295199692249298,
          -0.10421017557382584,
          0.010133886709809303,
          0.20587033033370972,
          0.037211522459983826,
          0.1888609081506729,
          -0.2030121088027954,
          -0.1060493215918541
        ],
        [
          -0.03133581206202507,
          -0.10737302899360657,
          -0.1344275176525116,
          0.1374058872461319,
          0.14137858152389526,
          0.18657197058200836,
          -0.09463746845722198,
          0.10717323422431946,
          -0.22038844227790833,
          -0.1757025122642517,
          -0.006005749572068453,
          0.10248341411352158,
          -0.04627847298979759,
          0.18387046456336975,
          -0.0738191306591034,
          -0.13691233098506927
        ],
        [
          0.04659431427717209,
          0.06730291992425919,
          -0.15344247221946716,
          -0.008833683095872402,
          -0.09724840521812439,
          -0.1694730967283249,
          -0.05701518431305885,
          0.12261630594730377,
          -0.2360924631357193,
          -0.2332528978586197,
          0.2483317106962204,
          0.2679331302642822,
          -0.09340785443782806,
          0.18157809972763062,
          -0.042043786495923996,
          0.15569563210010529
        ],
        [
          0.1471351832151413,
          -0.23450899124145508,
          0.08002092689275742,
          -0.031885262578725815,
          0.03680897876620293,
          0.26051729917526245,
          -0.11392463743686676,
          0.16484197974205017,
          -0.09813441336154938,
          0.002813976490870118,
          -0.2476745992898941,
          0.022214820608496666,
          -0.18558792769908905,
          0.05877777189016342,
          -0.04343300312757492,
          -0.11298360675573349
        ],
        [
          0.246932253241539,
          0.01786992885172367,
          0.05794764310121536,
          0.10105594992637634,
          -0.16640205681324005,
          -0.08768963068723679,
          -0.05126248672604561,
          -0.019457148388028145,
          0.16436123847961426,
          0.08267630636692047,
          0.1572127640247345,
          -0.11696375161409378,
          0.007761301007121801,
          0.036494966596364975,
          0.10539321601390839,
          -0.2645995318889618
        ],
        [
          -0.17546780407428741,
          -0.25508105754852295,
          0.2294645458459854,
          -0.02219500206410885,
          -0.1633734405040741,
          -0.24710756540298462,
          -0.15928985178470612,
          0.06421267986297607,
          0.013923410326242447,
          -0.14584015309810638,
          0.13631616532802582,
          -0.048395149409770966,
          -0.15353672206401825,
          0.21994946897029877,
          0.05164065957069397,
          -0.09552361071109772
        ],
        [
          -0.24176311492919922,
          0.07819339632987976,
          0.14807865023612976,
          -0.09284830838441849,
          0.06326243281364441,
          0.1199992448091507,
          -0.17268727719783783,
          0.19600369036197662,
          -0.008476962335407734,
          -0.18692351877689362,
          -0.1584644466638565,
          -0.19558589160442352,
          0.11923232674598694,
          -0.1236349418759346,
          -0.1393955796957016,
          0.10688622295856476
        ],
        [
          -0.1863679438829422,
          -0.02071944624185562,
          0.20320920646190643,
          -0.08625330775976181,
          -0.01549491100013256,
          -0.24494901299476624,
          -0.03605062887072563,
          -0.04962170124053955,
          -0.22924470901489258,
          0.07744908332824707,
          -0.01577921397984028,
          0.10725409537553787,
          0.019267059862613678,
          -0.07789914309978485,
          -0.043824661523103714,
          0.017744820564985275
        ],
        [
          0.227603480219841,
          -0.15137451887130737,
          0.24092037975788116,
          -0.013233852572739124,
          -0.049101389944553375,
          -0.14965824782848358,
          0.0198089350014925,
          0.05511368811130524,
          -0.2098488062620163,
          -0.026869142428040504,
          0.10872876644134521,
          -0.12152207642793655,
          -0.1186797171831131,
          -0.10144589841365814,
          0.24091653525829315,
          0.013649954460561275
        ],
        [
          -0.04911380633711815,
          -0.1701216846704483,
          -0.09917028993368149,
          -0.06863944977521896,
          0.02623487077653408,
          -0.11305635422468185,
          0.07281456142663956,
          -0.07378986477851868,
          0.1127389445900917,
          -0.19729816913604736,
          -0.15280839800834656,
          0.17110951244831085,
          -0.084806889295578,
          -0.1497139036655426,
          -0.0563478022813797,
          0.17904676496982574
        ],
        [
          -0.20967234671115875,
          -0.11029420047998428,
          -0.10500742495059967,
          -0.03881083428859711,
          -0.14655642211437225,
          0.19778333604335785,
          0.12801530957221985,
          0.2798246145248413,
          0.1932937055826187,
          0.023513834923505783,
          -0.25293979048728943,
          0.06695811450481415,
          0.2425401657819748,
          0.022998299449682236,
          -0.04554763063788414,
          -0.07296749949455261
        ],
        [
          0.19185587763786316,
          -0.0457630380988121,
          -0.06693971902132034,
          0.20592674612998962,
          -0.10856668651103973,
          0.004607019480317831,
          -0.2228248417377472,
          0.034033630043268204,
          0.20366786420345306,
          -0.13471470773220062,
          0.07960791885852814,
          -0.0991157665848732,
          0.24586807191371918,
          0.12484496086835861,
          -0.02497137151658535,
          -0.08319251239299774
        ],
        [
          0.18978175520896912,
          -0.16202133893966675,
          0.19795413315296173,
          -0.1714009940624237,
          0.17331664264202118,
          -0.13665995001792908,
          0.2037062793970108,
          -0.13777098059654236,
          -0.14701712131500244,
          -0.009211943484842777,
          0.11602039635181427,
          0.17611946165561676,
          -0.20989026129245758,
          0.26774320006370544,
          -0.14597679674625397,
          -0.018363604322075844
        ],
        [
          0.08887062221765518,
          -0.21830081939697266,
          -0.07459957897663116,
          0.05105476453900337,
          0.16992950439453125,
          0.07871034741401672,
          -0.2665728032588959,
          0.03992768004536629,
          0.09119120985269547,
          0.11827927827835083,
          0.03321552649140358,
          0.014348611235618591,
          0.09829623997211456,
          -0.17045098543167114,
          -0.14951148629188538,
          0.1655680388212204
        ],
        [
          -0.15715228021144867,
          0.155667245388031,
          0.14719229936599731,
          0.02597856894135475,
          0.14329639077186584,
          0.1790664941072464,
          0.0031334126833826303,
          0.2212335169315338,
          0.1622973084449768,
          0.1760997772216797,
          -0.11213642358779907,
          0.21281258761882782,
          0.19128775596618652,
          0.11041747778654099,
          0.15179701149463654,
          0.17612366378307343
        ],
        [
          -0.21028490364551544,
          -0.13529999554157257,
          0.18192924559116364,
          -0.23364707827568054,
          -0.15093174576759338,
          0.09264969825744629,
          -0.13001176714897156,
          -0.04320470243692398,
          0.08845671266317368,
          0.10883275419473648,
          -0.1413303166627884,
          0.09018926322460175,
          -0.048177845776081085,
          0.2140103578567505,
          0.17336678504943848,
          0.06608986854553223
        ],
        [
          0.05322737991809845,
          0.04049398750066757,
          -0.0517301969230175,
          -0.076422318816185,
          0.044138334691524506,
          -0.18661102652549744,
          -0.11815933883190155,
          0.1295008361339569,
          -0.18778370320796967,
          -0.002969828899949789,
          0.23447509109973907,
          -0.06318899989128113,
          -0.10239455103874207,
          0.007488273549824953,
          0.03796177729964256,
          -0.18782711029052734
        ],
        [
          -0.04597409814596176,
          0.19851817190647125,
          -0.20355689525604248,
          0.010847489349544048,
          -0.024061642587184906,
          0.02185625210404396,
          0.1455690711736679,
          -0.037899136543273926,
          -0.2681242823600769,
          0.08307718485593796,
          0.24135540425777435,
          -0.17192871868610382,
          0.09532804787158966,
          0.17652662098407745,
          -0.10702763497829437,
          -0.2138829529285431
        ],
        [
          0.14093512296676636,
          -0.06587676703929901,
          0.15929771959781647,
          -0.12205740809440613,
          -0.1389087438583374,
          -0.09054941684007645,
          0.07988566905260086,
          -0.18577790260314941,
          -0.18495777249336243,
          -0.11617138981819153,
          -0.21427902579307556,
          0.2148597240447998,
          -0.11606771498918533,
          -0.1297537386417389,
          0.21674031019210815,
          -0.00804495345801115
        ],
        [
          0.050212591886520386,
          0.08462172001600266,
          -0.010371091775596142,
          -0.14054498076438904,
          0.016895949840545654,
          0.030900681391358376,
          0.19333389401435852,
          0.22928497195243835,
          -0.04969295859336853,
          0.04913581535220146,
          -0.19045528769493103,
          0.19261302053928375,
          0.01428057812154293,
          0.08516860753297806,
          0.28388965129852295,
          -0.27342936396598816
        ],
        [
          0.23249122500419617,
          0.22201737761497498,
          0.03693655505776405,
          -0.022781575098633766,
          0.23994556069374084,
          0.15217584371566772,
          0.2734699547290802,
          -0.19720324873924255,
          -0.06396514922380447,
          0.09731393307447433,
          -0.16420957446098328,
          0.25058913230895996,
          0.19048650562763214,
          0.15248936414718628,
          -0.17958180606365204,
          0.08942011743783951
        ],
        [
          -0.15232978761196136,
          -0.05271678790450096,
          -0.016361230984330177,
          0.005538281053304672,
          0.2684335708618164,
          0.16367147862911224,
          0.2442535012960434,
          0.22148728370666504,
          0.14795619249343872,
          -0.19662320613861084,
          0.23079191148281097,
          0.16552753746509552,
          0.10386167466640472,
          0.13027475774288177,
          0.1504785120487213,
          0.02946745790541172
        ],
        [
          -0.015444825403392315,
          0.01703086867928505,
          -0.25584328174591064,
          -0.16028425097465515,
          0.0380256325006485,
          0.16877533495426178,
          0.258137047290802,
          0.2453753650188446,
          0.16894283890724182,
          0.20234492421150208,
          0.18845845758914948,
          -0.1260150820016861,
          -0.19065259397029877,
          -0.21207627654075623,
          0.09421110898256302,
          0.23167970776557922
        ],
        [
          -0.032090362161397934,
          0.030771024525165558,
          -0.11349320411682129,
          -0.25806865096092224,
          0.10166600346565247,
          0.09223096072673798,
          0.06384440511465073,
          0.21045880019664764,
          0.28238195180892944,
          -0.02623070403933525,
          -0.12428537011146545,
          0.1777547001838684,
          0.027431298047304153,
          0.03960322216153145,
          0.18023502826690674,
          -0.031960535794496536
        ],
        [
          0.10089783370494843,
          -0.24572612345218658,
          -0.14680558443069458,
          0.0507616326212883,
          -0.15790735185146332,
          -0.22848425805568695,
          -0.16398079693317413,
          -0.23892323672771454,
          -0.06029698625206947,
          0.04512321203947067,
          0.1163877546787262,
          0.1966858059167862,
          0.10210691392421722,
          0.04701367765665054,
          -0.04947006329894066,
          0.1749809980392456
        ],
        [
          0.04434552416205406,
          -0.16267044842243195,
          -0.15863214433193207,
          -0.08236319571733475,
          -0.2274743914604187,
          0.21381030976772308,
          -0.07592003047466278,
          0.2077515870332718,
          -0.12373212724924088,
          0.25893673300743103,
          0.17875578999519348,
          0.22020548582077026,
          -0.025918561965227127,
          0.23296716809272766,
          0.08673930168151855,
          -0.04703680798411369
        ],
        [
          -0.03554447367787361,
          0.09875611215829849,
          0.13414807617664337,
          -0.253072053194046,
          -0.11833939701318741,
          -0.11015762388706207,
          0.00254367059096694,
          0.12418045103549957,
          -0.021314935758709908,
          -0.04496904835104942,
          -0.13708893954753876,
          0.17310300469398499,
          0.11347269266843796,
          0.1856500506401062,
          -0.1431397944688797,
          -0.062459126114845276
        ],
        [
          -0.25106340646743774,
          0.11068268120288849,
          -0.1644832193851471,
          0.21864834427833557,
          0.2184528261423111,
          0.08087121695280075,
          0.09855009615421295,
          -0.14807134866714478,
          -0.01213958952575922,
          -0.09590171277523041,
          -0.053202055394649506,
          0.061854004859924316,
          -0.01600271835923195,
          -0.04404625669121742,
          0.06551520526409149,
          0.239502415060997
        ],
        [
          0.15869583189487457,
          -0.2083650678396225,
          0.11720004677772522,
          -0.08267397433519363,
          -0.08875242620706558,
          -0.19514968991279602,
          0.027250811457633972,
          0.02232378162443638,
          -0.183009073138237,
          -0.07745976001024246,
          -0.07857540994882584,
          0.23795682191848755,
          0.154074564576149,
          0.14833460748195648,
          -0.03785638138651848,
          -0.09152232855558395
        ],
        [
          -0.1057823896408081,
          -0.037529535591602325,
          0.07289949059486389,
          0.22501879930496216,
          0.10971956700086594,
          0.08164694905281067,
          0.18926756083965302,
          0.03335551917552948,
          0.2149282991886139,
          0.2188093513250351,
          0.12108849734067917,
          0.134294793009758,
          0.18333624303340912,
          0.24409015476703644,
          -0.08695230633020401,
          0.005190886557102203
        ],
        [
          -0.0965404361486435,
          -0.13603202998638153,
          -0.1782837212085724,
          -0.13570287823677063,
          0.19746056199073792,
          0.06852631270885468,
          -0.01037905178964138,
          0.09490423649549484,
          -0.2772086262702942,
          0.04355662688612938,
          -0.16478124260902405,
          0.04138833284378052,
          0.007384716533124447,
          -0.127155140042305,
          0.17237794399261475,
          0.19777812063694
        ],
        [
          -0.24529477953910828,
          -0.1764887124300003,
          0.1515834629535675,
          -0.067288339138031,
          0.08001996576786041,
          0.041940417140722275,
          0.21357424557209015,
          -0.007116562686860561,
          -0.2667596638202667,
          0.188466414809227,
          -0.15566149353981018,
          -0.1337810754776001,
          -0.12737895548343658,
          -0.14443431794643402,
          0.20098282396793365,
          0.07487884908914566
        ],
        [
          0.17102393507957458,
          0.11151142418384552,
          -0.2095537930727005,
          0.17011253535747528,
          0.01006612554192543,
          0.24031642079353333,
          -0.09690891951322556,
          0.0650719702243805,
          0.16619691252708435,
          -0.25383514165878296,
          -0.12978574633598328,
          0.0546448677778244,
          0.03276662528514862,
          -0.20036597549915314,
          -0.16204002499580383,
          0.03544020280241966
        ],
        [
          0.14835405349731445,
          -0.2701592743396759,
          0.18284663558006287,
          0.07832938432693481,
          0.11996382474899292,
          -0.1725543588399887,
          0.14213117957115173,
          -0.16586564481258392,
          -0.1922343224287033,
          -0.1614796221256256,
          0.0927981585264206,
          -0.02482217736542225,
          -0.06799064576625824,
          -0.08759041130542755,
          0.21226677298545837,
          0.2718305289745331
        ],
        [
          -0.18839026987552643,
          -0.266897976398468,
          -0.020592082291841507,
          -0.08632580935955048,
          -0.06102438271045685,
          -0.22415252029895782,
          -0.11423061788082123,
          -0.1954953968524933,
          0.07100596278905869,
          -0.06280776858329773,
          -0.009563641622662544,
          -0.1383737474679947,
          0.26436400413513184,
          -0.14403116703033447,
          0.1205654963850975,
          -0.07151858508586884
        ],
        [
          0.22776871919631958,
          -0.10690736770629883,
          -0.1298806220293045,
          -0.23791778087615967,
          0.2638821303844452,
          -0.03183484449982643,
          -0.13446460664272308,
          -0.21789668500423431,
          -0.20678891241550446,
          -0.11830431967973709,
          -0.2448783814907074,
          -0.06806609779596329,
          -0.2815205156803131,
          0.1831815391778946,
          0.20440585911273956,
          -0.06081622466444969
        ],
        [
          0.2535402476787567,
          -0.23531819880008698,
          0.09157425165176392,
          0.22936980426311493,
          0.06367229670286179,
          0.056471846997737885,
          0.14066451787948608,
          0.15066616237163544,
          -0.19640497863292694,
          0.09837111085653305,
          -0.041850827634334564,
          -0.2089783251285553,
          0.022270722314715385,
          0.06493391841650009,
          -0.11392857879400253,
          0.0244727935642004
        ],
        [
          0.18058760464191437,
          -0.13871578872203827,
          -0.00729801831766963,
          -0.18784326314926147,
          -0.16859124600887299,
          -0.021700747311115265,
          -0.19359448552131653,
          -0.09277765452861786,
          -0.04528925567865372,
          0.2133028209209442,
          0.013704149052500725,
          -0.0781477689743042,
          0.1863342821598053,
          -0.060587551444768906,
          -0.17302335798740387,
          0.08906788378953934
        ],
        [
          -0.025959881022572517,
          0.058855291455984116,
          0.09860145300626755,
          -0.07039889693260193,
          0.040252868086099625,
          -0.15479972958564758,
          -0.27025797963142395,
          0.10797060281038284,
          -0.1946643590927124,
          -0.0813639909029007,
          -0.20406322181224823,
          0.26509740948677063,
          0.22787408530712128,
          0.1399364471435547,
          0.24543282389640808,
          0.16295374929904938
        ],
        [
          0.25533056259155273,
          0.04223834350705147,
          -0.20089086890220642,
          0.18012753129005432,
          0.005784775596112013,
          -0.15517498552799225,
          -0.10970309376716614,
          0.011891171336174011,
          0.008308380842208862,
          -0.10618942975997925,
          0.19221505522727966,
          0.22839754819869995,
          -0.16025596857070923,
          -0.2596518397331238,
          0.08546705543994904,
          -0.07412929087877274
        ],
        [
          -0.19606520235538483,
          -0.1375797539949417,
          0.013773866929113865,
          -0.09882055222988129,
          0.08639062941074371,
          0.25871601700782776,
          -0.14689716696739197,
          -0.09410224854946136,
          -0.08281116187572479,
          -0.10524939745664597,
          -0.1246267780661583,
          0.23336701095104218,
          -0.14408893883228302,
          -0.24203436076641083,
          -0.17978554964065552,
          -0.17255721986293793
        ],
        [
          0.0649556890130043,
          0.10270777344703674,
          -0.2497515082359314,
          -0.2318718433380127,
          0.025476723909378052,
          -0.1997850239276886,
          -0.12701646983623505,
          0.19921369850635529,
          0.109260693192482,
          -0.22248317301273346,
          -0.17139969766139984,
          0.019132180139422417,
          -0.035099878907203674,
          0.09754917025566101,
          -0.21741902828216553,
          0.19988691806793213
        ],
        [
          -0.046247292309999466,
          0.21062475442886353,
          0.06787236034870148,
          -0.17903770506381989,
          0.10520995408296585,
          -0.1738869696855545,
          0.125271275639534,
          -0.18548928201198578,
          0.21759025752544403,
          0.09884822368621826,
          0.186383455991745,
          -0.12082264572381973,
          -0.15519492328166962,
          0.14436693489551544,
          0.2046939581632614,
          0.022622736170887947
        ],
        [
          -0.19296325743198395,
          0.21844956278800964,
          -0.16494525969028473,
          -0.26620548963546753,
          0.26601657271385193,
          0.1546798050403595,
          -0.07503163069486618,
          0.11063417792320251,
          -0.11483469605445862,
          0.19362109899520874,
          0.169592022895813,
          -0.2784568965435028,
          0.15323686599731445,
          -0.06937076896429062,
          -0.050845131278038025,
          -0.08001266419887543
        ],
        [
          0.18448367714881897,
          0.006417335011065006,
          0.07759992778301239,
          0.0412144772708416,
          -0.05362415313720703,
          -0.2526789903640747,
          0.17537200450897217,
          -0.06848698854446411,
          0.0033428550232201815,
          -0.045601777732372284,
          -0.15484462678432465,
          -0.13446970283985138,
          0.021763857454061508,
          0.005162486340850592,
          -0.23369918763637543,
          0.1289898008108139
        ],
        [
          -0.14278210699558258,
          0.18653307855129242,
          0.014722120948135853,
          0.06559862196445465,
          0.018737254664301872,
          -0.1641101986169815,
          -0.04015617072582245,
          -0.17351490259170532,
          -0.0502765066921711,
          -0.26851946115493774,
          -0.09935392439365387,
          -0.005624596960842609,
          0.19076792895793915,
          -0.11847319453954697,
          0.13225515186786652,
          -0.2569315433502197
        ],
        [
          0.20022496581077576,
          -0.0469488725066185,
          0.2112218737602234,
          0.23527896404266357,
          -0.2235035002231598,
          -0.03242293372750282,
          -0.13712505996227264,
          -0.2324439287185669,
          -0.18367446959018707,
          0.17528437077999115,
          -0.03889331966638565,
          0.002182486467063427,
          -0.07097367942333221,
          -0.012814020738005638,
          -0.17353372275829315,
          -0.24233166873455048
        ],
        [
          0.16038236021995544,
          0.21032820641994476,
          0.02112603932619095,
          -0.18104203045368195,
          0.020344141870737076,
          -0.18890120089054108,
          0.12387582659721375,
          0.06405366957187653,
          0.16240307688713074,
          0.08973684161901474,
          0.21474245190620422,
          0.06490994989871979,
          -0.20579804480075836,
          0.13577087223529816,
          -0.2648770809173584,
          -0.25820010900497437
        ],
        [
          0.2270239293575287,
          0.019752319902181625,
          -0.2068435698747635,
          -0.03585369512438774,
          0.044556356966495514,
          0.22892841696739197,
          -0.15247449278831482,
          0.05112731456756592,
          0.03144673630595207,
          0.062385302037000656,
          0.24215567111968994,
          -0.06613485515117645,
          0.2123313695192337,
          0.13522325456142426,
          -0.23084792494773865,
          0.010726990178227425
        ],
        [
          0.22488167881965637,
          0.1406504213809967,
          0.18440358340740204,
          -0.006370459217578173,
          -0.1598140001296997,
          -0.21856699883937836,
          0.18522952497005463,
          -0.1968526542186737,
          0.13857093453407288,
          0.23318682610988617,
          -0.21071989834308624,
          0.23305994272232056,
          0.12808948755264282,
          0.0160233024507761,
          0.13780084252357483,
          -0.13842497766017914
        ],
        [
          0.19874751567840576,
          0.07000381499528885,
          0.1916416436433792,
          -0.004439185839146376,
          0.12623770534992218,
          0.13299521803855896,
          0.12673138082027435,
          -0.20655564963817596,
          -0.233504518866539,
          0.004939859267324209,
          -0.05107755586504936,
          -0.24705354869365692,
          -0.053617510944604874,
          0.11683565378189087,
          0.0934423878788948,
          0.2126634120941162
        ],
        [
          0.006970848888158798,
          -0.1634320318698883,
          0.16341714560985565,
          -0.018864283338189125,
          0.0026405653916299343,
          0.10420361906290054,
          -0.06309814006090164,
          -0.013277707621455193,
          0.02702285349369049,
          -0.2002001255750656,
          0.2607373595237732,
          -0.11222117394208908,
          -0.16376884281635284,
          0.1821736991405487,
          0.15896162390708923,
          0.011343526653945446
        ],
        [
          -0.1373470276594162,
          0.011461470276117325,
          0.02761959470808506,
          0.08414618670940399,
          0.23774351179599762,
          0.11189105361700058,
          0.1936139315366745,
          -0.1738947331905365,
          -0.007431916892528534,
          0.019914280623197556,
          -0.05523565784096718,
          -0.2211427539587021,
          0.1387481391429901,
          -0.21639277040958405,
          0.24122488498687744,
          0.1759359985589981
        ],
        [
          0.2526743412017822,
          -0.13823091983795166,
          0.039011936634778976,
          -0.041299376636743546,
          0.010956034995615482,
          -0.19429166615009308,
          -0.047412823885679245,
          0.140769824385643,
          -0.03102325089275837,
          0.1996612846851349,
          0.06343375146389008,
          -0.18584704399108887,
          -0.1531664878129959,
          0.043536633253097534,
          -0.043092500418424606,
          -0.2031777948141098
        ],
        [
          -0.10529214888811111,
          -0.05264079570770264,
          0.007147146854549646,
          0.01934068463742733,
          -0.25204670429229736,
          0.14756238460540771,
          -0.13348698616027832,
          -0.25090840458869934,
          -0.059669774025678635,
          0.11626963317394257,
          0.14215070009231567,
          -0.17939245700836182,
          0.1706092804670334,
          0.08233006298542023,
          -0.19597791135311127,
          0.053091373294591904
        ],
        [
          -0.20531582832336426,
          -0.03200353682041168,
          -0.173675537109375,
          -0.16374272108078003,
          -0.12653884291648865,
          0.2369772344827652,
          0.04205997288227081,
          0.1368888020515442,
          0.1230558380484581,
          0.1466827243566513,
          -0.17857149243354797,
          -0.10034731775522232,
          -0.06345842778682709,
          0.07782871276140213,
          -0.1866626888513565,
          0.2023155689239502
        ],
        [
          0.019105341285467148,
          -0.24075987935066223,
          0.09667514264583588,
          0.11042517423629761,
          -0.22174474596977234,
          0.05841575562953949,
          0.14497902989387512,
          -0.2024543285369873,
          -0.17396968603134155,
          0.06582844257354736,
          -0.21397778391838074,
          -0.004634647164493799,
          0.10858039557933807,
          -0.13309545814990997,
          0.1123352199792862,
          -0.1684011071920395
        ],
        [
          -0.040018822997808456,
          -0.17728516459465027,
          0.1925462782382965,
          0.1977066993713379,
          -0.08057975023984909,
          -0.2321653664112091,
          0.0183417871594429,
          0.11752750724554062,
          0.06391854584217072,
          0.10379818081855774,
          -0.23512406647205353,
          -0.15453468263149261,
          -0.09800288081169128,
          0.18950919806957245,
          -0.2058458775281906,
          -0.14730824530124664
        ],
        [
          -0.24085016548633575,
          -0.05722655728459358,
          -0.08337286114692688,
          0.15306814014911652,
          0.007701034191995859,
          -0.0008553212392143905,
          -0.00596572132781148,
          -0.21571248769760132,
          0.24788089096546173,
          0.17369689047336578,
          -0.16711264848709106,
          -0.1416017711162567,
          0.19358257949352264,
          0.1870189607143402,
          -0.04138634353876114,
          -0.0213128924369812
        ],
        [
          0.08106213808059692,
          0.13958287239074707,
          0.0875040739774704,
          -0.059588927775621414,
          -0.07954728603363037,
          0.15909236669540405,
          -0.21814216673374176,
          -0.11384177207946777,
          -0.0924692451953888,
          0.010370096191763878,
          -0.16384506225585938,
          0.13521474599838257,
          -0.11543500423431396,
          -0.17730210721492767,
          -0.0007229226175695658,
          -0.010906422510743141
        ],
        [
          -0.051378220319747925,
          -0.15377192199230194,
          -0.15516483783721924,
          -0.10564008355140686,
          -0.22547215223312378,
          0.143793523311615,
          -0.23163089156150818,
          0.06590487062931061,
          -0.10614114999771118,
          0.14671637117862701,
          0.011201411485671997,
          0.15533232688903809,
          0.17432434856891632,
          0.17042626440525055,
          0.06077931448817253,
          0.07517765462398529
        ],
        [
          0.23268510401248932,
          0.013009192422032356,
          0.1457115262746811,
          0.028541790321469307,
          0.02082822658121586,
          0.14249175786972046,
          0.03460896387696266,
          -0.1488112211227417,
          -0.046942953020334244,
          -0.2337072640657425,
          0.1991448551416397,
          -0.08350040018558502,
          -0.06194425746798515,
          0.15837498009204865,
          -0.13329751789569855,
          0.06263134628534317
        ],
        [
          0.10350226610898972,
          -0.05966119095683098,
          -0.10320088267326355,
          0.011163569986820221,
          0.16620531678199768,
          -0.2001703679561615,
          0.15657858550548553,
          0.08343188464641571,
          0.23486575484275818,
          -0.19514715671539307,
          0.24445435404777527,
          -0.16404493153095245,
          -0.19891680777072906,
          -0.10266657173633575,
          -0.13483847677707672,
          -0.1465158760547638
        ],
        [
          0.09463830292224884,
          -0.1715955138206482,
          0.1677256077528,
          -0.012009115889668465,
          -0.13318389654159546,
          -0.030375968664884567,
          -0.15986990928649902,
          -0.12521041929721832,
          -0.20943783223628998,
          -0.10984650999307632,
          -0.10280372202396393,
          -0.2746509909629822,
          0.017969604581594467,
          -0.2148667424917221,
          0.08449442684650421,
          0.10845490545034409
        ],
        [
          -0.12249886989593506,
          0.09558095782995224,
          -0.20294418931007385,
          0.15528909862041473,
          0.13381992280483246,
          -0.24455292522907257,
          -0.18577347695827484,
          0.17944607138633728,
          0.10405983775854111,
          -0.06387129426002502,
          0.2782217562198639,
          -0.21777477860450745,
          -0.12906251847743988,
          0.09707822650671005,
          0.008471746928989887,
          -0.14083817601203918
        ],
        [
          -0.01074017584323883,
          -0.10423529148101807,
          0.07631611824035645,
          -0.06839469820261002,
          0.17201301455497742,
          0.01321665570139885,
          0.0974007248878479,
          -0.06930487602949142,
          0.20018066465854645,
          0.15535682439804077,
          0.09815417230129242,
          0.002572740660980344,
          -0.1461889147758484,
          0.08878132700920105,
          -0.16058306396007538,
          0.09679055213928223
        ],
        [
          0.0208957027643919,
          -0.05370834469795227,
          0.04670920595526695,
          0.20345443487167358,
          -0.20364047586917877,
          0.18965990841388702,
          -0.2090698927640915,
          0.029387757182121277,
          0.08920147269964218,
          0.03241882845759392,
          0.12228826433420181,
          -0.13305816054344177,
          0.15719635784626007,
          0.06522031873464584,
          0.13251909613609314,
          -0.07469188421964645
        ],
        [
          -0.17592819035053253,
          0.260625958442688,
          -0.13605020940303802,
          0.1555604189634323,
          0.11272654682397842,
          -0.07705719023942947,
          0.15274742245674133,
          0.06806018203496933,
          0.1767217069864273,
          -0.15837089717388153,
          -0.036913610994815826,
          0.08620350062847137,
          -0.22447849810123444,
          0.03875519335269928,
          -0.17939840257167816,
          -0.229915052652359
        ],
        [
          0.18732865154743195,
          0.15083234012126923,
          0.1742803454399109,
          -0.20933088660240173,
          -0.1047716736793518,
          0.15593256056308746,
          -0.2663382589817047,
          0.20178908109664917,
          0.11567598581314087,
          -0.08248245716094971,
          0.10182714462280273,
          0.24805743992328644,
          0.17854219675064087,
          0.17389120161533356,
          -0.09582389146089554,
          0.08438161015510559
        ],
        [
          -0.03858159855008125,
          -0.16769273579120636,
          -0.19669391214847565,
          0.12157858163118362,
          -0.23324280977249146,
          -0.04488356411457062,
          0.14849458634853363,
          -0.20120343565940857,
          -0.1342243254184723,
          -0.17667189240455627,
          -0.0192691832780838,
          0.22896550595760345,
          0.04324846342206001,
          0.0007367482176050544,
          -0.2819780707359314,
          0.03324868902564049
        ],
        [
          0.20802189409732819,
          -0.1616382747888565,
          0.007068772334605455,
          -0.1912834793329239,
          -0.21309159696102142,
          -0.11249028146266937,
          -0.2139408141374588,
          0.16110001504421234,
          0.213813915848732,
          0.08944077044725418,
          0.17266876995563507,
          0.26645395159721375,
          0.20021212100982666,
          0.08346239477396011,
          -0.014957191422581673,
          -0.12266004830598831
        ],
        [
          -0.03567967936396599,
          -0.08294692635536194,
          0.05572565644979477,
          0.15014512836933136,
          -0.10715717077255249,
          0.15290965139865875,
          -0.0782817080616951,
          -0.2240089625120163,
          0.27537932991981506,
          0.13477779924869537,
          -0.09654437005519867,
          0.05598815158009529,
          0.08171163499355316,
          0.004395457450300455,
          -0.18204809725284576,
          -0.10256114602088928
        ]
      ],
      "bias": null
    },
    {
      "name": "fc2",
      "type": "linear",
      "in_features": 128,
      "out_features": 128,
      "weights": [
        [
          0.0608462430536747,
          -0.008870995603501797,
          0.08702367544174194,
          0.052565477788448334,
          -0.006020754110068083,
          -0.042483896017074585,
          -0.01006507221609354,
          -0.0027506265323609114,
          0.05186599865555763,
          0.0772627741098404,
          0.11290822178125381,
          -0.1446763426065445,
          0.06268203258514404,
          -0.063576340675354,
          0.06095537543296814,
          0.05813174322247505,
          -0.04785911366343498,
          0.0041777896694839,
          0.10730089247226715,
          0.03781534731388092,
          -0.0016447440721094608,
          0.11252551525831223,
          0.060297124087810516,
          0.050616007298231125,
          -0.014182785525918007,
          -0.04963263124227524,
          0.06570470333099365,
          -0.11942984163761139,
          0.019883742555975914,
          0.0022684226278215647,
          -0.10448988527059555,
          -0.04651007801294327,
          0.01841069757938385,
          0.019943134859204292,
          0.01589704491198063,
          0.12792463600635529,
          0.05043690279126167,
          0.10828445106744766,
          0.037822041660547256,
          -0.009199738502502441,
          -0.05799970030784607,
          0.10259589552879333,
          0.023536358028650284,
          -0.03288456052541733,
          -0.06684988737106323,
          -0.05183674395084381,
          -0.06656630337238312,
          0.03984948992729187,
          0.009496815502643585,
          0.032597433775663376,
          0.15714393556118011,
          -0.044697828590869904,
          -0.10217209160327911,
          0.021701037883758545,
          0.002057060832157731,
          -0.07074998319149017,
          -0.15153616666793823,
          -0.04941428080201149,
          0.10627488046884537,
          -0.09203989803791046,
          -0.02849196270108223,
          -0.04279782995581627,
          0.07845915853977203,
          -0.04502974450588226,
          -0.004503488074988127,
          0.07146772742271423,
          0.1070890799164772,
          -0.04327291250228882,
          0.10119916498661041,
          0.11197446286678314,
          0.019340595230460167,
          0.06397169083356857,
          0.08988393843173981,
          0.08708950132131577,
          -0.11098454892635345,
          -0.035994138568639755,
          -0.01701674982905388,
          0.10226646810770035,
          0.13713887333869934,
          0.07383355498313904,
          -0.2196984440088272,
          -0.01353793777525425,
          -0.01703387126326561,
          -0.09699197858572006,
          -0.15133655071258545,
          0.004733507055789232,
          0.04895731806755066,
          0.07117301970720291,
          0.09404150396585464,
          -0.07968068867921829,
          0.12603138387203217,
          -0.10059955716133118,
          -0.10032937675714493,
          0.012106508947908878,
          0.013004285283386707,
          -0.025537537410855293,
          -0.0503644198179245,
          -0.00702029699459672,
          0.018087908625602722,
          0.09446217864751816,
          -0.026165561750531197,
          -0.0789157822728157,
          -0.1546543389558792,
          0.028072282671928406,
          0.08231105655431747,
          -0.035581447184085846,
          -0.1672877073287964,
          -0.1580856293439865,
          0.023285821080207825,
          0.12102771550416946,
          0.02711426466703415,
          0.07614144682884216,
          -0.005201222840696573,
          0.014473489485681057,
          0.11132331192493439,
          0.06860711425542831,
          0.10235652327537537,
          -0.14892278611660004,
          0.016193656250834465,
          0.0947747677564621,
          0.11060471832752228,
          -0.027817437425255775,
          -0.023760253563523293,
          0.036087971180677414,
          -0.04907079413533211,
          -0.062046606093645096,
          -0.035720814019441605,
          0.059499166905879974
        ],
        [
          0.02188640646636486,
          -0.41740682721138,
          0.01833799108862877,
          -0.006015640217810869,
          -0.0561358816921711,
          -0.07322101294994354,
          -0.09842468053102493,
          0.03000861592590809,
          -0.009900256060063839,
          -0.08362116664648056,
          0.14933174848556519,
          0.07856346666812897,
          -0.0061603146605193615,
          -0.009915976785123348,
          0.13307307660579681,
          -0.006460219155997038,
          -0.07623420655727386,
          0.11486847698688507,
          -0.030713878571987152,
          0.07039271295070648,
          0.09005983173847198,
          -0.019220467656850815,
          -0.059354111552238464,
          0.004162525292485952,
          0.09661179035902023,
          0.04960495978593826,
          0.06544653326272964,
          0.10231703519821167,
          0.06137506291270256,
          0.07736034691333771,
          0.058686770498752594,
          0.030551590025424957,
          0.049730900675058365,
          0.02970021776854992,
          0.027089063078165054,
          0.05253567174077034,
          -0.021312164142727852,
          0.0673644095659256,
          0.025655223056674004,
          0.06606542319059372,
          0.06789835542440414,
          0.11266279965639114,
          0.09643344581127167,
          -0.04692818596959114,
          0.024612193927168846,
          -0.037184156477451324,
          0.022695550695061684,
          0.11174330860376358,
          -0.05014892295002937,
          -0.04576851800084114,
          0.03572428971529007,
          0.02886848896741867,
          -0.0769757404923439,
          0.06928838789463043,
          -0.047144826501607895,
          0.09393548220396042,
          0.013060268014669418,
          -0.05172491446137428,
          0.04961494356393814,
          0.05740691348910332,
          0.13895368576049805,
          0.03337683156132698,
          -0.09453994035720825,
          -0.08768490701913834,
          0.031031077727675438,
          0.08396802097558975,
          -0.06435637921094894,
          -0.05404310300946236,
          0.04486135020852089,
          -0.1017446219921112,
          0.08921178430318832,
          0.02371402084827423,
          0.05313340201973915,
          0.09218285232782364,
          -0.01497022993862629,
          0.07460234314203262,
          0.10779199004173279,
          0.10150600969791412,
          0.10937035083770752,
          -0.018547285348176956,
          -0.028248820453882217,
          0.03605441004037857,
          0.0504484549164772,
          0.024998895823955536,
          0.1273815631866455,
          -0.021883772686123848,
          -0.097234345972538,
          -0.06771589815616608,
          0.10958787053823471,
          -0.16211090981960297,
          -0.08274977654218674,
          0.15625500679016113,
          3.635010580183007e-05,
          0.06491517275571823,
          0.028882600367069244,
          0.07544726878404617,
          0.0554901659488678,
          0.07202277332544327,
          -0.06472461670637131,
          0.003277710173279047,
          0.04294849559664726,
          0.041932541877031326,
          0.0011625104816630483,
          0.015012308023869991,
          0.056403957307338715,
          0.026178210973739624,
          -0.10290389508008957,
          -0.0008144376915879548,
          -0.10351712256669998,
          -0.09144626557826996,
          0.049524273723363876,
          -0.04987421631813049,
          -0.0016597243957221508,
          -0.004572656471282244,
          -0.02904604561626911,
          0.0029111236799508333,
          -0.058729153126478195,
          0.034532006829977036,
          0.07319403439760208,
          -0.038646914064884186,
          0.06400603801012039,
          -0.02105538360774517,
          -0.04729722440242767,
          -0.010925755836069584,
          -0.04375331848859787,
          0.10546828806400299,
          -0.022553356364369392,
          0.08880969882011414
        ],
        [
          -0.01916218176484108,
          0.11034247279167175,
          -0.03148293122649193,
          0.048868048936128616,
          0.0957559123635292,
          0.07435055077075958,
          -0.051228150725364685,
          -0.00571983028203249,
          0.005425891373306513,
          -0.09393658488988876,
          0.0773530900478363,
          -0.03439382463693619,
          -0.00957762636244297,
          -0.06887329369783401,
          0.030968692153692245,
          0.03158656507730484,
          0.00831318274140358,
          0.021206600591540337,
          0.10930410027503967,
          -0.017791390419006348,
          0.11481059342622757,
          0.055343832820653915,
          -0.03533979505300522,
          -0.010708823800086975,
          0.056023381650447845,
          -0.07954409718513489,
          0.08782169222831726,
          -0.029373858124017715,
          -0.07731526345014572,
          -0.03491527959704399,
          -0.09115473926067352,
          -0.040803421288728714,
          0.09353029727935791,
          -0.02333282306790352,
          0.00937925186008215,
          -0.03740372136235237,
          -0.006838551722466946,
          -0.05507742613554001,
          -0.01749957539141178,
          0.07172290235757828,
          0.08384286612272263,
          0.07634139806032181,
          0.09802839905023575,
          -0.09335187822580338,
          0.030707422643899918,
          -0.03601311519742012,
          0.08650228381156921,
          -0.04793164134025574,
          0.09752623736858368,
          -0.1290828436613083,
          -0.06543288379907608,
          0.012937497347593307,
          -0.03190702199935913,
          0.10986652970314026,
          -0.03769693896174431,
          0.008934086188673973,
          0.05720708146691322,
          -0.042148008942604065,
          -0.11500333249568939,
          0.04202277958393097,
          0.04496090114116669,
          0.029375363141298294,
          0.051587946712970734,
          -0.09328392893075943,
          -0.00628950260579586,
          0.018634827807545662,
          0.09030016511678696,
          -0.0031644830014556646,
          0.051715657114982605,
          -0.015608820132911205,
          -0.05161694064736366,
          0.02144314907491207,
          0.019664322957396507,
          0.007538400590419769,
          -0.010827566497027874,
          -0.0329083576798439,
          0.07740748673677444,
          0.002709178952500224,
          0.01315063051879406,
          0.04032933712005615,
          0.015323199331760406,
          0.043044619262218475,
          0.0799054279923439,
          -0.10218323022127151,
          -0.013618756085634232,
          0.0922447219491005,
          0.022672202438116074,
          -0.002072576666250825,
          0.08615533262491226,
          -0.06406768411397934,
          0.04442545771598816,
          -0.04104865342378616,
          -0.05069481581449509,
          -0.004922565072774887,
          -0.015016931109130383,
          -0.09755822271108627,
          0.08493225276470184,
          -0.02786487340927124,
          0.047051191329956055,
          -0.011885649524629116,
          0.02977084182202816,
          -0.02758343145251274,
          0.003733402118086815,
          -0.013484473340213299,
          0.08589744567871094,
          0.1189081147313118,
          -0.07465818524360657,
          -0.0650261640548706,
          -0.035701584070920944,
          0.05501632019877434,
          0.07555249333381653,
          0.025566892698407173,
          0.07891055196523666,
          0.09595883637666702,
          0.10371635109186172,
          0.0468548946082592,
          -0.005659280810505152,
          0.009763203561306,
          0.04665229469537735,
          0.03339580073952675,
          0.06578673422336578,
          0.005991647485643625,
          0.059535540640354156,
          -0.007811605464667082,
          -0.05132472142577171,
          0.027357198297977448,
          0.11537469923496246,
          0.021013258025050163
        ],
        [
          0.02064536325633526,
          0.11997609585523605,
          -0.12250746041536331,
          0.07890402525663376,
          -0.09312807768583298,
          0.07450373470783234,
          0.06899227946996689,
          0.03876740112900734,
          -0.003956566099077463,
          0.0843861922621727,
          -0.024757420644164085,
          0.06052136421203613,
          -0.042967136949300766,
          0.07516297698020935,
          -0.012417509220540524,
          0.08686530590057373,
          0.10305674374103546,
          -0.05603669956326485,
          -0.13934598863124847,
          0.07585428655147552,
          0.05611827224493027,
          0.06510664522647858,
          -0.018715012818574905,
          0.024541465565562248,
          0.06488003581762314,
          0.09286833554506302,
          0.057556234300136566,
          0.1368853598833084,
          0.026348736137151718,
          0.09996478259563446,
          0.04903770983219147,
          0.015127789229154587,
          0.07791478931903839,
          0.06457731127738953,
          0.04017559438943863,
          -0.028896478936076164,
          0.04159395024180412,
          0.06511824578046799,
          0.05893530324101448,
          0.04299582913517952,
          0.1226997822523117,
          -0.10474568605422974,
          0.00840276200324297,
          0.14411340653896332,
          0.08485998213291168,
          0.04062596336007118,
          0.05225822329521179,
          -0.05293048173189163,
          -0.09337853640317917,
          0.049556467682123184,
          0.006659930106252432,
          0.0015504596522077918,
          0.043355654925107956,
          -0.07824566215276718,
          -0.056224096566438675,
          -0.017879750579595566,
          -0.1673496812582016,
          0.11481564491987228,
          0.03403764218091965,
          0.1336100548505783,
          0.03540479764342308,
          -0.003886239370331168,
          0.05852018669247627,
          0.12263873964548111,
          0.07006052881479263,
          0.10536034405231476,
          0.008705883286893368,
          0.04817480593919754,
          -0.16699138283729553,
          -0.07678879797458649,
          0.05731240287423134,
          -0.0022449935786426067,
          0.12341383099555969,
          0.18286433815956116,
          0.04582861438393593,
          0.12425565719604492,
          -0.06531420350074768,
          0.08193721622228622,
          0.037025634199380875,
          -0.0418686717748642,
          -0.06383339315652847,
          -0.018387088552117348,
          -0.013268786482512951,
          -0.039170149713754654,
          -0.04838478937745094,
          -0.1294863373041153,
          0.12699681520462036,
          0.03690436854958534,
          0.0217412281781435,
          0.006893323268741369,
          0.0347636453807354,
          -0.007784588728100061,
          0.08823820948600769,
          -0.005799199920147657,
          -0.01622837781906128,
          0.01810993067920208,
          0.028608012944459915,
          0.009205764159560204,
          -0.051365964114665985,
          0.007674468215554953,
          0.08546952903270721,
          -0.012864276766777039,
          -0.04471166804432869,
          -0.03661012277007103,
          -0.08559846878051758,
          -0.21137015521526337,
          0.15421520173549652,
          -0.0019055684097111225,
          0.055200591683387756,
          0.13933606445789337,
          -0.08922751992940903,
          -0.020345959812402725,
          -0.03339913487434387,
          -0.057166457176208496,
          -0.0012119513703510165,
          -0.03402354195713997,
          -0.03864552453160286,
          0.12606161832809448,
          -0.03738054633140564,
          -0.017701083794236183,
          -0.017586536705493927,
          -0.027256151661276817,
          -0.007149314042180777,
          -0.06359293311834335,
          -0.08685970306396484,
          -0.07560618966817856,
          -0.13604600727558136,
          -0.11206334829330444
        ],
        [
          -0.019431721419095993,
          0.07234513759613037,
          -0.0445973165333271,
          -0.04175557196140289,
          0.09168565273284912,
          0.10675318539142609,
          -0.11922217905521393,
          0.08101170510053635,
          -0.06736689805984497,
          -0.02993001416325569,
          0.08653724938631058,
          -0.006972648669034243,
          0.03818061575293541,
          0.07364579290151596,
          0.09915728121995926,
          0.03231110796332359,
          0.003817120799794793,
          0.08374938368797302,
          -0.03364744782447815,
          0.01617852784693241,
          -0.05513002723455429,
          0.10145996510982513,
          0.0118606798350811,
          0.011459587141871452,
          -0.005754266865551472,
          -0.009721088223159313,
          0.04506034776568413,
          -0.03330377861857414,
          0.07652945071458817,
          0.03019346483051777,
          0.05759347602725029,
          0.01646837592124939,
          -0.05301078408956528,
          0.0620218925178051,
          -0.05836794152855873,
          0.06300749629735947,
          -0.043746333569288254,
          -0.013902749866247177,
          -0.07476570457220078,
          0.020366722717881203,
          0.04752510040998459,
          0.0650576502084732,
          -0.02530200034379959,
          -0.04409113898873329,
          -0.055108338594436646,
          0.021959442645311356,
          -0.02634608745574951,
          -0.10997831076383591,
          -0.014251512475311756,
          0.0884958803653717,
          -0.018001768738031387,
          -0.00755406403914094,
          -0.034002311527729034,
          0.03366371616721153,
          0.08208722621202469,
          -0.07420972734689713,
          -0.07716941833496094,
          -0.0008755481103435159,
          -0.03983283415436745,
          -0.003372291335836053,
          0.038785915821790695,
          0.015871597453951836,
          0.11595488339662552,
          -0.041232138872146606,
          0.021605459973216057,
          0.08585569262504578,
          0.056397125124931335,
          -0.0634145736694336,
          0.033465154469013214,
          0.016591962426900864,
          -0.027584288269281387,
          -0.13783150911331177,
          0.09077327698469162,
          -0.06614092737436295,
          -0.047932691872119904,
          0.06437834352254868,
          0.02865232527256012,
          0.026493871584534645,
          0.0871662050485611,
          0.0015556089347228408,
          -0.1410452425479889,
          0.07211394608020782,
          -0.06974878162145615,
          -0.0331994853913784,
          0.04594535008072853,
          0.08048434555530548,
          0.07839182019233704,
          0.06585820764303207,
          0.08200948685407639,
          -0.02655799686908722,
          0.012681891210377216,
          -0.04621197283267975,
          -0.011029575020074844,
          -0.01648622378706932,
          -0.00042476991075091064,
          0.0016022835625335574,
          -0.07254189252853394,
          0.08091890066862106,
          0.015508211217820644,
          0.017462478950619698,
          0.0409231036901474,
          -0.07822432368993759,
          -0.059174176305532455,
          0.027805780991911888,
          -0.05065359175205231,
          -0.02630375698208809,
          -0.10838457942008972,
          -0.09615900367498398,
          -0.04541201889514923,
          0.11643053591251373,
          -0.07510087639093399,
          0.07137872278690338,
          -0.020103875547647476,
          -0.04685257002711296,
          -0.055215172469615936,
          -0.07275573909282684,
          -0.13259157538414001,
          0.05461650714278221,
          0.013846531510353088,
          0.07762674242258072,
          0.09342338144779205,
          -0.00777880335226655,
          0.052102383226156235,
          0.01194479875266552,
          0.07535868138074875,
          -0.0033367187716066837,
          0.09447196125984192,
          -0.1304633766412735
        ],
        [
          -0.1143631860613823,
          0.09699522703886032,
          -0.05190594866871834,
          -0.00499265780672431,
          0.06145985424518585,
          0.03635668009519577,
          -0.037960559129714966,
          0.03239027038216591,
          0.012683263048529625,
          -0.08369696885347366,
          -0.02519390918314457,
          -0.10617092996835709,
          -0.01250412967056036,
          0.09806107729673386,
          -0.08434055000543594,
          0.015255389735102654,
          0.10232046246528625,
          0.006409102119505405,
          0.026078961789608,
          -0.08917377144098282,
          0.09343408048152924,
          0.029048997908830643,
          -0.07864154875278473,
          0.06745603680610657,
          -0.06563542783260345,
          -0.15663595497608185,
          -0.06651944667100906,
          0.06937786191701889,
          0.030905941501259804,
          0.024606341496109962,
          0.007180088199675083,
          -0.1261177957057953,
          0.02746359072625637,
          -0.039699189364910126,
          -0.027416320517659187,
          -0.09090787917375565,
          -0.06840245425701141,
          -0.04149752855300903,
          -0.0033912884537130594,
          -0.06062697246670723,
          -0.024988001212477684,
          -0.013719932176172733,
          -0.08008269220590591,
          -0.0693189725279808,
          -0.12160778045654297,
          -0.0068368189968168736,
          0.08253560215234756,
          0.0955703854560852,
          -0.041528403759002686,
          -0.0002716302697081119,
          -0.04795783758163452,
          0.13356135785579681,
          -0.02102094143629074,
          0.030252471566200256,
          0.04466437175869942,
          0.08039581030607224,
          0.0059094722382724285,
          0.006154539529234171,
          0.03568253293633461,
          0.0202557984739542,
          0.002057628007605672,
          -0.0023933276534080505,
          -0.01709071174263954,
          0.012062541209161282,
          0.0006893804529681802,
          0.09531343728303909,
          0.0702134519815445,
          0.013760180212557316,
          0.09222909808158875,
          0.08361215889453888,
          -0.11249903589487076,
          0.00923144817352295,
          -0.04594046249985695,
          0.060476575046777725,
          0.10289792716503143,
          0.03292706981301308,
          0.04605720192193985,
          -0.05649342015385628,
          -0.09325383603572845,
          -0.02425389364361763,
          -0.0267325509339571,
          -0.0006277035572566092,
          -0.03145168721675873,
          -0.08776028454303741,
          0.1168295294046402,
          0.06507861614227295,
          -0.08145470917224884,
          0.04221548140048981,
          0.06164649501442909,
          0.05233725532889366,
          0.012761698104441166,
          -0.06681006401777267,
          0.042145490646362305,
          0.07256583124399185,
          -0.14183486998081207,
          -0.002784675220027566,
          -0.01878412812948227,
          -0.0073546781204640865,
          0.09097237139940262,
          -0.054645854979753494,
          0.045471467077732086,
          -0.03818254545331001,
          -0.009491735137999058,
          0.024772660806775093,
          -0.08210719376802444,
          0.10734383016824722,
          0.0842309445142746,
          0.06914491951465607,
          -0.10396496206521988,
          -0.010654720477759838,
          0.035695403814315796,
          -0.033843155950307846,
          -0.003984994255006313,
          0.00895069818943739,
          0.05681992322206497,
          -0.043779052793979645,
          0.01847446709871292,
          0.04423878341913223,
          -0.05171286314725876,
          0.04635738581418991,
          0.08489290624856949,
          0.12686724960803986,
          0.00897749699652195,
          0.06815791130065918,
          0.06301639974117279,
          0.3371683955192566,
          0.03976445272564888,
          0.0929994285106659
        ],
        [
          -0.06942930072546005,
          -0.018014876171946526,
          0.09478848427534103,
          0.015262412838637829,
          -0.04725369065999985,
          -0.021819381043314934,
          -0.01273520290851593,
          0.012645803391933441,
          0.04966164007782936,
          -0.02407846786081791,
          0.0217839777469635,
          -0.13780897855758667,
          0.0441511794924736,
          0.06616796553134918,
          -0.06431442499160767,
          0.051273785531520844,
          0.03412581980228424,
          0.006492126267403364,
          0.0032317067962139845,
          0.01611049845814705,
          0.054460201412439346,
          0.02466820552945137,
          -0.31446850299835205,
          0.024045059457421303,
          0.022772202268242836,
          0.006341000087559223,
          -0.08896486461162567,
          0.0147025091573596,
          -0.01874198019504547,
          0.03585990518331528,
          0.05668102204799652,
          -0.03782399743795395,
          -0.16632208228111267,
          0.129140242934227,
          -0.00029329844983294606,
          0.11371345072984695,
          0.10026255249977112,
          -0.20238232612609863,
          -0.13223403692245483,
          -0.13192294538021088,
          0.10241398960351944,
          0.028453726321458817,
          0.08925936371088028,
          -0.03180506080389023,
          0.05574982613325119,
          -0.040721695870161057,
          0.10193955153226852,
          -0.13106724619865417,
          -0.03158605471253395,
          -0.04318822920322418,
          -0.03374704718589783,
          0.09572282433509827,
          -0.08230800181627274,
          0.10562855750322342,
          0.0632987692952156,
          0.11381825804710388,
          0.09635165333747864,
          0.12277837097644806,
          0.07516715675592422,
          0.07276157289743423,
          0.12288245558738708,
          0.06482209265232086,
          -0.10967572033405304,
          -0.08536922931671143,
          0.06560944020748138,
          -0.10732465237379074,
          -0.08556278795003891,
          0.10556837171316147,
          0.11074899882078171,
          -0.07469718903303146,
          -0.03722519800066948,
          0.023894496262073517,
          -0.029049064964056015,
          0.12936952710151672,
          0.07179968804121017,
          0.052178818732500076,
          0.12836390733718872,
          -0.016864236444234848,
          0.0756988376379013,
          -0.03471553325653076,
          0.04675881564617157,
          0.02267368882894516,
          -0.07283138483762741,
          -0.09737374633550644,
          0.05232089385390282,
          0.03809227794408798,
          -0.035134948790073395,
          -0.11195311695337296,
          -0.030985932797193527,
          -0.042863789945840836,
          -0.07764579355716705,
          0.08413926512002945,
          -0.03331602364778519,
          0.09676942974328995,
          -0.06397456675767899,
          0.1284935027360916,
          -0.015754401683807373,
          0.06111947447061539,
          -0.011725244112312794,
          0.04095578193664551,
          0.08557198941707611,
          -0.033235445618629456,
          -0.024454757571220398,
          0.05372251942753792,
          0.04328744485974312,
          0.0023289795499294996,
          0.07250556349754333,
          0.022092008963227272,
          -0.049195293337106705,
          0.13812142610549927,
          0.07899694889783859,
          -0.0620998740196228,
          0.10526417940855026,
          0.01236280519515276,
          0.011012259870767593,
          0.12621408700942993,
          -0.1533767282962799,
          0.026540925726294518,
          0.06069113314151764,
          -0.015629108995199203,
          0.04040782153606415,
          0.11612497270107269,
          0.017540883272886276,
          0.15326115489006042,
          0.022937389090657234,
          0.10941676795482635,
          0.03732714429497719,
          0.10248490422964096
        ],
        [
          -0.05183987691998482,
          0.12572552263736725,
          0.008901976980268955,
          0.04733502119779587,
          0.06685525923967361,
          0.013415849767625332,
          0.03956574201583862,
          0.11924605071544647,
          0.00324201094917953,
          0.10148650407791138,
          -0.012068611569702625,
          -0.08711524307727814,
          -0.04197471961379051,
          0.05188684165477753,
          0.08002158999443054,
          0.08240489661693573,
          0.007416401524096727,
          0.06474533677101135,
          -0.008673827163875103,
          0.049554843455553055,
          -0.05816247686743736,
          0.0923665463924408,
          0.013783629052340984,
          0.01207804773002863,
          0.05448245257139206,
          -0.02336835116147995,
          -0.03509338200092316,
          0.06971273571252823,
          0.06670359522104263,
          -0.05192476883530617,
          -0.0336025133728981,
          -0.053644031286239624,
          0.018758799880743027,
          -0.03596404567360878,
          0.04827891290187836,
          -0.033560123294591904,
          -0.06886731833219528,
          -0.04762372374534607,
          -0.022877251729369164,
          -0.026951396837830544,
          -0.08333438634872437,
          -0.008855791762471199,
          0.02246631495654583,
          0.01050365436822176,
          0.0738125815987587,
          0.10230976343154907,
          0.038311466574668884,
          0.02916385792195797,
          -0.015759924426674843,
          0.03972866013646126,
          -0.012261878699064255,
          -0.03513436019420624,
          -0.046018827706575394,
          0.0163717158138752,
          -0.023240897804498672,
          0.06578481942415237,
          -0.03409232944250107,
          -0.12211233377456665,
          0.015055513009428978,
          -0.03574325144290924,
          -0.021321333944797516,
          -0.060292329639196396,
          0.014682677574455738,
          0.07804485410451889,
          0.0625574067234993,
          0.08175548166036606,
          0.06822188943624496,
          0.026958663016557693,
          0.08003677427768707,
          0.13665638864040375,
          -0.00027939039864577353,
          0.008638554252684116,
          -0.06533916294574738,
          -0.1383388638496399,
          -0.10077236592769623,
          -0.036715440452098846,
          -0.06768329441547394,
          0.06592165678739548,
          0.09974098205566406,
          -0.01646885834634304,
          -0.04400906711816788,
          -0.07280860841274261,
          0.010770035907626152,
          -0.005199889186769724,
          -0.07342731952667236,
          0.09104150533676147,
          0.011895711533725262,
          -0.029697204008698463,
          0.07150347530841827,
          0.09381917119026184,
          0.07368207722902298,
          -0.07403744757175446,
          0.04158378764986992,
          0.015586192719638348,
          -0.055418919771909714,
          -0.019221052527427673,
          -0.039002981036901474,
          0.10850288718938828,
          -0.016065813601017,
          0.05713656172156334,
          0.02660294994711876,
          -0.008175069466233253,
          0.07361432909965515,
          -0.03307133540511131,
          -0.007646474055945873,
          0.007955538108944893,
          0.07299178838729858,
          -3.447819472057745e-05,
          -0.011354373767971992,
          -0.048600200563669205,
          0.11905307322740555,
          0.10134036839008331,
          -0.12975920736789703,
          0.07286157459020615,
          0.06738950312137604,
          -0.009577675722539425,
          0.0970616340637207,
          -0.060136277228593826,
          -0.030005216598510742,
          0.03435027226805687,
          -0.0674375519156456,
          0.11109714955091476,
          0.07998818159103394,
          -0.162018820643425,
          0.025377944111824036,
          0.037166208028793335,
          -0.02812344953417778,
          0.04389747232198715
        ],
