{
  "benchmark_id": "E3",
  "series": "E",
  "architecture": "E3Net",
  "timesteps": 20,
  "precision": {
    "weight_bits": 4,
    "signed": true
  },
  "layers": [
    {
      "name": "fc1",
      "type": "linear",
      "in_features": 3,
      "out_features": 24,
      "weights": [
        [
          0.0,
          -0.5449849367141724,
          -0.0
        ],
        [
          1.3497800827026367,
          0.0,
          4.119237899780273
        ],
        [
          -0.0,
          -0.0,
          -0.0
        ],
        [
          0.0,
          -0.0,
          -0.0
        ],
        [
          -0.35491102933883667,
          0.0,
          -0.0
        ],
        [
          -0.0,
          -0.34567350149154663,
          -0.0
        ],
        [
          -0.0,
          -0.345649391412735,
          -0.0
        ],
        [
          0.2936210036277771,
          -0.0,
          0.16949613392353058
        ],
        [
          0.0,
          -0.20126527547836304,
          0.0
        ],
        [
          -0.0,
          0.3525465726852417,
          -0.4552537202835083
        ],
        [
          0.6072773337364197,
          -0.33005717396736145,
          -0.0
        ],
        [
          -0.0,
          0.3361717462539673,
          0.15452951192855835
        ],
        [
          -0.44906988739967346,
          -0.0,
          -0.0
        ],
        [
          0.0,
          0.0,
          0.0
        ],
        [
          -0.0,
          0.30731087923049927,
          0.0
        ],
        [
          0.5598738193511963,
          0.0,
          -0.0
        ],
        [
          -0.2146492749452591,
          -0.0,
          -0.0
        ],
        [
          -0.26486843824386597,
          -0.0,
          -0.0
        ],
        [
          0.5598737597465515,
          0.0,
          -0.0
        ],
        [
          0.0,
          -1.8541860580444336,
          -1.326695203781128
        ],
        [
          -1.2367866039276123,
          -0.0,
          0.0
        ],
        [
          -0.0,
          -0.0,
          -1.9997215270996094
        ],
        [
          0.0,
          -1.824813723564148,
          -1.4475797414779663
        ],
        [
          -0.0,
          -0.0,
          -0.0
        ]
      ],
      "bias": null
    },
    {
      "name": "fc2",
      "type": "linear",
      "in_features": 24,
      "out_features": 3,
      "weights": [
        [
          0.0,
          0.0,
          -0.0,
          -0.0,
          -0.0,
          -0.0041864365339279175,
          -0.09503838419914246,
          -0.021450700238347054,
          0.0,
          0.0,
          0.0,
          0.0,
          -0.0,
          0.0,
          -0.0,
          -0.0,
          -0.04556955397129059,
          -0.0,
          -0.0,
          4.839975833892822,
          0.0,
          0.0,
          8.133047103881836,
          -0.0
        ],
        [
          -0.0,
          0.0,
          -0.12756094336509705,
          -0.0,
          -0.0,
          0.0,
          0.0,
          0.09464294463396072,
          -0.0,
          0.0,
          -6.207818984985352,
          -0.0,
          0.0,
          -0.0,
          0.0,
          0.15569216012954712,
          0.0,
          -0.0,
          0.1405806541442871,
          0.0,
          -7.968135833740234,
          -5.791079044342041,
          0.0,
          0.0
        ],
        [
          -0.0,
          -6.06049108505249,
          -0.0,
          -0.0,
          -0.0,
          -0.0,
          0.0,
          0.035673510283231735,
          0.0,
          0.0,
          -0.0,
          -0.0,
          0.0,
          0.0,
          -0.0,
          -0.0,
          0.0,
          0.0,
          0.0,
          -0.0,
          -6.659362316131592,
          -0.0,
          -0.0,
          -0.0
        ]
      ],
      "bias": null
    }
  ],
  "metadata": {
    "task": "classification"
  }
}