{
  "benchmark_id": "L4",
  "series": "L",
  "architecture": "L4Net",
  "timesteps": 35,
  "precision": {
    "weight_bits": 4,
    "signed": true
  },
  "layers": [
    {
      "name": "fc1",
      "type": "linear",
      "in_features": 4,
      "out_features": 48,
      "weights": [
        [
          -0.3501545488834381,
          1.244793176651001,
          0.4141004979610443,
          -0.8329352140426636
        ],
        [
          0.010850583203136921,
          0.3363257646560669,
          0.23684702813625336,
          0.10453514754772186
        ],
        [
          0.8084410429000854,
          -0.7599663734436035,
          0.772158145904541,
          -0.8621538877487183
        ],
        [
          0.46291249990463257,
          -0.04656221717596054,
          0.5308843851089478,
          -0.0605936236679554
        ],
        [
          0.18225540220737457,
          0.08192725479602814,
          0.24406249821186066,
          0.09326726943254471
        ],
        [
          0.9221096634864807,
          0.14598463475704193,
          -0.9466062188148499,
          1.1773520708084106
        ],
        [
          0.04259319230914116,
          0.25788795948028564,
          0.8464572429656982,
          0.5106672048568726
        ],
        [
          0.17503492534160614,
          0.2999476194381714,
          0.6920993328094482,
          0.3098839521408081
        ],
        [
          -0.8752757906913757,
          -0.9824908971786499,
          0.7700194120407104,
          -1.3740829229354858
        ],
        [
          0.5608686804771423,
          0.10032597929239273,
          1.5138880014419556,
          -0.16127462685108185
        ],
        [
          -1.0629290342330933,
          -0.5619385242462158,
          0.8005163073539734,
          0.4303829073905945
        ],
        [
          -0.10344414412975311,
          -0.8244619965553284,
          0.573493480682373,
          1.071589708328247
        ],
        [
          -2.0651137828826904,
          0.42430341243743896,
          0.6988483667373657,
          0.5655435919761658
        ],
        [
          0.23905043303966522,
          -0.8922242522239685,
          -2.352248430252075,
          0.608258068561554
        ],
        [
          -1.902269721031189,
          0.263321191072464,
          -1.2686957120895386,
          1.1022802591323853
        ],
        [
          -0.24179494380950928,
          0.8845877051353455,
          0.6601604223251343,
          -0.6803542971611023
        ],
        [
          0.023290829733014107,
          -1.1228183507919312,
          1.5033891201019287,
          0.8488684296607971
        ],
        [
          -0.16193822026252747,
          0.656263530254364,
          1.3254872560501099,
          -0.7289583683013916
        ],
        [
          0.26112258434295654,
          0.012495051138103008,
          0.2813299298286438,
          0.7972661256790161
        ],
        [
          -0.17384937405586243,
          0.856325626373291,
          0.28086474537849426,
          0.23090258240699768
        ],
        [
          -0.4987877309322357,
          -0.25966888666152954,
          0.45634907484054565,
          -1.4664106369018555
        ],
        [
          0.555960476398468,
          0.12318265438079834,
          1.4399001598358154,
          -0.13371917605400085
        ],
        [
          -1.5223033428192139,
          0.42990580201148987,
          0.29501819610595703,
          0.3110201060771942
        ],
        [
          -0.6016722321510315,
          -0.4365929067134857,
          0.5838478207588196,
          -1.4696604013442993
        ],
        [
          -0.28223341703414917,
          -1.028140664100647,
          0.3874779939651489,
          1.3047500848770142
        ],
        [
          0.0824039876461029,
          -2.315556287765503,
          1.0886528491973877,
          -0.11822310835123062
        ],
        [
          1.07860267162323,
          -1.3269906044006348,
          -0.3072194755077362,
          0.6109189987182617
        ],
        [
          -2.0133767127990723,
          0.5800527334213257,
          -3.5721120834350586,
          0.6771923899650574
        ],
        [
          0.8780142664909363,
          -1.0754482746124268,
          0.30994173884391785,
          0.7796950340270996
        ],
        [
          0.8555238842964172,
          -0.37024247646331787,
          -0.915165901184082,
          0.44124218821525574
        ],
        [
          1.1729966402053833,
          -0.19663672149181366,
          1.4531620740890503,
          -1.0194131135940552
        ],
        [
          1.6875360012054443,
          0.40645697712898254,
          1.048445224761963,
          -1.3250031471252441
        ],
        [
          0.07075284421443939,
          0.11312364041805267,
          0.6189738512039185,
          0.6639955043792725
        ],
        [
          0.17724157869815826,
          -1.5544248819351196,
          0.49883484840393066,
          -1.1278635263442993
        ],
        [
          0.2068491280078888,
          1.0563949346542358,
          0.9230493307113647,
          -1.053262710571289
        ],
        [
          0.06561168283224106,
          0.12661337852478027,
          0.5945789217948914,
          0.6765852570533752
        ],
        [
          0.6644952893257141,
          -0.35565435886383057,
          0.10092266649007797,
          0.3078100383281708
        ],
        [
          0.26737791299819946,
          0.4088797867298126,
          0.4695254862308502,
          0.562877357006073
        ],
        [
          0.4596148133277893,
          -0.4966381788253784,
          1.2692842483520508,
          0.2164323627948761
        ],
        [
          -2.1599769592285156,
          0.23020635545253754,
          -1.6193410158157349,
          1.0702039003372192
        ],
        [
          -0.3042982220649719,
          -1.2562111616134644,
          1.2868003845214844,
          -1.575454592704773
        ],
        [
          -0.2948661744594574,
          -0.9232817888259888,
          0.4418552815914154,
          -1.4902863502502441
        ],
        [
          0.8308731317520142,
          -0.8952149152755737,
          -0.4126129150390625,
          0.6607542037963867
        ],
        [
          0.8238000869750977,
          -0.6201825737953186,
          0.7355436086654663,
          0.23281237483024597
        ],
        [
          0.029192520305514336,
          0.34263867139816284,
          0.24350352585315704,
          -0.06365420669317245
        ],
        [
          0.09645520150661469,
          0.7887225151062012,
          0.7124722599983215,
          -0.5801491141319275
        ],
        [
          0.44746527075767517,
          -0.17169056832790375,
          0.8819734454154968,
          -0.8214225172996521
        ],
        [
          0.44658878445625305,
          -0.49295899271965027,
          1.2298427820205688,
          0.23100391030311584
        ]
      ],
      "bias": null
    },
    {
      "name": "fc2",
      "type": "linear",
      "in_features": 48,
      "out_features": 48,
      "weights": [
        [
          -0.36629119515419006,
          1.2715507745742798,
          0.15793739259243011,
          2.1203808784484863,
          1.315445899963379,
          -0.693463146686554,
          -0.5940161347389221,
          -0.3141474723815918,
          0.02394431084394455,
          -0.03456960991024971,
          1.1805649995803833,
          9.29481684579514e-05,
          0.354107141494751,
          -0.8524117469787598,
          0.8932780623435974,
          -0.2010902613401413,
          0.06465188413858414,
          0.05581231415271759,
          -1.1476478576660156,
          -0.13839496672153473,
          0.20162908732891083,
          0.3014147877693176,
          1.0674068927764893,
          0.3406369984149933,
          0.0693807378411293,
          -0.015941180288791656,
          -0.777868390083313,
          2.371819019317627,
          -0.1261717677116394,
          -0.3501163721084595,
          -0.23997168242931366,
          -0.36856478452682495,
          -0.6955963969230652,
          0.18382874131202698,
          -0.1043049767613411,
          -0.8738052248954773,
          -0.3567447066307068,
          -0.2925967574119568,
          0.46854937076568604,
          1.013399362564087,
          0.22078390419483185,
          0.38465309143066406,
          -0.17356093227863312,
          0.9582641124725342,
          4.243886947631836,
          -0.6231356263160706,
          -0.23473039269447327,
          0.35017910599708557
        ],
        [
          0.029427973553538322,
          2.5213866233825684,
          0.18609490990638733,
          -0.6114364266395569,
          1.239397644996643,
          -0.2594890892505646,
          -0.6279016733169556,
          0.7845631837844849,
          0.5256103873252869,
          0.6818481683731079,
          0.9465768933296204,
          -0.10167182236909866,
          0.4995974898338318,
          -0.020211970433592796,
          0.3656007647514343,
          -1.0819237232208252,
          0.07032148540019989,
          1.6786510944366455,
          0.13869541883468628,
          0.24096421897411346,
          0.9254074096679688,
          -0.5623601078987122,
          -2.5608503818511963,
          0.7649656534194946,
          -0.35555964708328247,
          0.010778864845633507,
          -0.004497918765991926,
          -1.2667666673660278,
          0.4180850684642792,
          0.7151910662651062,
          -0.28274884819984436,
          0.07531429082155228,
          -0.895449161529541,
          1.1894397735595703,
          0.573849618434906,
          -1.0025452375411987,
          0.407734751701355,
          0.2281920164823532,
          0.2221292406320572,
          0.11181472986936569,
          0.7875681519508362,
          0.8109260201454163,
          -0.09598803520202637,
          -0.5070125460624695,
          -4.293210506439209,
          0.5282157063484192,
          -0.0029233761597424746,
          0.30909013748168945
        ],
        [
          0.17794358730316162,
          1.034274697303772,
          0.49276214838027954,
          -0.8318526148796082,
          0.8823967576026917,
          0.27944645285606384,
          -0.21255570650100708,
          0.7897034287452698,
          0.2193177193403244,
          -1.2685011625289917,
          -0.28192660212516785,
          0.1399073600769043,
          -0.1996237337589264,
          0.0011429503792896867,
          -0.12963299453258514,
          -0.17056018114089966,
          0.21928803622722626,
          0.8295468091964722,
          0.7024409770965576,
          0.19492164254188538,
          0.13709405064582825,
          -1.143594741821289,
          0.5955333709716797,
          0.3334859013557434,
          -0.07167413830757141,
          0.6079722046852112,
          0.06402072310447693,
          0.9459220170974731,
          -0.424702525138855,
          0.5915282964706421,
          0.7419881224632263,
          0.49653947353363037,
          -0.2628016769886017,
          0.634009838104248,
          0.019803091883659363,
          -0.26075300574302673,
          0.6299492716789246,
          0.008356275968253613,
          0.7220207452774048,
          0.23598434031009674,
          0.3590624928474426,
          0.3663201332092285,
          -0.8655678629875183,
          -0.18971452116966248,
          -2.276728391647339,
          -0.009611258283257484,
          0.46302926540374756,
          0.7189605236053467
        ],
        [
          0.6053839921951294,
          1.3393394947052002,
          0.35543137788772583,
          -0.3958715498447418,
          0.5647844076156616,
          0.6310191750526428,
          -1.0496121644973755,
          0.42258507013320923,
          0.8107129335403442,
          1.2139440774917603,
          0.9668541550636292,
          -0.27252399921417236,
          0.1867588758468628,
          -0.9508089423179626,
          -0.025429176166653633,
          -0.7849404215812683,
          -0.15700171887874603,
          0.3867797255516052,
          0.0750621035695076,
          0.5021074414253235,
          0.8352827429771423,
          0.35121360421180725,
          -1.6653028726577759,
          0.7546107172966003,
          -0.059364430606365204,
          0.1837308257818222,
          -0.16892461478710175,
          -0.16480349004268646,
          0.2948671281337738,
          -0.06973718106746674,
          -0.19623427093029022,
          -0.34652096033096313,
          -0.7239424586296082,
          0.908208429813385,
          -0.006299484521150589,
          -0.6859732866287231,
          0.006279336288571358,
          0.7243739366531372,
          0.08298629522323608,
          -0.27845045924186707,
          0.7520308494567871,
          0.7921006083488464,
          -0.4022778868675232,
          -0.3632494807243347,
          -3.7650809288024902,
          -0.22226360440254211,
          0.29702672362327576,
          0.015427102334797382
        ],
        [
          1.4330734014511108,
          2.9819495677948,
          -1.0598264932632446,
          -1.5990241765975952,
          1.7111139297485352,
          0.8531829118728638,
          -0.13236141204833984,
          1.3791555166244507,
          -1.2293710708618164,
          -1.226956844329834,
          0.19206774234771729,
          0.3241803050041199,
          -0.16668693721294403,
          -0.036367181688547134,
          -0.23148992657661438,
          -0.7820830941200256,
          0.33426007628440857,
          0.4085237383842468,
          0.7519860863685608,
          0.6057764887809753,
          -1.1358976364135742,
          -1.5340628623962402,
          0.7690871953964233,
          -1.29655921459198,
          0.022915245965123177,
          0.5152018070220947,
          -0.28580617904663086,
          -0.05216175317764282,
          -0.07995175570249557,
          0.8407028317451477,
          -0.319562166929245,
          -0.9823991656303406,
          -0.5982072353363037,
          -1.3549505472183228,
          -0.453201562166214,
          -0.6841678023338318,
          0.7208868861198425,
          -0.06752944737672806,
          0.9080357551574707,
          -0.2740955054759979,
          -1.1955456733703613,
          -1.219720482826233,
          -0.811484158039093,
          -0.7343274354934692,
          -2.980684995651245,
          0.37474602460861206,
          -1.3107199668884277,
          0.9645481705665588
        ],
        [
          0.2849235236644745,
          -4.376414775848389,
          0.3967774510383606,
          0.2870326638221741,
          -3.967545509338379,
          -1.129611611366272,
          0.5767451524734497,
          -2.09838604927063,
          0.03026624582707882,
          0.8179931044578552,
          0.22120413184165955,
          -0.36330538988113403,
          -0.6144023537635803,
          1.036291241645813,
          0.018453873693943024,
          0.04104795679450035,
          -0.8284531235694885,
          0.06740149855613708,
          -1.0912704467773438,
          -0.43480536341667175,
          0.12587052583694458,
          0.6528785228729248,
          -0.9638698101043701,
          0.12233313173055649,
          -0.21771155297756195,
          1.1949166059494019,
          -0.26331716775894165,
          1.5628827810287476,
          -0.7022737264633179,
          -1.6106024980545044,
          0.21669916808605194,
          0.12020903825759888,
          1.1218293905258179,
          -0.3490602672100067,
          -0.2991516590118408,
          1.1437618732452393,
          -1.6359049081802368,
          -1.0339144468307495,
          0.5606232285499573,
          -0.23618456721305847,
          -0.300110399723053,
          -0.21976257860660553,
          0.6135642528533936,
          -1.3707219362258911,
          -3.1042346954345703,
          0.11852745711803436,
          0.6826875805854797,
          0.8867929577827454
        ],
        [
          0.6051865220069885,
          -1.1712957620620728,
          -0.2590271532535553,
          -0.13362200558185577,
          -1.328843116760254,
          0.10463886708021164,
          0.3909203112125397,
          -0.07528179883956909,
          -0.3031481206417084,
          -0.9547176957130432,
          -1.1249401569366455,
          -0.25014883279800415,
          -0.3634679913520813,
          1.12841796875,
          0.1934811919927597,
          1.6408195495605469,
          -0.18731388449668884,
          0.18541386723518372,
          0.6924108266830444,
          -0.510868489742279,
          -0.4689091742038727,
          -0.5402690768241882,
          0.778812050819397,
          -0.35303229093551636,
          -0.019888410344719887,
          -0.4368337094783783,
          0.38278236985206604,
          1.3398419618606567,
          -0.45938482880592346,
          -0.3194901645183563,
          0.5233640670776367,
          0.8055806159973145,
          0.9116067290306091,
          -0.41862618923187256,
          -0.334563672542572,
          0.7878299951553345,
          0.037394195795059204,
          -0.23583824932575226,
          0.20728175342082977,
          0.440216064453125,
          -0.3871898353099823,
          -0.4416992962360382,
          -0.24607399106025696,
          0.29381537437438965,
          0.6609537601470947,
          0.2820734679698944,
          -0.15379533171653748,
          0.2078588306903839
        ],
        [
          0.07692383974790573,
          2.1470606327056885,
          -1.5592687129974365,
          -0.31939437985420227,
          3.009871482849121,
          -0.40033257007598877,
          0.011589926667511463,
          0.4836765229701996,
          -1.7394238710403442,
          0.39492759108543396,
          0.5440425276756287,
          1.0720418691635132,
          -0.020185060799121857,
          -1.3480515480041504,
          0.9106910824775696,
          -0.7203094363212585,
          0.5547211170196533,
          -1.3282625675201416,
          -0.41581082344055176,
          -0.4918757975101471,
          -1.6229026317596436,
          -0.17398877441883087,
          0.5443591475486755,
          -1.5027096271514893,
          0.6160557866096497,
          -0.49777334928512573,
          -0.5389131307601929,
          0.5711126923561096,
          0.9389179348945618,
          0.16171807050704956,
          -0.8260964751243591,
          -1.1302822828292847,
          -0.25401464104652405,
          -1.7138450145721436,
          -2.4174230098724365,
          -0.3112744987010956,
          0.8815525770187378,
          -0.30099910497665405,
          0.7560779452323914,
          0.9968838691711426,
          -1.5783329010009766,
          -1.6706606149673462,
          -0.08689495176076889,
          0.5998398661613464,
          0.40512558817863464,
          -0.3933943808078766,
          -1.4445677995681763,
          0.9133487939834595
        ],
        [
          -0.5451500415802002,
          0.3053165674209595,
          0.00737953232601285,
          2.286479949951172,
          1.3729674816131592,
          -0.7244997620582581,
          -0.0007942197844386101,
          -0.5162724256515503,
          0.28861966729164124,
          0.682041347026825,
          1.0828684568405151,
          0.2972516715526581,
          0.512193500995636,
          -0.974848210811615,
          0.16902506351470947,
          -0.2002270519733429,
          -0.11441824585199356,
          -0.5491999983787537,
          -1.2030744552612305,
          -0.46573391556739807,
          0.41542235016822815,
          0.7646002769470215,
          -0.7927712202072144,
          0.3080979585647583,
          0.034434668719768524,
          0.0531034879386425,
          -0.3363880515098572,
          1.7134003639221191,
          0.4657513499259949,
          -0.03828827291727066,
          -0.40709608793258667,
          -0.5028560161590576,
          -0.20181335508823395,
          -0.18930479884147644,
          -0.1658467799425125,
          -0.20012113451957703,
          -0.5394912958145142,
          -0.8315696716308594,
          -0.0991760641336441,
          -0.16011670231819153,
          0.33711910247802734,
          0.4458688497543335,
          1.0587507486343384,
          1.2642345428466797,
          4.910889625549316,
          -0.36964690685272217,
          -0.08143731951713562,
          -0.3272823989391327
        ],
        [
          0.6144728660583496,
          -3.1501402854919434,
          0.1795027256011963,
          -1.8515262603759766,
          -3.0724005699157715,
          -0.3613581359386444,
          1.4209214448928833,
          -0.3567650318145752,
          0.16024896502494812,
          0.3723372220993042,
          -1.1000840663909912,
          0.13352015614509583,
          -0.478983610868454,
          1.0945013761520386,
          -1.2651547193527222,
          0.5453580617904663,
          -0.1197689101099968,
          0.27436530590057373,
          1.366125226020813,
          1.8744357824325562,
          0.13779975473880768,
          0.5578368306159973,
          -1.6559149026870728,
          -0.0636189803481102,
          0.23332847654819489,
          -0.22426418960094452,
          1.0402607917785645,
          -1.5714737176895142,
          0.08848115056753159,
          -0.7428993582725525,
          0.347813218832016,
          0.4217390716075897,
          1.78974187374115,
          -0.6053894758224487,
          0.5884798169136047,
          1.728410243988037,
          0.4990391731262207,
          0.6078399419784546,
          -0.2561626136302948,
          -0.8307636380195618,
          -0.2820076048374176,
          -0.34443071484565735,
          0.46019884943962097,
          -0.7817097902297974,
          -4.4165496826171875,
          1.1478981971740723,
          0.2341495007276535,
          0.020708981901407242
        ],
        [
          -0.01904972270131111,
          1.7634062767028809,
          -1.0700260400772095,
          -0.1979520171880722,
          2.0854735374450684,
          0.13575825095176697,
          -0.09681439399719238,
          0.33883583545684814,
          -1.1863449811935425,
          0.09484109282493591,
          0.6825094223022461,
          0.8998604416847229,
          -0.0751895010471344,
          -0.9259934425354004,
          0.6596206426620483,
          -0.5164029598236084,
          0.3706309497356415,
          -1.4683059453964233,
          -0.38682815432548523,
          -0.23342441022396088,
          -1.3077646493911743,
          0.07320895791053772,
          0.5502728819847107,
          -1.3709800243377686,
          0.3644818663597107,
          -0.5089076161384583,
          -0.281534880399704,
          0.40492284297943115,
          0.39329224824905396,
          0.012608151882886887,
          -0.6327919960021973,
          -0.5330686569213867,
          -0.29605451226234436,
          -1.6479973793029785,
          -1.710187315940857,
          -0.12805761396884918,
          0.46835142374038696,
          -0.016536222770810127,
          0.26419490575790405,
          1.0989364385604858,
          -1.3677643537521362,
          -1.1136529445648193,
          -0.03676170855760574,
          0.30616307258605957,
          1.3452916145324707,
          -0.17920276522636414,
          -1.175662875175476,
          0.180796816945076
        ],
        [
          0.8203356266021729,
          2.6766397953033447,
          -1.5290358066558838,
          -1.5707274675369263,
          3.175348997116089,
          1.4538097381591797,
          0.05561155080795288,
          1.3851380348205566,
          -1.8882184028625488,
          -0.07743772119283676,
          0.42028090357780457,
          0.753453254699707,
          -0.3123393952846527,
          -1.1752468347549438,
          0.9521024823188782,
          -1.398354172706604,
          0.3192245066165924,
          -0.818107008934021,
          -0.17764438688755035,
          0.3884659707546234,
          -1.6508445739746094,
          -0.5481469035148621,
          0.9079343676567078,
          -1.903876781463623,
          0.5348162055015564,
          -0.5069441199302673,
          -0.5379629731178284,
          0.43040889501571655,
          0.3704371750354767,
          0.2578733265399933,
          -1.5544629096984863,
          -2.2275092601776123,
          -0.07938681542873383,
          -1.921717643737793,
          -0.8363467454910278,
          -0.08699102699756622,
          0.2850983142852783,
          0.032133325934410095,
          0.8304685950279236,
          1.043806552886963,
          -1.718718409538269,
          -1.6275932788848877,
          -0.4559882879257202,
          -0.6209244132041931,
          0.8463971614837646,
          -0.14369653165340424,
          -1.6049952507019043,
          0.7690836787223816
        ],
        [
          -1.106792688369751,
          -0.4531327486038208,
          0.9732953906059265,
          0.8310718536376953,
          -0.3262791037559509,
          -0.08854524046182632,
          0.19440223276615143,
          -0.2836850583553314,
          0.663193941116333,
          0.09407555311918259,
          -0.1254262924194336,
          -0.05722824111580849,
          0.003115993458777666,
          -0.4379113018512726,
          1.0295166969299316,
          -0.3421226441860199,
          -0.9343994855880737,
          -1.6854006052017212,
          -0.2894236147403717,
          0.9991973042488098,
          0.10563512146472931,
          0.9114874005317688,
          -0.2892321050167084,
          0.10865335911512375,
          0.5057390332221985,
          0.29840096831321716,
          -0.07704377919435501,
          2.1154325008392334,
          -0.2824384868144989,
          -1.0537266731262207,
          0.8628038167953491,
          0.21763324737548828,
          1.3557406663894653,
          -0.6428593397140503,
          -1.1794710159301758,
          1.3480359315872192,
          -0.7050949931144714,
          -0.42611634731292725,
          -0.5414476990699768,
          1.5550718307495117,
          -0.5439248085021973,
          -0.439531534910202,
          0.341372549533844,
          0.5633438229560852,
          3.749689817428589,
          -0.6637989282608032,
          0.7432713508605957,
          -0.8735170960426331
        ],
        [
          1.22078275680542,
          2.4871952533721924,
          -1.9363117218017578,
          -1.4526838064193726,
          3.0463759899139404,
          1.4316723346710205,
          0.03233042731881142,
          1.2903493642807007,
          -2.2081027030944824,
          -0.2241586148738861,
          0.5037720799446106,
          0.6004267930984497,
          -0.38877129554748535,
          -1.1436158418655396,
          1.1014902591705322,
          -1.3646386861801147,
          0.27073004841804504,
          -0.5266636610031128,
          -0.22194303572177887,
          0.43199947476387024,
          -1.973709225654602,
          -0.41561996936798096,
          0.9272213578224182,
          -2.11537766456604,
          0.651218056678772,
          -0.5943712592124939,
          -0.5416390299797058,
          1.0893052816390991,
          0.41093870997428894,
          0.3548235297203064,
          -1.8193955421447754,
          -2.2470576763153076,
          -0.15663638710975647,
          -2.2674732208251953,
          -0.7490522265434265,
          0.025783229619264603,
          0.4415116608142853,
          0.014423193410038948,
          0.7280253767967224,
          1.5069489479064941,
          -2.281486988067627,
          -2.2106151580810547,
          -0.41141149401664734,
          -0.7713910341262817,
          0.7259371876716614,
          -0.09000984579324722,
          -2.0181727409362793,
          0.7294642329216003
        ],
        [
          1.316173791885376,
          -1.0180408954620361,
          0.8047736287117004,
          -0.32285425066947937,
          -0.7787261605262756,
          0.2802254855632782,
          0.24612173438072205,
          -0.38469114899635315,
          0.5435506701469421,
          -1.3453038930892944,
          -0.9376298189163208,
          -0.22300221025943756,
          -0.4111657738685608,
          0.4436287581920624,
          0.2676810920238495,
          2.316021203994751,
          -0.078435517847538,
          0.5957316756248474,
          0.7932893633842468,
          -0.3567085564136505,
          0.6682091951370239,
          -0.8169445991516113,
          0.67765212059021,
          0.5136841535568237,
          0.05529040843248367,
          0.0530846081674099,
          0.353613018989563,
          1.3977690935134888,
          -0.5699329972267151,
          -0.13071244955062866,
          1.0307029485702515,
          0.800396203994751,
          0.5248485207557678,
          0.6461502909660339,
          0.21584084630012512,
          0.5203694105148315,
          0.23127710819244385,
          0.04801825061440468,
          0.418997585773468,
          0.38309064507484436,
          0.6563308238983154,
          0.42315438389778137,
          -0.4437004327774048,
          -0.057580024003982544,
          0.17208312451839447,
          -0.43565717339515686,
          0.5793808102607727,
          0.581042468547821
        ],
        [
          0.9392054677009583,
          -0.7555738091468811,
          0.12271923571825027,
          -0.4162043631076813,
          -0.8280865550041199,
          0.08424824476242065,
          -0.2188713401556015,
          0.08132769167423248,
          -0.7000569701194763,
          0.04213336482644081,
          -0.628898024559021,
          -0.10502716898918152,
          -1.0521552562713623,
          1.9606781005859375,
          -2.726837158203125,
          0.9864888787269592,
          0.31941914558410645,
          0.8320876359939575,
          0.7783330678939819,
          -1.0015357732772827,
          -0.44634345173835754,
          0.048994503915309906,
          0.30142107605934143,
          -0.9331145882606506,
          -0.9403132796287537,
          -0.42515766620635986,
          0.6184996366500854,
          -0.32219627499580383,
          -0.45430612564086914,
          0.6046921014785767,
          0.5057252049446106,
          1.4366735219955444,
          -0.342377632856369,
          -0.18348577618598938,
          1.4885092973709106,
          -0.48947232961654663,
          0.4427790343761444,
          0.3794407248497009,
          0.5910696387290955,
          -2.323688268661499,
          -0.1828688085079193,
          -0.43021613359451294,
          -0.6853285431861877,
          -0.39160624146461487,
          -3.3041181564331055,
          1.6364721059799194,
          0.6640191674232483,
          0.5175415873527527
        ],
        [
          0.18519523739814758,
          0.6100610494613647,
          -0.769745945930481,
          0.1555989384651184,
          0.5938236713409424,
          0.1496349275112152,
          -0.12194344401359558,
          0.09343963861465454,
          -0.8007146120071411,
          0.6093060374259949,
          0.5023651719093323,
          0.19918473064899445,
          0.2665301561355591,
          -0.7028892040252686,
          1.2991303205490112,
          -1.1547837257385254,
          -0.13572187721729279,
          -0.46070221066474915,
          -0.3636704683303833,
          -0.006543335504829884,
          -0.7413834929466248,
          0.6165791153907776,
          0.3561159372329712,
          -0.5447169542312622,
          0.32464656233787537,
          -0.514189600944519,
          -0.11939461529254913,
          0.5274984836578369,
          0.38700708746910095,
          -0.3516172468662262,
          -0.4778251051902771,
          -0.6460914611816406,
          0.17289024591445923,
          -0.823373019695282,
          -0.3027259409427643,
          0.08486919105052948,
          0.04340706020593643,
          -0.020555702969431877,
          -0.19311678409576416,
          0.22196350991725922,
          -0.7768433690071106,
          -0.7506291270256042,
          0.08858806639909744,
          0.37357810139656067,
          0.6884693503379822,
          -0.1516297608613968,
          -0.8433890342712402,
          -0.359718382358551
        ],
        [
          0.581156313419342,
          2.079732894897461,
          -1.4449057579040527,
          -1.0067594051361084,
          2.4484550952911377,
          1.2635562419891357,
          0.03520436957478523,
          1.202731728553772,
          -1.612270712852478,
          -0.15728209912776947,
          0.5114003419876099,
          0.7076277732849121,
          -0.34811195731163025,
          -0.9925528168678284,
          0.5953506827354431,
          -1.4225068092346191,
          0.2659972310066223,
          -0.5861127376556396,
          -0.08414769917726517,
          0.4128822982311249,
          -1.6072887182235718,
          -0.33707913756370544,
          0.9484517574310303,
          -1.706257939338684,
          0.4550756514072418,
          -0.5279236435890198,
          -0.5888697504997253,
          0.7689160108566284,
          0.4369811713695526,
          0.32899633049964905,
          -1.2673448324203491,
          -2.0628113746643066,
          -0.08538974076509476,
          -1.9510831832885742,
          -0.9329431653022766,
          -0.10160259157419205,
          0.3497912585735321,
          0.0470045804977417,
          0.3935506343841553,
          0.9723629951477051,
          -1.622006893157959,
          -1.6813989877700806,
          -0.37133729457855225,
          -0.20857040584087372,
          0.7990989685058594,
          0.044584017246961594,
          -1.4974268674850464,
          0.5049518942832947
        ],
        [
          -0.34064972400665283,
          -0.3302362263202667,
          0.1083218902349472,
          1.9042414426803589,
          1.0188347101211548,
          -0.6711254119873047,
          0.31097325682640076,
          -0.885650634765625,
          0.3172818720340729,
          0.7924849390983582,
          1.1595045328140259,
          -0.11980672925710678,
          0.3846395015716553,
          -0.9531504511833191,
          -0.16044040024280548,
          -0.07546433806419373,
          -0.12837746739387512,
          -0.4127134382724762,
          -1.4010250568389893,
          -0.25766459107398987,
          0.33698418736457825,
          0.9688622355461121,
          -0.35589635372161865,
          0.19143050909042358,
          0.15284152328968048,
          0.0014449360314756632,
          -0.3302434980869293,
          0.9009415507316589,
          0.6445667743682861,
          -0.288099080324173,
          -0.46458616852760315,
          -0.6727100610733032,
          -0.0023161948192864656,
          -0.12178882956504822,
          -0.12270575761795044,
          -0.10720305144786835,
          -0.43772345781326294,
          -0.5806006193161011,
          -0.0258936770260334,
          -0.18900541961193085,
          0.34847137331962585,
          0.45948296785354614,
          1.0918768644332886,
          1.2259591817855835,
          5.3458685874938965,
          -0.8820774555206299,
          -0.03914790228009224,
          -0.22286130487918854
        ],
        [
          -0.07875607162714005,
          -0.922185480594635,
          -0.7318570613861084,
          0.649431586265564,
          -0.3099808394908905,
          -0.18899232149124146,
          -0.20832158625125885,
          0.1311996728181839,
          0.22008968889713287,
          1.3532284498214722,
          2.9142906665802,
          -0.7215332388877869,
          1.166391134262085,
          1.4969725608825684,
          -0.7785221338272095,
          -0.5733752846717834,
          -0.24788790941238403,
          1.367845058441162,
          0.0739278793334961,
          0.6496701240539551,
          0.06557769328355789,
          0.6492741703987122,
          -1.3796532154083252,
          0.30469435453414917,
          0.28918951749801636,
          -0.253587543964386,
          0.06177934259176254,
          -2.242163896560669,
          0.03827299177646637,
          0.08695922791957855,
          -0.4494101405143738,
          0.06070729345083237,
          -0.6022077798843384,
          -0.7388519048690796,
          1.15846848487854,
          -0.6049831509590149,
          -0.2004048228263855,
          0.7509761452674866,
          -0.5430996417999268,
          -0.6085900068283081,
          -0.10693594813346863,
          0.22659428417682648,
          0.4611365497112274,
          -0.3536284267902374,
          -3.8748226165771484,
          1.2754311561584473,
          -0.4431605637073517,
          -0.47566357254981995
        ],
        [
          0.19350877404212952,
          -1.618156909942627,
          0.43930113315582275,
          -0.4879101812839508,
          -1.3013007640838623,
          0.07147323340177536,
          0.6452432870864868,
          -0.6191171407699585,
          -0.03489462658762932,
          1.2300446033477783,
          -0.7190551161766052,
          -0.07813583314418793,
          -0.10222131013870239,
          0.9051682949066162,
          -0.9926264882087708,
          0.5368289947509766,
          -0.2767040729522705,
          -0.11343630403280258,
          0.2533383071422577,
          -0.4466727375984192,
          -0.06976965069770813,
          1.7905296087265015,
          -0.7555099725723267,
          -0.2990686595439911,
          -0.29436323046684265,
          0.3940642774105072,
          0.3128770887851715,
          0.17671163380146027,
          -0.28549695014953613,
          -1.0904775857925415,
          0.49375486373901367,
          0.5802562832832336,
          1.2634354829788208,
          -0.533137321472168,
          0.15634511411190033,
          1.1790738105773926,
          -0.44663509726524353,
          0.10975167900323868,
          -0.4887387156486511,
          -0.951129674911499,
          -0.18074341118335724,
          0.02069561369717121,
          0.2663467228412628,
          -0.11259216070175171,
          -2.276850938796997,
          0.9572249054908752,
          0.497457355260849,
          -0.9121419787406921
        ],
        [
          1.0706251859664917,
          -0.21363314986228943,
          -0.4498435854911804,
          -0.8089147210121155,
          -0.5077901482582092,
          0.2022760808467865,
          0.3771986663341522,
          0.15020917356014252,
          -0.3333372473716736,
          -1.4586883783340454,
          -0.7059853672981262,
          0.027751296758651733,
          -0.6419709324836731,
          0.6669796109199524,
          0.07718765735626221,
          0.901980996131897,
          0.19020481407642365,
          0.542505145072937,
          0.9173235893249512,
          -0.16634660959243774,
          -0.07995990663766861,
          -1.2206590175628662,
          0.7614304423332214,
          -0.3167979121208191,
          0.025324173271656036,
          0.021455101668834686,
          0.3403443396091461,
          0.9331722855567932,
          -0.44807058572769165,
          0.18427594006061554,
          0.29801246523857117,
          0.9629180431365967,
          0.2986050546169281,
          -0.009228535927832127,
          -0.05747022479772568,
          0.3092433214187622,
          0.5862361192703247,
          -0.14998391270637512,
          0.5754856467247009,
          0.31927934288978577,
          -0.13256168365478516,
          -0.43609121441841125,
          -0.8633129596710205,
          -0.350493848323822,
          -1.4901782274246216,
          0.03325880691409111,
          -0.986068069934845,
          1.009276270866394
        ],
        [
          0.009414196945726871,
          -1.1515964269638062,
          0.49935418367385864,
          1.0402168035507202,
          -0.5636459589004517,
          -0.42197185754776,
          0.268696129322052,
          -0.7700809240341187,
          0.4084261953830719,
          1.616949200630188,
          0.7296330332756042,
          -0.038702789694070816,
          0.4290388226509094,
          -0.6422386169433594,
          0.03885865956544876,
          -0.09070480614900589,
          -0.42881837487220764,
          -0.549411952495575,
          -1.0091657638549805,
          0.41571879386901855,
          0.483231782913208,
          1.3842226266860962,
          -0.33408454060554504,
          0.19203221797943115,
          -0.10215848684310913,
          -0.21869733929634094,
          0.2179715782403946,
          0.5303526520729065,
          0.1814112514257431,
          -0.3723660409450531,
          0.22995366156101227,
          0.35297584533691406,
          0.47285881638526917,
          0.21655969321727753,
          0.024969423189759254,
          0.7184967994689941,
          -0.272603839635849,
          -0.10461261868476868,
          -0.9302351474761963,
          0.2109977900981903,
          0.5927222967147827,
          0.5497667789459229,
          1.2784360647201538,
          0.7274494767189026,
          1.5834403038024902,
          0.19925089180469513,
          0.9772597551345825,
          -1.4297332763671875
        ],
        [
          -0.017908087000250816,
          -3.545398235321045,
          -0.14079119265079498,
          1.8375370502471924,
          -2.7446653842926025,
          0.09218063950538635,
          1.291932225227356,
          -1.2093313932418823,
          -0.8135344386100769,
          0.11284536123275757,
          0.24566282331943512,
          -0.2770013213157654,
          0.04047306999564171,
          1.0136184692382812,
          0.21820135414600372,
          1.2464585304260254,
          -0.40930479764938354,
          -1.3500871658325195,
          0.1743115782737732,
          -1.2016019821166992,
          -0.6833751201629639,
          1.5131337642669678,
          0.14255467057228088,
          -1.1328668594360352,
          0.019229475408792496,
          0.16044488549232483,
          0.49794822931289673,
          0.39441436529159546,
          -0.4121016561985016,
          -0.8563475608825684,
          0.055005770176649094,
          0.6072770357131958,
          1.6538541316986084,
          -1.353582501411438,
          -0.4829496443271637,
          1.509509563446045,
          -0.9747118949890137,
          -0.07147658616304398,
          -1.0373601913452148,
          0.2775987684726715,
          -0.8903815150260925,
          -0.8395979404449463,
          0.7313024401664734,
          0.7315176129341125,
          6.0842390060424805,
          -0.21462297439575195,
          -0.013481123372912407,
          -1.1102917194366455
        ],
        [
          -0.012729020789265633,
          -0.27730515599250793,
          0.6120507717132568,
          1.3909848928451538,
          0.15687094628810883,
          -0.36587533354759216,
          0.3954988718032837,
          -0.5349792242050171,
          0.25984740257263184,
          1.3798519372940063,
          0.5441674590110779,
          0.06675264239311218,
          0.2039286196231842,
          -0.7218267917633057,
          -0.19136933982372284,
          0.023192930966615677,
          -0.23693174123764038,
          -0.5730141997337341,
          -1.0772546529769897,
          0.3711423873901367,
          0.33249446749687195,
          1.5550851821899414,
          -0.35164928436279297,
          0.1215420737862587,
          -0.09021133929491043,
          -0.15255771577358246,
          0.15536054968833923,
          0.4201678931713104,
          0.35833972692489624,
          -0.5480595827102661,
          0.5466606020927429,
          0.5404587388038635,
          0.6944007277488708,
          0.13862483203411102,
          -0.019993197172880173,
          0.47255825996398926,
          -0.2899017333984375,
          -0.24101868271827698,
          -0.8033336997032166,
          -0.09858213365077972,
          0.5405643582344055,
          0.6183281540870667,
          0.8915010094642639,
          0.8350681662559509,
          3.1350936889648438,
          0.25070974230766296,
          0.813213050365448,
          -1.1675453186035156
        ],
        [
          0.4625893235206604,
          0.4522407650947571,
          -0.8321565389633179,
          -0.5681583881378174,
          0.1975002884864807,
          0.29531922936439514,
          0.2918241322040558,
          0.42713358998298645,
          -1.3663489818572998,
          -1.6540039777755737,
          -0.936474084854126,
          0.21773795783519745,
          -0.5966331362724304,
          0.1766289323568344,
          -0.030893435701727867,
          0.6631247997283936,
          0.1506168097257614,
          0.10423307865858078,
          0.8138208389282227,
          -0.2116379737854004,
          -1.135994553565979,
          -1.194374680519104,
          0.8958501815795898,
          -1.2238279581069946,
          0.2449333667755127,
          -0.24005389213562012,
          0.31764498353004456,
          1.4950027465820312,
          -0.3619038164615631,
          0.09484953433275223,
          0.15971003472805023,
          -0.08635745942592621,
          0.5114449262619019,
          -1.465289831161499,
          -0.8000062108039856,
          0.32406410574913025,
          0.4142860472202301,
          -0.302510529756546,
          0.4537787437438965,
          0.3524866998195648,
          -1.172223687171936,
          -1.1514911651611328,
          -0.7252225875854492,
          -0.07218658924102783,
          0.3289949893951416,
          -0.39029431343078613,
          -1.0908434391021729,
          0.797960638999939
        ],
        [
          0.9948957562446594,
          0.4233167767524719,
          0.6446586847305298,
          -1.2324011325836182,
          0.19056275486946106,
          0.12250920385122299,
          -0.026776690036058426,
          0.4877658486366272,
          -0.030453767627477646,
          -1.3412507772445679,
          -1.0682612657546997,
          0.08647426217794418,
          -0.38812243938446045,
          0.33586937189102173,
          0.35287585854530334,
          0.4733966886997223,
          0.14777949452400208,
          0.9343096017837524,
          0.9161605834960938,
          -0.13681291043758392,
          -0.12464285641908646,
          -1.2757577896118164,
          0.6368265151977539,
          -0.18707914650440216,
          -0.14944025874137878,
          0.6347013115882874,
          0.3083246946334839,
          0.9284623265266418,
          -0.47906458377838135,
          0.21524780988693237,
          1.1062159538269043,
          0.718447208404541,
          0.0739511102437973,
          0.18670432269573212,
          -0.07600250840187073,
          0.07701589167118073,
          0.7457116842269897,
          0.0211036317050457,
          0.756486177444458,
          0.4132307469844818,
          0.22517096996307373,
          0.0782124474644661,
          -0.8982082605361938,
          -0.34981074929237366,
          -2.2388298511505127,
          -0.25892403721809387,
          0.7266477942466736,
          0.9827902317047119
        ],
        [
          -0.37170037627220154,
          -2.127318859100342,
          -0.23297299444675446,
          0.73260498046875,
          -2.1705477237701416,
          0.04785829409956932,
          1.4055224657058716,
          -0.45369768142700195,
          -0.8649705052375793,
          -0.5730611681938171,
          -0.4914042353630066,
          0.1031140461564064,
          -0.4555334746837616,
          0.9867417812347412,
          0.5497233867645264,
          1.9007478952407837,
          -0.2001282125711441,
          -0.9213698506355286,
          0.3956993818283081,
          -0.30791598558425903,
          -0.7113082408905029,
          0.24860268831253052,
          -0.0839184820652008,
          -0.8952547907829285,
          -0.03663230687379837,
          -0.9052610993385315,
          0.4200782775878906,
          1.346679449081421,
          -0.348747581243515,
          -0.4746755063533783,
          -0.16195441782474518,
          0.05297571420669556,
          1.3631654977798462,
          -0.8602535724639893,
          -1.621389627456665,
          1.1974892616271973,
          -0.39988282322883606,
          0.11514632403850555,
          -0.6342452168464661,
          1.0570679903030396,
          -0.7204301953315735,
          -0.7937823534011841,
          0.3807747960090637,
          0.3814542293548584,
          5.805655002593994,
          -1.0252386331558228,
          -0.07979836314916611,
          -0.31808388233184814
        ],
        [
          -0.0042729368433356285,
          0.5868741869926453,
          -0.097234807908535,
          -0.061502743512392044,
          0.37400615215301514,
          -0.3240208029747009,
          -0.7510886192321777,
          0.4532243609428406,
          1.4392551183700562,
          1.3423793315887451,
          -0.4662378430366516,
          -0.5981455445289612,
          0.9288308024406433,
          0.2845839858055115,
          -0.358437716960907,
          -0.8864375352859497,
          -0.16176046431064606,
          1.2298768758773804,
          0.43248918652534485,
          0.9554125070571899,
          1.4580938816070557,
          0.28036725521087646,
          -1.0934178829193115,
          1.3099337816238403,
          -0.10914964973926544,
          -0.29798853397369385,
          0.08629119396209717,
          -0.5272637605667114,
          0.1814877986907959,
          0.3982638120651245,
          -0.34307748079299927,
          -0.0373358353972435,
          -1.202917456626892,
          0.5871365070343018,
          0.6243674159049988,
          -1.1045783758163452,
          0.2966315746307373,
          0.5351923108100891,
          0.12734736502170563,
          -0.0017015414778143167,
          0.9278930425643921,
          0.9425151944160461,
          -0.03677249699831009,
          0.0003632952575571835,
          -4.121462345123291,
          0.374169260263443,
          -0.24194714426994324,
          0.24732519686222076
        ],
        [
          0.5923710465431213,
          -1.2406014204025269,
          0.5540015697479248,
          0.4898947477340698,
          0.10686080157756805,
          -0.5674389600753784,
          -0.6450353264808655,
          -0.09783510863780975,
          1.9835623502731323,
          0.6229785084724426,
          1.892605185508728,
          -0.7016164064407349,
          1.167122483253479,
          1.18036687374115,
          -1.6128337383270264,
          0.187681645154953,
          0.09904319792985916,
          1.6778075695037842,
          0.5333690643310547,
          0.9596395492553711,
          1.6885335445404053,
          -0.06925397366285324,
          0.07484127581119537,
          1.8765381574630737,
          -0.1997581124305725,
          0.7091720104217529,
          0.34907105565071106,
          -1.5344616174697876,
          0.21280646324157715,
          0.683923065662384,
          0.30414271354675293,
          0.5887580513954163,
          -1.5362823009490967,
          2.240675687789917,
          1.9901593923568726,
          -1.213234543800354,
          0.337300181388855,
          0.7999582290649414,
          -0.02498096413910389,
          -1.1181530952453613,
          1.9067020416259766,
          1.5348659753799438,
          0.16529913246631622,
          -0.15340553224086761,
          -4.605895042419434,
          1.3970146179199219,
          0.9168493747711182,
          -0.039740294218063354
        ],
        [
          0.7032588720321655,
          2.18155574798584,
          0.4384315013885498,
          -1.065880537033081,
          0.9713365435600281,
          -0.0344194695353508,
          -0.5282694101333618,
          1.2680470943450928,
          0.15013617277145386,
          -0.5714555978775024,
          -0.26920267939567566,
          0.4447098970413208,
          0.07428369671106339,
          0.3213631808757782,
          -0.04512371867895126,
          -0.4484425485134125,
          0.4391833245754242,
          1.8256529569625854,
          0.7006832361221313,
          -0.3385048508644104,
          0.3524898290634155,
          -1.1417303085327148,
          1.103358507156372,
          0.35056158900260925,
          -0.25268447399139404,
          0.7393084168434143,
          0.149932399392128,
          0.13437233865261078,
          -0.1781463474035263,
          0.7141700387001038,
          0.569137454032898,
          0.48266488313674927,
          -1.2209378480911255,
          0.3882753551006317,
          0.9233850836753845,
          -1.0930644273757935,
          0.7465375661849976,
          0.2000153660774231,
          0.8268329501152039,
          -0.17097795009613037,
          0.2831261157989502,
          0.3060135543346405,
          -0.9115678668022156,
          -0.6266748309135437,
          -3.6240389347076416,
          0.7766546010971069,
          0.30341777205467224,
          0.7265499830245972
        ],
        [
          0.40001627802848816,
          0.6853001713752747,
          -1.0278304815292358,
          -0.8724329471588135,
          0.8295833468437195,
          0.08282868564128876,
          0.08986544609069824,
          0.6750019788742065,
          -1.3696966171264648,
          -1.5207408666610718,
          -0.6512417793273926,
          0.2574078440666199,
          -0.580017626285553,
          0.19998562335968018,
          0.03753986954689026,
          -0.25568461418151855,
          0.3261188268661499,
          0.3121398985385895,
          0.633701741695404,
          0.22943556308746338,
          -1.4191285371780396,
          -1.3047791719436646,
          0.7589277029037476,
          -1.3795799016952515,
          0.16472682356834412,
          0.1911957561969757,
          0.05061914399266243,
          1.2271227836608887,
          -0.32448506355285645,
          0.47808167338371277,
          -0.12344322353601456,
          -0.13715140521526337,
          0.0975380390882492,
          -1.510430932044983,
          -0.5539568662643433,
          0.22719141840934753,
          0.7223119735717773,
          -0.05977236479520798,
          0.942337155342102,
          0.16341495513916016,
          -1.5190684795379639,
          -1.3230886459350586,
          -0.9529489278793335,
          -0.3166135549545288,
          -1.244896411895752,
          -0.2937479019165039,
          -1.5358943939208984,
          1.294716238975525
        ],
        [
          0.4868515133857727,
          1.8729075193405151,
          0.2999500334262848,
          -0.738663911819458,
          1.2634555101394653,
          -0.4201240837574005,
          -0.4338117837905884,
          0.7677572965621948,
          0.4536062777042389,
          0.4068024158477783,
          1.6623655557632446,
          0.08372893184423447,
          0.0821131020784378,
          -0.3100029528141022,
          -0.26792147755622864,
          -0.15448324382305145,
          0.06616634875535965,
          0.9565097093582153,
          -0.17964324355125427,
          0.1318783164024353,
          0.49302399158477783,
          -0.25082606077194214,
          -1.1109881401062012,
          0.45274028182029724,
          -0.07169894129037857,
          0.29370296001434326,
          -0.11925723403692245,
          -0.9926031231880188,
          0.7488349676132202,
          0.41185683012008667,
          0.10390885919332504,
          -0.39214596152305603,
          -0.6863424777984619,
          0.6893279552459717,
          0.569230854511261,
          -0.793240487575531,
          0.33726826310157776,
          0.26218181848526,
          0.05677702650427818,
          -0.4352453947067261,
          0.4585648477077484,
          0.510756254196167,
          0.06861118972301483,
          -0.6037986874580383,
          -2.7609570026397705,
          0.4178820848464966,
          0.3271802067756653,
          0.27589941024780273
        ],
        [
          -0.287733256816864,
          -3.2642829418182373,
          0.7295010685920715,
          1.0161774158477783,
          -2.2312099933624268,
          -0.03627300262451172,
          1.009315013885498,
          -0.6293312311172485,
          -0.18700700998306274,
          1.2114583253860474,
          0.32661333680152893,
          -0.2592812478542328,
          0.5249195694923401,
          1.5457892417907715,
          -0.7861483097076416,
          -0.2080289125442505,
          -0.8646144270896912,
          -0.8505246043205261,
          -0.03539763763546944,
          -0.5451390743255615,
          0.3433937430381775,
          1.6886391639709473,
          -1.7240490913391113,
          0.512176513671875,
          0.2822474539279938,
          0.7824598550796509,
          -0.48033377528190613,
          -1.14720618724823,
          0.02954092063009739,
          -1.3093336820602417,
          0.3559950292110443,
          -0.09314841032028198,
          1.4468632936477661,
          -0.5359399318695068,
          -0.49406251311302185,
          1.3967283964157104,
          -1.0026664733886719,
          0.043592676520347595,
          -1.2265756130218506,
          -0.0010078937048092484,
          -0.4773119390010834,
          -0.024310408160090446,
          1.2012258768081665,
          0.19032536447048187,
          1.1429449319839478,
          0.04645445942878723,
          0.40426647663116455,
          -1.29445219039917
        ],
        [
          0.09667810052633286,
          -0.9930737018585205,
          0.17257307469844818,
          -0.15558019280433655,
          -0.3795773983001709,
          -0.26071709394454956,
          0.9557765126228333,
          0.019036009907722473,
          -0.08784753084182739,
          0.533697247505188,
          0.05262753367424011,
          0.45179396867752075,
          0.3675081133842468,
          0.3863877058029175,
          -0.09369437396526337,
          0.32972976565361023,
          0.565488338470459,
          -0.29168400168418884,
          0.5976778864860535,
          1.3588770627975464,
          -0.1204703077673912,
          0.7983996868133545,
          -0.8779686093330383,
          -0.1934213936328888,
          0.4299892783164978,
          -0.19082824885845184,
          0.783616840839386,
          -1.2714346647262573,
          0.6880372762680054,
          -0.2742881774902344,
          0.31105998158454895,
          0.13646721839904785,
          0.7222615480422974,
          -0.1935807764530182,
          0.40093785524368286,
          0.7443031072616577,
          0.3420102596282959,
          0.181792750954628,
          0.003460151609033346,
          -0.46269717812538147,
          -0.15244877338409424,
          -0.03798714652657509,
          0.5817542672157288,
          0.1102767288684845,
          -1.1262612342834473,
          0.5565122961997986,
          0.3965127468109131,
          0.015011731535196304
        ],
        [
          -0.5081756711006165,
          1.1258658170700073,
          0.3964288830757141,
          -0.11294068396091461,
          0.6885978579521179,
          -0.5195713639259338,
          -0.8095130920410156,
          0.6624367833137512,
          1.9087408781051636,
          0.513324499130249,
          1.9672975540161133,
          -0.48404088616371155,
          1.3454359769821167,
          0.6915914416313171,
          -0.18216566741466522,
          -0.8013690710067749,
          0.007878877222537994,
          1.7267242670059204,
          0.33549386262893677,
          0.8104945421218872,
          1.8411281108856201,
          -0.49194926023483276,
          -2.441387414932251,
          1.7943177223205566,
          0.1699301153421402,
          -0.19071349501609802,
          0.097814179956913,
          -1.8487025499343872,
          0.4915585517883301,
          0.45552244782447815,
          0.20455172657966614,
          0.06099438667297363,
          -1.3145265579223633,
          1.6665513515472412,
          1.0509092807769775,
          -1.2238867282867432,
          0.3518214225769043,
          0.48074978590011597,
          0.28405502438545227,
          -0.051416561007499695,
          1.8956300020217896,
          1.691697359085083,
          -0.20538479089736938,
          -0.15430182218551636,
          -5.018459796905518,
          1.1100194454193115,
          0.5578755736351013,
          0.4229901134967804
        ],
        [
          0.3039381802082062,
          0.23419618606567383,
          0.25596925616264343,
          0.15040557086467743,
          0.062417253851890564,
          0.1401938498020172,
          0.7014051079750061,
          0.34137293696403503,
          0.21257172524929047,
          0.261339008808136,
          0.3789994418621063,
          0.31828582286834717,
          0.6693388819694519,
          0.3468930423259735,
          0.34552687406539917,
          0.40422654151916504,
          0.47934842109680176,
          0.4711225926876068,
          0.5735167860984802,
          2.2213704586029053,
          0.3238893151283264,
          0.16743886470794678,
          0.47958454489707947,
          0.41081473231315613,
          0.3638784885406494,
          0.3008398413658142,
          0.4189709424972534,
          0.73185795545578,
          0.3924703598022461,
          0.2647823989391327,
          0.48847511410713196,
          0.3591088652610779,
          0.2699713408946991,
          0.47866782546043396,
          0.38156166672706604,
          0.4757120907306671,
          0.37181776762008667,
          0.49507758021354675,
          0.14191186428070068,
          0.23671835660934448,
          0.3574601113796234,
          0.15503831207752228,
          0.3074142038822174,
          0.14776663482189178,
          -0.13892076909542084,
          0.3237892985343933,
          0.27973246574401855,
          0.37795060873031616
        ],
        [
          0.44566044211387634,
          1.8248398303985596,
          -1.5213099718093872,
          -0.7968806028366089,
          2.0175366401672363,
          0.8729615211486816,
          0.04409242421388626,
          1.069841980934143,
          -1.6520859003067017,
          0.07893683016300201,
          0.582983672618866,
          0.777582049369812,
          -0.365329772233963,
          -1.0374513864517212,
          0.347706139087677,
          -1.2229582071304321,
          0.10395362228155136,
          -0.5673024654388428,
          -0.08648979663848877,
          0.25175729393959045,
          -1.6737748384475708,
          -0.019278395920991898,
          1.0288045406341553,
          -1.5784715414047241,
          0.5565913319587708,
          -0.4376162886619568,
          -0.39967140555381775,
          1.2586685419082642,
          0.31894591450691223,
          0.2024548053741455,
          -1.252179741859436,
          -1.7907383441925049,
          0.14697836339473724,
          -1.897864580154419,
          -0.9187801480293274,
          0.2383611500263214,
          0.03117520734667778,
          0.11682015657424927,
          0.21647104620933533,
          0.5853780508041382,
          -1.5815948247909546,
          -1.6481480598449707,
          -0.44018128514289856,
          -0.22460807859897614,
          1.715497374534607,
          -0.014317124150693417,
          -1.5003020763397217,
          0.09716178476810455
        ],
        [
          0.36053064465522766,
          2.242431640625,
          -1.5210754871368408,
          -1.0805094242095947,
          2.5431559085845947,
          1.1474131345748901,
          0.18955658376216888,
          1.1446936130523682,
          -1.8926687240600586,
          -0.17758165299892426,
          0.49076569080352783,
          0.8071995973587036,
          -0.35944581031799316,
          -1.2327359914779663,
          0.9846500754356384,
          -1.1870402097702026,
          0.31324833631515503,
          -0.7830103635787964,
          -0.20928217470645905,
          0.414585679769516,
          -1.7984082698822021,
          -0.3978411555290222,
          0.987053394317627,
          -1.7013448476791382,
          0.39281633496284485,
          -0.4835590422153473,
          -0.47128722071647644,
          0.7013497948646545,
          0.4295438528060913,
          0.3127288222312927,
          -1.4027270078659058,
          -2.037649393081665,
          -0.09876223653554916,
          -1.9868721961975098,
          -0.9252367615699768,
          -0.011115730740129948,
          0.3260347545146942,
          -0.008357840590178967,
          0.5521640777587891,
          1.0051162242889404,
          -1.7891998291015625,
          -1.5496665239334106,
          -0.33120137453079224,
          -0.21827659010887146,
          1.3387093544006348,
          0.30015456676483154,
          -1.7117887735366821,
          0.6937749981880188
        ],
        [
          0.059657707810401917,
          -4.732777118682861,
          0.3345399796962738,
          -0.5002373456954956,
          -4.331377029418945,
          -0.03009195439517498,
          0.3148084878921509,
          -1.206072211265564,
          0.12228010594844818,
          1.1905057430267334,
          0.2469053864479065,
          -0.6987060904502869,
          -0.0041625769808888435,
          1.567415714263916,
          -0.767937421798706,
          -0.07531654089689255,
          -1.0752551555633545,
          0.0346808023750782,
          -0.39959514141082764,
          0.2437696009874344,
          0.12866796553134918,
          1.1376535892486572,
          -1.8523818254470825,
          0.18744726479053497,
          -0.2697373330593109,
          1.1632391214370728,
          -0.10130072385072708,
          1.5730736255645752,
          -0.912673830986023,
          -1.7568532228469849,
          0.18137845396995544,
          0.24623055756092072,
          0.8563574552536011,
          -0.4052260220050812,
          -0.4500349462032318,
          0.8446559906005859,
          -1.8525457382202148,
          -0.578854501247406,
          -0.018750468268990517,
          -0.7457106709480286,
          -0.41949355602264404,
          -0.00698503851890564,
          0.32542312145233154,
          -0.4896027743816376,
          -3.863210678100586,
          0.32509130239486694,
          0.6476422548294067,
          0.19422940909862518
        ],
        [
          -0.2404775321483612,
          3.1031274795532227,
          -0.02331760711967945,
          2.392021894454956,
          3.1659884452819824,
          -0.2072172313928604,
          -0.32739174365997314,
          0.47480523586273193,
          0.21115578711032867,
          0.4110046327114105,
          0.8338074684143066,
          0.20738334953784943,
          0.17823705077171326,
          -1.7420785427093506,
          1.8126428127288818,
          -0.2519623339176178,
          0.0035244659520685673,
          0.05833463743329048,
          -1.3452856540679932,
          0.19467730820178986,
          0.3081820607185364,
          0.5381301641464233,
          0.40696465969085693,
          0.36362767219543457,
          0.2214977890253067,
          0.07667455822229385,
          -0.7514819502830505,
          1.658495306968689,
          0.4387543201446533,
          0.24513980746269226,
          -0.3181660771369934,
          -0.7220926284790039,
          -0.8595065474510193,
          -0.02791450545191765,
          -0.12155721336603165,
          -0.6675451993942261,
          -0.05649096146225929,
          -0.13394178450107574,
          0.3952982723712921,
          0.6412158608436584,
          0.2542858421802521,
          0.3449820280075073,
          0.13239310681819916,
          1.2802188396453857,
          5.371318817138672,
          -0.5631768107414246,
          -0.4020552635192871,
          0.27236706018447876
        ],
        [
          -0.1407250612974167,
          0.6122682094573975,
          -0.1961444914340973,
          2.1847634315490723,
          1.981507658958435,
          -0.8917956948280334,
          0.1222987025976181,
          -1.2710283994674683,
          0.46393024921417236,
          0.1106351763010025,
          1.434316873550415,
          0.4548255503177643,
          0.6703935265541077,
          -1.450708270072937,
          0.5348221659660339,
          -0.36886143684387207,
          0.1049124225974083,
          0.07593444734811783,
          -1.5198233127593994,
          -0.5236418843269348,
          0.39987388253211975,
          0.36895591020584106,
          0.7198522686958313,
          0.5427907109260559,
          0.6705623865127563,
          -0.41996464133262634,
          -0.25331875681877136,
          0.7174594402313232,
          0.7834891676902771,
          -0.18369054794311523,
          -0.6421933174133301,
          -0.9320731163024902,
          0.055753931403160095,
          -0.001069476013071835,
          -0.271299809217453,
          0.20685330033302307,
          -0.5766006112098694,
          -0.6860527396202087,
          -0.4552430212497711,
          0.5974429845809937,
          0.3592161536216736,
          0.628485918045044,
          1.4164007902145386,
          1.1293991804122925,
          6.5640177726745605,
          -0.6889886856079102,
          -0.4347187578678131,
          -0.6689922213554382
        ],
        [
          1.2597920894622803,
          -0.48637068271636963,
          0.7691690325737,
          -0.5086237192153931,
          -0.7954163551330566,
          -0.052097219973802567,
          0.3445603549480438,
          0.26992276310920715,
          0.7843880653381348,
          -0.9257681369781494,
          -0.1906784176826477,
          -0.2598576247692108,
          -0.08687306940555573,
          1.2476598024368286,
          -0.6049624085426331,
          0.6908543705940247,
          -0.0001911444414872676,
          2.5322484970092773,
          1.2466381788253784,
          0.11530801653862,
          0.6823724508285522,
          -0.9213314056396484,
          0.498758465051651,
          0.732232391834259,
          -0.33060452342033386,
          1.0880686044692993,
          0.6144631505012512,
          0.383390873670578,
          -0.44513240456581116,
          0.37211981415748596,
          0.9061568379402161,
          0.3493976891040802,
          -0.377306193113327,
          0.5976857542991638,
          1.5945286750793457,
          -0.3806578814983368,
          0.7651610374450684,
          0.9964461922645569,
          0.2014838606119156,
          -0.26235276460647583,
          0.6203694343566895,
          0.7226038575172424,
          -1.107944130897522,
          -0.6011381149291992,
          -3.472341775894165,
          0.995602011680603,
          0.9916861057281494,
          0.4443386495113373
        ],
        [
          0.3862021565437317,
          0.1667851209640503,
          0.22669188678264618,
          0.2741926312446594,
          0.1795298308134079,
          0.09328171610832214,
          0.6749602556228638,
          0.29785072803497314,
          0.4023621082305908,
          0.3493509888648987,
          0.4701521694660187,
          0.3750334084033966,
          0.6762189269065857,
          0.41500651836395264,
          0.260508269071579,
          0.377840518951416,
          0.2683829367160797,
          0.26657167077064514,
          0.37074336409568787,
          1.9047430753707886,
          0.2572246193885803,
          0.18038958311080933,
          0.3986055254936218,
          0.4290028214454651,
          0.17527861893177032,
          0.5345203280448914,
          0.2419607937335968,
          0.721738874912262,
          0.23171889781951904,
          0.36993661522865295,
          0.4324755072593689,
          0.3024749159812927,
          0.38832488656044006,
          0.3855549991130829,
          0.29050755500793457,
          0.5906323194503784,
          0.22701622545719147,
          0.19999748468399048,
          0.155695378780365,
          0.27010947465896606,
          0.2644718587398529,
          0.4801599681377411,
          0.3152802586555481,
          0.20076799392700195,
          0.3587697446346283,
          0.28556036949157715,
          0.293260782957077,
          0.13942457735538483
        ],
        [
          0.26749271154403687,
          -2.2813785076141357,
          0.0032968218438327312,
          -0.32546210289001465,
          -2.6467642784118652,
          -0.111229807138443,
          0.3403143584728241,
          -0.3312929570674896,
          0.24406908452510834,
          1.0619316101074219,
          0.27538517117500305,
          -0.4310755133628845,
          0.5282978415489197,
          1.7179690599441528,
          -2.0113391876220703,
          0.6515030264854431,
          -0.3565552532672882,
          -0.040378816425800323,
          0.39835894107818604,
          0.3450201451778412,
          0.016525277867913246,
          0.6775645613670349,
          -2.283193826675415,
          0.06990823894739151,
          -0.21068774163722992,
          -0.07915418595075607,
          0.45618659257888794,
          -1.9337464570999146,
          -0.02923647314310074,
          -0.2687818706035614,
          0.14210371673107147,
          0.43285226821899414,
          0.16600053012371063,
          -0.6150359511375427,
          0.5501993894577026,
          0.019737493246793747,
          -0.4708315134048462,
          0.5397578477859497,
          -0.25470489263534546,
          -2.436464309692383,
          -0.22230848670005798,
          -0.10538341104984283,
          0.36997851729393005,
          -0.5016935467720032,
          -3.2378621101379395,
          1.3760095834732056,
          0.3520588278770447,
          -0.4323839247226715
        ],
        [
          0.5591483116149902,
          1.1019660234451294,
          -0.4591313898563385,
          -0.6818522214889526,
          0.715920627117157,
          -0.3302905559539795,
          -1.0243688821792603,
          0.7544884085655212,
          0.7952953577041626,
          -0.1394762098789215,
          0.2827395498752594,
          0.005833358503878117,
          0.36646324396133423,
          0.7173818349838257,
          -0.4606710970401764,
          -0.049959804862737656,
          0.6489077210426331,
          1.4298664331436157,
          0.6356079578399658,
          -0.6515991687774658,
          0.7426390051841736,
          -0.8299819827079773,
          1.2913134098052979,
          0.782841145992279,
          -0.3035828173160553,
          1.012474536895752,
          0.2345404475927353,
          -0.4333115518093109,
          0.08343981951475143,
          1.015250325202942,
          -0.04374301806092262,
          0.1707364171743393,
          -1.3371959924697876,
          0.9623950123786926,
          1.1484767198562622,
          -1.3652808666229248,
          0.8019745349884033,
          0.43823516368865967,
          1.1718355417251587,
          -0.7130662798881531,
          0.9594883918762207,
          0.8208247423171997,
          -0.591054379940033,
          -0.6259059309959412,
          -4.03609037399292,
          0.9877386093139648,
          -0.7495271563529968,
          1.2061043977737427
        ],
        [
          -1.0726372003555298,
          -1.0520880222320557,
          0.7121014595031738,
          0.6643476486206055,
          0.27262192964553833,
          -0.2662815451622009,
          0.22716756165027618,
          -1.0794973373413086,
          0.6639366149902344,
          0.2640054225921631,
          -0.21927259862422943,
          0.09547839313745499,
          0.21293962001800537,
          -0.5419491529464722,
          1.49513840675354,
          -0.11606057733297348,
          -0.2040676325559616,
          -1.5403201580047607,
          -0.7383215427398682,
          0.7117843627929688,
          0.18802723288536072,
          0.5206210613250732,
          -0.5750120282173157,
          0.5974915623664856,
          0.3212569057941437,
          0.41300085186958313,
          -0.3296651244163513,
          1.5240665674209595,
          0.24784931540489197,
          -1.3543970584869385,
          0.529223620891571,
          -0.4659234881401062,
          1.1220256090164185,
          -0.1485990285873413,
          -1.1352486610412598,
          1.1724648475646973,
          -0.6807915568351746,
          -0.3833581209182739,
          -0.35521745681762695,
          1.6595242023468018,
          -0.4618166983127594,
          -0.40023279190063477,
          0.5027053952217102,
          0.4477514326572418,
          3.7829697132110596,
          -0.7575960755348206,
          0.5000311732292175,
          -0.45268794894218445
        ],
        [
          0.8441010117530823,
          0.5470103621482849,
          0.4183363616466522,
          -0.5814586877822876,
          -0.16020604968070984,
          0.2650817930698395,
          -0.2920410633087158,
          1.2018663883209229,
          0.6756805777549744,
          -0.6234935522079468,
          -0.25785064697265625,
          -0.31604108214378357,
          0.3078846037387848,
          0.9522823691368103,
          -0.4155743718147278,
          -0.3350203037261963,
          0.12206310778856277,
          2.624255657196045,
          1.4081178903579712,
          -0.17957937717437744,
          0.8753200769424438,
          -1.0905296802520752,
          0.9436745047569275,
          0.7560498714447021,
          -0.4025248885154724,
          1.342625379562378,
          0.3262333273887634,
          0.11256489902734756,
          -0.29422062635421753,
          0.586933970451355,
          0.7527242302894592,
          0.4745064079761505,
          -0.8152002096176147,
          0.8144825100898743,
          1.3662601709365845,
          -0.6294637322425842,
          0.498714804649353,
          0.7494590282440186,
          0.14255820214748383,
          -0.5341100692749023,
          0.8468183279037476,
          0.674224853515625,
          -0.8511845469474792,
          -0.881664514541626,
          -4.413419246673584,
          1.1662590503692627,
          0.41740742325782776,
          0.49414247274398804
        ]
      ],
      "bias": null
    },
    {
      "name": "fc3",
      "type": "linear",
      "in_features": 48,
      "out_features": 5,
      "weights": [
        [
          0.7074885964393616,
          -2.8074934482574463,
          1.6863863468170166,
          -1.3030316829681396,
          1.8706467151641846,
          -1.5761175155639648,
          1.0938390493392944,
          -1.0610100030899048,
          -0.3083736300468445,
          -1.05413019657135,
          -0.2359609305858612,
          -0.3116520345211029,
          1.2071447372436523,
          -0.39398449659347534,
          2.035598039627075,
          1.5433549880981445,
          -0.23486681282520294,
          -0.03715423867106438,
          -1.3332642316818237,
          -4.713663101196289,
          -0.10252968221902847,
          1.8803272247314453,
          -1.8314273357391357,
          -0.12655799090862274,
          -1.4456945657730103,
          3.1128408908843994,
          2.3225176334381104,
          1.6389702558517456,
          -2.4033403396606445,
          -2.546808958053589,
          0.9275743961334229,
          2.77785587310791,
          -0.48869046568870544,
          -2.652763843536377,
          -0.9713152647018433,
          -2.6000816822052,
          -0.6912830471992493,
          0.05517391487956047,
          -0.28793156147003174,
          -1.8549658060073853,
          -0.24316658079624176,
          -2.6878812313079834,
          1.0318442583084106,
          -0.6455153226852417,
          -4.367247581481934,
          -0.45586609840393066,
          -0.8421679735183716,
          0.9724849462509155
        ],
        [
          1.0643677711486816,
          0.05414007976651192,
          -0.9599558115005493,
          1.4672882556915283,
          -0.9692960977554321,
          3.755974531173706,
          -1.5040936470031738,
          0.6424311995506287,
          2.2055482864379883,
          -0.2993144989013672,
          0.7196958661079407,
          0.7490090131759644,
          1.477363109588623,
          0.7114490270614624,
          -1.1508156061172485,
          -2.4165143966674805,
          0.9068283438682556,
          0.5912244915962219,
          2.432594060897827,
          -0.33894699811935425,
          1.0895227193832397,
          -2.5236189365386963,
          1.6109657287597656,
          0.35436925292015076,
          1.9550272226333618,
          -2.226410150527954,
          -1.2431288957595825,
          -1.3252809047698975,
          0.3557625114917755,
          -1.9284473657608032,
          -1.5664201974868774,
          -1.8914870023727417,
          0.26784926652908325,
          3.427460193634033,
          -0.15738226473331451,
          -0.9462969899177551,
          -0.5297261476516724,
          0.781007707118988,
          0.7657411694526672,
          3.0818705558776855,
          1.1894961595535278,
          1.3576935529708862,
          -1.8154102563858032,
          -0.3632042407989502,
          0.110039122402668,
          -1.887935996055603,
          1.557802677154541,
          -1.9900883436203003
        ],
        [
          0.7583341598510742,
          1.0276867151260376,
          0.29337623715400696,
          0.37740159034729004,
          2.6856653690338135,
          -1.7328294515609741,
          -1.8379321098327637,
          1.0095635652542114,
          0.5366240739822388,
          -1.289493203163147,
          -0.2902730107307434,
          2.4153785705566406,
          -3.5278570652008057,
          2.4157230854034424,
          -0.791206955909729,
          -0.7565348148345947,
          -0.3089991509914398,
          1.4989901781082153,
          0.7972295880317688,
          -0.34854671359062195,
          -0.9061474204063416,
          0.18282043933868408,
          -1.3207619190216064,
          -6.9320220947265625,
          -1.0547358989715576,
          -2.061493396759033,
          -0.14753392338752747,
          -7.317319393157959,
          0.10347479581832886,
          0.25859591364860535,
          1.2809234857559204,
          0.45436298847198486,
          0.742852509021759,
          -5.023939609527588,
          -0.042004454880952835,
          0.8502441644668579,
          0.061213284730911255,
          0.2905467748641968,
          1.6541283130645752,
          -2.0417041778564453,
          1.011422038078308,
          1.3213547468185425,
          -0.17986102402210236,
          -0.022716786712408066,
          -1.357791781425476,
          1.2454767227172852,
          -2.740200996398926,
          0.5424105525016785
        ],
        [
          -1.7989059686660767,
          -0.9524452686309814,
          -0.6081283092498779,
          -0.8193039894104004,
          -3.709071159362793,
          0.32369595766067505,
          1.9217153787612915,
          -4.273097515106201,
          -3.261986017227173,
          2.558704137802124,
          -4.129691123962402,
          -3.7321929931640625,
          0.4695775806903839,
          -3.516235828399658,
          0.4228935241699219,
          1.3982930183410645,
          -0.9580673575401306,
          -3.981171131134033,
          -2.387970209121704,
          1.8021053075790405,
          0.76568204164505,
          1.2962291240692139,
          -0.31810832023620605,
          4.0424604415893555,
          -0.3113470673561096,
          -2.5261731147766113,
          -0.34706342220306396,
          3.5433385372161865,
          0.13460958003997803,
          0.9301922917366028,
          -0.29327747225761414,
          -3.0578861236572266,
          -0.905381441116333,
          2.7678065299987793,
          1.2529195547103882,
          0.10631217807531357,
          1.2409865856170654,
          -3.852302312850952,
          -3.5751986503601074,
          0.7232994437217712,
          -1.6521755456924438,
          -2.603956460952759,
          1.5982027053833008,
          0.8591846227645874,
          1.3619331121444702,
          0.12885423004627228,
          -0.024219386279582977,
          0.5927808284759521
        ],
        [
          -1.042741298675537,
          -7.54072380065918,
          -3.8656935691833496,
          -7.671516418457031,
          -5.244534492492676,
          -6.462977409362793,
          -3.2928898334503174,
          -5.07347297668457,
          -5.074767112731934,
          -5.6657938957214355,
          -1.899754285812378,
          -3.0420196056365967,
          -11.192137718200684,
          -3.3828012943267822,
          -5.091495037078857,
          -10.526777267456055,
          -1.581740140914917,
          -2.8559088706970215,
          -0.9303740859031677,
          -9.365913391113281,
          -1.0471272468566895,
          -4.834451675415039,
          -4.605886459350586,
          -10.972705841064453,
          -3.328892469406128,
          -2.6700429916381836,
          -6.94007682800293,
          -10.391792297363281,
          -8.863022804260254,
          -9.31851863861084,
          -5.074687480926514,
          -5.46678352355957,
          -2.0739569664001465,
          -12.182249069213867,
          -3.4868812561035156,
          -8.586755752563477,
          -4.369192600250244,
          -1.8655036687850952,
          -5.4330949783325195,
          -0.5487574934959412,
          -1.8844655752182007,
          -6.108432769775391,
          -8.925814628601074,
          -5.371305465698242,
          -1.9039276838302612,
          -8.716526985168457,
          -9.572491645812988,
          -8.593704223632812
        ]
      ],
      "bias": null
    }
  ],
  "metadata": {
    "task": "classification"
  }
}