{
  "benchmark_id": "S3",
  "series": "S",
  "architecture": "S3Net",
  "timesteps": 20,
  "precision": {
    "weight_bits": 4,
    "signed": true
  },
  "layers": [
    {
      "name": "fc1",
      "type": "linear",
      "in_features": 16,
      "out_features": 64,
      "weights": [
        [
          0.10190407931804657,
          -0.032063473016023636,
          0.11944422125816345,
          0.007971185259521008,
          0.24387438595294952,
          0.04084858298301697,
          -0.17443597316741943,
          0.07576984912157059,
          -0.1097402274608612,
          -0.0768003910779953,
          0.14055095613002777,
          -0.008205210790038109,
          0.15034224092960358,
          -0.09469746053218842,
          0.26138758659362793,
          -0.08753969520330429
        ],
        [
          -0.2117237150669098,
          -0.18203747272491455,
          0.16172386705875397,
          -0.022824754938483238,
          -0.05841207504272461,
          0.07927874475717545,
          0.18390977382659912,
          0.1840406060218811,
          -0.11619261652231216,
          -0.16570618748664856,
          -0.023638512939214706,
          -0.0625055581331253,
          -0.20219086110591888,
          0.2403336614370346,
          0.15654256939888,
          -0.03811860457062721
        ],
        [
          -0.20523586869239807,
          0.11538601666688919,
          0.19761449098587036,
          0.017639076337218285,
          -0.030676843598484993,
          -0.11486787348985672,
          -0.11959974467754364,
          0.1603359580039978,
          -0.24278482794761658,
          -0.12907332181930542,
          0.26585516333580017,
          0.24576574563980103,
          -0.14549516141414642,
          0.019657887518405914,
          -0.05151781067252159,
          0.007451619021594524
        ],
        [
          0.26659703254699707,
          -0.1711035817861557,
          -0.18798770010471344,
          0.060522377490997314,
          -0.15867729485034943,
          0.10626121610403061,
          -0.17097921669483185,
          -0.012732557021081448,
          0.02788851037621498,
          0.2754780948162079,
          0.06453757733106613,
          0.013426450081169605,
          0.14701610803604126,
          0.03530687093734741,
          -0.00014664223999716341,
          0.042898327112197876
        ],
        [
          0.2190873920917511,
          -0.12480120360851288,
          -0.2245718240737915,
          0.2634880840778351,
          0.012984528206288815,
          -0.07936538755893707,
          -0.1364312767982483,
          0.1730048656463623,
          0.12852078676223755,
          -0.09063947200775146,
          0.00101584498770535,
          0.17436908185482025,
          -0.014336376450955868,
          0.10142756253480911,
          -0.2696714997291565,
          0.3023059368133545
        ],
        [
          0.13066409528255463,
          -0.007495916914194822,
          0.01264132373034954,
          -0.13191652297973633,
          0.09371918439865112,
          -0.0826764777302742,
          -0.0328095369040966,
          -0.11362133175134659,
          0.1353539675474167,
          0.05881223827600479,
          0.12994904816150665,
          -0.15568281710147858,
          0.1882237195968628,
          -0.047302719205617905,
          -0.12541086971759796,
          0.26310381293296814
        ],
        [
          0.17366209626197815,
          -0.07118483632802963,
          0.07816322892904282,
          -0.20955783128738403,
          -0.18045882880687714,
          0.02223852649331093,
          -0.19318605959415436,
          0.3016355335712433,
          -0.11190947890281677,
          -0.18882502615451813,
          0.12365732342004776,
          0.19770413637161255,
          0.18276061117649078,
          0.024009250104427338,
          0.14589540660381317,
          -0.20403443276882172
        ],
        [
          0.21089871227741241,
          0.07009386271238327,
          0.005214722827076912,
          -0.04824133589863777,
          0.046279434114694595,
          0.09646229445934296,
          -0.17438718676567078,
          -0.08467109501361847,
          -0.0948529988527298,
          0.18717481195926666,
          0.010755247436463833,
          0.030687279999256134,
          -0.11235400289297104,
          0.04777431860566139,
          0.19639618694782257,
          -0.017226792871952057
        ],
        [
          -0.06076189503073692,
          -0.15760447084903717,
          0.25699010491371155,
          0.19772189855575562,
          -0.04038658365607262,
          0.21813806891441345,
          -0.021087974309921265,
          -0.04682349041104317,
          0.08684583753347397,
          -0.1800246685743332,
          0.01552420761436224,
          -0.2943660020828247,
          -0.010175163857638836,
          -0.13592417538166046,
          0.12158969044685364,
          -0.1335175335407257
        ],
        [
          -0.23318800330162048,
          -0.004176557995378971,
          0.1802404522895813,
          -0.056913040578365326,
          0.07965106517076492,
          -0.16225899755954742,
          0.18465617299079895,
          0.041860755532979965,
          -0.12376978248357773,
          0.12485945969820023,
          0.03382906690239906,
          -0.20532865822315216,
          0.22351570427417755,
          0.1586078554391861,
          -0.037406206130981445,
          -0.033247336745262146
        ],
        [
          0.00360095058567822,
          0.16607098281383514,
          -0.000827223586384207,
          0.0049182274378836155,
          0.03855356574058533,
          -0.05264745652675629,
          -0.2282966673374176,
          -0.0682181715965271,
          -0.026529710739850998,
          -0.09052805602550507,
          -0.0342140719294548,
          0.013380982913076878,
          0.03037545643746853,
          0.14089475572109222,
          -0.08449068665504456,
          -0.19012638926506042
        ],
        [
          -0.16052938997745514,
          0.054039116948843,
          0.052348751574754715,
          -0.17607223987579346,
          0.10724256187677383,
          -0.24313794076442719,
          -0.15432150661945343,
          0.1327691674232483,
          0.16086380183696747,
          -0.016137534752488136,
          0.07927537709474564,
          0.24729150533676147,
          -0.13063201308250427,
          0.02751152589917183,
          0.15676815807819366,
          -0.23765777051448822
        ],
        [
          0.1517464518547058,
          0.0886339396238327,
          -0.028646394610404968,
          0.22569330036640167,
          -0.03951280191540718,
          0.0011303047649562359,
          0.16929064691066742,
          -0.05264722555875778,
          -0.26897498965263367,
          0.20821921527385712,
          -0.0877930298447609,
          -0.21298542618751526,
          0.15830223262310028,
          -0.11158724129199982,
          -0.13621389865875244,
          -0.1822662204504013
        ],
        [
          -0.009410872124135494,
          0.1721944659948349,
          -0.11235085129737854,
          0.07589028030633926,
          0.1328449845314026,
          0.18655647337436676,
          0.2796201705932617,
          -0.21199415624141693,
          0.2790474593639374,
          -0.11997291445732117,
          0.2268359214067459,
          0.06931927055120468,
          0.06940183788537979,
          -0.1783260703086853,
          0.07162369787693024,
          -0.15882529318332672
        ],
        [
          -0.01766100339591503,
          0.08096253871917725,
          -0.12449902296066284,
          0.15454626083374023,
          -0.007498858030885458,
          -0.06212269514799118,
          0.03710414096713066,
          0.1233757957816124,
          0.05670224130153656,
          -0.2234489470720291,
          -0.009370923042297363,
          0.1067696213722229,
          -0.15870314836502075,
          -0.07916438579559326,
          0.12154189497232437,
          -0.21749690175056458
        ],
        [
          0.17596885561943054,
          -0.22797128558158875,
          0.2271808236837387,
          0.013019970618188381,
          0.2959098815917969,
          -0.10176089406013489,
          0.0026078023947775364,
          0.046095650643110275,
          -0.19436831772327423,
          0.11920484155416489,
          0.05600300803780556,
          -0.17349329590797424,
          -0.06364154815673828,
          0.1732017546892166,
          0.11408039927482605,
          -0.15983934700489044
        ],
        [
          0.23558415472507477,
          0.010312863625586033,
          0.0364375114440918,
          -0.006564492359757423,
          0.28083181381225586,
          -0.042815785855054855,
          0.09746792912483215,
          -0.18782541155815125,
          0.00842544250190258,
          0.07009804993867874,
          -0.27912768721580505,
          -0.20328985154628754,
          0.12318588048219681,
          0.07513581216335297,
          -0.11098681390285492,
          -0.015825919806957245
        ],
        [
          -0.09554216265678406,
          0.2517762780189514,
          0.2073587328195572,
          0.2289256751537323,
          -0.11963044852018356,
          -0.07462070137262344,
          -0.007433147169649601,
          0.1258317530155182,
          -0.15360945463180542,
          -0.14289048314094543,
          -0.1939498782157898,
          -0.09763307869434357,
          0.004604847636073828,
          0.032619792968034744,
          0.06662002950906754,
          -0.15890903770923615
        ],
        [
          -0.05908546596765518,
          -0.14468622207641602,
          -0.20295098423957825,
          -0.07985548675060272,
          -0.14339423179626465,
          -0.004715953022241592,
          0.05901142954826355,
          -0.0001242786383954808,
          0.13820992410182953,
          0.08532337844371796,
          0.2910778224468231,
          -0.0030274116434156895,
          -0.09894420951604843,
          0.24849537014961243,
          -0.24434898793697357,
          0.27625179290771484
        ],
        [
          -0.010853446088731289,
          0.007810851093381643,
          -0.2725653648376465,
          0.20602984726428986,
          0.1731732338666916,
          -0.2707942724227905,
          0.19574140012264252,
          -0.08295216411352158,
          0.2204449474811554,
          -0.15547260642051697,
          -0.21929731965065002,
          -0.13691727817058563,
          -0.20481829345226288,
          0.1953696310520172,
          -0.1628359854221344,
          -0.07571209222078323
        ],
        [
          -0.010832010768353939,
          -0.22861658036708832,
          -0.06884624809026718,
          0.1707024872303009,
          -0.11743965744972229,
          -0.1680581122636795,
          0.14355991780757904,
          -0.13664790987968445,
          -0.050334978848695755,
          -0.15393227338790894,
          -0.12692822515964508,
          0.21265360713005066,
          -0.09406774491071701,
          -0.22575055062770844,
          -0.2234232872724533,
          0.09909874945878983
        ],
        [
          -0.09576906263828278,
          0.21165120601654053,
          -0.017859550192952156,
          0.0731269046664238,
          -0.13396862149238586,
          0.05729404091835022,
          -0.027709608897566795,
          0.07972168922424316,
          -0.17310351133346558,
          0.21817348897457123,
          -0.02165268361568451,
          0.14660008251667023,
          0.1101994663476944,
          0.023470252752304077,
          0.14814803004264832,
          -0.03490021452307701
        ],
        [
          -0.14738653600215912,
          -0.05524618923664093,
          -0.010054916143417358,
          0.09696847945451736,
          0.12028811126947403,
          -0.12911838293075562,
          -0.07790961116552353,
          -0.083877332508564,
          0.05668865516781807,
          0.039773233234882355,
          0.15621048212051392,
          -0.13346430659294128,
          0.1291600465774536,
          0.17586316168308258,
          -0.1400558203458786,
          0.24877874553203583
        ],
        [
          0.20026971399784088,
          -0.11152510344982147,
          0.19686216115951538,
          -0.07087148725986481,
          0.11123767495155334,
          -0.15583033859729767,
          0.1619025617837906,
          0.11356082558631897,
          -0.1390199363231659,
          -0.012518552131950855,
          0.16236494481563568,
          0.10697479546070099,
          0.11341546475887299,
          -0.03637321665883064,
          0.2646597623825073,
          0.18047598004341125
        ],
        [
          -0.048574432730674744,
          -0.10915494710206985,
          -0.20579217374324799,
          0.26498252153396606,
          -0.17714114487171173,
          0.05115098878741264,
          0.27139127254486084,
          -0.1286819726228714,
          0.1780271828174591,
          0.022528450936079025,
          -0.030628997832536697,
          0.03387615829706192,
          -0.047952353954315186,
          -0.2234409898519516,
          -0.2182195633649826,
          0.17313505709171295
        ],
        [
          0.1823958307504654,
          0.10484107583761215,
          0.04335889592766762,
          0.0961124449968338,
          -0.22807268798351288,
          0.014492646791040897,
          -0.13412140309810638,
          0.09525427222251892,
          0.1965729147195816,
          -0.1606249064207077,
          -0.15799634158611298,
          0.1165735051035881,
          -0.21955467760562897,
          -0.16121169924736023,
          0.23457860946655273,
          -0.2450273334980011
        ],
        [
          -0.06517789512872696,
          -0.126857727766037,
          -0.015328221954405308,
          -0.22416214644908905,
          0.17719638347625732,
          -0.19483336806297302,
          -0.23033566772937775,
          -0.09221581369638443,
          0.12989021837711334,
          -0.13392311334609985,
          0.17394286394119263,
          0.04672377556562424,
          0.26146021485328674,
          0.004532178398221731,
          -0.14239001274108887,
          -0.2800602316856384
        ],
        [
          -0.0992564857006073,
          0.2513953149318695,
          -0.051469914615154266,
          -0.2329166680574417,
          -0.1629725843667984,
          0.030357277020812035,
          0.10498405992984772,
          -0.12733101844787598,
          -0.2330753207206726,
          -0.05343383923172951,
          -0.0864379033446312,
          -0.05774277076125145,
          0.1800321489572525,
          -0.10142118483781815,
          -0.025557197630405426,
          -0.17515885829925537
        ],
        [
          -0.1645875871181488,
          -0.14929455518722534,
          -0.22272330522537231,
          -0.18706545233726501,
          0.08689593523740768,
          0.002209726721048355,
          -0.09308172762393951,
          0.21437612175941467,
          0.10823658108711243,
          0.14662005007266998,
          0.20090529322624207,
          0.17067097127437592,
          0.18943874537944794,
          -0.11744659394025803,
          -0.20891010761260986,
          -0.2752172350883484
        ],
        [
          -0.12254098057746887,
          -0.17510202527046204,
          0.0901101753115654,
          -0.12965038418769836,
          -0.15613241493701935,
          0.030174938961863518,
          0.04342915490269661,
          -0.08113215863704681,
          0.09434901177883148,
          -0.1631774604320526,
          -0.24070782959461212,
          -0.10154622793197632,
          -0.08451052755117416,
          0.17557762563228607,
          -0.07686685025691986,
          0.04695160314440727
        ],
        [
          -0.15248924493789673,
          -0.17642930150032043,
          0.11367395520210266,
          -0.10193777084350586,
          -0.13187149167060852,
          -0.020222697407007217,
          -0.068171925842762,
          0.2152317613363266,
          -0.04751108959317207,
          0.18781599402427673,
          -0.06552490592002869,
          -0.040150221437215805,
          -0.07507679611444473,
          -0.12048524618148804,
          0.03428466618061066,
          0.2703263759613037
        ],
        [
          0.004118721932172775,
          -0.051438212394714355,
          0.21256659924983978,
          -0.1685025691986084,
          -0.09838376939296722,
          0.23758453130722046,
          0.26482900977134705,
          -0.006606779992580414,
          -0.11617342382669449,
          -0.10890431702136993,
          0.01244874857366085,
          -0.100737564265728,
          -0.1838640421628952,
          -0.08533386886119843,
          -0.23042967915534973,
          -0.20362168550491333
        ],
        [
          -0.0665837898850441,
          -0.0003137449675705284,
          -0.004487577825784683,
          -0.0748022273182869,
          -0.03911520168185234,
          -0.06295500695705414,
          0.012356776744127274,
          0.19293756783008575,
          -0.1378382295370102,
          0.23451916873455048,
          -0.2744550108909607,
          -0.054190393537282944,
          -0.2014782875776291,
          -0.17141634225845337,
          -0.17732712626457214,
          -0.2315557897090912
        ],
        [
          -0.2641947567462921,
          0.09302108734846115,
          -0.14522171020507812,
          0.14707469940185547,
          0.03715824708342552,
          0.15317438542842865,
          0.08141054958105087,
          0.1593799591064453,
          -0.24144388735294342,
          -0.03587803989648819,
          -0.07870576530694962,
          -0.2701759934425354,
          -0.08001338690519333,
          0.18113645911216736,
          0.05405890941619873,
          -0.1603633612394333
        ],
        [
          0.10646448284387589,
          -0.24666310846805573,
          0.037489570677280426,
          -0.13208571076393127,
          -0.013346417807042599,
          -0.015589863061904907,
          -0.04699145630002022,
          0.1990513801574707,
          -0.13651269674301147,
          0.12523970007896423,
          0.05258369818329811,
          -0.12640586495399475,
          -0.20565231144428253,
          -0.18405547738075256,
          -0.09860099107027054,
          0.21505656838417053
        ],
        [
          0.19015257060527802,
          0.23204724490642548,
          0.2727814018726349,
          -0.009039788506925106,
          -0.1539311707019806,
          -0.093473419547081,
          -0.032932475209236145,
          -0.11054133623838425,
          -0.05496902018785477,
          0.17043162882328033,
          0.184060201048851,
          -0.03284178301692009,
          0.265893816947937,
          -0.10336575657129288,
          -0.005985547322779894,
          -0.14551427960395813
        ],
        [
          0.06178547069430351,
          -0.06274139881134033,
          0.05674120783805847,
          -0.1653718650341034,
          -0.027584368363022804,
          -0.09758161753416061,
          -0.07132645696401596,
          -0.1029767096042633,
          0.2508397698402405,
          -0.25623655319213867,
          -0.18783196806907654,
          0.08109665662050247,
          -0.04875567555427551,
          0.008123613893985748,
          -0.025667980313301086,
          -0.25873610377311707
        ],
        [
          0.11196961998939514,
          0.06688430905342102,
          -0.0004530317382887006,
          0.10492560267448425,
          0.08876653760671616,
          -0.07037878036499023,
          -0.07026990503072739,
          0.0009144998621195555,
          -0.07414839416742325,
          -0.11706752330064774,
          -0.051345858722925186,
          -0.250150591135025,
          0.010055840015411377,
          -0.22051584720611572,
          -0.1650797426700592,
          0.2775636613368988
        ],
        [
          -0.21767285466194153,
          0.07123178988695145,
          -0.16660982370376587,
          0.16977691650390625,
          0.07136610150337219,
          0.02718966454267502,
          0.0849977508187294,
          0.009917345829308033,
          0.15866532921791077,
          0.21824339032173157,
          0.08625294268131256,
          -0.2305658906698227,
          -0.004037025384604931,
          0.17839902639389038,
          -0.15622016787528992,
          0.23722140491008759
        ],
        [
          0.05945189669728279,
          0.029468948021531105,
          -0.06339303404092789,
          0.0037336053792387247,
          0.1607288122177124,
          -0.0677725076675415,
          0.20831218361854553,
          -0.24678605794906616,
          0.19412919878959656,
          0.12482248991727829,
          0.031237119808793068,
          -0.14454765617847443,
          0.11633100360631943,
          -0.1555102914571762,
          0.24550148844718933,
          -0.19713355600833893
        ],
        [
          -0.04853307828307152,
          -0.13266247510910034,
          0.23579396307468414,
          0.11927283555269241,
          0.03405696153640747,
          0.24487879872322083,
          0.06549989432096481,
          -0.12068211287260056,
          0.26327452063560486,
          0.01859012246131897,
          -0.17365622520446777,
          -0.035115186125040054,
          0.21667075157165527,
          0.25854501128196716,
          -0.18608087301254272,
          0.11399810761213303
        ],
        [
          0.12780582904815674,
          -0.22869543731212616,
          0.10800857096910477,
          0.10036886483430862,
          -0.11305342614650726,
          0.14007163047790527,
          -0.11742624640464783,
          -0.21779973804950714,
          -0.25015711784362793,
          0.2268328219652176,
          0.1908663660287857,
          0.16723938286304474,
          -0.0044653089717030525,
          0.022585025057196617,
          0.15120941400527954,
          0.03522464632987976
        ],
        [
          -0.08739713579416275,
          -0.13608063757419586,
          -0.2128705531358719,
          -0.0031073992140591145,
          -0.1480332762002945,
          0.1187085211277008,
          0.2926802635192871,
          0.1906825751066208,
          0.11722038686275482,
          -0.06080908700823784,
          -0.2179664671421051,
          0.14195901155471802,
          -0.10242127627134323,
          0.10694120079278946,
          -0.0014569131890311837,
          -0.13938815891742706
        ],
        [
          0.23164071142673492,
          -0.17556148767471313,
          0.0560227632522583,
          -0.1819637417793274,
          -0.06704971194267273,
          -0.03481510654091835,
          -0.09087547659873962,
          -0.009871863760054111,
          -0.2372129261493683,
          0.09480562806129456,
          -0.0515163280069828,
          -0.11434660106897354,
          -0.1189945861697197,
          -0.05313786864280701,
          0.12936770915985107,
          0.2414221465587616
        ],
        [
          0.2170710414648056,
          -0.13520920276641846,
          0.047742221504449844,
          0.17002126574516296,
          -0.19509357213974,
          -0.1092960387468338,
          -0.054625384509563446,
          0.2615578770637512,
          0.15127475559711456,
          -0.1519319862127304,
          -0.07692056894302368,
          -0.20973895490169525,
          0.18855628371238708,
          -0.13392721116542816,
          -0.06630741059780121,
          -0.21402141451835632
        ],
        [
          -0.20431526005268097,
          -0.2449638843536377,
          -0.06513584405183792,
          -0.05987042933702469,
          -0.09273567795753479,
          0.026979509741067886,
          0.12109825015068054,
          -0.16509583592414856,
          -0.05589960142970085,
          -0.2621515989303589,
          -0.19954736530780792,
          0.09718549251556396,
          0.17594289779663086,
          -0.2086556851863861,
          -0.050729356706142426,
          0.21481451392173767
        ],
        [
          0.19025751948356628,
          0.2616819441318512,
          -0.18685191869735718,
          0.2355460375547409,
          0.04773910716176033,
          0.21232503652572632,
          0.08905980736017227,
          -0.1343294382095337,
          -0.07711329311132431,
          -0.17817312479019165,
          0.26444366574287415,
          0.20480762422084808,
          0.10713910311460495,
          0.048395607620477676,
          0.17783956229686737,
          0.15651370584964752
        ],
        [
          0.2484675645828247,
          0.005096073728054762,
          0.10243729501962662,
          0.04335600137710571,
          -0.07212977856397629,
          0.17515897750854492,
          -0.0379859134554863,
          -0.1575157195329666,
          0.05693857744336128,
          -0.02337847277522087,
          -0.10390786081552505,
          -0.03306366875767708,
          -0.11015790700912476,
          -0.2729990482330322,
          -0.036998309195041656,
          0.14121247828006744
        ],
        [
          -0.002775823697447777,
          0.1755484938621521,
          -0.07901345938444138,
          -0.01577482558786869,
          0.2554379403591156,
          -0.23516719043254852,
          -0.054583292454481125,
          0.22364279627799988,
          0.20524685084819794,
          0.035463847219944,
          0.11447067558765411,
          0.13036811351776123,
          -0.08183843642473221,
          -0.08245079964399338,
          0.23533165454864502,
          0.10425355285406113
        ],
        [
          -0.2723582088947296,
          -0.0857107862830162,
          -0.15050095319747925,
          0.12373814731836319,
          -0.10302939265966415,
          -0.04136034473776817,
          0.07906447350978851,
          0.05589589476585388,
          0.0935322716832161,
          -0.1187928169965744,
          0.28748056292533875,
          0.2473747879266739,
          0.01692042499780655,
          0.16898497939109802,
          -0.03974655643105507,
          0.2919691503047943
        ],
        [
          -0.04786716029047966,
          0.0712023451924324,
          -0.19726276397705078,
          -0.21866072714328766,
          -0.17817813158035278,
          0.0984509140253067,
          -0.1332184225320816,
          0.1586005836725235,
          0.14100250601768494,
          0.15445108711719513,
          -0.2908189296722412,
          -0.16700732707977295,
          -0.20025470852851868,
          -0.22329381108283997,
          0.14879415929317474,
          -0.0514068529009819
        ],
        [
          0.06380987167358398,
          -0.25726091861724854,
          -0.007555085234344006,
          -0.21855950355529785,
          -0.2368476241827011,
          0.23283140361309052,
          -0.1714211404323578,
          0.013029958121478558,
          -0.07348384708166122,
          0.18464936316013336,
          0.07237166166305542,
          0.16145728528499603,
          0.22366662323474884,
          -0.18561656773090363,
          0.017803026363253593,
          0.16916486620903015
        ],
        [
          -0.10564403980970383,
          0.24772273004055023,
          -0.14559319615364075,
          0.15583941340446472,
          0.03772581368684769,
          0.019501570612192154,
          -0.011678611859679222,
          -0.23941795527935028,
          0.08770827203989029,
          0.17247727513313293,
          -0.2154470980167389,
          -0.07300828397274017,
          0.26711639761924744,
          -0.09032873064279556,
          0.1294236183166504,
          -0.1430308073759079
        ],
        [
          -0.19536572694778442,
          0.08787115663290024,
          -0.15256838500499725,
          0.011636906303465366,
          0.11214455962181091,
          0.10839691758155823,
          -0.119603231549263,
          -0.08796864748001099,
          -0.1615062803030014,
          -0.039284124970436096,
          -0.028203018009662628,
          0.20267616212368011,
          0.123639315366745,
          0.1862136572599411,
          0.003559753531590104,
          0.2930891215801239
        ],
        [
          0.24721059203147888,
          -0.09365671128034592,
          -0.266495943069458,
          0.15219815075397491,
          -0.15742094814777374,
          -0.11973179131746292,
          -0.18830643594264984,
          0.05944323167204857,
          0.18600158393383026,
          -0.1927885264158249,
          -0.11990614235401154,
          0.20788262784481049,
          -0.17913170158863068,
          -0.2691805362701416,
          0.21111150085926056,
          0.1309649497270584
        ],
        [
          0.160526841878891,
          0.09467111527919769,
          -0.2524541914463043,
          -0.19147591292858124,
          -0.2897309958934784,
          -0.30951443314552307,
          -0.04171174764633179,
          -0.22799284756183624,
          -0.17820042371749878,
          0.06083264574408531,
          -0.06887520849704742,
          0.29506343603134155,
          0.07898130267858505,
          -0.2987367510795593,
          -0.017192963510751724,
          -0.18796072900295258
        ],
        [
          -0.08967047929763794,
          -0.147550567984581,
          0.19586576521396637,
          -0.2666086256504059,
          -0.1463310718536377,
          0.2083371877670288,
          0.03959543630480766,
          0.09241417795419693,
          -0.11379934102296829,
          -0.10004406422376633,
          0.17309370636940002,
          0.16065773367881775,
          -0.05207206308841705,
          0.2174217253923416,
          0.029274288564920425,
          0.2729339599609375
        ],
        [
          -0.23374344408512115,
          -0.0993792787194252,
          0.03407604247331619,
          -0.23615697026252747,
          -0.10368700325489044,
          -0.011997266672551632,
          0.1848166137933731,
          -0.038081929087638855,
          -0.09133163839578629,
          0.061548832803964615,
          -0.022758668288588524,
          -0.14874736964702606,
          -0.09048472344875336,
          0.03658439218997955,
          0.12315479665994644,
          -0.1255173236131668
        ],
        [
          0.10664777457714081,
          -0.15283456444740295,
          -0.1827591210603714,
          0.037083953619003296,
          -0.1489475518465042,
          -0.03313790634274483,
          -0.20449227094650269,
          -0.07214562594890594,
          0.14127637445926666,
          -0.010587404482066631,
          0.14179068803787231,
          0.1696765124797821,
          -0.15066631138324738,
          0.17277280986309052,
          0.17879831790924072,
          0.06302445381879807
        ],
        [
          -0.12552699446678162,
          0.18872672319412231,
          -0.013082866556942463,
          0.0841788649559021,
          -0.2826174795627594,
          -0.1436474770307541,
          -0.012004327960312366,
          0.20900975167751312,
          0.16116593778133392,
          0.18246318399906158,
          -0.03761197626590729,
          0.014489693567156792,
          0.19804422557353973,
          -0.07903170585632324,
          -0.03093847818672657,
          -0.13721713423728943
        ],
        [
          -0.023322664201259613,
          -0.012930365279316902,
          0.07587309181690216,
          -0.0218318123370409,
          0.10057493299245834,
          0.09371887147426605,
          -0.10090278834104538,
          0.026634203270077705,
          -0.0896654948592186,
          0.04627580568194389,
          0.1051049754023552,
          -0.22146087884902954,
          -0.28358376026153564,
          0.014045832678675652,
          -0.018445707857608795,
          -0.05036650970578194
        ],
        [
          0.20851370692253113,
          0.18208502233028412,
          0.16638047993183136,
          0.12989777326583862,
          -0.09374077618122101,
          -0.16789832711219788,
          0.22303864359855652,
          -0.09900100529193878,
          0.09425036609172821,
          0.15614672005176544,
          -0.044317249208688736,
          -0.22606217861175537,
          -0.16560880839824677,
          0.041853975504636765,
          -0.16376155614852905,
          0.2243013232946396
        ],
        [
          0.08809220790863037,
          -0.20925919711589813,
          -0.2756173610687256,
          -0.06374950706958771,
          -0.1060447171330452,
          0.06382907181978226,
          -0.05247422680258751,
          -0.15532267093658447,
          0.18171343207359314,
          -0.0007951181032694876,
          -0.20557132363319397,
          0.08443325012922287,
          -0.2378416210412979,
          -0.04486401751637459,
          -0.15446974337100983,
          -0.08284010738134384
        ],
        [
          -0.13115403056144714,
          -0.12766879796981812,
          0.12842068076133728,
          -0.13088372349739075,
          -0.16457870602607727,
          -0.002153719775378704,
          0.17688129842281342,
          0.18787358701229095,
          0.088921457529068,
          -0.16672876477241516,
          0.029459470883011818,
          -0.2527350187301636,
          -0.08097677677869797,
          0.16730690002441406,
          -0.09851889312267303,
          -0.0807827040553093
        ]
      ],
      "bias": null
    },
    {
      "name": "fc2",
      "type": "linear",
      "in_features": 64,
      "out_features": 64,
      "weights": [
        [
          -0.039156224578619,
          0.001833795802667737,
          0.07082489877939224,
          -0.050454143434762955,
          0.1405695378780365,
          0.012599783949553967,
          0.11818737536668777,
          -0.055322784930467606,
          -0.01538476999849081,
          -0.04951963573694229,
          0.049218397587537766,
          0.054682180285453796,
          -0.02540847845375538,
          0.07923009991645813,
          0.1293477714061737,
          -0.07066886126995087,
          -0.02385139651596546,
          -0.018482988700270653,
          0.1285194605588913,
          0.14900854229927063,
          0.053096652030944824,
          0.036450162529945374,
          0.10344886779785156,
          0.16160844266414642,
          0.13270023465156555,
          -0.05259404703974724,
          0.030067162588238716,
          -0.094950832426548,
          -0.07645463943481445,
          -0.005605206824839115,
          -0.014755922369658947,
          0.048284705728292465,
          0.11991434544324875,
          0.11852357536554337,
          0.1125783622264862,
          0.02809170074760914,
          0.15880952775478363,
          -0.026599958539009094,
          -0.05905497074127197,
          -0.13016277551651,
          -0.11668414622545242,
          0.034398600459098816,
          0.06818357110023499,
          0.18495477735996246,
          0.13889163732528687,
          0.030352994799613953,
          -0.03560575470328331,
          0.1038450375199318,
          0.02823810651898384,
          0.06005832180380821,
          -0.01162929367274046,
          0.10906527936458588,
          -0.3054638206958771,
          -0.05496199429035187,
          0.07492829859256744,
          -0.027836253866553307,
          -0.005272698123008013,
          -0.06654439866542816,
          0.018028350546956062,
          -0.07673948258161545,
          -0.04827192425727844,
          0.09363534301519394,
          0.03984856233000755,
          -0.08921747654676437
        ],
        [
          0.2109166979789734,
          0.09923920035362244,
          -0.1194288358092308,
          0.12063527852296829,
          -0.13381443917751312,
          -0.00145125319249928,
          0.028722010552883148,
          0.0614662766456604,
          0.10937298089265823,
          0.13974709808826447,
          0.06193492189049721,
          0.10494481027126312,
          -0.02416909858584404,
          0.1168866977095604,
          0.00022961302602197975,
          -0.007230188697576523,
          0.03505291789770126,
          0.052773404866456985,
          -0.057642970234155655,
          -0.1015574038028717,
          -0.05673106759786606,
          0.09147109091281891,
          0.08972898125648499,
          0.1162615716457367,
          0.0019272859208285809,
          0.054212786257267,
          0.1306261271238327,
          -0.015150251798331738,
          0.018372859805822372,
          0.029305338859558105,
          -0.058656588196754456,
          0.04205732047557831,
          0.030192425474524498,
          0.07084864377975464,
          -0.009074865840375423,
          0.022253086790442467,
          -0.13485516607761383,
          -0.04512779414653778,
          0.05036929249763489,
          -0.03627059981226921,
          0.08608146756887436,
          0.14409427344799042,
          0.004904014989733696,
          -0.0016017428133636713,
          -0.03407822549343109,
          -0.05548509955406189,
          0.025338536128401756,
          -0.11792419105768204,
          -0.01513072568923235,
          0.12363506108522415,
          0.07996835559606552,
          0.10077685117721558,
          0.06153296306729317,
          0.07606204599142075,
          -0.09642184525728226,
          0.06484808772802353,
          0.11167491227388382,
          0.09069407731294632,
          -0.09085477143526077,
          -0.042775169014930725,
          -0.11214324831962585,
          -0.13960619270801544,
          -0.0010013062274083495,
          0.11722631007432938
        ],
        [
          -0.10432508587837219,
          -0.15762825310230255,
          0.1229001060128212,
          0.08325160294771194,
          0.014440353959798813,
          -0.327526330947876,
          0.06585635989904404,
          -0.07669838517904282,
          -0.269351065158844,
          0.003080763155594468,
          0.1103765219449997,
          0.2489445060491562,
          -0.08889923989772797,
          0.05039557069540024,
          0.11679305136203766,
          -0.19223785400390625,
          -0.22400455176830292,
          -0.27145206928253174,
          0.16702620685100555,
          0.18279430270195007,
          0.005227165762335062,
          -0.17021071910858154,
          -0.11712521314620972,
          -0.10797727853059769,
          0.027789220213890076,
          0.11527121067047119,
          0.11519227921962738,
          -0.06754038482904434,
          0.16461341083049774,
          -0.2212546318769455,
          -0.08364730328321457,
          -0.348172128200531,
          -0.14539867639541626,
          -0.09307987987995148,
          -0.2234666347503662,
          -0.04906077682971954,
          0.18821191787719727,
          -0.1388894021511078,
          -0.057464491575956345,
          -0.15476393699645996,
          -0.05331044644117355,
          -0.3026070296764374,
          0.19986869394779205,
          -0.30245673656463623,
          0.24645647406578064,
          0.04987280070781708,
          0.09808183461427689,
          -0.3993620276451111,
          0.019996490329504013,
          0.19212602078914642,
          -0.21111606061458588,
          -0.1552858203649521,
          -0.1397480070590973,
          -0.2345121204853058,
          0.037826236337423325,
          0.18281599879264832,
          -0.28062137961387634,
          -0.2125856876373291,
          0.1643865704536438,
          0.1478070467710495,
          -0.33652937412261963,
          -0.3156702220439911,
          0.14716297388076782,
          -0.10641030222177505
        ],
        [
          -0.014340944588184357,
          -0.01400488056242466,
          0.1153634712100029,
          -0.16525360941886902,
          -0.03183639422059059,
          -6.581724301213399e-05,
          -0.09912682324647903,
          -0.1440262645483017,
          0.14326970279216766,
          -0.025174405425786972,
          0.02913106605410576,
          -0.13603681325912476,
          0.12575924396514893,
          0.09244994819164276,
          0.057384371757507324,
          -0.07102259248495102,
          0.07911774516105652,
          0.0548517070710659,
          0.0381435863673687,
          -0.13467366993427277,
          -0.042803991585969925,
          0.015332524664700031,
          0.12597334384918213,
          0.06308393180370331,
          -0.011667406186461449,
          -0.015232167206704617,
          0.05527162551879883,
          -0.03176233172416687,
          0.06961105018854141,
          0.03950994089245796,
          0.013905209489166737,
          -0.003966215066611767,
          -0.0851839929819107,
          0.08223017305135727,
          -0.1568138152360916,
          -0.11984726041555405,
          0.0031616066116839647,
          0.09176991134881973,
          0.16049565374851227,
          -0.13818824291229248,
          0.1403038650751114,
          -0.04719039797782898,
          0.14811468124389648,
          -0.12225040048360825,
          -0.1478232443332672,
          -0.0023447878193110228,
          0.0847044438123703,
          -0.10980003327131271,
          0.0656556636095047,
          -0.042763859033584595,
          0.0046641407534480095,
          0.08157374709844589,
          0.07755297422409058,
          0.15595586597919464,
          -0.09769435226917267,
          -0.03299581632018089,
          0.04319199547171593,
          0.14343704283237457,
          -0.15994036197662354,
          0.06461118161678314,
          -0.0417378693819046,
          -0.1260790079832077,
          -0.004284969996660948,
          0.02445666678249836
        ],
        [
          -0.1392040103673935,
          -0.030840735882520676,
          0.08732243627309799,
          0.10089719295501709,
          0.023476617410779,
          0.006129652727395296,
          0.0523776039481163,
          0.1007431149482727,
          0.13095931708812714,
          0.14653633534908295,
          0.03960530087351799,
          -0.060260407626628876,
          -0.07040136307477951,
          0.06577370315790176,
          -0.005216054152697325,
          -0.1263679563999176,
          -0.0448794886469841,
          0.024285204708576202,
          0.19035378098487854,
          -0.11636735498905182,
          0.11430612206459045,
          -0.04751836881041527,
          0.1445021778345108,
          0.0007325040060095489,
          0.03440648317337036,
          -0.08703137934207916,
          -0.17689315974712372,
          0.05075822025537491,
          -0.12410213053226471,
          0.05661856010556221,
          0.1181674674153328,
          0.006916962563991547,
          0.03674815967679024,
          -0.06496678292751312,
          -0.09702245146036148,
          -0.06978549808263779,
          -0.17287984490394592,
          0.09564991295337677,
          -0.005003941245377064,
          -0.20683526992797852,
          0.15466710925102234,
          -0.019295010715723038,
          -0.08354092389345169,
          0.007193501573055983,
          -0.15423722565174103,
          0.15372665226459503,
          0.008005745708942413,
          0.023415284231305122,
          -0.04998522996902466,
          0.09407870471477509,
          -0.06361070275306702,
          0.12163864076137543,
          0.24537678062915802,
          0.09396231174468994,
          0.047084104269742966,
          0.0002866389404516667,
          0.0022837608121335506,
          -0.016295384615659714,
          0.13556715846061707,
          0.03282817825675011,
          -0.127589613199234,
          0.10761379450559616,
          0.04990724101662636,
          0.10817901045084
        ],
        [
          0.08834721893072128,
          -0.11862584203481674,
          0.11519978940486908,
          0.11293966323137283,
          0.151133194565773,
          0.1282314658164978,
          0.03740090876817703,
          0.111326202750206,
          -0.18114888668060303,
          0.055040765553712845,
          0.07143480330705643,
          0.09988844394683838,
          -0.03261531516909599,
          0.09897956252098083,
          -0.031029021367430687,
          0.009557525627315044,
          0.03352858126163483,
          0.03669629991054535,
          -0.05117419734597206,
          -0.06459109485149384,
          0.15016281604766846,
          0.1523878425359726,
          0.04820478707551956,
          -0.06225257366895676,
          0.14603731036186218,
          0.017063936218619347,
          0.13723024725914001,
          -0.012610917910933495,
          0.13562911748886108,
          -0.09930025786161423,
          0.10499130189418793,
          0.006561093032360077,
          0.05816030874848366,
          -0.1533021479845047,
          0.0683678388595581,
          0.10115744918584824,
          -0.00588025338947773,
          0.09221918880939484,
          0.15001080930233002,
          0.15428002178668976,
          -0.1460198312997818,
          0.029262010008096695,
          -0.1348399668931961,
          -0.02675873599946499,
          0.06946562975645065,
          -0.04035463556647301,
          -0.019354436546564102,
          -0.07917182892560959,
          0.16459892690181732,
          0.04556524008512497,
          0.011870299465954304,
          0.06643214076757431,
          0.04210584983229637,
          -0.0680621936917305,
          0.09552844613790512,
          -0.011807848699390888,
          0.0693892389535904,
          -0.08182454854249954,
          0.13915494084358215,
          0.022353315725922585,
          0.07582893967628479,
          0.015421245247125626,
          0.0035773818381130695,
          -0.13595399260520935
        ],
        [
          0.11395486444234848,
          -0.25896087288856506,
          0.13821038603782654,
          0.09194319695234299,
          0.32291868329048157,
          0.13595762848854065,
          0.06924328953027725,
          0.055366918444633484,
          -0.16164855659008026,
          -0.06869867444038391,
          0.05886140838265419,
          0.19162210822105408,
          0.15737101435661316,
          -0.09773287177085876,
          -0.12650305032730103,
          0.09466099739074707,
          0.06889484077692032,
          -0.12869621813297272,
          0.21297186613082886,
          0.06457352638244629,
          0.013130097649991512,
          0.0830523669719696,
          0.06176915392279625,
          0.05035350099205971,
          0.047901131212711334,
          -0.11841335892677307,
          0.007390803657472134,
          0.02414741925895214,
          0.15268149971961975,
          -0.11393170803785324,
          -0.058709971606731415,
          -0.6032824516296387,
          0.07214920222759247,
          -0.2177555412054062,
          -0.06554713845252991,
          -0.035899337381124496,
          0.0043881479650735855,
          0.23339109122753143,
          -0.07882377505302429,
          0.013046006672084332,
          -0.04054791107773781,
          -0.05765204876661301,
          -0.10910017043352127,
          0.020736346021294594,
          0.0910380631685257,
          -0.08409503847360611,
          0.11917711794376373,
          0.22660182416439056,
          0.06660431623458862,
          0.07006846368312836,
          0.09037448465824127,
          0.07347897440195084,
          0.12943948805332184,
          0.13819989562034607,
          0.32882463932037354,
          0.10362893342971802,
          0.02727098949253559,
          0.17115013301372528,
          0.13537782430648804,
          0.14586271345615387,
          -0.6510998606681824,
          0.02033599279820919,
          -0.0847674310207367,
          -0.06471481919288635
        ],
        [
          0.03500637039542198,
          0.15476873517036438,
          -0.23259638249874115,
          -0.27448806166648865,
          0.03524240106344223,
          -0.1658513844013214,
          -0.08816549926996231,
          -0.05290978401899338,
          0.09403810650110245,
          -0.200816810131073,
          -0.09012366086244583,
          -0.2756400406360626,
          0.051287438720464706,
          -0.20372475683689117,
          0.21520277857780457,
          -0.040289539843797684,
          0.11509670317173004,
          0.144330695271492,
          -0.16402144730091095,
          0.2419721484184265,
          0.020559871569275856,
          -0.0936192125082016,
          -0.061432600021362305,
          -0.17468169331550598,
          -0.02367652766406536,
          0.2731380760669708,
          -0.16098590195178986,
          0.04860351234674454,
          -0.08399495482444763,
          0.1903737187385559,
          -0.07007306069135666,
          0.13250771164894104,
          0.06339351832866669,
          0.12776249647140503,
          0.08640813827514648,
          -0.06797344982624054,
          0.1433713287115097,
          0.196464404463768,
          -0.0998704582452774,
          -0.04631500691175461,
          -0.08184193819761276,
          -0.2518717646598816,
          -0.004994605667889118,
          0.1868806779384613,
          0.1605035811662674,
          -0.03192765638232231,
          -0.12583893537521362,
          0.17327532172203064,
          -0.03674399480223656,
          -0.242948517203331,
          0.035796623677015305,
          -0.05751973018050194,
          -0.18154208362102509,
          -0.010324903763830662,
          0.04042220488190651,
          -0.1713297963142395,
          -0.20790021121501923,
          0.0037693630438297987,
          -0.35699981451034546,
          -0.2495655119419098,
          0.08036381751298904,
          0.043204255402088165,
          0.08106185495853424,
          0.18890361487865448
        ],
        [
          -0.07923921197652817,
          -0.04492834582924843,
          0.025422023609280586,
          0.08437440544366837,
          0.17769497632980347,
          0.020099403336644173,
          -0.008168356493115425,
          0.018897684291005135,
          0.13186268508434296,
          -0.1393825262784958,
          -0.07282734662294388,
          0.007982663810253143,
          0.08041221648454666,
          0.12469964474439621,
          0.11246803402900696,
          -0.11221156269311905,
          -0.061248473823070526,
          -0.08620457351207733,
          -0.045987971127033234,
          0.08387051522731781,
          0.07556559890508652,
          -0.11589712649583817,
          0.15347521007061005,
          0.03722026199102402,
          0.050443604588508606,
          0.17374326288700104,
          0.1375247836112976,
          -0.04925299063324928,
          -0.008126762695610523,
          0.029750198125839233,
          -0.03593536093831062,
          0.054112549871206284,
          -0.021389398723840714,
          0.022195089608430862,
          0.07039579004049301,
          -0.05527620390057564,
          0.018390197306871414,
          0.1429034322500229,
          0.026341039687395096,
          -0.11279263347387314,
          -0.16236479580402374,
          0.050516072660684586,
          0.07036352157592773,
          0.009070291183888912,
          0.01983663998544216,
          -0.0863463282585144,
          -0.017948880791664124,
          0.15200260281562805,
          0.12575174868106842,
          0.12398890405893326,
          0.11136285960674286,
          0.14934809505939484,
          -0.16353726387023926,
          0.11632826179265976,
          -0.03450176492333412,
          0.03146445006132126,
          0.04824503883719444,
          -0.029041560366749763,
          0.1462956666946411,
          -0.09276450425386429,
          -0.009783467277884483,
          -0.015105466358363628,
          0.15520238876342773,
          -0.06604436784982681
        ],
        [
          0.2029089480638504,
          -0.023576609790325165,
          -0.036550428718328476,
          0.05234440043568611,
          -0.0543559230864048,
          -0.11072223633527756,
          0.016512447968125343,
          0.2327861487865448,
          0.07184097915887833,
          0.046047642827034,
          0.035361625254154205,
          -0.014374175108969212,
          0.07238364964723587,
          0.11665266752243042,
          0.11940775066614151,
          0.1268387883901596,
          0.12394187599420547,
          0.0007996217464096844,
          -0.17575028538703918,
          0.09062506258487701,
          -0.032605770975351334,
          0.19296810030937195,
          -0.03534182906150818,
          0.07298237830400467,
          0.06081455945968628,
          -0.040789514780044556,
          -0.023980094119906425,
          0.11992636322975159,
          -0.038881298154592514,
          0.15599103271961212,
          -0.00479623768478632,
          -0.0322892852127552,
          0.15185251832008362,
          0.02494385652244091,
          0.17118580639362335,
          0.04206405580043793,
          -0.03982124105095863,
          -0.09504261612892151,
          0.12015153467655182,
          0.08231691271066666,
          -0.01030185166746378,
          0.039536003023386,
          0.14684726297855377,
          0.010139944963157177,
          -0.010098257102072239,
          0.09159111231565475,
          -0.045274518430233,
          0.1467820107936859,
          -0.011148557998239994,
          -0.02453400194644928,
          -0.021615084260702133,
          0.011538762599229813,
          0.24336190521717072,
          0.060175057500600815,
          0.05015818402171135,
          -0.11364530771970749,
          -0.07656369358301163,
          0.10506121814250946,
          -0.20945653319358826,
          0.08217509090900421,
          0.047864802181720734,
          -0.021449565887451172,
          -0.07611508667469025,
          0.17632973194122314
        ],
        [
          -0.07776734232902527,
          0.13122381269931793,
          0.05891045555472374,
          0.08436505496501923,
          0.11731315404176712,
          0.050197578966617584,
          0.1634654551744461,
          0.052830033004283905,
          -0.03359702229499817,
          0.031132826581597328,
          -0.05849530175328255,
          0.06357092410326004,
          0.12821990251541138,
          0.11974234879016876,
          0.10020670294761658,
          0.17187725007534027,
          -0.010786417871713638,
          0.019683312624692917,
          -0.03527369722723961,
          0.16063225269317627,
          -0.013904361985623837,
          -0.11658360809087753,
          -0.04127815365791321,
          -0.0356665700674057,
          0.11122556030750275,
          0.02892332337796688,
          -0.04829303175210953,
          -0.13269352912902832,
          0.047289952635765076,
          0.06382589787244797,
          -0.11530394107103348,
          -0.05559876561164856,
          0.039604827761650085,
          -0.07054078578948975,
          0.06755658984184265,
          0.04618065804243088,
          -0.028367266058921814,
          -0.07023851573467255,
          -0.14726762473583221,
          0.03978947550058365,
          -0.01826475001871586,
          -0.14913742244243622,
          0.12606701254844666,
          -0.07666947692632675,
          -0.03112763538956642,
          0.01564580202102661,
          0.05363831669092178,
          0.03296629711985588,
          0.04137241095304489,
          0.07215274125337601,
          -0.024178829044103622,
          -0.09333726018667221,
          -0.0021811993792653084,
          -0.07584347575902939,
          0.13032212853431702,
          -0.049749474972486496,
          -0.16523411870002747,
          0.08945883065462112,
          0.12284918129444122,
          -0.014693381264805794,
          0.010593071579933167,
          0.011026697233319283,
          0.16599543392658234,
          -0.03301212191581726
        ],
        [
          -0.044129855930805206,
          0.018840143457055092,
          0.01860138028860092,
          -0.07053865492343903,
          -0.051639072597026825,
          -0.11676813662052155,
          0.05260034650564194,
          -0.032232820987701416,
          0.04643278568983078,
          0.10519754141569138,
          -0.04485798999667168,
          0.050273437052965164,
          0.04646811634302139,
          0.05466705933213234,
          -0.10188401490449905,
          0.038089122623205185,
          -0.12425500899553299,
          0.04159293696284294,
          0.014532778412103653,
          -0.06363508850336075,
          0.08009462058544159,
          0.04572693258523941,
          -0.12285763025283813,
          -0.1359129697084427,
          -0.05379350110888481,
          0.10390599071979523,
          0.09922774136066437,
          0.009040502831339836,
          -0.08190452307462692,
          0.044762443751096725,
          0.0969090461730957,
          0.1131628081202507,
          -0.11662741005420685,
          -0.03851880133152008,
          -0.06376275420188904,
          -0.006648094858974218,
          -0.036384664475917816,
          0.06781767308712006,
          -0.024600528180599213,
          -0.11003419756889343,
          -0.010908767580986023,
          -0.08657398819923401,
          -0.039642371237277985,
          0.028800345957279205,
          -0.07459313422441483,
          -0.11651308834552765,
          0.035674598067998886,
          0.01599380560219288,
          0.07755544781684875,
          0.10296681523323059,
          0.030817000195384026,
          -0.0699918270111084,
          -0.04940837621688843,
          -0.023526299744844437,
          0.026567336171865463,
          -0.047166407108306885,
          0.11746586114168167,
          0.04585787653923035,
          -0.09568634629249573,
          0.021995821967720985,
          -0.013247051276266575,
          -0.12039615213871002,
          0.10302315652370453,
          0.004036016296595335
        ],
        [
          0.19502191245555878,
          0.03638163208961487,
          -0.15381993353366852,
          -0.053198665380477905,
          0.042396314442157745,
          0.14564228057861328,
          0.07906640321016312,
          0.02712276577949524,
          -0.07749722898006439,
          0.01937827840447426,
          -0.13136431574821472,
          0.1479688435792923,
          0.12623658776283264,
          0.11856385320425034,
          -0.12382346391677856,
          0.006725706160068512,
          0.08749353885650635,
          -0.13075882196426392,
          -0.005526603665202856,
          -0.03309465944766998,
          -0.011269432492554188,
          -0.0008497377275489271,
          -0.10241355746984482,
          -0.05092659592628479,
          -0.057022567838430405,
          0.05323360860347748,
          0.014126313850283623,
          0.039231106638908386,
          0.016255058348178864,
          -0.15228362381458282,
          -0.0033884167205542326,
          0.03746964782476425,
          0.13852083683013916,
          -0.0247404333204031,
          0.0008502567070536315,
          0.1138501688838005,
          -0.004940532147884369,
          0.06029759719967842,
          -0.059821825474500656,
          -0.012314250692725182,
          -0.03321707993745804,
          0.09115301072597504,
          -0.1339975893497467,
          0.06375129520893097,
          -0.008355705067515373,
          0.0429629385471344,
          -0.04624544084072113,
          -0.006271651480346918,
          0.08577098697423935,
          -0.12132160365581512,
          0.08518059551715851,
          0.07686016708612442,
          0.16956660151481628,
          -0.1266578584909439,
          -0.08874481916427612,
          -0.030714573338627815,
          -0.04589533060789108,
          -0.017412666231393814,
          -0.012815778143703938,
          0.14253664016723633,
          -0.04088091850280762,
          -0.047152407467365265,
          0.03492489829659462,
          -0.04353481903672218
        ],
        [
          -0.3287409245967865,
          -0.028620649129152298,
          0.14939329028129578,
          0.01812853291630745,
          0.04834158346056938,
          0.20299498736858368,
          -0.01890857331454754,
          -0.22760486602783203,
          -0.05355803295969963,
          -0.20229379832744598,
          0.030822928994894028,
          0.0734901875257492,
          0.03962920606136322,
          0.16016052663326263,
          0.033468931913375854,
          0.021467318758368492,
          -0.006268654949963093,
          -0.0069107250310480595,
          0.3027023673057556,
          0.15880842506885529,
          0.18583491444587708,
          -0.2804926931858063,
          0.13774196803569794,
          0.17593297362327576,
          0.05558096617460251,
          0.0394805371761322,
          0.13947129249572754,
          -0.2271634340286255,
          -0.018269963562488556,
          0.12484066933393478,
          -0.08661836385726929,
          0.1167767345905304,
          0.071883425116539,
          0.03552545607089996,
          0.07620823383331299,
          -0.1246635839343071,
          0.10722508281469345,
          0.15423054993152618,
          0.03748500347137451,
          -0.2391914278268814,
          -0.4588693678379059,
          0.07447471469640732,
          0.0857132077217102,
          0.11731894314289093,
          0.07217759639024734,
          -0.05220562219619751,
          0.04368548467755318,
          0.20525585114955902,
          0.04516459256410599,
          0.05317562445998192,
          -0.021589376032352448,
          0.05983024835586548,
          -0.19148790836334229,
          -0.03748554363846779,
          -0.006321796681731939,
          0.07858668267726898,
          0.21235433220863342,
          -0.02319420501589775,
          0.14188475906848907,
          -0.12186523526906967,
          0.0006368349422700703,
          0.11233057826757431,
          0.15166690945625305,
          -0.008901476860046387
        ],
        [
          0.20125159621238708,
          0.10549775511026382,
          -0.30144450068473816,
          0.05257398262619972,
          0.1407920867204666,
          0.22390009462833405,
          0.045216310769319534,
          0.025962255895137787,
          0.11472155153751373,
          0.12797506153583527,
          -0.057446643710136414,
          0.06235729902982712,
          0.15716691315174103,
          0.014764318242669106,
          -0.01419751811772585,
          0.14000247418880463,
          0.14105156064033508,
          0.18397484719753265,
          -0.1453755646944046,
          0.09408815950155258,
          -0.04582104831933975,
          -0.053011368960142136,
          -0.10467985272407532,
          0.006953554227948189,
          -0.016049081459641457,
          -0.04721099138259888,
          0.04144706949591637,
          0.0788360983133316,
          0.13214555382728577,
          0.11626278609037399,
          -0.072768934071064,
          0.006071923300623894,
          -0.08593951910734177,
          -0.05233393609523773,
          0.10659272968769073,
          -0.00033596972934901714,
          0.14637349545955658,
          0.1625218540430069,
          -0.10360047221183777,
          0.12403156608343124,
          -0.09480985999107361,
          -0.04588727653026581,
          0.13970355689525604,
          0.13762050867080688,
          -0.0583517886698246,
          -0.08663200587034225,
          -0.057498473674058914,
          0.09451604634523392,
          -0.06048596277832985,
          -0.2153785228729248,
          -0.004149386193603277,
          -0.013141267001628876,
          0.08020144701004028,
          -0.20479857921600342,
          0.15521372854709625,
          0.03451523557305336,
          -0.13062474131584167,
          -0.0354003980755806,
          -0.09020306915044785,
          -0.10689033567905426,
          0.09948017448186874,
          -0.01981492154300213,
          0.06294438987970352,
          -0.051516685634851456
        ],
        [
          0.041351716965436935,
          0.14288882911205292,
          -0.12670017778873444,
          0.08712225407361984,
          -0.040759094059467316,
          0.010836595669388771,
          0.10375827550888062,
          -0.04960338771343231,
          0.12027999758720398,
          0.12964047491550446,
          0.1067017912864685,
          0.025887610390782356,
          -0.06558770686388016,
          0.000904002517927438,
          0.02809477224946022,
          0.1715894341468811,
          0.026680901646614075,
          0.09958124160766602,
          -0.04439008980989456,
          0.029270684346556664,
          0.07132941484451294,
          0.049780428409576416,
          -0.11354241520166397,
          0.1301019936800003,
          0.08511404693126678,
          0.11748385429382324,
          -0.04816141724586487,
          -0.06613508611917496,
          -0.071623794734478,
          0.0696382001042366,
          0.11328683793544769,
          -0.014031839556992054,
          0.1767084151506424,
          0.15556509792804718,
          0.06858541071414948,
          0.019166430458426476,
          0.15909111499786377,
          0.026395542547106743,
          -0.11285814642906189,
          0.14673566818237305,
          0.09572836756706238,
          -0.030155712738633156,
          0.04476454481482506,
          0.14099909365177155,
          -0.013137811794877052,
          -0.060420382767915726,
          -0.016595710068941116,
          0.007063047029078007,
          0.08280739933252335,
          -0.17846189439296722,
          0.03063015080988407,
          -0.0723230317234993,
          0.15333890914916992,
          -0.15537042915821075,
          -0.017615025863051414,
          0.1422857642173767,
          -0.1807285100221634,
          -0.00022671443002764136,
          0.05388786271214485,
          0.009953002445399761,
          0.030342256650328636,
          -0.09698954224586487,
          -0.01838134415447712,
          0.04949646443128586
        ],
        [
          -0.15557126700878143,
          0.15507647395133972,
          0.10334165394306183,
          0.006741747725754976,
          0.08750995248556137,
          0.07795858383178711,
          -0.00476048095151782,
          -0.12630216777324677,
          0.03507567197084427,
          -0.021185465157032013,
          -0.10897231847047806,
          -0.00032192785874940455,
          0.10048934072256088,
          -0.06739769876003265,
          -0.02939562499523163,
          -0.07738102227449417,
          0.03148626536130905,
          0.07940614968538284,
          0.034164994955062866,
          -0.0070849834010005,
          0.035151731222867966,
          0.02131378836929798,
          -0.07725995779037476,
          0.06468132883310318,
          -0.018122950568795204,
          -0.09469476342201233,
          -0.14296595752239227,
          -0.08868680894374847,
          0.005625078920274973,
          0.06218893826007843,
          0.10364998131990433,
          0.11525849252939224,
          -0.08569901436567307,
          0.1743183583021164,
          0.0669919103384018,
          -0.0645446926355362,
          -0.1160716637969017,
          0.15348076820373535,
          0.0904976949095726,
          -0.09329542517662048,
          0.05764256790280342,
          0.1147550716996193,
          0.15160143375396729,
          0.020015928894281387,
          -0.0475781187415123,
          0.11273469775915146,
          0.10968034714460373,
          0.06834456324577332,
          -0.06391819566488266,
          0.13187307119369507,
          0.0370878130197525,
          0.10775332897901535,
          0.009067801758646965,
          0.14136800169944763,
          0.1594536453485489,
          -0.043518099933862686,
          0.1295028030872345,
          0.09159117937088013,
          -0.133358433842659,
          -0.1542142927646637,
          0.039182208478450775,
          0.14758789539337158,
          0.007940325886011124,
          0.00042947972542606294
        ],
        [
          -0.0637398213148117,
          -0.12549403309822083,
          0.15182308852672577,
          -0.01873631402850151,
          0.12327372282743454,
          0.06794167309999466,
          0.052581943571567535,
          0.06780087202787399,
          -0.06662514805793762,
          -0.03205341845750809,
          0.027333064004778862,
          -0.01806851103901863,
          0.060848720371723175,
          0.09658586978912354,
          0.0022250234615057707,
          0.04935266450047493,
          0.08971744030714035,
          -0.10023465007543564,
          0.0397348552942276,
          0.0359148308634758,
          0.05002188682556152,
          0.09038206934928894,
          0.10959304869174957,
          0.0077865212224423885,
          0.12397894263267517,
          0.11702278256416321,
          0.08994859457015991,
          -0.07670855522155762,
          0.13412615656852722,
          -0.02623390220105648,
          0.028124522417783737,
          -0.03474225848913193,
          -0.0530485138297081,
          -0.17013897001743317,
          0.08131304383277893,
          -0.047362372279167175,
          -0.08661963790655136,
          -0.03668825328350067,
          -0.06568442285060883,
          0.074610635638237,
          -0.18278266489505768,
          0.15287840366363525,
          -0.10754499584436417,
          0.1238868236541748,
          0.04012641683220863,
          -0.05860062688589096,
          -0.007891046814620495,
          -0.01686966046690941,
          0.16053259372711182,
          0.12526671588420868,
          0.031399160623550415,
          0.03368204087018967,
          0.08303643763065338,
          -0.004672805313020945,
          0.05372772365808487,
          -0.027674924582242966,
          0.1256418526172638,
          0.08320914953947067,
          0.1339549720287323,
          0.0076450807973742485,
          -0.1345924437046051,
          0.08277253806591034,
          0.08813973516225815,
          -0.1326887309551239
        ],
        [
          -0.2063140720129013,
          0.12470286339521408,
          -0.02938065677881241,
          -0.13161371648311615,
          0.05929935351014137,
          -0.06061749532818794,
          -0.17734742164611816,
          -0.019374869763851166,
          0.09481728076934814,
          0.17485155165195465,
          -0.07279849797487259,
          -0.2589303255081177,
          0.1898406594991684,
          0.04948870465159416,
          -0.026010816916823387,
          0.08868947625160217,
          0.07073014974594116,
          0.1029113307595253,
          0.11626952886581421,
          0.013589381240308285,
          -0.03508297726511955,
          0.0602571964263916,
          0.1142851710319519,
          -0.1228104755282402,
          0.1974828541278839,
          0.07593420147895813,
          -0.104892797768116,
          -0.010707390494644642,
          -0.041041191667318344,
          0.16038620471954346,
          0.09085646271705627,
          0.050745733082294464,
          -0.085990771651268,
          0.05479131639003754,
          0.055330727249383926,
          -0.04341834411025047,
          0.0903393104672432,
          -0.11204282939434052,
          0.03421776741743088,
          -0.17240509390830994,
          0.03211043402552605,
          -0.10914326459169388,
          0.13417673110961914,
          0.07666037976741791,
          -0.11875119805335999,
          0.1714913547039032,
          -0.045223791152238846,
          0.18527646362781525,
          0.057292915880680084,
          0.03011131100356579,
          -0.020496860146522522,
          0.0463167205452919,
          0.12242639064788818,
          0.19549782574176788,
          -0.1023237556219101,
          -0.08280080556869507,
          0.1699993908405304,
          -0.02783063054084778,
          -0.004500535782426596,
          -0.0034599758218973875,
          0.140834242105484,
          0.01938805729150772,
          -0.0021965480409562588,
          -0.019947810098528862
        ],
        [
          -0.014997811056673527,
          -0.12175356596708298,
          0.1535845845937729,
          -0.02636384777724743,
          -0.10631434619426727,
          -0.16812735795974731,
          0.18469220399856567,
          0.08942533284425735,
          0.011674683541059494,
          0.06047443673014641,
          -0.04267319291830063,
          0.0443594716489315,
          0.0014038365334272385,
          0.1752775013446808,
          0.032576143741607666,
          0.04682502895593643,
          -0.12491145730018616,
          0.02986832521855831,
          0.02626107819378376,
          -0.054881222546100616,
          0.009684495627880096,
          0.13805033266544342,
          0.06154198944568634,
          -0.08125241845846176,
          0.04754721745848656,
          0.15229502320289612,
          0.13046368956565857,
          0.017685186117887497,
          0.05335322022438049,
          0.05346987023949623,
          0.06520320475101471,
          -0.16650709509849548,
          -0.07712385803461075,
          0.0865267887711525,
          0.02397879958152771,
          -0.08607611805200577,
          -0.006631188560277224,
          0.010763918049633503,
          -0.10709450393915176,
          -0.0025235298089683056,
          -0.05400495231151581,
          -0.02310437336564064,
          0.10969234257936478,
          0.07376538962125778,
          0.01605267822742462,
          -0.08901125937700272,
          0.039510782808065414,
          -0.014467783272266388,
          0.014568035490810871,
          0.08393348753452301,
          -0.09921084344387054,
          -0.04841781035065651,
          0.14736999571323395,
          -0.05182322487235069,
          0.005963564850389957,
          -0.006254162173718214,
          0.0725167840719223,
          -0.0473373606801033,
          0.14570403099060059,
          0.12211447209119797,
          0.029769061133265495,
          0.014810591004788876,
          -0.0026279701851308346,
          0.11218729615211487
        ],
        [
          0.14511677622795105,
          -0.0787779837846756,
          0.04054700955748558,
          -0.05895569920539856,
          -0.0643744170665741,
          0.0584297738969326,
          0.014126093126833439,
          0.12724339962005615,
          0.057066332548856735,
          -0.011835005134344101,
          0.061777543276548386,
          0.18571095168590546,
          0.1062072366476059,
          0.18284928798675537,
          -0.03798844665288925,
          0.08904910832643509,
          0.003656722605228424,
          0.08280369639396667,
          0.17663392424583435,
          0.16289539635181427,
          -0.07865830510854721,
          0.11039324849843979,
          -0.016513638198375702,
          -0.036641061305999756,
          0.0956711545586586,
          0.035039350390434265,
          -0.02729692868888378,
          0.15399892628192902,
          0.0738917738199234,
          0.05478418990969658,
          -0.023613687604665756,
          0.024047311395406723,
          0.10308713465929031,
          0.021081961691379547,
          -0.14131958782672882,
          0.00733899837359786,
          -0.0038941805250942707,
          -0.14548955857753754,
          0.15277478098869324,
          0.00648478651419282,
          0.06295916438102722,
          0.03550189733505249,
          -0.03209548071026802,
          -0.0261330958455801,
          -0.006164227612316608,
          0.071589894592762,
          -0.01506788283586502,
          -0.09870387613773346,
          0.15963402390480042,
          0.046695172786712646,
          0.04665990173816681,
          -0.0659671351313591,
          -0.0379079170525074,
          0.028484078124165535,
          -0.1565992832183838,
          0.18122166395187378,
          0.05255049839615822,
          0.14713437855243683,
          -0.03643953055143356,
          0.18652671575546265,
          -0.034570466727018356,
          -0.1421959102153778,
          0.12586885690689087,
          -0.010760028846561909
        ],
        [
          0.09680824726819992,
          -0.08553693443536758,
          -0.05055466294288635,
          -0.0034337760880589485,
          -0.02315095253288746,
          0.04077932611107826,
          0.09161089360713959,
          -0.0366106741130352,
          -0.08522764593362808,
          -0.11707355082035065,
          -0.09890203922986984,
          0.07714591175317764,
          0.07929853349924088,
          0.025428373366594315,
          0.10607326030731201,
          -0.11903087794780731,
          -0.03541945666074753,
          0.045997150242328644,
          0.1368137001991272,
          0.10545356571674347,
          0.04516657069325447,
          0.05654146522283554,
          0.04218932241201401,
          -0.11267200857400894,
          0.02152288146317005,
          0.027228429913520813,
          -0.07007905840873718,
          -0.05351219326257706,
          0.027960099279880524,
          -0.11081656813621521,
          -0.1363328993320465,
          0.07189486920833588,
          -0.09328930079936981,
          -0.02342088893055916,
          -0.13612955808639526,
          0.06898143887519836,
          0.070704884827137,
          -0.06295184791088104,
          -0.13820777833461761,
          -0.051714684814214706,
          -0.11719775944948196,
          0.04462125152349472,
          0.007784955203533173,
          0.06778684258460999,
          0.11254911124706268,
          -0.06516256183385849,
          -0.11375819891691208,
          -0.0013432814739644527,
          0.11578509956598282,
          0.0444924533367157,
          0.03519696742296219,
          -0.11841791123151779,
          -0.011532037518918514,
          0.09466737508773804,
          0.09095665067434311,
          -0.022980641573667526,
          0.026790352538228035,
          -0.10252910107374191,
          0.08430386334657669,
          -0.0843440517783165,
          -0.08735964447259903,
          -0.13746364414691925,
          0.11357539147138596,
          0.07639382034540176
        ],
        [
          -0.20082524418830872,
          -0.02131938934326172,
          0.014844241552054882,
          0.018091557547450066,
          0.10409962385892868,
          0.025035466998815536,
          -0.0376855805516243,
          0.05602153018116951,
          -0.000690072716679424,
          -0.25858718156814575,
          -0.12013302743434906,
          -0.3731536567211151,
          -0.20571047067642212,
          -0.13527421653270721,
          -0.08724670112133026,
          -0.1001039370894432,
          -0.09030433744192123,
          -0.187445729970932,
          0.027236633002758026,
          -0.11276267468929291,
          0.21111853420734406,
          -0.023099131882190704,
          0.12308875471353531,
          0.015161690302193165,
          0.06590519845485687,
          -0.17911818623542786,
          -0.22423605620861053,
          -0.10863906890153885,
          -0.16448232531547546,
          -0.04031948372721672,
          0.09370818734169006,
          -0.1780432015657425,
          -0.23256146907806396,
          -0.06909942626953125,
          0.10956144332885742,
          0.01932872273027897,
          -0.10410391539335251,
          0.14707103371620178,
          0.19144032895565033,
          -0.00911613367497921,
          -0.05893908068537712,
          0.15801529586315155,
          -0.10022223740816116,
          0.07998233288526535,
          -0.19460482895374298,
          0.08334004878997803,
          0.05144611373543739,
          0.16551190614700317,
          0.010033424943685532,
          0.14538703858852386,
          -0.108522929251194,
          0.0024909935891628265,
          -0.07760240137577057,
          0.2069823443889618,
          0.06509828567504883,
          0.08400596678256989,
          0.052080344408750534,
          0.006013772916048765,
          0.06706738471984863,
          -0.2824081480503082,
          -0.025578906759619713,
          -0.0008542172145098448,
          0.016738945618271828,
          -0.17705313861370087
        ],
        [
          -0.007501279003918171,
          -0.03230474889278412,
          0.12155686318874359,
          -0.02635468915104866,
          -0.10285530984401703,
          -0.03896535187959671,
          -0.044838521629571915,
          -0.042734451591968536,
          -0.02115422859787941,
          0.05533833056688309,
          0.05264360085129738,
          0.08340641111135483,
          -0.029287809506058693,
          -0.016498198732733727,
          0.1411963403224945,
          0.10243750363588333,
          0.04121522605419159,
          0.09466086328029633,
          -0.02061564289033413,
          0.07068474590778351,
          -0.10239837318658829,
          -0.0056778863072395325,
          -0.12211637943983078,
          0.04488014802336693,
          -0.0667877048254013,
          0.15464450418949127,
          0.12563329935073853,
          0.0364481583237648,
          0.17110948264598846,
          0.14515773952007294,
          0.0015470074722543359,
          0.13491302728652954,
          0.1507941484451294,
          0.0020955556537956,
          0.05688997358083725,
          -0.025662649422883987,
          0.13733051717281342,
          -0.07827184349298477,
          -0.028095651417970657,
          0.09034287184476852,
          -0.08089007437229156,
          0.013661087490618229,
          0.04505670815706253,
          0.11656836420297623,
          0.10548499971628189,
          -0.062080226838588715,
          -0.06926924735307693,
          -0.12278593331575394,
          0.13041971623897552,
          0.10734143853187561,
          0.07488531619310379,
          0.11092641204595566,
          0.0410400927066803,
          -0.10072213411331177,
          0.1019953116774559,
          0.081200510263443,
          0.02063000574707985,
          0.029768770560622215,
          0.06803060322999954,
          0.03353556990623474,
          -0.031121471896767616,
          -0.02366524189710617,
          0.04341679438948631,
          0.1415291130542755
        ],
        [
          0.1220359057188034,
          -0.012110932730138302,
          -0.04585381597280502,
          0.019258666783571243,
          -0.014178082346916199,
          0.0007048070547170937,
          -0.1258154660463333,
          0.12535390257835388,
          0.07740272581577301,
          0.05935986340045929,
          0.04544305056333542,
          0.20769235491752625,
          0.0447746105492115,
          -0.14168065786361694,
          0.07207472622394562,
          0.13833433389663696,
          0.1314454972743988,
          0.03938119485974312,
          -0.2099035233259201,
          0.09134283661842346,
          0.04247193783521652,
          0.11825692653656006,
          -0.17803966999053955,
          -0.10101059079170227,
          -0.08341993391513824,
          0.04668968543410301,
          0.0925750732421875,
          -0.04754626750946045,
          0.02561330422759056,
          0.13038063049316406,
          0.047016482800245285,
          -0.057545822113752365,
          -0.018774697557091713,
          0.04019365459680557,
          0.1437688171863556,
          -0.012332693673670292,
          0.11902450770139694,
          0.1472146213054657,
          -0.054331060498952866,
          0.1443461775779724,
          0.0586080439388752,
          -0.06800878047943115,
          -0.003570403903722763,
          0.012796537950634956,
          0.1822127401828766,
          0.09237220138311386,
          -0.1047133132815361,
          0.08095307648181915,
          0.04629712179303169,
          -0.0024998439475893974,
          0.07108865678310394,
          0.10672295838594437,
          0.18414318561553955,
          0.07330616563558578,
          0.07052131742238998,
          0.051701802760362625,
          -0.008199688978493214,
          0.034427154809236526,
          -0.23364627361297607,
          -0.06840232759714127,
          0.018649160861968994,
          -0.04369771480560303,
          -0.05428139120340347,
          0.07850893586874008
        ],
        [
          -0.15503530204296112,
          0.051594026386737823,
          0.04932849109172821,
          -0.006032930221408606,
          0.011266839690506458,
          -0.08913400769233704,
          -0.18475663661956787,
          -0.06477183103561401,
          0.13712704181671143,
          0.18565203249454498,
          -0.07920604944229126,
          -0.17198552191257477,
          -0.07198961824178696,
          0.11012443900108337,
          -0.03237137943506241,
          0.048601385205984116,
          -0.0412474162876606,
          -0.06324362754821777,
          0.0031802253797650337,
          0.05716058611869812,
          0.04470372572541237,
          0.136823832988739,
          0.013908571563661098,
          -0.03753240033984184,
          -0.03401700407266617,
          -0.023209592327475548,
          -0.034506119787693024,
          0.07229052484035492,
          0.053220655769109726,
          0.06046918034553528,
          -0.0027767103165388107,
          -0.03494952991604805,
          -0.03610067069530487,
          0.14626544713974,
          -0.0872005820274353,
          -0.15224158763885498,
          0.037960391491651535,
          0.02825378067791462,
          -0.046924203634262085,
          -0.01970575749874115,
          0.10589952021837234,
          -0.07966248691082001,
          0.010390391573309898,
          -0.14335058629512787,
          -0.012388074770569801,
          0.08522169291973114,
          0.1050456166267395,
          0.029186366125941277,
          -0.05009085685014725,
          -0.02368423342704773,
          0.06715322285890579,
          -0.00019384663028176874,
          0.15744231641292572,
          0.1814928948879242,
          0.036386169493198395,
          -0.14113803207874298,
          -0.05399471893906593,
          0.05789222940802574,
          -0.09159985929727554,
          0.18865425884723663,
          -0.08557210117578506,
          -0.16619348526000977,
          -0.03469618037343025,
          -0.05654451996088028
        ],
        [
          0.022273557260632515,
          0.06314896792173386,
          0.01784246228635311,
          0.03968400880694389,
          0.0428791306912899,
          -0.06763846427202225,
          -0.07270270586013794,
          -0.038635317236185074,
          -0.003864696715027094,
          0.04373868927359581,
          0.13690367341041565,
          0.15091434121131897,
          -0.010913585312664509,
          0.14109490811824799,
          0.10806266963481903,
          0.041539572179317474,
          -0.07117968052625656,
          0.0002623794716782868,
          0.15376873314380646,
          -0.009933422319591045,
          -0.044349636882543564,
          0.0589510016143322,
          0.03876833990216255,
          -0.047846999019384384,
          0.037881042808294296,
          0.009264333173632622,
          -0.014865554869174957,
          -0.017717842012643814,
          0.1745055615901947,
          -0.04092240333557129,
          -0.14246012270450592,
          -0.07239723950624466,
          -0.10274507850408554,
          0.011956337839365005,
          -0.08057165890932083,
          0.06654515117406845,
          -0.012906813994050026,
          -0.10272494703531265,
          0.01548813283443451,
          0.10569071769714355,
          0.16245891153812408,
          -0.08171693980693817,
          0.18963053822517395,
          -0.07047092169523239,
          -0.05562281981110573,
          0.14735011756420135,
          0.15618786215782166,
          0.037482596933841705,
          0.07863137125968933,
          0.005984679330140352,
          0.037703100591897964,
          -0.020941656082868576,
          0.061626236885786057,
          0.14258910715579987,
          0.04307672381401062,
          0.042413704097270966,
          -0.02391987107694149,
          0.09775751829147339,
          -0.07729201018810272,
          0.17371337115764618,
          0.04871218279004097,
          -0.20797193050384521,
          0.00982617400586605,
          -0.042563892900943756
        ],
        [
          0.0050812880508601665,
          -0.03629210218787193,
          0.02776915207505226,
          0.16920889914035797,
          -0.15442919731140137,
          0.1358930915594101,
          -0.023140298202633858,
          0.10170228034257889,
          0.05343210697174072,
          0.12025118619203568,
          0.061095889657735825,
          -0.04730318486690521,
          0.06250517070293427,
          -0.0016189835732802749,
          -0.13064005970954895,
          -0.0020345929078757763,
          0.03467395156621933,
          -0.17235514521598816,
          -0.1805134117603302,
          -0.04045717045664787,
          -0.07194048166275024,
          -0.024963079020380974,
          0.030059773474931717,
          0.005375794600695372,
          -0.0572022944688797,
          -0.12815293669700623,
          0.014735439792275429,
          -0.03329462558031082,
          0.0727982446551323,
          -0.04706159979104996,
          -0.024580979719758034,
          -0.14905105531215668,
          0.10104329138994217,
          0.0012205851962789893,
          0.1367371678352356,
          -0.07936453819274902,
          -0.024660399183630943,
          -0.12700480222702026,
          0.005722881760448217,
          0.10316623002290726,
          -0.10116098076105118,
          0.1387287974357605,
          -0.006051097065210342,
          -0.05629870668053627,
          -0.057378560304641724,
          -0.03272094577550888,
          -0.14285925030708313,
          0.0004819543391931802,
          0.12319143861532211,
          -0.12088747322559357,
          0.007469862699508667,
          -0.0315425731241703,
          0.1340498924255371,
          -0.15521837770938873,
          -0.0706346333026886,
          0.15247699618339539,
          0.007395856082439423,
          0.171356201171875,
          -0.020843716338276863,
          0.12688595056533813,
          -0.1570589393377304,
          0.018035832792520523,
          -0.018068697303533554,
          -0.12728607654571533
        ],
        [
          0.11737068742513657,
          -0.015638692304491997,
          0.00728687085211277,
          0.06944055110216141,
          0.08551900088787079,
          0.09482970833778381,
          -0.1054498553276062,
          0.15389932692050934,
          -0.22313109040260315,
          -0.06298213452100754,
          -0.11450666934251785,
          0.0731293112039566,
          -0.0670807734131813,
          -0.11535358428955078,
          -0.07553676515817642,
          0.1174062043428421,
          0.12019509077072144,
          -0.15424515306949615,
          0.176369309425354,
          -0.09574944525957108,
          -0.020112916827201843,
          0.05253046005964279,
          -0.01007906161248684,
          0.05970769375562668,
          0.025855951011180878,
          -0.1281869113445282,
          0.009461167268455029,
          -0.052284128963947296,
          -0.018330726772546768,
          -0.04021948203444481,
          0.13402076065540314,
          -0.17172369360923767,
          0.03472621738910675,
          -0.1575891226530075,
          0.09725533425807953,
          0.08587027341127396,
          -0.11096997559070587,
          0.02014766074717045,
          0.05419625714421272,
          0.15138457715511322,
          -0.061504632234573364,
          0.0972706750035286,
          -0.22018516063690186,
          0.0011226689675822854,
          -0.0035400446504354477,
          0.013576210476458073,
          0.03357376158237457,
          0.19955560564994812,
          0.019376277923583984,
          0.06130373105406761,
          0.15924301743507385,
          0.058633748441934586,
          0.011243433691561222,
          0.16340743005275726,
          0.13491930067539215,
          0.06588071584701538,
          0.06832701712846756,
          0.14480780065059662,
          0.018508456647396088,
          0.03549719229340553,
          -0.1551121175289154,
          0.01769140362739563,
          -0.002436630893498659,
          -0.11346090584993362
        ],
        [
          -0.28742143511772156,
          0.07491359859704971,
          0.12373759597539902,
          0.0020499764941632748,
          0.02255355939269066,
          0.11302691698074341,
          -0.03157363459467888,
          -0.09219295531511307,
          -0.07065767794847488,
          0.05193619802594185,
          0.006398829165846109,
          0.04305366799235344,
          0.01614081673324108,
          0.1585468202829361,
          0.025993376970291138,
          -0.20298495888710022,
          -0.026543203741312027,
          0.06927404552698135,
          0.16468580067157745,
          -0.05641426518559456,
          0.08053843677043915,
          -0.002704629674553871,
          0.057216670364141464,
          -0.0457928404211998,
          -0.03942764177918434,
          0.08822722733020782,
          0.15826663374900818,
          -0.062243469059467316,
          0.09176366031169891,
          -0.082766093313694,
          0.11372978985309601,
          -0.006800498813390732,
          -0.1525128036737442,
          -0.14309899508953094,
          -0.07000526785850525,
          0.020307501778006554,
          0.09732070565223694,
          -0.0057132956571877,
          0.18603534996509552,
          -0.23308278620243073,
          -0.021516116335988045,
          0.1436990350484848,
          0.01217960100620985,
          -0.016843663528561592,
          0.014655577950179577,
          0.11689296364784241,
          0.08578316867351532,
          0.08958703279495239,
          0.06993340700864792,
          -0.028744572773575783,
          -0.184632807970047,
          0.06297748535871506,
          0.09769833087921143,
          -0.017510809004306793,
          0.10073815286159515,
          0.10327454656362534,
          0.1622360348701477,
          -0.010343818925321102,
          0.03391117602586746,
          0.18862700462341309,
          0.0017034925986081362,
          0.10610158741474152,
          0.011730048805475235,
          0.02866879664361477
        ],
        [
          -0.05609345808625221,
          0.14397482573986053,
          0.11613381654024124,
          0.03727559372782707,
          0.003788112895563245,
          -0.17452575266361237,
          -0.024335501715540886,
          -0.08253611624240875,
          0.0840674415230751,
          -0.0269528329372406,
          0.12399308383464813,
          0.15224193036556244,
          0.046423304826021194,
          0.11995574086904526,
          0.09108347445726395,
          -0.06094895303249359,
          0.17202378809452057,
          -0.02269109897315502,
          0.017328795045614243,
          0.06605493277311325,
          0.12410038709640503,
          0.025516264140605927,
          0.02762051858007908,
          -0.12435593456029892,
          0.07553647458553314,
          0.17009779810905457,
          0.042232293635606766,
          0.06743445992469788,
          0.12067297846078873,
          0.03933872655034065,
          -0.07005252689123154,
          0.11698982119560242,
          -0.016853436827659607,
          -0.014383955858647823,
          0.05118212476372719,
          0.00039343370008282363,
          0.00910673663020134,
          0.038642413914203644,
          0.1555372029542923,
          -0.06071479618549347,
          0.16091687977313995,
          -0.10989543050527573,
          0.03484414890408516,
          -0.18414953351020813,
          0.09571822732686996,
          0.10014499723911285,
          0.006879104301333427,
          -0.003723644185811281,
          -0.05035864934325218,
          0.005646605044603348,
          0.0731913298368454,
          -0.07981085032224655,
          0.15645818412303925,
          -0.003978980239480734,
          -0.06053717061877251,
          -0.0972605049610138,
          0.15414036810398102,
          -0.007023352198302746,
          -0.02956986241042614,
          0.12895990908145905,
          0.02431938797235489,
          -0.02085280232131481,
          0.12268871814012527,
          0.10174792259931564
        ],
        [
          0.060191333293914795,
          0.17779240012168884,
          0.048749614506959915,
          0.04933428019285202,
          0.0035802526399493217,
          -0.12188057601451874,
          0.1086917519569397,
          -0.273375540971756,
          0.028152449056506157,
          -0.011252296157181263,
          0.03618965670466423,
          0.04553637653589249,
          -0.10364601761102676,
          0.03761208802461624,
          0.010344384238123894,
          -0.16516998410224915,
          -0.0016658734530210495,
          0.03148559108376503,
          0.18922540545463562,
          -0.02820267342031002,
          0.024752171710133553,
          0.09670118987560272,
          -0.012230504304170609,
          -0.07013723254203796,
          0.08431928604841232,
          -0.019202282652258873,
          0.13798369467258453,
          0.04391154646873474,
          -0.024356551468372345,
          -0.031606145203113556,
          -0.04051852971315384,
          0.15960052609443665,
          -0.2055281698703766,
          0.1451261341571808,
          -0.14577609300613403,
          -0.018303707242012024,
          0.13995277881622314,
          -0.14971332252025604,
          -0.016127560287714005,
          0.0446724109351635,
          0.12807929515838623,
          -0.07753537595272064,
          0.08196555078029633,
          -0.20731109380722046,
          -0.018817370757460594,
          0.1270517259836197,
          0.14582274854183197,
          -0.1870599091053009,
          0.04347952827811241,
          0.06997241079807281,
          0.12713098526000977,
          -0.014320312067866325,
          -0.0007064972305670381,
          -0.04393698647618294,
          -0.01920432038605213,
          0.04859369993209839,
          0.16671226918697357,
          0.0398593433201313,
          0.11285600066184998,
          0.13715049624443054,
          -0.07386753708124161,
          -0.2202048897743225,
          0.07581505179405212,
          -0.04971746727824211
        ],
        [
          0.17534728348255157,
          0.08175831288099289,
          0.03732576221227646,
          -0.008744669146835804,
          0.05113527178764343,
          0.19383464753627777,
          0.03527709096670151,
          0.05048776790499687,
          0.1531042903661728,
          0.01974552869796753,
          -0.028212549164891243,
          -0.0202142633497715,
          0.12750832736492157,
          -0.18788816034793854,
          0.10166841745376587,
          0.03285349905490875,
          0.1459125280380249,
          -0.06019499525427818,
          -0.03088933229446411,
          -0.05871487781405449,
          -0.04886184260249138,
          -0.06402559578418732,
          0.08253048360347748,
          0.1528318226337433,
          0.036379020661115646,
