{
  "benchmark_id": "L3",
  "series": "L",
  "architecture": "L3Net",
  "timesteps": 30,
  "precision": {
    "weight_bits": 4,
    "signed": true
  },
  "layers": [
    {
      "name": "fc1",
      "type": "linear",
      "in_features": 4,
      "out_features": 48,
      "weights": [
        [
          0.5811102986335754,
          1.293554425239563,
          -0.1153569146990776,
          -0.35122236609458923
        ],
        [
          -2.4810314178466797,
          1.8356983661651611,
          -3.1704492568969727,
          0.33186060190200806
        ],
        [
          -0.5715728998184204,
          1.755528450012207,
          -2.3576693534851074,
          0.7044668793678284
        ],
        [
          1.0112797021865845,
          -0.5831472873687744,
          0.8842920660972595,
          -0.12143596261739731
        ],
        [
          0.9832293391227722,
          0.36648795008659363,
          1.156100869178772,
          -0.5376969575881958
        ],
        [
          -0.9535284638404846,
          -0.6837641596794128,
          -0.19389504194259644,
          0.24289920926094055
        ],
        [
          0.17453768849372864,
          -0.5947443842887878,
          -0.7617329359054565,
          0.060433145612478256
        ],
        [
          1.1688075065612793,
          -0.8647094964981079,
          0.29490387439727783,
          -0.1476156860589981
        ],
        [
          -2.4242420196533203,
          -0.36950865387916565,
          -2.6238324642181396,
          0.1619787961244583
        ],
        [
          0.4713054597377777,
          -1.8707343339920044,
          -0.11588642001152039,
          -0.2710983157157898
        ],
        [
          1.021730899810791,
          1.9482864141464233,
          2.2345168590545654,
          -2.0214054584503174
        ],
        [
          0.9776462316513062,
          -2.3298282623291016,
          2.625929117202759,
          -2.2010409832000732
        ],
        [
          0.3021327257156372,
          -1.1467056274414062,
          -2.348032236099243,
          0.1854146420955658
        ],
        [
          0.03661184757947922,
          -0.8369035124778748,
          -3.47467303276062,
          1.08296537399292
        ],
        [
          2.2757041454315186,
          -4.383011817932129,
          2.073246955871582,
          -4.071000099182129
        ],
        [
          -1.1396937370300293,
          2.223212242126465,
          -0.7749855518341064,
          -0.01268631312996149
        ],
        [
          -1.1443899869918823,
          0.6159844994544983,
          -2.394953489303589,
          0.575654923915863
        ],
        [
          -1.3015475273132324,
          1.0297993421554565,
          0.3557627201080322,
          -0.09032996743917465
        ],
        [
          -0.5077321529388428,
          1.4112553596496582,
          -1.857363224029541,
          0.056635141372680664
        ],
        [
          0.2675274908542633,
          -3.270625352859497,
          0.03179407864809036,
          -2.7588319778442383
        ],
        [
          1.3687236309051514,
          -1.1847857236862183,
          -0.917679488658905,
          0.830704927444458
        ],
        [
          -0.42712223529815674,
          0.2639014422893524,
          -0.1957234889268875,
          0.198897585272789
        ],
        [
          0.17322762310504913,
          0.2780318558216095,
          1.0156371593475342,
          0.42655184864997864
        ],
        [
          0.621138870716095,
          -1.1794945001602173,
          0.6369087100028992,
          -0.897826075553894
        ],
        [
          -1.1220166683197021,
          0.3629346489906311,
          -2.0797126293182373,
          0.6019429564476013
        ],
        [
          0.01084457989782095,
          1.3841522932052612,
          -1.3371368646621704,
          0.1852514147758484
        ],
        [
          0.19163009524345398,
          0.4528581500053406,
          -2.4435579776763916,
          1.2023892402648926
        ],
        [
          1.0337215662002563,
          0.3666045665740967,
          1.1967418193817139,
          -0.59317547082901
        ],
        [
          -5.822198390960693,
          -1.463541030883789,
          3.301396608352661,
          1.233748435974121
        ],
        [
          -1.7743796110153198,
          -1.9601777791976929,
          -0.44255760312080383,
          -0.029610173776745796
        ],
        [
          0.1012149378657341,
          -2.83683180809021,
          -3.815680980682373,
          -1.240991234779358
        ],
        [
          -0.76200270652771,
          1.1333234310150146,
          -1.697120189666748,
          -0.45176589488983154
        ],
        [
          -2.4930431842803955,
          0.5655396580696106,
          -0.7921273112297058,
          0.44154104590415955
        ],
        [
          -1.9320639371871948,
          1.0951358079910278,
          -0.3396691679954529,
          -0.14229938387870789
        ],
        [
          0.8322457671165466,
          -0.607658863067627,
          1.1652852296829224,
          -1.2029565572738647
        ],
        [
          0.7523021101951599,
          0.6921951770782471,
          0.41908785700798035,
          -0.9423982501029968
        ],
        [
          0.18789106607437134,
          -0.5865277647972107,
          -0.7938372492790222,
          0.053767818957567215
        ],
        [
          -0.11142916232347488,
          0.33257389068603516,
          0.33104121685028076,
          0.24612043797969818
        ],
        [
          0.39537256956100464,
          -0.11258218437433243,
          1.3701045513153076,
          -0.718381404876709
        ],
        [
          -4.967048645019531,
          -1.5455633401870728,
          3.0653140544891357,
          1.917675256729126
        ],
        [
          -1.1728127002716064,
          0.6772458553314209,
          0.15989643335342407,
          0.04835565388202667
        ],
        [
          -0.016478151082992554,
          -1.982043743133545,
          1.5072218179702759,
          -1.114664912223816
        ],
        [
          -0.8390714526176453,
          1.323997139930725,
          -1.6505331993103027,
          -0.4759591817855835
        ],
        [
          0.6334663033485413,
          -1.177528738975525,
          0.6300739645957947,
          -0.9087550640106201
        ],
        [
          -2.3100156784057617,
          1.1171162128448486,
          -1.9610462188720703,
          1.0563467741012573
        ],
        [
          0.9393125176429749,
          -1.283398985862732,
          4.0781660079956055,
          -2.432701587677002
        ],
        [
          0.04332093894481659,
          0.25264668464660645,
          -1.4733940362930298,
          0.6634998321533203
        ],
        [
          1.0330134630203247,
          -1.6691277027130127,
          -0.11333439499139786,
          -0.4293600618839264
        ]
      ],
      "bias": null
    },
    {
      "name": "fc2",
      "type": "linear",
      "in_features": 48,
      "out_features": 5,
      "weights": [
        [
          -0.4242376983165741,
          -2.10817813873291,
          -0.6523723006248474,
          0.7433905005455017,
          -0.6545199155807495,
          1.1994690895080566,
          2.2998368740081787,
          1.3863840103149414,
          3.105346918106079,
          0.7596570253372192,
          -0.5244123339653015,
          -3.548091411590576,
          -1.625994086265564,
          -2.6182563304901123,
          -4.654475688934326,
          1.3104223012924194,
          2.4137558937072754,
          -0.42425233125686646,
          -0.631725549697876,
          -3.0824482440948486,
          -1.7863816022872925,
          -4.286492347717285,
          -0.1729172021150589,
          -1.1611342430114746,
          2.10532808303833,
          4.37930965423584,
          -1.7607625722885132,
          -0.39986371994018555,
          -2.460195541381836,
          2.4154388904571533,
          2.701843738555908,
          -0.6162521243095398,
          1.8651043176651,
          2.0201008319854736,
          -1.0159149169921875,
          3.0325686931610107,
          2.0904340744018555,
          2.7195496559143066,
          3.4366953372955322,
          -3.693692445755005,
          3.0728986263275146,
          -0.8346381783485413,
          -0.4398023784160614,
          -0.6035656929016113,
          -0.3384353220462799,
          3.197659969329834,
          0.28943315148353577,
          2.7635560035705566
        ],
        [
          2.5766305923461914,
          4.296078205108643,
          -4.9338836669921875,
          0.9699960947036743,
          2.8581323623657227,
          -1.7931642532348633,
          -1.9739322662353516,
          1.5412970781326294,
          -2.6706483364105225,
          1.5266952514648438,
          0.09557288885116577,
          -1.4868628978729248,
          3.4679605960845947,
          0.24543926119804382,
          -0.3352331221103668,
          2.7544102668762207,
          -2.8664345741271973,
          2.9854156970977783,
          3.782646894454956,
          -1.2352436780929565,
          -1.6962289810180664,
          -6.293483734130859,
          -3.6304056644439697,
          -0.2603267729282379,
          -1.4480206966400146,
          -2.736453056335449,
          2.5298025608062744,
          2.254197359085083,
          -2.258417844772339,
          2.813735246658325,
          1.8673096895217896,
          0.33204060792922974,
          1.3924617767333984,
          -1.4852147102355957,
          1.4858739376068115,
          -1.6944783926010132,
          -2.3878934383392334,
          -6.114020347595215,
          -1.071344017982483,
          0.8107013702392578,
          0.20475436747074127,
          0.21720825135707855,
          -0.5603995323181152,
          -0.04441678524017334,
          -3.472529411315918,
          -2.9027881622314453,
          -4.072694301605225,
          0.7356435656547546
        ],
        [
          -2.755174398422241,
          -0.8398925065994263,
          2.939816951751709,
          -3.0716259479522705,
          1.2587581872940063,
          1.5728442668914795,
          3.3808956146240234,
          -1.7468619346618652,
          0.35018712282180786,
          0.7734313011169434,
          -2.4094650745391846,
          1.1292076110839844,
          -5.053581714630127,
          3.8032360076904297,
          1.6048604249954224,
          -2.93100643157959,
          -2.5782296657562256,
          -0.3249225616455078,
          0.6548381447792053,
          1.3455904722213745,
          2.8090827465057373,
          10.81173324584961,
          3.1902270317077637,
          2.1641759872436523,
          -2.843052387237549,
          -0.8682515025138855,
          -4.115274906158447,
          0.5045602917671204,
          -0.5169851779937744,
          0.33943215012550354,
          -3.59678316116333,
          1.9477514028549194,
          -1.0476938486099243,
          0.47379717230796814,
          0.7600981593132019,
          0.5610721707344055,
          3.84100079536438,
          1.6039365530014038,
          1.235112190246582,
          1.2250463962554932,
          -0.8254199028015137,
          -3.724674701690674,
          3.482527494430542,
          2.458181858062744,
          2.141693592071533,
          -0.8647152781486511,
          1.2109853029251099,
          -1.4828895330429077
        ],
        [
          1.4375512599945068,
          -1.6180235147476196,
          1.506250262260437,
          0.29861581325531006,
          -3.726088047027588,
          -1.4399960041046143,
          -7.3853325843811035,
          -0.16483712196350098,
          -0.21910534799098969,
          -4.380894660949707,
          3.1609995365142822,
          1.1319445371627808,
          5.505828857421875,
          -1.754602313041687,
          1.285460352897644,
          -1.7149447202682495,
          2.7450056076049805,
          -2.593721628189087,
          -3.3085341453552246,
          1.3615987300872803,
          -1.8382854461669922,
          -8.072159767150879,
          -0.022740961983799934,
          -0.6585890650749207,
          3.103410005569458,
          -2.258906841278076,
          2.7707972526550293,
          -2.49859881401062,
          5.206139087677002,
          -4.442847728729248,
          0.13162218034267426,
          -1.314818263053894,
          -2.1601388454437256,
          -1.6801681518554688,
          -0.7596715688705444,
          0.7505543231964111,
          -7.224095344543457,
          1.660499930381775,
          -1.8528544902801514,
          2.4910686016082764,
          -3.8026411533355713,
          4.480937957763672,
          -1.6254826784133911,
          -0.6615601181983948,
          0.6202760338783264,
          1.4227197170257568,
          0.13012517988681793,
          -0.7908896207809448
        ],
        [
          -3.8941895961761475,
          -3.0495593547821045,
          -6.5603346824646,
          -4.997482776641846,
          -4.049979209899902,
          -1.9160435199737549,
          -3.252042531967163,
          -5.133534908294678,
          -5.397922039031982,
          -4.0900702476501465,
          -4.141272068023682,
          -3.287033796310425,
          -5.76804256439209,
          -2.0450315475463867,
          -2.7499704360961914,
          -11.342985153198242,
          -2.9212241172790527,
          -2.253239154815674,
          -2.0709269046783447,
          -3.2499282360076904,
          -3.5801520347595215,
          -1.3502873182296753,
          -2.7943356037139893,
          -5.189829349517822,
          -2.9532816410064697,
          -5.9037909507751465,
          -3.212148427963257,
          -7.100666046142578,
          -4.6189656257629395,
          -5.03314733505249,
          -5.255461692810059,
          -1.3404563665390015,
          -3.388378858566284,
          -3.6229283809661865,
          -2.8215298652648926,
          -2.38228702545166,
          -4.832573413848877,
          -3.7422428131103516,
          -2.0559780597686768,
          -3.807438373565674,
          -1.9390798807144165,
          -3.7510986328125,
          -1.0263848304748535,
          -4.9286208152771,
          -8.234962463378906,
          -3.0855205059051514,
          -4.711305618286133,
          -7.085627555847168
        ]
      ],
      "bias": null
    }
  ],
  "metadata": {
    "task": "classification"
  }
}