{
  "benchmark_id": "S2",
  "series": "S",
  "architecture": "S2Net",
  "timesteps": 20,
  "precision": {
    "weight_bits": 4,
    "signed": true
  },
  "layers": [
    {
      "name": "fc1",
      "type": "linear",
      "in_features": 8,
      "out_features": 64,
      "weights": [
        [
          0.40908268094062805,
          0.2042837142944336,
          -0.010969755239784718,
          -0.4474872946739197,
          -0.10320843011140823,
          -0.3294784426689148,
          -0.064939945936203,
          0.1740642488002777
        ],
        [
          0.23404380679130554,
          -0.07947269082069397,
          -0.036525145173072815,
          0.2574516236782074,
          0.17812252044677734,
          -0.48432663083076477,
          0.4807322025299072,
          0.06879059225320816
        ],
        [
          0.25535017251968384,
          0.09668579697608948,
          -0.48114535212516785,
          -0.059228185564279556,
          0.25875818729400635,
          0.05570964887738228,
          0.111931711435318,
          -0.07884440571069717
        ],
        [
          -0.015823932364583015,
          -0.07877998799085617,
          -0.36051198840141296,
          0.12511280179023743,
          -0.054585106670856476,
          0.23966895043849945,
          -0.02892213873565197,
          -0.3291648328304291
        ],
        [
          0.056369371712207794,
          0.31517669558525085,
          0.6927790641784668,
          -0.05624382942914963,
          -0.06625397503376007,
          0.13194496929645538,
          -0.06647350639104843,
          -0.34650710225105286
        ],
        [
          0.4043506681919098,
          -0.363593190908432,
          -0.14459741115570068,
          -0.35218146443367004,
          -0.22303488850593567,
          -0.18307563662528992,
          -0.08981513231992722,
          -0.1756388247013092
        ],
        [
          -0.24427476525306702,
          -0.2493463158607483,
          -0.3300298750400543,
          0.04830469191074371,
          0.13677257299423218,
          0.07458845525979996,
          -0.0626799613237381,
          -0.09479404985904694
        ],
        [
          0.20706601440906525,
          0.357416033744812,
          -0.0744619071483612,
          0.29833388328552246,
          0.00847154576331377,
          -0.25369808077812195,
          -0.11070948094129562,
          0.16061703860759735
        ],
        [
          0.07853293418884277,
          -0.010401244275271893,
          0.060620468109846115,
          0.09361815452575684,
          0.3260277509689331,
          0.2820691764354706,
          0.1275920867919922,
          0.27891790866851807
        ],
        [
          0.08220798522233963,
          0.29012560844421387,
          0.267134428024292,
          0.010991881601512432,
          -0.23949554562568665,
          -0.20090585947036743,
          0.29419708251953125,
          0.14949436485767365
        ],
        [
          -0.15926450490951538,
          0.18519417941570282,
          -0.03516431897878647,
          0.029655123129487038,
          0.05900181829929352,
          -0.0439460426568985,
          0.1735391914844513,
          0.32315051555633545
        ],
        [
          0.06094922497868538,
          -0.3713501989841461,
          0.3259035646915436,
          0.1382175236940384,
          -0.108647920191288,
          0.19230595231056213,
          -0.3116849362850189,
          -0.2571398615837097
        ],
        [
          -0.0880962386727333,
          0.14588932693004608,
          -0.11320684850215912,
          -0.06082658842206001,
          0.4777598977088928,
          0.4070234000682831,
          0.07260965555906296,
          -0.09405378997325897
        ],
        [
          0.10846395045518875,
          0.3464783728122711,
          0.8823727369308472,
          0.04469636455178261,
          0.1281777173280716,
          -0.43014490604400635,
          0.3558303713798523,
          0.03907380253076553
        ],
        [
          0.024159912019968033,
          -0.061088480055332184,
          0.1919117569923401,
          -0.28632622957229614,
          0.14838121831417084,
          0.04634322598576546,
          -0.1893056333065033,
          -0.3258647918701172
        ],
        [
          -0.34129488468170166,
          -0.2439548522233963,
          -0.10569120943546295,
          0.30453789234161377,
          -0.16611263155937195,
          0.08766458928585052,
          0.0706920176744461,
          -0.1359342634677887
        ],
        [
          -0.21734392642974854,
          -0.17985664308071136,
          -0.025512022897601128,
          0.25380638241767883,
          0.056366849690675735,
          0.0019913145806640387,
          0.24890321493148804,
          0.2496776133775711
        ],
        [
          0.005019384436309338,
          -0.15974444150924683,
          0.47930026054382324,
          -0.44606441259384155,
          -0.6258955597877502,
          -0.05320034548640251,
          0.02273557148873806,
          0.02750532329082489
        ],
        [
          -0.10685835778713226,
          0.3161463141441345,
          0.0627332329750061,
          0.1178533211350441,
          0.3249265253543854,
          -0.01004435308277607,
          -0.053569138050079346,
          0.1769951581954956
        ],
        [
          0.4094475507736206,
          0.18355993926525116,
          0.4288423955440521,
          -0.30102813243865967,
          -0.00885364692658186,
          -0.21498657763004303,
          0.12731772661209106,
          0.12642167508602142
        ],
        [
          0.2114461362361908,
          -0.2199292927980423,
          -0.14968931674957275,
          0.2586152255535126,
          0.3268834948539734,
          -0.18947827816009521,
          0.06448835879564285,
          -0.3746969401836395
        ],
        [
          -0.14120836555957794,
          -0.41382238268852234,
          -0.29801321029663086,
          0.2902340888977051,
          0.22117705643177032,
          0.08963866531848907,
          0.057442255318164825,
          -0.35706886649131775
        ],
        [
          0.2819368839263916,
          -0.12727035582065582,
          0.3022197484970093,
          -0.12627440690994263,
          -0.28321531414985657,
          -0.17526710033416748,
          0.07523860782384872,
          -0.0955786481499672
        ],
        [
          0.05242913216352463,
          -0.3932012915611267,
          -0.12861301004886627,
          -0.18635669350624084,
          0.002408543834462762,
          0.23628607392311096,
          0.0102091608569026,
          0.025692159309983253
        ],
        [
          0.3698568046092987,
          -0.0543040856719017,
          0.011042305268347263,
          -0.45538249611854553,
          0.24579261243343353,
          -0.23626941442489624,
          -0.061790939420461655,
          -0.030432457104325294
        ],
        [
          0.353158175945282,
          -0.11747228354215622,
          -0.1076173409819603,
          -0.0019958107732236385,
          0.0032379620242863894,
          0.05798168107867241,
          0.19487887620925903,
          -0.15756067633628845
        ],
        [
          0.22633697092533112,
          -0.052448567003011703,
          -0.3666538596153259,
          -0.0383385568857193,
          0.2627943158149719,
          0.15019214153289795,
          -0.23231196403503418,
          0.305951327085495
        ],
        [
          -0.10613001883029938,
          -0.2668165862560272,
          -0.026211261749267578,
          0.22105799615383148,
          0.3342568278312683,
          0.1614009588956833,
          -0.2672998011112213,
          -0.01607573963701725
        ],
        [
          -0.04164968058466911,
          0.396272748708725,
          -0.2963621914386749,
          -0.05361580103635788,
          -0.04371930658817291,
          0.17790457606315613,
          0.40853577852249146,
          -0.04391660913825035
        ],
        [
          -0.147801011800766,
          0.04365910217165947,
          -0.3773845434188843,
          -0.23626650869846344,
          -0.08217516541481018,
          0.10324662923812866,
          -0.3460164964199066,
          -0.0008819164941087365
        ],
        [
          0.08368123322725296,
          0.1402309536933899,
          0.5800854563713074,
          0.09512083232402802,
          -0.191330224275589,
          -0.3663521409034729,
          0.029994158074259758,
          -0.3538375496864319
        ],
        [
          0.062208257615566254,
          -0.03423292562365532,
          -0.54036945104599,
          -0.10933133959770203,
          -0.1363499015569687,
          0.20342551171779633,
          -0.3521433472633362,
          0.11018817871809006
        ],
        [
          0.23385924100875854,
          -0.1301351934671402,
          0.37685611844062805,
          -0.2973061800003052,
          -0.6017211079597473,
          -0.17192895710468292,
          0.1237485334277153,
          -0.1805272251367569
        ],
        [
          -0.06209811940789223,
          -0.07951278984546661,
          0.2586531639099121,
          0.11182717233896255,
          0.08378113806247711,
          -0.2655380368232727,
          -0.3754473328590393,
          -0.7324528694152832
        ],
        [
          0.007570984773337841,
          -0.36453738808631897,
          -0.30455198884010315,
          -0.17993029952049255,
          0.006044592242687941,
          0.3064921200275421,
          -0.21517136693000793,
          0.20639419555664062
        ],
        [
          0.23806914687156677,
          -0.20097699761390686,
          0.1354978084564209,
          0.19543464481830597,
          -0.10158095508813858,
          -0.34723541140556335,
          0.213072270154953,
          -0.2402535378932953
        ],
        [
          -0.19161228835582733,
          -0.403511106967926,
          -0.11323226988315582,
          0.1430111974477768,
          0.3156217932701111,
          0.16081996262073517,
          -0.21534891426563263,
          0.10535220056772232
        ],
        [
          0.01113530807197094,
          -0.051781658083200455,
          -0.11487912386655807,
          -0.20755334198474884,
          -0.20662738382816315,
          0.08254023641347885,
          0.14097057282924652,
          0.04505268484354019
        ],
        [
          -0.19302701950073242,
          -0.08923882246017456,
          -0.027042744681239128,
          -0.38898682594299316,
          -0.33852502703666687,
          0.1405005007982254,
          0.07535408437252045,
          0.12203697860240936
        ],
        [
          0.05394648015499115,
          0.2524246871471405,
          0.04399316385388374,
          0.19360801577568054,
          -0.10537101328372955,
          -0.013270139694213867,
          0.0901617780327797,
          0.36319366097450256
        ],
        [
          -0.35639211535453796,
          -0.13725431263446808,
          0.4252164661884308,
          -0.16544517874717712,
          0.2998286485671997,
          0.0015335875796154141,
          -0.14487576484680176,
          -0.886547863483429
        ],
        [
          0.10613283514976501,
          0.10582183301448822,
          -0.23346984386444092,
          -0.13886763155460358,
          0.04253514111042023,
          0.03960508480668068,
          0.0822582095861435,
          0.3268089294433594
        ],
        [
          0.09619616717100143,
          0.32063746452331543,
          -0.40095943212509155,
          0.25555044412612915,
          0.5017645359039307,
          0.15667888522148132,
          -0.19325575232505798,
          -0.06953103840351105
        ],
        [
          -0.10590829700231552,
          0.22270630300045013,
          0.2560160756111145,
          -0.10080449283123016,
          -0.3026792109012604,
          0.17238788306713104,
          -0.07227417081594467,
          -0.244297593832016
        ],
        [
          -0.21402862668037415,
          -0.1132628470659256,
          -0.24058926105499268,
          0.006167494226247072,
          0.09295845031738281,
          0.10266385972499847,
          -0.15622924268245697,
          -0.13142865896224976
        ],
        [
          -0.017088450491428375,
          0.014426514506340027,
          -0.19812442362308502,
          0.1999998539686203,
          -0.01559187937527895,
          -0.24971091747283936,
          0.37135788798332214,
          0.3587658107280731
        ],
        [
          0.17208386957645416,
          0.15387970209121704,
          -0.3179668188095093,
          0.20982804894447327,
          0.4173440933227539,
          0.30417823791503906,
          -0.032205063849687576,
          -0.039823468774557114
        ],
        [
          0.3356814980506897,
          0.2143055498600006,
          -0.12382084876298904,
          -0.04273885488510132,
          0.1610281765460968,
          -0.13177107274532318,
          0.19070188701152802,
          0.22318199276924133
        ],
        [
          -0.02406151406466961,
          -0.13255299627780914,
          0.035409193485975266,
          -0.21521048247814178,
          -0.2664790749549866,
          0.15346692502498627,
          -0.07267183065414429,
          0.28083473443984985
        ],
        [
          -0.06008431687951088,
          -0.27019697427749634,
          -0.3910198509693146,
          0.19672685861587524,
          0.18375778198242188,
          -0.12786337733268738,
          0.029162483289837837,
          -0.22668160498142242
        ],
        [
          -0.02833591401576996,
          -0.05415245518088341,
          0.8879167437553406,
          0.07250691205263138,
          -0.15482324361801147,
          -0.5701155066490173,
          0.2003016620874405,
          -0.4179977774620056
        ],
        [
          -0.24423368275165558,
          0.08115743845701218,
          0.018541356548666954,
          0.09248115867376328,
          0.2814021706581116,
          -0.2130485326051712,
          0.40827476978302,
          0.34820613265037537
        ],
        [
          -0.2542487680912018,
          -0.11175854504108429,
          0.3586510419845581,
          0.02350366860628128,
          0.45899951457977295,
          -0.31329789757728577,
          0.3101419508457184,
          0.42252886295318604
        ],
        [
          0.432156503200531,
          0.05696333944797516,
          -0.34563273191452026,
          0.06469537317752838,
          -0.138473242521286,
          -0.12627504765987396,
          0.16711531579494476,
          0.3302607536315918
        ],
        [
          -0.08302269876003265,
          -0.19148214161396027,
          -0.2481665015220642,
          0.21680571138858795,
          0.03235947713255882,
          0.25852543115615845,
          -0.32801902294158936,
          -0.002971185138449073
        ],
        [
          -0.07995069026947021,
          0.101359061896801,
          -0.15639396011829376,
          -0.32610809803009033,
          -0.03307472914457321,
          0.21263669431209564,
          0.10380616784095764,
          0.31321537494659424
        ],
        [
          0.09015575796365738,
          -0.20328640937805176,
          -0.09288571029901505,
          0.2714702785015106,
          0.2620614767074585,
          0.2690108120441437,
          -0.17450742423534393,
          -0.09758062660694122
        ],
        [
          0.3064722418785095,
          -0.31944772601127625,
          0.2845916748046875,
          0.3095017373561859,
          -0.10410036891698837,
          0.17767006158828735,
          -0.2195139229297638,
          -0.3977852165699005
        ],
        [
          0.3082616627216339,
          -0.03259453549981117,
          -0.28759434819221497,
          -0.027155207470059395,
          0.07902409881353378,
          -0.01944839581847191,
          0.19811208546161652,
          0.47701725363731384
        ],
        [
          0.10517518222332001,
          0.3408181965351105,
          0.02666134387254715,
          0.03158354386687279,
          -0.13226944208145142,
          0.06582638621330261,
          0.304312527179718,
          0.08032267540693283
        ],
        [
          -0.17048177123069763,
          -0.388596773147583,
          0.12892089784145355,
          0.07687872648239136,
          0.2658756673336029,
          -0.2544623911380768,
          -0.23949049413204193,
          -0.30101823806762695
        ],
        [
          0.027160316705703735,
          -0.14501456916332245,
          0.09079235047101974,
          0.08620888739824295,
          -0.07624147087335587,
          0.2530798614025116,
          -0.253897100687027,
          -0.2161763459444046
        ],
        [
          0.1764966994524002,
          0.37222063541412354,
          -0.026958778500556946,
          0.28993165493011475,
          0.10669977962970734,
          0.2590342164039612,
          0.40028637647628784,
          0.14186249673366547
        ],
        [
          -0.06902391463518143,
          0.3152041435241699,
          -0.05601365864276886,
          0.03319553658366203,
          0.07682003080844879,
          0.19371655583381653,
          2.7579577363212593e-05,
          0.22232459485530853
        ]
      ],
      "bias": null
    },
    {
      "name": "fc2",
      "type": "linear",
      "in_features": 64,
      "out_features": 4,
      "weights": [
        [
          -0.03299510478973389,
          -0.1565546840429306,
          0.18661978840827942,
          -0.2942326068878174,
          -0.4770630896091461,
          0.011536824516952038,
          -0.2840527892112732,
          -0.6092438101768494,
          -0.1913086622953415,
          -0.2490263283252716,
          -1.460664987564087,
          -0.38138484954833984,
          -0.48674243688583374,
          -1.3699913024902344,
          0.27771613001823425,
          -0.07006204128265381,
          0.018879378214478493,
          0.7509886026382446,
          -0.6952995657920837,
          0.22542732954025269,
          -0.3881346881389618,
          -0.4269764721393585,
          0.16365200281143188,
          0.215855672955513,
          0.03759649023413658,
          0.3534854054450989,
          0.07032088935375214,
          -0.3556290864944458,
          -0.20798557996749878,
          0.3418242633342743,
          -0.8113278150558472,
          0.2650275230407715,
          0.5906357169151306,
          -0.604691743850708,
          0.23097918927669525,
          -0.15061111748218536,
          -0.27231353521347046,
          0.8426005244255066,
          0.23110994696617126,
          -0.5074396729469299,
          -0.46019041538238525,
          0.3078649640083313,
          -0.3125666379928589,
          -0.4450545012950897,
          -0.28059858083724976,
          -0.23802903294563293,
          -0.4963579475879669,
          0.24662813544273376,
          0.18185096979141235,
          -0.37175557017326355,
          -1.1415752172470093,
          -0.34840986132621765,
          -0.3422984182834625,
          0.5800892114639282,
          -0.3893754780292511,
          0.359582781791687,
          -0.3562619090080261,
          -0.3810264766216278,
          0.7633180022239685,
          -0.0996098518371582,
          -0.2830829918384552,
          -0.2188926637172699,
          -0.28378769755363464,
          -0.5147678852081299
        ],
        [
          -0.1279222071170807,
          -0.24431468546390533,
          0.12483833730220795,
          0.3214511275291443,
          -0.22930023074150085,
          0.16148382425308228,
          0.32484325766563416,
          -0.12580625712871552,
          -0.08881134539842606,
          -0.2802028954029083,
          -1.5279940366744995,
          0.18475289642810822,
          0.15363669395446777,
          -1.0446361303329468,
          0.08191734552383423,
          -0.02034931816160679,
          0.022832727059721947,
          -1.202023983001709,
          -0.3175819218158722,
          -0.21681635081768036,
          0.21072810888290405,
          0.5246955156326294,
          -0.1835833638906479,
          0.21503369510173798,
          0.05971984937787056,
          -0.014237293973565102,
          0.17236824333667755,
          0.26366788148880005,
          -0.17020969092845917,
          0.1492210179567337,
          -0.5793365836143494,
          0.12657156586647034,
          -1.8067198991775513,
          0.5780643820762634,
          0.18180866539478302,
          -0.04999663308262825,
          0.41329196095466614,
          -0.3679899573326111,
          -0.3850756287574768,
          -0.17394515872001648,
          0.19718150794506073,
          -0.18159793317317963,
          0.17981618642807007,
          -0.11208423227071762,
          0.26027289032936096,
          -0.22234509885311127,
          0.26552873849868774,
          -0.15028907358646393,
          -0.3663044571876526,
          0.40588194131851196,
          -1.1123809814453125,
          -0.24155910313129425,
          -0.28545281291007996,
          -0.49762311577796936,
          0.3044181168079376,
          -0.26074790954589844,
          0.22597452998161316,
          0.1403878927230835,
          -0.6256852746009827,
          -0.049095455557107925,
          0.3894090950489044,
          0.30489516258239746,
          -0.3173673748970032,
          -0.5725048184394836
        ],
        [
          0.1079280823469162,
          0.12298276275396347,
          0.1332787126302719,
          -0.19449482858181,
          -0.08303426206111908,
          -0.40689536929130554,
          -0.09613397717475891,
          0.8713958263397217,
          0.2935928404331207,
          0.2835754156112671,
          0.9563328623771667,
          -0.4557923674583435,
          0.19612576067447662,
          1.2873543500900269,
          -0.5245243906974792,
          -0.018276775255799294,
          -0.010087031871080399,
          -2.1417195796966553,
          0.31012535095214844,
          0.19102723896503448,
          -0.2553654611110687,
          -0.8365013003349304,
          -0.24704483151435852,
          -0.36941590905189514,
          0.13530676066875458,
          -0.16719524562358856,
          0.1078447699546814,
          -0.17248225212097168,
          0.15844742953777313,
          -0.3326852023601532,
          -0.3785059452056885,
          -0.15207283198833466,
          -2.862881660461426,
          -0.8679590821266174,
          -0.3793506324291229,
          -0.11288096010684967,
          -0.3642723560333252,
          -0.1963389813899994,
          -0.4421513080596924,
          0.2511654198169708,
          -0.21727943420410156,
          0.2385433465242386,
          0.22803895175457,
          -0.006634225603193045,
          -0.0926232784986496,
          0.12836302816867828,
          0.16170734167099,
          0.06796971708536148,
          -0.2568179666996002,
          -0.269225537776947,
          -0.6349366307258606,
          0.17376680672168732,
          0.17504149675369263,
          0.2581503391265869,
          -0.2563740313053131,
          0.20059671998023987,
          -0.32508406043052673,
          -0.11544818431138992,
          0.06905945390462875,
          0.294138103723526,
          -0.4950636327266693,
          -0.20236633718013763,
          0.23095150291919708,
          0.27380651235580444
        ],
        [
          0.11084728688001633,
          0.0908450037240982,
          -0.4817909002304077,
          -0.2910757064819336,
          0.3845142126083374,
          0.12663784623146057,
          -0.16613465547561646,
          0.0957181453704834,
          -0.23975098133087158,
          0.20779798924922943,
          -1.5649049282073975,
          0.027006452903151512,
          -0.258476585149765,
          0.7786971926689148,
          0.1228291466832161,
          -0.04609089717268944,
          -0.2479708194732666,
          0.41466644406318665,
          -0.4131909906864166,
          0.23385974764823914,
          -0.13208872079849243,
          -0.8449350595474243,
          0.18516364693641663,
          -0.5222994685173035,
          0.13380782306194305,
          -0.26676562428474426,
          -0.47461655735969543,
          -0.3779638111591339,
          -0.8976538181304932,
          -0.4627975821495056,
          0.49536946415901184,
          -0.5147328972816467,
          0.4765280485153198,
          0.15891365706920624,
          -0.6773303151130676,
          0.22114865481853485,
          -0.5467259287834167,
          -0.4021366536617279,
          -0.40188130736351013,
          -0.6996849775314331,
          0.18017709255218506,
          -0.28247135877609253,
          -0.26017704606056213,
          0.28062668442726135,
          -0.17449434101581573,
          -0.8419058322906494,
          -0.3934522867202759,
          -0.10077767074108124,
          -0.3734040856361389,
          -0.27522122859954834,
          1.5110883712768555,
          -0.3998177647590637,
          -0.15478645265102386,
          -0.5422942042350769,
          -0.44914710521698,
          -0.8210768699645996,
          -0.28542616963386536,
          0.09337674081325531,
          -0.8333418965339661,
          -0.0748242661356926,
          0.014204886741936207,
          0.02927185781300068,
          -0.6588783860206604,
          -0.8697894811630249
        ]
      ],
      "bias": null
    }
  ],
  "metadata": {
    "task": "classification"
  }
}