{
  "benchmark_id": "P2",
  "series": "P",
  "architecture": "P2Net",
  "timesteps": 20,
  "precision": {
    "weight_bits": 4,
    "signed": true
  },
  "layers": [
    {
      "name": "fc1",
      "type": "linear",
      "in_features": 6,
      "out_features": 32,
      "weights": [
        [
          0.20885321497917175,
          -0.07475697994232178,
          0.13622264564037323,
          -0.4286056458950043,
          0.37081658840179443,
          0.05300441384315491
        ],
        [
          -0.5329463481903076,
          0.13650652766227722,
          0.4551512897014618,
          -0.21704478561878204,
          -0.355967253446579,
          -0.1959942728281021
        ],
        [
          0.26042357087135315,
          -0.07845258712768555,
          0.48367616534233093,
          -0.3482443392276764,
          0.2928706109523773,
          0.02319914475083351
        ],
        [
          -0.3759678304195404,
          -0.10429482907056808,
          0.28043457865715027,
          -0.11457628756761551,
          -0.31275755167007446,
          0.306198388338089
        ],
        [
          -0.34189823269844055,
          -0.07625970244407654,
          0.3007723093032837,
          0.38524606823921204,
          0.05647658556699753,
          0.2754403054714203
        ],
        [
          0.4308508336544037,
          -0.24150323867797852,
          -0.18345274031162262,
          -0.19566300511360168,
          -0.2749190330505371,
          0.27867403626441956
        ],
        [
          -0.4387687146663666,
          0.1441705822944641,
          0.3884330093860626,
          -0.1866050511598587,
          0.23207658529281616,
          0.08880044519901276
        ],
        [
          -0.21902047097682953,
          -0.033318087458610535,
          0.04641168192028999,
          -0.3280700147151947,
          -0.08247371017932892,
          -0.2149735987186432
        ],
        [
          0.3946945369243622,
          0.012745531275868416,
          -0.10565213114023209,
          -0.2128858119249344,
          0.10426688939332962,
          0.2760985493659973
        ],
        [
          -0.07799908518791199,
          0.23759226500988007,
          -0.35587307810783386,
          0.27314603328704834,
          0.27386680245399475,
          0.19844414293766022
        ],
        [
          -0.31194642186164856,
          -0.11231643706560135,
          -0.1134255975484848,
          -0.20080435276031494,
          -0.47388142347335815,
          0.02163649909198284
        ],
        [
          -0.4559798240661621,
          -0.002763091353699565,
          -0.16626085340976715,
          -0.41481271386146545,
          0.2415752410888672,
          -0.36004579067230225
        ],
        [
          0.46698668599128723,
          -0.07295224815607071,
          -0.14710964262485504,
          -0.19021357595920563,
          -0.040715139359235764,
          0.012892065569758415
        ],
        [
          -0.20379392802715302,
          -0.21538111567497253,
          0.2654969096183777,
          0.5720154643058777,
          0.2040741741657257,
          0.15279945731163025
        ],
        [
          -0.21399366855621338,
          0.16967570781707764,
          -0.01972280442714691,
          0.01325802318751812,
          -0.24255245923995972,
          0.39902496337890625
        ],
        [
          -0.34234419465065,
          0.07205652445554733,
          0.045709893107414246,
          0.2530606985092163,
          -0.2314801812171936,
          -0.19657273590564728
        ],
        [
          -0.1749047040939331,
          0.21506096422672272,
          0.11301249265670776,
          -0.08593562990427017,
          -0.02218025177717209,
          -0.40113306045532227
        ],
        [
          -0.22626669704914093,
          -0.26631736755371094,
          -0.366452693939209,
          0.16398373246192932,
          -0.02405392937362194,
          -0.12574535608291626
        ],
        [
          -0.012891643680632114,
          0.10814020037651062,
          0.1322668343782425,
          -0.20844081044197083,
          -0.3418864905834198,
          0.3155978322029114
        ],
        [
          0.36878830194473267,
          -0.3384416103363037,
          -0.2990860044956207,
          0.2655312716960907,
          0.1758534014225006,
          0.3960072994232178
        ],
        [
          -0.3704851269721985,
          0.21562154591083527,
          0.05358140915632248,
          -0.349846750497818,
          0.0811423659324646,
          0.08640819787979126
        ],
        [
          -0.2389717996120453,
          0.06360363960266113,
          -0.21792249381542206,
          0.10805603116750717,
          0.010070674121379852,
          0.4929630160331726
        ],
        [
          0.17882122099399567,
          0.08558542281389236,
          0.27130040526390076,
          0.08364031463861465,
          -0.032002996653318405,
          -0.061021801084280014
        ],
        [
          -0.19663488864898682,
          0.12928660213947296,
          -0.2780819237232208,
          -0.2754535675048828,
          0.1809069812297821,
          -0.3830755054950714
        ],
        [
          -0.11646158248186111,
          0.08197950571775436,
          0.3140046000480652,
          0.31642886996269226,
          0.3342134952545166,
          -0.3145306706428528
        ],
        [
          -0.343435674905777,
          0.3637535572052002,
          -0.4754454791545868,
          -0.14901793003082275,
          0.17963498830795288,
          0.21545633673667908
        ],
        [
          0.0452042818069458,
          0.30271491408348083,
          -0.19487537443637848,
          -0.3649340569972992,
          0.19829009473323822,
          -0.28881239891052246
        ],
        [
          0.1948418915271759,
          -0.11882652342319489,
          0.2827547788619995,
          -0.17176668345928192,
          0.28288084268569946,
          -0.11193336546421051
        ],
        [
          0.002400584053248167,
          0.045054420828819275,
          -0.4678393006324768,
          0.08627509325742722,
          -0.5292739868164062,
          -0.19855459034442902
        ],
        [
          -0.22250819206237793,
          -0.18150757253170013,
          0.4330611228942871,
          -0.14729531109333038,
          0.24824322760105133,
          0.2334529608488083
        ],
        [
          0.3339782655239105,
          0.26064690947532654,
          -0.05888155847787857,
          0.0075525082647800446,
          0.3597475588321686,
          -0.2177891582250595
        ],
        [
          0.1965741366147995,
          -0.09280028194189072,
          0.40195074677467346,
          0.2629963457584381,
          -0.020464880391955376,
          0.22777047753334045
        ]
      ],
      "bias": null
    },
    {
      "name": "fc2",
      "type": "linear",
      "in_features": 32,
      "out_features": 32,
      "weights": [
        [
          0.02666456438601017,
          -0.14817561209201813,
          0.22086083889007568,
          0.06019631028175354,
          -0.23988446593284607,
          0.008388759568333626,
          0.09423622488975525,
          -0.006858066190034151,
          0.22743283212184906,
          0.041052110493183136,
          0.05811401829123497,
          0.2675098180770874,
          0.029553722590208054,
          -0.1611897349357605,
          -0.25237569212913513,
          -0.12511110305786133,
          0.07995634526014328,
          -0.13976368308067322,
          -0.011311741545796394,
          0.24882660806179047,
          0.016448084264993668,
          0.0028105040546506643,
          0.1646549552679062,
          0.023372594267129898,
          0.1646316796541214,
          -0.23773057758808136,
          0.23344790935516357,
          0.213372141122818,
          -0.24209734797477722,
          0.16795280575752258,
          0.17849324643611908,
          0.09169582277536392
        ],
        [
          0.16305683553218842,
          0.04440714418888092,
          -0.03472848981618881,
          0.050883181393146515,
          0.13748227059841156,
          0.12850628793239594,
          0.10285414755344391,
          0.05057118088006973,
          0.23616036772727966,
          0.023629205301404,
          0.26220691204071045,
          -0.04912641644477844,
          0.21200452744960785,
          0.06592154502868652,
          0.04938756674528122,
          0.10314438492059708,
          -0.05587852746248245,
          0.26789969205856323,
          0.2956620156764984,
          0.20015741884708405,
          -0.08070321381092072,
          0.20522288978099823,
          0.21277256309986115,
          0.07731786370277405,
          -0.17375636100769043,
          0.17564243078231812,
          -0.16943781077861786,
          -0.1181030422449112,
          0.018032729625701904,
          0.013931849971413612,
          0.08587345480918884,
          0.05460849776864052
        ],
        [
          -0.04203147441148758,
          0.18860198557376862,
          0.22114086151123047,
          -0.18021516501903534,
          -0.14289100468158722,
          0.22850389778614044,
          -0.054481737315654755,
          0.1797923445701599,
          0.0618092343211174,
          0.10918416827917099,
          -0.06671562790870667,
          0.21052609384059906,
          0.10976884514093399,
          -0.0972299799323082,
          -0.26041558384895325,
          0.05273372679948807,
          0.13651448488235474,
          0.1983651965856552,
          0.09722130745649338,
          0.26456183195114136,
          0.12481924146413803,
          -0.30203187465667725,
          -0.07698190212249756,
          0.050685815513134,
          0.030885394662618637,
          -0.09332045912742615,
          0.2568846642971039,
          0.17784541845321655,
          0.06774576753377914,
          0.023924557492136955,
          0.24848440289497375,
          0.03372155502438545
        ],
        [
          -0.20054887235164642,
          0.17971235513687134,
          -0.016841527074575424,
          -0.13687701523303986,
          0.022217197343707085,
          -0.06600850075483322,
          -0.032752275466918945,
          -0.002652987139299512,
          -0.22598931193351746,
          0.04103825241327286,
          -0.028827158734202385,
          0.15321077406406403,
          -0.262081503868103,
          0.07880443334579468,
          -0.1624220311641693,
          0.2616516947746277,
          0.1482902318239212,
          0.028811736032366753,
          -0.1645483374595642,
          -0.18055206537246704,
          0.20668929815292358,
          -0.0649668350815773,
          -0.19014373421669006,
          0.047152504324913025,
          -0.0686938613653183,
          0.2680996358394623,
          0.168262779712677,
          -0.2863076627254486,
          0.0703519880771637,
          -0.15738101303577423,
          -0.06393618136644363,
          -0.09850510954856873
        ],
        [
          -0.12599103152751923,
          0.06867858022451401,
          -0.042836979031562805,
          0.2341586947441101,
          0.03007526323199272,
          0.07412812858819962,
          -0.02509959414601326,
          0.21483811736106873,
          -0.13920794427394867,
          -0.07070358097553253,
          0.17274649441242218,
          0.20820361375808716,
          0.002085309475660324,
          -0.016650265082716942,
          -0.051478974521160126,
          0.07735151052474976,
          -0.03833640366792679,
          -0.04926212877035141,
          -0.022103186696767807,
          -0.060973476618528366,
          0.08130455017089844,
          0.0509038008749485,
          -0.0022792730014771223,
          0.021177753806114197,
          0.11548391729593277,
          0.20808513462543488,
          0.21253760159015656,
          -0.1553751677274704,
          0.17358531057834625,
          -0.022187910974025726,
          0.04864811524748802,
          0.2419022023677826
        ],
        [
          -0.08274257183074951,
          0.13320083916187286,
          -0.053424760699272156,
          -0.1980421394109726,
          -0.14679865539073944,
          -0.17462046444416046,
          0.1524927020072937,
          0.18710441887378693,
          -0.18077242374420166,
          0.13209624588489532,
          0.16853098571300507,
          -0.007404554169625044,
          -0.04319029673933983,
          -0.12737450003623962,
          -0.13827157020568848,
          0.2000158578157425,
          0.24531756341457367,
          0.24284212291240692,
          -0.16976869106292725,
          -0.17709296941757202,
          0.2190079540014267,
          -0.08166969567537308,
          -0.003624372649937868,
          0.12017717212438583,
          0.022983700037002563,
          -0.003141478868201375,
          0.26446786522865295,
          0.15513694286346436,
          0.09101742506027222,
          0.1429535299539566,
          0.05691852793097496,
          0.031078865751624107
        ],
        [
          -0.07382288575172424,
          0.14537864923477173,
          -0.37793007493019104,
          -0.15182676911354065,
          -0.1742626577615738,
          -0.30353620648384094,
          -0.010976405814290047,
          0.14399242401123047,
          -0.1531866192817688,
          -0.02073155902326107,
          0.08991067111492157,
          0.11585254967212677,
          0.007904457859694958,
          -0.10067900270223618,
          -0.31522372364997864,
          0.312553346157074,
          0.05236610025167465,
          0.3484783172607422,
          -0.08990614861249924,
          0.022481752559542656,
          0.1858055144548416,
          -0.25511011481285095,
          -0.4095269441604614,
          0.31373128294944763,
          -0.1895342469215393,
          0.33200234174728394,
          0.11969214677810669,
          -0.4214457869529724,
          0.4535793662071228,
          -0.24954913556575775,
          -0.42008891701698303,
          -0.12607337534427643
        ],
        [
          0.17037445306777954,
          -0.06763242185115814,
          0.2483953833580017,
          0.081197589635849,
          -0.17947663366794586,
          -0.1380118578672409,
          0.2333519011735916,
          0.03408612310886383,
          -0.16895774006843567,
          -0.18030479550361633,
          -0.08565700799226761,
          0.13760720193386078,
          -0.026489147916436195,
          0.0035273940302431583,
          -0.14224447309970856,
          -0.05189374461770058,
          0.24873438477516174,
          -0.10605966299772263,
          -0.26009684801101685,
          -0.13168826699256897,
          -0.04483111947774887,
          0.0027447480242699385,
          0.04065922647714615,
          -0.04457027092576027,
          0.22351589798927307,
          -0.16289548575878143,
          0.15123142302036285,
          0.11189068853855133,
          -0.10821004956960678,
          0.11039312928915024,
          0.12873797118663788,
          -0.292677640914917
        ],
        [
          0.08082544058561325,
          0.016899436712265015,
          0.058872025460004807,
          -0.1895633190870285,
          -0.17531181871891022,
          -0.18209098279476166,
          -0.06499471515417099,
          0.037568408995866776,
          -0.19130006432533264,
          -0.1884966492652893,
          -0.21453137695789337,
          -0.054053645581007004,
          -0.016608547419309616,
          -0.09258327633142471,
          -0.09023493528366089,
          -0.17527595162391663,
          -0.23580233752727509,
          -0.05243583023548126,
          -0.044613782316446304,
          0.0484425388276577,
          -0.11636768281459808,
          0.050580330193042755,
          -0.18888382613658905,
          -0.08575739711523056,
          0.07058645039796829,
          -0.055161282420158386,
          -0.06488627940416336,
          -0.1815006285905838,
          -0.1256803721189499,
          -0.005335499532520771,
          -0.03228095546364784,
          0.13384206593036652
        ],
        [
          -0.06851621717214584,
          0.013217087835073471,
          0.019089575856924057,
          0.19030813872814178,
          0.08656884729862213,
          0.04449046030640602,
          0.2745963931083679,
          -0.16320741176605225,
          0.13223762810230255,
          0.23025232553482056,
          0.04070625454187393,
          -0.19455473124980927,
          -0.1209147498011589,
          0.17134226858615875,
          0.28632238507270813,
          -0.05894282087683678,
          0.1389920711517334,
          0.06819143891334534,
          -0.017577484250068665,
          0.015519799664616585,
          0.21944670379161835,
          0.06617698073387146,
          -0.11306914687156677,
          0.08636800199747086,
          -0.13706955313682556,
          -9.994689025916159e-05,
          -0.10890045017004013,
          -0.1412287801504135,
          0.12407442927360535,
          0.25943589210510254,
          -0.05867265164852142,
          0.07759420573711395
        ],
        [
          0.12304391711950302,
          0.25659337639808655,
          0.271332323551178,
          0.04952003061771393,
          -0.013780116103589535,
          0.27202293276786804,
          0.11778166145086288,
          -0.13150186836719513,
          0.236318439245224,
          0.10822372138500214,
          -0.0506538487970829,
          -0.13691145181655884,
          0.23860672116279602,
          0.1226101815700531,
          0.18945732712745667,
          0.09840047359466553,
          0.15866385400295258,
          -0.20237261056900024,
          0.09947320073843002,
          0.06739345192909241,
          0.11719930917024612,
          0.035163432359695435,
          0.020363669842481613,
          0.11992604285478592,
          -0.06643304228782654,
          -0.12894022464752197,
          -0.036419548094272614,
          0.17411582171916962,
          -0.10796752572059631,
          0.22635982930660248,
          0.1146826446056366,
          0.08926080167293549
        ],
        [
          0.020787324756383896,
          -0.11394441872835159,
          0.14650209248065948,
          -0.15866924822330475,
          -0.06306654959917068,
          0.036949872970581055,
          -0.29345545172691345,
          0.16258907318115234,
          0.2517644166946411,
          0.09746724367141724,
          0.20442596077919006,
          0.00889342650771141,
          0.22768990695476532,
          0.020281566306948662,
          -0.04559135064482689,
          0.24548104405403137,
          0.02933916263282299,
          0.19587263464927673,
          0.06644701957702637,
          0.26629751920700073,
          0.14622776210308075,
          -0.2780689001083374,
          0.2157924920320511,
          0.0026503284461796284,
          -0.1267828494310379,
          0.21025937795639038,
          -0.008334643207490444,
          0.24733658134937286,
          0.19024410843849182,
          -0.13239213824272156,
          -0.0005356359761208296,
          -0.036847494542598724
        ],
        [
          -0.022640185430645943,
          0.18342263996601105,
          0.2133399248123169,
          -0.00830466952174902,
          0.255906343460083,
          0.06580568104982376,
          0.1679493486881256,
          0.13597825169563293,
          -0.13213112950325012,
          0.004461965523660183,
          0.055966414511203766,
          0.2427356243133545,
          -0.09546774625778198,
          -0.059455376118421555,
          0.2710855305194855,
          0.19303204119205475,
          0.07011055201292038,
          0.19425493478775024,
          0.11442653089761734,
          -0.0887349471449852,
          0.08859964460134506,
          0.2576322853565216,
          0.12083017081022263,
          0.12755195796489716,
          0.24562804400920868,
          -0.09112212061882019,
          0.158978670835495,
          0.02642354741692543,
          -0.1281929612159729,
          0.11988803744316101,
          -0.148513063788414,
          -0.09814176708459854
        ],
        [
          0.09355490654706955,
          0.23188340663909912,
          -0.07395374774932861,
          0.27971506118774414,
          -0.02353820577263832,
          0.03174098953604698,
          0.19213657081127167,
          0.11423308402299881,
          -0.08727356046438217,
          -0.05390426516532898,
          0.10279475152492523,
          -0.06056144833564758,
          -0.01967882364988327,
          0.028539607301354408,
          0.06604801118373871,
          -0.08713115006685257,
          0.007077617105096579,
          0.115946926176548,
          -0.048022933304309845,
          0.18543460965156555,
          0.21003194153308868,
          -0.04695180803537369,
          -0.02426624670624733,
          0.21767522394657135,
          0.178801029920578,
          0.26273414492607117,
          0.05247073248028755,
          -0.1625373661518097,
          0.19051215052604675,
          0.05470018461346626,
          -0.0790325477719307,
          0.048410385847091675
        ],
        [
          0.029537759721279144,
          0.14570604264736176,
          0.1597989797592163,
          0.008756255730986595,
          0.2815444767475128,
          0.15367360413074493,
          0.1371990293264389,
          -0.15264907479286194,
          0.1857483685016632,
          -0.025350183248519897,
          0.12676364183425903,
          -0.2195461392402649,
          -0.1025957241654396,
          -0.0499369278550148,
          0.08393506705760956,
          -0.007579170633107424,
          -0.107622429728508,
          0.08406823128461838,
          0.09308550506830215,
          0.15908294916152954,
          0.1388169229030609,
          0.25003084540367126,
          0.12982316315174103,
          -0.03225475549697876,
          -0.06547040492296219,
          -0.09142512083053589,
          -0.1532999873161316,
          0.2007204294204712,
          0.2040010392665863,
          0.158608078956604,
          -0.016120746731758118,
          -0.07191156595945358
        ],
        [
          0.05359448865056038,
          0.028919920325279236,
          0.22404660284519196,
          0.33571064472198486,
          0.3314254581928253,
          0.05504634603857994,
          0.05839335918426514,
          -0.2752026319503784,
          0.012152456678450108,
          -0.026631781831383705,
          0.11771537363529205,
          -0.1679709255695343,
          0.15073269605636597,
          0.014820633456110954,
          0.17341424524784088,
          -0.01251562125980854,
          -0.3529077172279358,
          0.04439261928200722,
          0.07524087280035019,
          -0.061410047113895416,
          -0.036920223385095596,
          0.30815479159355164,
          -0.0019171180902048945,
          -0.18292643129825592,
          -0.09086678177118301,
          -0.03689908608794212,
          -0.07180853188037872,
          0.10528769344091415,
          -0.07708723843097687,
          0.18052655458450317,
          0.1717246174812317,
          0.24929703772068024
        ],
        [
          0.26483049988746643,
          0.19044147431850433,
          0.04078641161322594,
          0.06504060328006744,
          0.22653840482234955,
          -0.015939706936478615,
          0.048188216984272,
          0.04658165201544762,
          0.26560473442077637,
          0.04051107540726662,
          0.047438204288482666,
          0.1448446661233902,
          0.203109011054039,
          0.21007241308689117,
          0.23992906510829926,
          -0.07866907864809036,
          -0.08887965977191925,
          -0.20607252418994904,
          0.08868026733398438,
          0.2745637893676758,
          0.09648397564888,
          0.11907126754522324,
          0.27088841795921326,
          0.08991026878356934,
          0.1346542090177536,
          -0.1206781342625618,
          -0.01654887944459915,
          0.03765803202986717,
          -0.19412416219711304,
          0.13478276133537292,
          0.12545205652713776,
          -0.04254673793911934
        ],
        [
          0.2268224060535431,
          -0.06820400059223175,
          0.29062944650650024,
          -0.36549922823905945,
          -0.1306159645318985,
          0.20028483867645264,
          -0.17965376377105713,
          -0.1494208127260208,
          0.22490143775939941,
          -0.008156100288033485,
          -0.300163596868515,
          -0.7643871307373047,
          0.2989617884159088,
          -0.1857553869485855,
          -0.353403776884079,
          -0.04420250281691551,
          -0.6351826786994934,
          0.0922359824180603,
          -0.12440841645002365,
          0.2595681846141815,
          -0.5095422863960266,
          -0.47561347484588623,
          0.289739727973938,
          -0.6539826989173889,
          0.21174319088459015,
          -0.19264021515846252,
          -0.038550738245248795,
          0.29657241702079773,
          0.1448613703250885,
          -0.051128242164850235,
          0.21022357046604156,
          0.21480904519557953
        ],
        [
          -0.19839201867580414,
          0.16487736999988556,
          -0.08783115446567535,
          0.10442835837602615,
          0.2716849446296692,
          0.08624599874019623,
          0.07459387183189392,
          -0.03830597922205925,
          0.20089025795459747,
          0.2195827215909958,
          0.19034028053283691,
          0.027650021016597748,
          -0.05013137683272362,
          0.14980937540531158,
          0.1632315069437027,
          0.044180728495121,
          0.1595197319984436,
          0.21861819922924042,
          0.0037188411224633455,
          0.13338671624660492,
          0.2288818359375,
          0.13025929033756256,
          -0.03400858864188194,
          0.1252588927745819,
          -0.04858577996492386,
          0.04615193232893944,
          -0.0317574217915535,
          -0.15822546184062958,
          0.07024721801280975,
          -0.0007347778882831335,
          -0.03188343346118927,
          0.14050161838531494
        ],
        [
          -0.028023675084114075,
          -0.05793209373950958,
          0.09041246771812439,
          0.24046353995800018,
          0.03223637491464615,
          0.07205044478178024,
          0.07573482394218445,
          0.20481911301612854,
          -0.12573924660682678,
          -0.08254101127386093,
          0.09217438101768494,
          0.1357751339673996,
          -0.08526989072561264,
          0.21496833860874176,
          0.27067890763282776,
          -0.048024699091911316,
          0.058727655559778214,
          -0.12837520241737366,
          0.21909131109714508,
          -0.012566043063998222,
          0.06742395460605621,
          0.18709556758403778,
          0.05681843310594559,
          0.013049759902060032,
          0.04469892382621765,
          -0.030161304399371147,
          -0.09663835912942886,
          -0.09738218784332275,
          0.0014265537029132247,
          0.12814518809318542,
          0.13023799657821655,
          0.015003488399088383
        ],
        [
          0.17758971452713013,
          -0.17647641897201538,
          -0.04229671135544777,
          -0.17797523736953735,
          -0.045175932347774506,
          0.13284899294376373,
          -0.14769774675369263,
          0.006570669822394848,
          0.2378067523241043,
          -0.12354511767625809,
          -0.005886557977646589,
          -0.27695927023887634,
          0.23982469737529755,
          0.07315706461668015,
          -0.21890977025032043,
          0.07386741042137146,
          -0.12701834738254547,
          0.07020910829305649,
          -0.15023848414421082,
          0.02432117611169815,
          -0.08534274250268936,
          -0.07586974650621414,
          0.05144042521715164,
          -0.14016032218933105,
          -0.039562713354825974,
          -0.23251353204250336,
          -0.017271781340241432,
          0.2727354168891907,
          0.12820133566856384,
          0.19158653914928436,
          0.036756958812475204,
          0.1346839964389801
        ],
        [
          0.06321588903665543,
          0.0795430988073349,
          -0.019666727632284164,
          0.11757712811231613,
          -0.2101767361164093,
          0.07062716037034988,
          0.19016966223716736,
          0.07107971608638763,
          -0.20621544122695923,
          0.08551118522882462,
          -0.005269181448966265,
          0.1811913251876831,
          -0.016496287658810616,
          -0.15582367777824402,
          -0.1834069788455963,
          0.02145255170762539,
          0.09272587299346924,
          -0.16340142488479614,
          -0.1337750107049942,
          -0.14047135412693024,
          -0.053097065538167953,
          0.05621594935655594,
          0.15497012436389923,
          0.007109369151294231,
          0.07777087390422821,
          -0.1991187185049057,
          0.24684076011180878,
          0.298311322927475,
          -0.1953393965959549,
          0.08974092453718185,
          0.0807562842965126,
          0.08522436767816544
        ],
        [
          -0.05924467742443085,
          0.18174348771572113,
          -0.20829162001609802,
          0.16273032128810883,
          -0.07718969136476517,
          -0.15662497282028198,
          -0.10407910495996475,
          0.029213234782218933,
          -0.04873550683259964,
          0.12318168580532074,
          0.061309583485126495,
          0.1164972260594368,
          -0.08887661248445511,
          0.03370923921465874,
          -0.09925370663404465,
          0.24820424616336823,
          0.011042250320315361,
          -0.05687357485294342,
          -0.10664559155702591,
          0.002687668427824974,
          0.08263503015041351,
          -0.03577690199017525,
          0.02248501405119896,
          0.1859927624464035,
          0.05319470539689064,
          0.26564255356788635,
          0.12592530250549316,
          -0.02291017211973667,
          0.14000603556632996,
          -0.25111258029937744,
          -0.2382950335741043,
          -0.23372782766819
        ],
        [
          0.1950903832912445,
          0.006785985082387924,
          0.2783840000629425,
          -0.20515957474708557,
          -0.2616330683231354,
          -0.04245634377002716,
          0.10080887377262115,
          0.07746616750955582,
          0.2780524492263794,
          0.14859870076179504,
          -0.0481920950114727,
          0.038937248289585114,
          0.19445599615573883,
          0.017473047599196434,
          -0.30013802647590637,
          0.12165739387273788,
          -0.01407543383538723,
          -0.26898330450057983,
          -0.11658147722482681,
          -0.02774173580110073,
          0.053570833057165146,
          -0.22700881958007812,
          -0.012369460426270962,
          0.06829331070184708,
          0.2058286964893341,
          -0.33977413177490234,
          0.09813942760229111,
          0.29014837741851807,
          -0.10645075887441635,
          0.1714010387659073,
          0.15003646910190582,
          9.936108835972846e-05
        ],
        [
          -0.1728026270866394,
          -0.04320403188467026,
          -0.020547060295939445,
          -0.12803542613983154,
          -0.013282300904393196,
          0.00035060124355368316,
          0.04189474880695343,
          -0.1914702206850052,
          -0.04903043061494827,
          0.079908087849617,
          0.03249392285943031,
          -0.20713360607624054,
          -0.08813616633415222,
          0.027674540877342224,
          -0.17505483329296112,
          0.010741251520812511,
          -0.14848482608795166,
          0.015335309319198132,
          0.08785272389650345,
          -0.08194135874509811,
          -0.04530772939324379,
          -0.18997295200824738,
          -0.1076575368642807,
          -0.12237609177827835,
          -0.050709325820207596,
          -0.12515537440776825,
          0.07430125772953033,
          -0.06669240444898605,
          0.06423371285200119,
          0.12749922275543213,
          -0.09706249088048935,
          0.11960940062999725
        ],
        [
          -0.03260381519794464,
          0.18439774215221405,
          -0.21058544516563416,
          -0.11868707090616226,
          0.10808346420526505,
          -0.05356721952557564,
          -0.26104268431663513,
          0.04290064796805382,
          0.004104954656213522,
          -0.08626224845647812,
          0.17915935814380646,
          0.057454269379377365,
          0.038904983550310135,
          0.07226590812206268,
          -0.076437808573246,
          0.13052575290203094,
          0.05879788100719452,
          0.14679217338562012,
          -0.1105223223567009,
          -0.19063310325145721,
          0.12009085714817047,
          0.09061171114444733,
          -0.05547258257865906,
          0.13874611258506775,
          -0.059319350868463516,
          0.10094912350177765,
          0.1920812875032425,
          -0.17202511429786682,
          0.2668793499469757,
          -0.10097093135118484,
          0.0058252098970115185,
          -0.10337930172681808
        ],
        [
          -0.15125113725662231,
          0.15710695087909698,
          -0.17635203897953033,
          0.05697546899318695,
          -0.18487326800823212,
          -0.08411608636379242,
          -0.1400243043899536,
          -0.05289490520954132,
          0.03851978853344917,
          0.020000752061605453,
          0.07050589472055435,
          0.17590489983558655,
          0.09521254897117615,
          -0.19751788675785065,
          0.1894049495458603,
          0.21465106308460236,
          0.04376014694571495,
          0.13407191634178162,
          -0.1768178939819336,
          0.20700064301490784,
          0.11821693181991577,
          0.12408845871686935,
          -0.0269539225846529,
          0.2396821230649948,
          -0.09594175964593887,
          0.23111604154109955,
          0.06736254692077637,
          -0.1747051626443863,
          0.09318522363901138,
          -0.16508248448371887,
          -0.11799673736095428,
          -0.0797940194606781
        ],
        [
          0.21968218684196472,
          0.022026605904102325,
          -0.1038888469338417,
          -0.08628500252962112,
          -0.14444774389266968,
          -0.19897350668907166,
          0.1485849767923355,
          0.14400768280029297,
          -0.03645145148038864,
          -0.08399143815040588,
          0.13480597734451294,
          0.15389442443847656,
          0.10360008478164673,
          -0.06215294450521469,
          0.12507805228233337,
          0.10110771656036377,
          0.21776577830314636,
          0.16666468977928162,
          -0.0747189074754715,
          0.003015498397871852,
          0.05937916412949562,
          -0.05919499322772026,
          0.13943840563297272,
          0.0631047785282135,
          0.16951078176498413,
          0.06383292376995087,
          0.07522551715373993,
          0.21702873706817627,
          -0.014006693847477436,
          -0.060512762516736984,
          0.05280797928571701,
          -0.074648916721344
        ],
        [
          0.16438566148281097,
          0.2201162874698639,
          -0.03113352321088314,
          -0.09306250512599945,
          -0.003634237451478839,
          -0.15348975360393524,
          0.0890965461730957,
          -0.006482199765741825,
          0.05773923173546791,
          -0.13895978033542633,
          0.14972519874572754,
          0.24680086970329285,
          0.005145534407347441,
          -0.06282594799995422,
          -0.16697514057159424,
          0.017280273139476776,
          0.19093763828277588,
          -0.10032810270786285,
          -0.08675660938024521,
          -0.0838090181350708,
          0.16975122690200806,
          -0.07167323678731918,
          -0.12580852210521698,
          0.2471555769443512,
          0.09404369443655014,
          0.14488589763641357,
          0.24748317897319794,
          -0.061416514217853546,
          0.11574224382638931,
          -0.0093507319688797,
          0.1379041224718094,
          -0.20870807766914368
        ],
        [
          -0.23043552041053772,
          0.5126702785491943,
          0.009967283345758915,
          0.358229398727417,
          0.40119490027427673,
          0.007439949084073305,
          0.412738561630249,
          -0.27472683787345886,
          -0.061647653579711914,
          0.013841514475643635,
          0.2840918004512787,
          -0.4686408042907715,
          -0.15018878877162933,
          0.37163156270980835,
          0.4995309114456177,
          0.17991115152835846,
          -0.5478110909461975,
          -0.022184692323207855,
          0.29313918948173523,
          -0.09110929816961288,
          0.120430588722229,
          0.521682620048523,
          -0.1218176782131195,
          -0.2835554778575897,
          -0.39076027274131775,
          0.006926686968654394,
          -0.22400926053524017,
          -0.2947482466697693,
          -0.11032460629940033,
          0.17553803324699402,
          -0.35183703899383545,
          0.1227366030216217
        ],
        [
          0.10313743352890015,
          0.03551969304680824,
          0.09555874764919281,
          -0.04888639226555824,
          -0.17360197007656097,
          -0.09648329019546509,
          0.08543312549591064,
          0.04787272587418556,
          -0.08745206147432327,
          -0.14189723134040833,
          -0.12540490925312042,
          0.09980130195617676,
          -0.1650286465883255,
          0.0065049356780946255,
          0.002806473756209016,
          -0.12216413021087646,
          0.2382870614528656,
          -0.08624060451984406,
          -0.022255592048168182,
          -0.01808050088584423,
          -0.025069674476981163,
          0.02413731813430786,
          0.050085797905921936,
          0.18383900821208954,
          0.14113721251487732,
          -0.27648451924324036,
          0.22330373525619507,
          0.05276186764240265,
          -0.12673810124397278,
          0.2186993658542633,
          0.1531531810760498,
          -0.19737033545970917
        ],
        [
          -0.24698226153850555,
          -0.11588354408740997,
          0.03009571135044098,
          -0.16163499653339386,
          -0.011361155658960342,
          -0.05092521011829376,
          -0.25910747051239014,
          0.06377839297056198,
          -0.14780956506729126,
          0.11600622534751892,
          -0.09030728042125702,
          -0.03463830426335335,
          -0.24384820461273193,
          -0.14428098499774933,
          -0.035194430500268936,
          -0.04086542874574661,
          0.032085172832012177,
          0.07365192472934723,
          -0.15292607247829437,
          0.01515711285173893,
          -0.00791838951408863,
          -0.10312593728303909,
          -0.08827179670333862,
          -0.14190536737442017,
          0.07749401777982712,
          0.040589962154626846,
          0.0012211874127388,
          -0.0146415950730443,
          -0.0991189032793045,
          -0.16844289004802704,
          -0.068119578063488,
          -0.26509299874305725
        ]
      ],
      "bias": null
    },
    {
      "name": "fc3",
      "type": "linear",
      "in_features": 32,
      "out_features": 32,
      "weights": [
        [
          -0.2806553244590759,
          0.30281326174736023,
          0.030164526775479317,
          0.21109488606452942,
          0.13891494274139404,
          0.08837531507015228,
          1.160119652748108,
          -0.15944957733154297,
          0.10829979181289673,
          0.07700584083795547,
          0.004377962555736303,
          -0.010342669673264027,
          0.1777970790863037,
          0.1310834139585495,
          -0.07743211835622787,
          0.24851781129837036,
          0.1268211305141449,
          -0.4849305748939514,
          0.2011399269104004,
          0.2132207155227661,
          -0.254707932472229,
          -0.34762969613075256,
          0.12758611142635345,
          -0.3218066394329071,
          -0.09437597543001175,
          0.16362515091896057,
          0.21360661089420319,
          -0.027873339131474495,
          0.013177241198718548,
          1.2190704345703125,
          0.01732487417757511,
          0.1556953638792038
        ],
        [
          0.026729516685009003,
          0.13777956366539001,
          0.23237085342407227,
          0.12891951203346252,
          0.16006982326507568,
          -0.04987610504031181,
          1.5885411500930786,
          0.08220337331295013,
          -0.10026748478412628,
          0.11559577286243439,
          -0.1013437882065773,
          -0.002513950690627098,
          0.21636685729026794,
          0.22336293756961823,
          0.020624827593564987,
          0.05731390416622162,
          -0.056512072682380676,
          -0.5947101712226868,
          0.10826458781957626,
          0.23005717992782593,
          -0.3275228440761566,
          0.03574609011411667,
          -0.05389139801263809,
          -0.16600970923900604,
          0.19594934582710266,
          -0.006266459356993437,
          0.24651838839054108,
          0.10133572667837143,
          0.1591222882270813,
          1.5228408575057983,
          -0.08100665360689163,
          0.0856991708278656
        ],
        [
          0.1011899933218956,
          -0.19550324976444244,
          0.06210995465517044,
          -0.11332524567842484,
          0.07390420138835907,
          0.16865575313568115,
          -0.512192964553833,
          0.09159611910581589,
          0.10415852069854736,
          -0.15305420756340027,
          0.08138853311538696,
          -0.24554890394210815,
          0.1982443481683731,
          0.005947720259428024,
          0.012768743559718132,
          -0.27520132064819336,
          0.18084371089935303,
          -1.6723706722259521,
          -0.16129432618618011,
          0.11774738132953644,
          -0.07121052592992783,
          0.2828104496002197,
          0.09592008590698242,
          0.2625592052936554,
          0.09275733679533005,
          -0.12357667833566666,
          -0.05559829995036125,
          0.21071699261665344,
          0.10314557701349258,
          -1.5986354351043701,
          0.23855869472026825,
          0.019517146050930023
        ],
        [
          0.21226973831653595,
          0.03556756675243378,
          0.21182890236377716,
          -0.31049662828445435,
          0.021722152829170227,
          -0.09494654834270477,
          -0.6435872316360474,
          0.112474225461483,
          0.12870007753372192,
          -0.01799849607050419,
          0.19415171444416046,
          0.18512463569641113,
          0.03100379928946495,
          0.1616864651441574,
          0.08355040103197098,
          0.1347375363111496,
          0.2448299080133438,
          1.3803166151046753,
          0.023300519213080406,
          -0.19689592719078064,
          0.09798591583967209,
          0.27167218923568726,
          -0.11817587912082672,
          0.12712763249874115,
          0.10308338701725006,
          -0.1905507594347,
          -0.2274511307477951,
          0.14510789513587952,
          0.01249056775122881,
          -1.519576907157898,
          0.23289555311203003,
          -0.058903250843286514
        ],
        [
          -0.20440174639225006,
          -0.0438980907201767,
          -0.07050568610429764,
          -0.8682013154029846,
          -0.22597940266132355,
          -0.19660086929798126,
          -1.944822907447815,
          1.440478801727295,
          0.15486370027065277,
          0.6126740574836731,
          0.24219094216823578,
          -0.7353870868682861,
          0.3403297960758209,
          0.04377266764640808,
          0.31124812364578247,
          0.5210541486740112,
          0.24271249771118164,
          -1.0231326818466187,
          0.027733491733670235,
          0.6228554844856262,
          -0.9109552502632141,
          0.7795991897583008,
          -0.5493137240409851,
          -0.03847384825348854,
          0.03641131892800331,
          -0.4220178723335266,
          -0.9342355728149414,
          0.05277667194604874,
          0.3475315272808075,
          1.3829233646392822,
          1.1436303853988647,
          0.020916666835546494
        ],
        [
          0.06516312062740326,
          -0.20390330255031586,
          0.12768034636974335,
          -0.044092610478401184,
          -0.02218494936823845,
          0.052886318415403366,
          -0.7822041511535645,
          0.07904257625341415,
          0.026677031069993973,
          -0.28314241766929626,
          0.30622899532318115,
          0.18552497029304504,
          0.07556160539388657,
          0.07745485007762909,
          -0.12003027647733688,
          0.09411176294088364,
          0.2084725797176361,
          0.8863239884376526,
          -0.052149850875139236,
          -0.08458004891872406,
          0.20939303934574127,
          0.17800864577293396,
          -0.12465800344944,
          0.25754672288894653,
          -0.1464766412973404,
          -0.12117654830217361,
          -0.0019039401086047292,
          0.08722981810569763,
          0.19191479682922363,
          -1.0299493074417114,
          0.2826477587223053,
          -0.13493071496486664
        ],
        [
          0.08077148348093033,
          0.09675466269254684,
          0.2909068167209625,
          -0.6181149482727051,
          -0.3054139018058777,
          0.18888044357299805,
          -0.9543028473854065,
          0.29903048276901245,
          -0.11562202870845795,
          -0.332561194896698,
          0.2132776379585266,
          0.16925811767578125,
          -0.0378430038690567,
          -0.181496724486351,
          0.07915694266557693,
          -0.04031675308942795,
          -0.012153503485023975,
          1.1412103176116943,
          -0.5905425548553467,
          0.061449263244867325,
          0.11525560915470123,
          0.7870073318481445,
          -0.5912383794784546,
          0.21567636728286743,
          0.04927979037165642,
          -0.84912109375,
          -0.7891280055046082,
          0.13743196427822113,
          0.4312097132205963,
          -0.90736985206604,
          0.9632768630981445,
          0.08247636258602142
        ],
        [
          -0.024746356531977654,
          -0.1523018628358841,
          0.25780293345451355,
          -0.09468390792608261,
          0.08206331729888916,
          0.21895021200180054,
          1.421274185180664,
          0.08859670162200928,
          -0.12032990902662277,
          0.13947850465774536,
          0.011108712293207645,
          0.12326882779598236,
          0.11852056533098221,
          0.14930176734924316,
          0.2105952352285385,
          -0.178843691945076,
          -0.029018888249993324,
          -0.9952394962310791,
          0.16298334300518036,
          -0.0042386893182992935,
          -0.18808996677398682,
          0.2902213931083679,
          0.13504600524902344,
          0.061968810856342316,
          -0.12479780614376068,
          0.138156920671463,
          0.16597291827201843,
          0.20332859456539154,
          0.19607491791248322,
          -1.7207401990890503,
          0.18698488175868988,
          -0.1484946459531784
        ],
        [
          -0.10800589621067047,
          0.12273763865232468,
          -0.10991108417510986,
          0.19648735225200653,
          0.15928880870342255,
          -0.07121188938617706,
          0.8925113677978516,
          -0.3049531579017639,
          0.02908170223236084,
          0.27801448106765747,
          0.0836266353726387,
          0.12198936194181442,
          0.22901734709739685,
          0.14507561922073364,
          0.030576974153518677,
          0.3330002427101135,
          0.048561666160821915,
          -0.5977044105529785,
          0.05447687953710556,
          0.025167077779769897,
          -0.12571941316127777,
          -0.11700034886598587,
          0.01780613884329796,
          -0.15542200207710266,
          -0.030968280509114265,
          0.23294827342033386,
          0.20635882019996643,
          0.08405037224292755,
          0.10353070497512817,
          1.3091503381729126,
          -0.259806364774704,
          -0.002713179914280772
        ],
        [
          -0.3148556351661682,
          0.21922621130943298,
          0.12030190229415894,
          0.19451983273029327,
          0.1888614296913147,
          -0.0717862918972969,
          1.0803934335708618,
          -0.3491284251213074,
          0.07150271534919739,
          0.33472615480422974,
          0.1149846613407135,
          0.07566379755735397,
          0.03585243597626686,
          0.13606464862823486,
          0.05608610436320305,
          0.3679984211921692,
          0.018570462241768837,
          -0.8821601271629333,
          0.24285495281219482,
          0.10369563102722168,
          -0.3325260281562805,
          -0.36355260014533997,
          -0.07062187045812607,
          -0.6183502078056335,
          -0.06384621560573578,
          0.24230468273162842,
          0.2042868733406067,
          0.14977921545505524,
          0.21511806547641754,
          1.5673160552978516,
          -0.24627548456192017,
          -0.11940952390432358
        ],
        [
          0.17200908064842224,
          -0.09344950318336487,
          -0.10599120706319809,
          -0.12930995225906372,
          0.12998220324516296,
          -0.046378061175346375,
          -0.6648578643798828,
          0.13899767398834229,
          -0.1533014327287674,
          0.0343017652630806,
          0.20855015516281128,
          -0.3510984182357788,
          0.21493571996688843,
          0.1337316781282425,
          0.08407839387655258,
          0.13862045109272003,
          0.17017214000225067,
          -0.5153406858444214,
          0.2288075089454651,
          0.23349860310554504,
          -0.3844500482082367,
          0.1453995257616043,
          -0.10402317345142365,
          0.14711345732212067,
          0.10929324477910995,
          -0.2492319941520691,
          -0.3601774275302887,
          0.005489559844136238,
          0.24444331228733063,
          1.406341314315796,
          0.06534919142723083,
          -0.04583708196878433
        ],
        [
          0.24119292199611664,
          0.16163937747478485,
          -0.11888829618692398,
          0.002996177412569523,
          0.1547384411096573,
          -0.08862416446208954,
          -0.5323501825332642,
          0.3007168471813202,
          0.04658430814743042,
          0.14683230221271515,
          0.09326183795928955,
          -0.28687408566474915,
          0.18786707520484924,
          -0.015199828892946243,
          0.1621864140033722,
          0.09448812901973724,
          0.11849918961524963,
          -0.9937880039215088,
          -0.15386804938316345,
          0.08515952527523041,
          -0.1298767626285553,
          0.1686275452375412,
          -0.19065706431865692,
          0.2873598635196686,
          0.117241770029068,
          0.03841937705874443,
          -0.0942886546254158,
          -0.03457754850387573,
          0.1808442622423172,
          1.9942535161972046,
          0.12719081342220306,
          0.0022238637320697308
        ],
        [
          0.158762589097023,
          -0.03173420950770378,
          0.19172263145446777,
          0.28543758392333984,
          0.014929626137018204,
          0.3103814423084259,
          1.2523846626281738,
          0.04309409111738205,
          0.07808229327201843,
          0.12393566220998764,
          -0.16297855973243713,
          0.2044999599456787,
          0.18081596493721008,
          0.20252230763435364,
          -0.16783495247364044,
          -0.40028589963912964,
          -0.04904124513268471,
          -3.174588918685913,
          0.08482736349105835,
          0.06169326230883598,
          -0.4174835979938507,
          0.27881133556365967,
          0.06267117708921432,
          0.10772080719470978,
          -0.17709024250507355,
          0.13917289674282074,
          0.10083799809217453,
          0.2926648259162903,
          0.31625938415527344,
          -1.3944908380508423,
          0.20421108603477478,
          0.10040158778429031
        ],
        [
          0.1416618376970291,
          -0.2534162700176239,
          0.05492445454001427,
          -0.13674142956733704,
          -0.002695683855563402,
          0.04343924671411514,
          -0.40643510222435,
          0.29861462116241455,
          -0.11517409980297089,
          0.0003239151556044817,
          0.14052261412143707,
          -0.24059328436851501,
          0.2228013575077057,
          0.06432099640369415,
          -0.1554204225540161,
          -0.19315925240516663,
          0.22921514511108398,
          -0.8737547993659973,
          -0.26893019676208496,
          0.0971188098192215,
          -0.11286904662847519,
          0.2971217930316925,
          0.04315502941608429,
          0.025584399700164795,
          0.038508228957653046,
          -0.05527908354997635,
          -0.10055193305015564,
          0.21907593309879303,
          0.11782605946063995,
          -1.7345143556594849,
          0.15093883872032166,
          0.09974762797355652
        ],
        [
          0.4023091495037079,
          -0.23371006548404694,
          0.4892701804637909,
          0.47763997316360474,
          0.06809072196483612,
          0.16160985827445984,
          1.2979384660720825,
          0.463018536567688,
          0.12723408639431,
          -0.4843427538871765,
          0.1962539255619049,
          0.5051061511039734,
          0.13749970495700836,
          0.10803016275167465,
          -0.06676538288593292,
          -0.3047276735305786,
          -0.04239458590745926,
          1.1394304037094116,
          -0.18070140480995178,
          -0.553449273109436,
          0.5550323724746704,
          0.5023340582847595,
          0.2337190955877304,
          0.5491871237754822,
          0.06681330502033234,
          0.2623156011104584,
          0.28653475642204285,
          0.31162387132644653,
          0.43467530608177185,
          -0.9225159287452698,
          0.19507701694965363,
          -0.07019717991352081
        ],
        [
          0.08184337615966797,
          0.2529442608356476,
          0.053455650806427,
          -0.24074257910251617,
          -0.24284403026103973,
          -0.24633702635765076,
          -1.410259485244751,
          -0.04768636077642441,
          -0.138650044798851,
          0.09617915749549866,
          0.21392282843589783,
          0.24489755928516388,
          0.05526873469352722,
          -0.11873463541269302,
          0.19148002564907074,
          0.14855749905109406,
          0.2664409577846527,
          1.4652010202407837,
          0.17038635909557343,
          0.15377667546272278,
          0.2675653100013733,
          -0.2383173555135727,
          -0.13921049237251282,
          0.02738848142325878,
          -0.14737242460250854,
          -0.2801677882671356,
          -0.01592097245156765,
          -0.16388987004756927,
          -0.34520766139030457,
          1.7339292764663696,
          -0.1507468819618225,
          0.06601379066705704
        ],
        [
          -0.2564738392829895,
          0.011041389778256416,
          -0.13789762556552887,
          0.0979943498969078,
          0.3225077986717224,
          0.1750461459159851,
          0.8914378881454468,
          -0.18068695068359375,
          -0.07954949885606766,
          0.060198087245225906,
          0.011506529524922371,
          -0.04156649857759476,
          0.09994398802518845,
          0.2506392002105713,
          0.27640584111213684,
          0.2849481403827667,
          0.1233210489153862,
          -0.5019388794898987,
          0.3441096246242523,
          0.17251844704151154,
          -0.3207660913467407,
          -0.3392069935798645,
          0.09986914694309235,
          -0.03611673787236214,
          -0.041965458542108536,
          0.3198539912700653,
          0.208281010389328,
          -0.10856795310974121,
          -0.011892584152519703,
          1.3039547204971313,
          -0.31523025035858154,
          -0.05152599513530731
        ],
        [
          0.29290464520454407,
          0.20052233338356018,
          0.00031867489451542497,
          -0.2669845223426819,
          0.14612005650997162,
          -0.08250242471694946,
          -0.8188285827636719,
          0.15304769575595856,
          -0.05241125449538231,
          -0.06366278976202011,
          0.02045125514268875,
          0.11174982786178589,
          -0.08017830550670624,
          -0.06244301050901413,
          -0.04211195930838585,
          0.05005372315645218,
          0.05387412756681442,
          0.9488539695739746,
          -0.1279081255197525,
          0.11665891110897064,
          0.29066646099090576,
          0.4483027756214142,
          -0.022919030860066414,
          0.31437060236930847,
          0.18017086386680603,
          -0.093003049492836,
          0.12456989288330078,
          0.25172170996665955,
          0.1907876878976822,
          -1.0181715488433838,
          0.18061552941799164,
          0.02135762758553028
        ],
        [
          0.059565212577581406,
          0.2346060872077942,
          0.24000924825668335,
          0.2788051664829254,
          0.19822515547275543,
          -0.04706191271543503,
          1.5865370035171509,
          -0.2713366448879242,
          -0.14293523132801056,
          -0.07520101964473724,
          0.055636003613471985,
          0.18221469223499298,
          -0.07629057765007019,
          0.005580033641308546,
          0.13811898231506348,
          0.06407301872968674,
          0.1350875198841095,
          1.154500961303711,
          0.04602449759840965,
          -0.22179028391838074,
          0.22357429563999176,
          -0.6813790798187256,
          0.2886757552623749,
          0.03836161643266678,
          0.03941721469163895,
          0.18008217215538025,
          0.38278627395629883,
          -0.03482704237103462,
          0.05108802020549774,
          -1.1708920001983643,
          -0.36572006344795227,
          -0.09528831392526627
        ],
        [
          0.6282730102539062,
          -0.7990535497665405,
          0.3350304365158081,
          -0.2525036633014679,
          -0.2220279723405838,
          -0.0856100395321846,
          -0.7537286877632141,
          0.6867622137069702,
          -0.0462944395840168,
          -0.3418721854686737,
          0.01454834546893835,
          -0.4739641845226288,
          0.2643718719482422,
          -0.20865586400032043,
          -0.13431504368782043,
          -1.1592386960983276,
          0.08565699309110641,
          -2.5509798526763916,
          -0.42694026231765747,
          -0.03189324960112572,
          -0.4933988153934479,
          0.5198238492012024,
          -0.2650158107280731,
          0.5470293164253235,
          -0.018143722787499428,
          -0.5380749702453613,
          -0.26373738050460815,
          0.4559039771556854,
          0.4649132788181305,
          -2.2853336334228516,
          0.7137314081192017,
          0.0771016925573349
        ],
        [
          -0.1971661001443863,
          0.23815473914146423,
          -0.1252913922071457,
          0.1221851259469986,
          0.15550105273723602,
          0.09783083200454712,
          0.9742221832275391,
          0.043305110186338425,
          0.0747772604227066,
          -0.015128935687243938,
          -0.02437051571905613,
          0.001959520624950528,
          0.05612783879041672,
          0.26291775703430176,
          0.26439428329467773,
          0.11757940798997879,
          0.0637132003903389,
          -0.538246214389801,
          0.18070705235004425,
          0.15466853976249695,
          0.1163811907172203,
          -0.46756669878959656,
          0.21915720403194427,
          -0.3375946283340454,
          0.06351257115602493,
          0.19112050533294678,
          0.3695313334465027,
          0.0003119656175840646,
          -0.03763525187969208,
          2.3648433685302734,
          0.04716977849602699,
          -0.11925618350505829
        ],
        [
          0.13586577773094177,
          0.22043776512145996,
          0.1971459984779358,
          -0.516061007976532,
          -0.1436353325843811,
          -0.5542522668838501,
          -2.802903413772583,
          -0.33658528327941895,
          0.14682364463806152,
          0.434002548456192,
          0.29720181226730347,
          0.2037920355796814,
          -0.025221744552254677,
          0.03705420717597008,
          0.05191268026828766,
          0.37998872995376587,
          0.09250355511903763,
          1.6939061880111694,
          0.3840373754501343,
          0.10241355746984482,
          0.1901107281446457,
          -0.3742687404155731,
          -0.09211302548646927,
          0.032763510942459106,
          0.024243677034974098,
          -0.3571084439754486,
          -0.8114954233169556,
          -0.24485400319099426,
          -0.9706350564956665,
          2.852720260620117,
          -1.0288430452346802,
          0.012423933483660221
        ],
        [
          0.2521913945674896,
          0.09041078388690948,
          0.048302918672561646,
          -0.1801397055387497,
          -0.2889455556869507,
          -0.06128890812397003,
          -2.489581346511841,
          -1.0044664144515991,
          -0.03712470084428787,
          -0.10348162055015564,
          0.1440623700618744,
          0.3014191687107086,
          -0.36529994010925293,
          -0.04891901835799217,
          -0.18207694590091705,
          -0.031759943813085556,
          0.21176570653915405,
          1.3430896997451782,
          -0.3777066469192505,
          -0.3103433847427368,
          0.5594808459281921,
          -0.6964015960693359,
          0.006007080432027578,
          0.5559806227684021,
          0.14490215480327606,
          0.0801449865102768,
          0.010501513257622719,
          -0.13853943347930908,
          -0.29130059480667114,
          -0.43338724970817566,
          -0.5983098745346069,
          -0.006232373882085085
        ],
        [
          0.08704374730587006,
          0.11961705982685089,
          0.01921459287405014,
          -0.29092249274253845,
          -0.14523006975650787,
          -0.3009051978588104,
          -1.065870761871338,
          -0.1889280527830124,
          -0.056004490703344345,
          0.2473331093788147,
          0.23228511214256287,
          -0.029539812356233597,
          0.19173067808151245,
          -0.16937187314033508,
          0.22167910635471344,
          0.13265898823738098,
          0.25858572125434875,
          1.2715882062911987,
          0.18843680620193481,
          0.1378043293952942,
          -0.019687959924340248,
          -0.10994444042444229,
          -0.15347710251808167,
          0.0022337224800139666,
          -0.05406121909618378,
          -0.18293718993663788,
          -0.15463511645793915,
          0.004279626999050379,
          -0.2379736751317978,
          1.880608081817627,
          -0.2721281051635742,
          -0.06947237253189087
        ],
        [
          0.08978092670440674,
          -0.14894554018974304,
          0.14402125775814056,
          -0.0028918064199388027,
          0.18405558168888092,
          0.11681906133890152,
          1.0296069383621216,
          0.21415366232395172,
          0.10422035306692123,
          -0.01995501108467579,
          -0.07513832300901413,
          0.05250745266675949,
          0.310029000043869,
          0.07057783007621765,
          -0.17275328934192657,
          -0.0957517921924591,
          -0.06398013979196548,
          -0.7934824824333191,
          0.0991247147321701,
          0.12932941317558289,
          -0.0868493989109993,
          0.1251344233751297,
          -0.03445371612906456,
          0.16349519789218903,
          0.15030419826507568,
          0.19887736439704895,
          0.2494121640920639,
          0.11441181600093842,
          0.35186320543289185,
          -0.4907272756099701,
          0.33010798692703247,
          -0.008618662133812904
        ],
        [
          0.1993154138326645,
          0.32456937432289124,
          0.1864025890827179,
          -0.3440832793712616,
          -0.12083418667316437,
          -0.18561244010925293,
          -1.646549940109253,
          -0.09010529518127441,
          0.15500767529010773,
          -0.0880044624209404,
          0.24958188831806183,
          0.050666823983192444,
          -0.23948755860328674,
          -0.01700732298195362,
          0.18860496580600739,
          0.12092331051826477,
          0.16519975662231445,
          1.1525318622589111,
          0.1333981454372406,
          -0.1582888960838318,
          0.017184481024742126,
          -0.17547371983528137,
          0.03146425262093544,
          0.1041916012763977,
          0.02182289958000183,
          -0.12205911427736282,
          -0.19498710334300995,
          -0.14421527087688446,
          -0.15962763130664825,
          1.3906514644622803,
          -0.16555951535701752,
          -0.0008595383842475712
        ],
        [
          0.050276726484298706,
          0.005096342880278826,
          0.30056867003440857,
          0.257213294506073,
          0.13369034230709076,
          0.0429215282201767,
          1.8026740550994873,
          0.0133738461881876,
          -0.1321077048778534,
          -0.013421093113720417,
          0.011516456492245197,
          0.013976098969578743,
          0.16284246742725372,
          0.2794308662414551,
          0.18755187094211578,
          -0.11183548718690872,
          0.12382153421640396,
          -1.7964226007461548,
          0.1466103196144104,
          0.09858888387680054,
          -0.08007074147462845,
          0.1408604085445404,
          0.2282126396894455,
          0.1360185146331787,
          -0.11829767376184464,
          0.22885607182979584,
          -0.01871311105787754,
          0.35321202874183655,
          0.2943654954433441,
          2.3294832706451416,
          0.31708237528800964,
          -0.010177001357078552
        ],
        [
          0.17891989648342133,
          0.09481853991746902,
          0.1633719801902771,
          -0.31818318367004395,
          0.07360942661762238,
          -0.029418863356113434,
          -0.5998865365982056,
          0.1156991496682167,
          -0.024698132649064064,
          0.27719804644584656,
          -0.00915326364338398,
          0.12210389971733093,
          0.10359477996826172,
          -0.06639363616704941,
          0.262814462184906,
          0.021030988544225693,
          0.23953235149383545,
          1.197471261024475,
          0.038877084851264954,
          0.04566420987248421,
          0.2610206604003906,
          0.2455339878797531,
          -0.09903411567211151,
          -0.009209511801600456,
          0.11001661419868469,
          -0.2962438464164734,
          -0.16518932580947876,
          0.17953678965568542,
          -0.03505757451057434,
          2.0882434844970703,
          0.26561322808265686,
          -0.1937192678451538
        ],
        [
          -0.0021937142591923475,
          0.2546590268611908,
          0.17419452965259552,
          0.32353827357292175,
          0.16835792362689972,
          0.014256337657570839,
          1.2414109706878662,
          -0.2644551396369934,
          0.06819331645965576,
          -0.10835149139165878,
          -0.10525339096784592,
          0.1439289003610611,
          -0.07950278371572495,
          0.1132676973938942,
          -0.017357438802719116,
          0.16276636719703674,
          0.09109599143266678,
          1.2382981777191162,
          0.0732789933681488,
          -0.2299986183643341,
          0.07825040817260742,
          -0.31093016266822815,
          0.08457301557064056,
          0.32117071747779846,
          -0.17057949304580688,
          0.050077684223651886,
          0.2826102674007416,
          0.023117126896977425,
          0.13074623048305511,
          -1.1811456680297852,
          -0.2544376254081726,
          -0.017126349732279778
        ],
        [
          0.03427117317914963,
          0.15730224549770355,
          0.09563145786523819,
          0.27461549639701843,
          0.12438080459833145,
          -0.05013682693243027,
          1.4627981185913086,
          -0.30701151490211487,
          0.005253170151263475,
          -0.15208950638771057,
          0.20841631293296814,
          0.24812906980514526,
          -0.07367662340402603,
          -0.004658225458115339,
          -0.09107311815023422,
          0.005654048640280962,
          -0.06457759439945221,
          0.9816828370094299,
          -0.051165953278541565,
          -0.18173126876354218,
          0.15821769833564758,
          -0.20274031162261963,
          0.26147663593292236,
          0.17767605185508728,
          -0.0035207404289394617,
          0.06182434409856796,
          0.17392931878566742,
          0.15728969871997833,
          0.20363742113113403,
          -0.8160446882247925,
          -0.24969515204429626,
          0.16957347095012665
        ],
        [
          -0.03360345587134361,
          -0.14863978326320648,
          0.28335532546043396,
          -0.051771823316812515,
          -0.047955285757780075,
          0.11698158830404282,
          1.4802793264389038,
          0.27605539560317993,
          -0.174021378159523,
          -0.12609048187732697,
          -0.14009809494018555,
          0.19079066812992096,
          0.15091583132743835,
          0.16919280588626862,
          -0.05922902002930641,
          -0.060944024473428726,
          -0.036692678928375244,
          -1.1667540073394775,
          0.20504695177078247,
          0.0917988047003746,
          0.038947638124227524,
          0.36938679218292236,
          0.09738195687532425,
          0.06524326652288437,
          0.1270056813955307,
          0.14623576402664185,
          0.24184158444404602,
          0.2815150320529938,
          0.08890978246927261,
          -1.9497697353363037,
          0.2731853723526001,
          0.1703425496816635
        ],
        [
          -0.06933405250310898,
          0.12908901274204254,
          0.021296316757798195,
          -0.15081743896007538,
          -0.030282195657491684,
          0.005515404976904392,
          -0.7412638664245605,
          5.348559716367163e-05,
          -0.055555641651153564,
          0.028927655890583992,
          0.2664411962032318,
          -0.2687798738479614,
          0.2736094295978546,
          0.24774590134620667,
          0.18289588391780853,
          0.027232065796852112,
          0.026047728955745697,
          -0.6853229999542236,
          0.04567328467965126,
          0.2458077371120453,
          -0.06448309123516083,
          0.21420733630657196,
          0.03198309615254402,
          -0.020288467407226562,
          -0.10297022759914398,
          -0.17919303476810455,
          -0.21150200068950653,
          0.2369740605354309,
          0.01631709188222885,
          1.2530370950698853,
          0.32001498341560364,
          -0.11216720193624496
        ]
      ],
      "bias": null
    },
    {
      "name": "fc4",
      "type": "linear",
      "in_features": 32,
      "out_features": 5,
      "weights": [
        [
          -0.7238894701004028,
          -0.1256694495677948,
          0.6673687696456909,
          0.3822424113750458,
          4.410240173339844,
          0.6747301816940308,
          2.9786946773529053,
          0.24276797473430634,
          -0.48480385541915894,
          -1.8385056257247925,
          0.2586301565170288,
          0.25370702147483826,
          -0.10077540576457977,
          0.4774409532546997,
          0.2078254073858261,
          -0.731626570224762,
          -0.9324937462806702,
          0.4421878457069397,
          -2.182159662246704,
          3.874480724334717,
          -1.1393275260925293,
          -5.3007659912109375,
          -5.212404251098633,
          -0.7806085348129272,
          0.17054083943367004,
          -1.7951772212982178,
          -0.04728710651397705,
          0.10659244656562805,
          -0.7465757727622986,
          -0.5544636845588684,
          0.18539828062057495,
          0.25177887082099915
        ],
        [
          0.3960157334804535,
          0.24602912366390228,
          -0.608396589756012,
          -0.35687732696533203,
          4.682524681091309,
          -0.9429925680160522,
          -1.2257518768310547,
          -0.5026361346244812,
          0.44961264729499817,
          1.7287193536758423,
          0.6858472228050232,
          0.5020113587379456,
          -1.3490536212921143,
          -0.5183836221694946,
          -4.7400054931640625,
          0.43311089277267456,
          0.5776129364967346,
          -0.4404391050338745,
          -1.66056489944458,
          -5.207645893096924,
          0.6400641202926636,
          2.4937174320220947,
          -3.253734588623047,
          0.4003618061542511,
          -0.6567516326904297,
          -0.09152857214212418,
          -0.12365102022886276,
          0.35871589183807373,
          -1.3692137002944946,
          -0.8604756593704224,
          -0.73630690574646,
          0.5300943851470947
        ],
        [
          -1.3364620208740234,
          -0.8468194007873535,
          -1.5134530067443848,
          0.41427600383758545,
          -3.47528076171875,
          0.6619735360145569,
          0.6550918817520142,
          -1.0066503286361694,
          -0.324113667011261,
          -2.6725080013275146,
          -0.723514974117279,
          -0.23728685081005096,
          -3.609645366668701,
          -0.4971393346786499,
          3.6514453887939453,
          0.3734827935695648,
          -1.0051466226577759,
          0.5449251532554626,
          0.45926758646965027,
          -4.418011665344238,
          -0.7956743240356445,
          1.9906275272369385,
          4.261411666870117,
          0.4747757911682129,
          -1.49375319480896,
          0.46038997173309326,
          -3.833876132965088,
          0.28797441720962524,
          0.5842861533164978,
          0.4652273952960968,
          -2.106369733810425,
          -0.5311115980148315
        ],
        [
          0.39458996057510376,
          0.487628310918808,
          -0.4992145299911499,
          -0.6417985558509827,
          -6.006660461425781,
          -0.5796939730644226,
          -5.254323482513428,
          0.46381351351737976,
          0.43198683857917786,
          1.8089643716812134,
          -1.1584420204162598,
          -0.6235817074775696,
          0.558857262134552,
          -0.3823164999485016,
          2.406128406524658,
          -1.0379879474639893,
          0.8867112994194031,
          -0.41945555806159973,
          1.9963620901107788,
          -3.4438109397888184,
          1.6328892707824707,
          -5.790731906890869,
          -6.176415920257568,
          -1.4049673080444336,
          0.6129136085510254,
          -3.4574875831604004,
          0.3417278826236725,
          -0.9269004464149475,
          0.9936268925666809,
          0.4740664064884186,
          0.43726596236228943,
          -0.32419872283935547
        ],
        [
          -1.5154638290405273,
          -2.164466381072998,
          -1.0932378768920898,
          -0.7468521595001221,
          -5.408702850341797,
          -1.4792916774749756,
          -3.015861749649048,
          -1.1837825775146484,
          -0.5718839168548584,
          -3.406252384185791,
          -2.4388885498046875,
          -1.0847312211990356,
          -1.3102736473083496,
          -1.3724229335784912,
          -4.266011714935303,
          -0.5144476294517517,
          -3.313180685043335,
          -1.5942392349243164,
          -1.9285869598388672,
          -4.311793327331543,
          -3.2542343139648438,
          -4.069471836090088,
          -4.218159198760986,
          -0.8977256417274475,
          -2.4054114818573,
          -1.3285833597183228,
          -1.627593994140625,
          -1.9462898969650269,
          -2.5646743774414062,
          -1.5872293710708618,
          -1.524738073348999,
          -0.8565786480903625
        ]
      ],
      "bias": null
    }
  ],
  "metadata": {
    "task": "classification"
  }
}