{
  "benchmark_id": "A3",
  "series": "A",
  "architecture": "A3Net",
  "timesteps": 20,
  "precision": {
    "weight_bits": 4,
    "signed": true
  },
  "layers": [
    {
      "name": "fc1",
      "type": "linear",
      "in_features": 3,
      "out_features": 24,
      "weights": [
        [
          -0.7092911005020142,
          1.0419148206710815,
          -0.5720911026000977
        ],
        [
          -1.8402223587036133,
          1.5459429025650024,
          -2.7728793621063232
        ],
        [
          -1.1869807243347168,
          1.3953745365142822,
          -0.30669206380844116
        ],
        [
          -3.011620044708252,
          1.2802914381027222,
          0.7322901487350464
        ],
        [
          -2.933851480484009,
          1.2906707525253296,
          -3.123753309249878
        ],
        [
          0.2619820535182953,
          1.168575406074524,
          -1.4611258506774902
        ],
        [
          0.2678345739841461,
          0.31960058212280273,
          -2.442807912826538
        ],
        [
          -1.8853168487548828,
          1.615041732788086,
          -0.9339753985404968
        ],
        [
          -4.086520195007324,
          2.794257402420044,
          1.609431266784668
        ],
        [
          2.2663967609405518,
          -0.25486519932746887,
          -2.121307611465454
        ],
        [
          3.2896311283111572,
          0.16118663549423218,
          -2.6412813663482666
        ],
        [
          -4.076928615570068,
          1.8663256168365479,
          -3.9621200561523438
        ],
        [
          -0.23677973449230194,
          1.9351762533187866,
          1.6751527786254883
        ],
        [
          -0.9804701805114746,
          0.76048344373703,
          0.09195730090141296
        ],
        [
          1.6755702495574951,
          1.0987685918807983,
          -2.146181583404541
        ],
        [
          -0.022108083590865135,
          1.618466854095459,
          0.1236313134431839
        ],
        [
          1.4786725044250488,
          -0.32327258586883545,
          1.216542363166809
        ],
        [
          0.37073424458503723,
          1.118075966835022,
          1.1205321550369263
        ],
        [
          0.5712429881095886,
          1.1179091930389404,
          0.8665653467178345
        ],
        [
          1.210320234298706,
          1.3410431146621704,
          -0.2579783499240875
        ],
        [
          0.3633730113506317,
          -2.8602561950683594,
          1.7157371044158936
        ],
        [
          2.1668307781219482,
          0.0786605030298233,
          -2.5035767555236816
        ],
        [
          -1.2114698886871338,
          0.3501974940299988,
          1.050433874130249
        ],
        [
          1.761324405670166,
          1.1910247802734375,
          -1.9897533655166626
        ]
      ],
      "bias": null
    },
    {
      "name": "fc2",
      "type": "linear",
      "in_features": 24,
      "out_features": 4,
      "weights": [
        [
          2.672659158706665,
          -5.114534378051758,
          3.437455892562866,
          -0.918612003326416,
          -4.602912425994873,
          -6.14920711517334,
          1.7854933738708496,
          2.3377981185913086,
          1.244860291481018,
          0.7521876096725464,
          -1.559773325920105,
          -5.445798397064209,
          -1.1338887214660645,
          6.959344863891602,
          2.580174446105957,
          0.41149935126304626,
          0.581724226474762,
          -0.44572100043296814,
          -0.3722701668739319,
          1.5273244380950928,
          -0.7175663113594055,
          0.5919812917709351,
          3.3973388671875,
          2.6005074977874756
        ],
        [
          4.76923942565918,
          -1.4206225872039795,
          -5.680716514587402,
          2.7055320739746094,
          0.7784614562988281,
          5.12819766998291,
          -2.4631614685058594,
          -5.747349262237549,
          3.204164981842041,
          2.926823854446411,
          3.217296600341797,
          1.217061161994934,
          0.27903810143470764,
          -2.262183666229248,
          -4.659179210662842,
          1.5246042013168335,
          -2.959517240524292,
          0.45749330520629883,
          0.5183031558990479,
          -0.013011285103857517,
          -1.4480669498443604,
          1.7883116006851196,
          -2.847001552581787,
          -3.6753244400024414
        ],
        [
          -3.7708442211151123,
          3.30173397064209,
          0.4107917249202728,
          -2.346212387084961,
          1.521599292755127,
          5.711944103240967,
          -1.821241855621338,
          1.4716542959213257,
          -5.849045753479004,
          -4.3832478523254395,
          -2.4402997493743896,
          1.6703765392303467,
          0.5498861074447632,
          -7.656920433044434,
          3.0521395206451416,
          -1.0489957332611084,
          0.7938960790634155,
          0.7822665572166443,
          0.9354104995727539,
          -0.31943821907043457,
          3.1665759086608887,
          -3.891463279724121,
          -2.8262293338775635,
          2.6866464614868164
        ],
        [
          -1.4452239274978638,
          -7.061760425567627,
          -5.34052848815918,
          -4.526396751403809,
          -6.689687252044678,
          -7.804808616638184,
          -1.9966964721679688,
          -7.221652507781982,
          -7.1902384757995605,
          -6.020573616027832,
          -4.737569332122803,
          -5.37913179397583,
          -3.844058036804199,
          -1.1689560413360596,
          -5.0016374588012695,
          -2.899097442626953,
          -2.7155795097351074,
          -2.441398859024048,
          -1.9870911836624146,
          -3.759603500366211,
          -3.474926471710205,
          -5.711406707763672,
          -2.8564326763153076,
          -7.330878257751465
        ]
      ],
      "bias": null
    }
  ],
  "metadata": {
    "task": "classification"
  }
}