{
  "benchmark_id": "A2",
  "series": "A",
  "architecture": "A2Net",
  "timesteps": 20,
  "precision": {
    "weight_bits": 4,
    "signed": true
  },
  "layers": [
    {
      "name": "fc1",
      "type": "linear",
      "in_features": 8,
      "out_features": 32,
      "weights": [
        [
          0.2567802369594574,
          0.6592744588851929,
          -0.3190034031867981,
          0.27680110931396484,
          0.1582958996295929,
          -0.1114346832036972,
          -0.8361383676528931,
          0.31881025433540344
        ],
        [
          0.38236120343208313,
          1.2589824199676514,
          -0.4114927649497986,
          -0.059655919671058655,
          -0.9876551628112793,
          0.6641618609428406,
          -0.6506204009056091,
          -0.08759560436010361
        ],
        [
          -0.968293309211731,
          0.4511411190032959,
          -0.0457170270383358,
          -0.9715747237205505,
          -0.643616259098053,
          -0.0993809625506401,
          0.654816210269928,
          -0.25657919049263
        ],
        [
          0.15814651548862457,
          0.2752631902694702,
          -0.18556302785873413,
          0.46365591883659363,
          0.3768865764141083,
          0.2746398150920868,
          0.3809099793434143,
          -0.020808564499020576
        ],
        [
          0.2668937146663666,
          -0.028920935466885567,
          -0.08517841249704361,
          -0.005173833575099707,
          -0.44064566493034363,
          -0.9413629770278931,
          -0.38103729486465454,
          0.6433869004249573
        ],
        [
          -0.20753264427185059,
          -0.3862605094909668,
          -0.6755542159080505,
          0.4015582799911499,
          0.34115883708000183,
          0.17210012674331665,
          -0.2671329379081726,
          0.463895320892334
        ],
        [
          0.20642618834972382,
          0.006434289272874594,
          -0.02088349685072899,
          0.020220249891281128,
          0.04097946360707283,
          0.17783468961715698,
          -0.0717606246471405,
          0.03996675834059715
        ],
        [
          0.18694573640823364,
          -0.0015171909471973777,
          -0.09745785593986511,
          0.11979176104068756,
          0.10507234930992126,
          0.1518920660018921,
          -0.031028734520077705,
          -0.044964492321014404
        ],
        [
          0.23704636096954346,
          0.11665381491184235,
          0.16174280643463135,
          0.2529921531677246,
          0.1420058161020279,
          0.09698551148176193,
          0.36524635553359985,
          0.09457819908857346
        ],
        [
          0.4021832048892975,
          -0.07447518408298492,
          0.01575973443686962,
          -0.1018417701125145,
          -0.145013689994812,
          -0.45374712347984314,
          -0.37847810983657837,
          0.5603163838386536
        ],
        [
          0.38823121786117554,
          0.08208084106445312,
          0.2103101909160614,
          0.31026819348335266,
          0.15182216465473175,
          -0.04705524817109108,
          0.3157072365283966,
          0.08097557723522186
        ],
        [
          0.4868876039981842,
          -0.2875930964946747,
          0.375397652387619,
          0.22881929576396942,
          -0.15987294912338257,
          -0.1254112869501114,
          -0.5294556021690369,
          0.030799103900790215
        ],
        [
          0.806515097618103,
          -0.10319740325212479,
          0.7111079692840576,
          0.41990235447883606,
          0.34133049845695496,
          -0.08025608211755753,
          0.23884162306785583,
          0.847994863986969
        ],
        [
          0.17363788187503815,
          0.03023296408355236,
          0.1292722374200821,
          -0.023090137168765068,
          0.14479316771030426,
          -0.17573381960391998,
          0.029058339074254036,
          0.1610504388809204
        ],
        [
          -1.0625272989273071,
          0.4911488890647888,
          -0.12066967040300369,
          -0.3214758336544037,
          0.31466078758239746,
          -0.10210651904344559,
          -0.8499658107757568,
          -1.2422466278076172
        ],
        [
          -0.06725037842988968,
          -1.1309401988983154,
          -0.24359223246574402,
          -0.2649575471878052,
          1.0232775211334229,
          -0.5616202354431152,
          0.01826300658285618,
          -0.261486679315567
        ],
        [
          0.24322372674942017,
          -0.48618268966674805,
          0.21311667561531067,
          0.10360053926706314,
          -0.5249176025390625,
          0.28240594267845154,
          -0.03555997088551521,
          0.4418008327484131
        ],
        [
          0.012842428870499134,
          0.5434808731079102,
          0.1227438822388649,
          0.8387040495872498,
          0.1482498049736023,
          -0.6284772157669067,
          -0.31131282448768616,
          -0.6992475390434265
        ],
        [
          -0.392042338848114,
          0.08150884509086609,
          0.4693266451358795,
          0.5166219472885132,
          0.09231840074062347,
          -0.7136204838752747,
          0.1294398009777069,
          0.4517347514629364
        ],
        [
          0.0811925157904625,
          0.07299189269542694,
          -0.07537789642810822,
          0.19421744346618652,
          0.13328473269939423,
          0.018799183890223503,
          0.04799114912748337,
          0.013733575120568275
        ],
        [
          -0.21186776459217072,
          0.7462360858917236,
          0.09170997142791748,
          -0.05166191980242729,
          0.5646832585334778,
          0.6964700222015381,
          0.6351089477539062,
          -0.29547566175460815
        ],
        [
          -0.09526245296001434,
          0.516556978225708,
          0.07146891951560974,
          -0.14980554580688477,
          -0.14167727530002594,
          0.07246795296669006,
          0.23509074747562408,
          -0.16031506657600403
        ],
        [
          0.17934785783290863,
          0.39656132459640503,
          -0.13695259392261505,
          0.44595271348953247,
          0.29962894320487976,
          0.1325460821390152,
          0.24175478518009186,
          0.02923182211816311
        ],
        [
          0.3803890645503998,
          -0.27922141551971436,
          0.1867421269416809,
          0.08718469738960266,
          -0.03833950683474541,
          -0.25281232595443726,
          -0.14117097854614258,
          0.44626590609550476
        ],
        [
          0.17686352133750916,
          -0.005979289300739765,
          -0.1510859578847885,
          -0.09901109337806702,
          0.008245749399065971,
          0.12105469405651093,
          0.1760774701833725,
          0.05555360019207001
        ],
        [
          -0.04633960500359535,
          -0.7576244473457336,
          1.2607325315475464,
          -0.7108835577964783,
          -0.5857834815979004,
          -0.9931051135063171,
          -0.0510035865008831,
          -0.9115030765533447
        ],
        [
          -0.47417598962783813,
          -0.6962054967880249,
          -0.13756494224071503,
          -1.0281422138214111,
          0.0832212045788765,
          0.7014707922935486,
          -0.020383404567837715,
          -1.197758674621582
        ],
        [
          0.23535597324371338,
          -0.45064666867256165,
          0.18074293434619904,
          0.1642800271511078,
          -0.23594969511032104,
          -0.5948545336723328,
          -0.24623915553092957,
          0.2259303629398346
        ],
        [
          -0.5085768103599548,
          -0.058122385293245316,
          -0.3297169506549835,
          -0.3716873824596405,
          -0.358071506023407,
          0.9523248076438904,
          -0.4612841010093689,
          -1.076151967048645
        ],
        [
          0.14063653349876404,
          0.3556309640407562,
          -0.1315155178308487,
          0.4669792652130127,
          0.3079981207847595,
          0.2013760507106781,
          0.309640109539032,
          0.022900355979800224
        ],
        [
          -0.7089048624038696,
          -0.11362089961767197,
          0.49794286489486694,
          -0.8500770926475525,
          0.6120808720588684,
          -0.5495432615280151,
          0.5921122431755066,
          -0.16263321042060852
        ],
        [
          0.7037915587425232,
          0.0236662607640028,
          0.48919856548309326,
          0.2195662558078766,
          -0.36066102981567383,
          -1.4293715953826904,
          -1.3331189155578613,
          -1.406359076499939
        ]
      ],
      "bias": null
    },
    {
      "name": "fc2",
      "type": "linear",
      "in_features": 32,
      "out_features": 5,
      "weights": [
        [
          0.5201281905174255,
          1.4672502279281616,
          1.092480182647705,
          -0.06600207090377808,
          -0.52882981300354,
          0.8712257146835327,
          -0.15353627502918243,
          -0.11782894283533096,
          -0.830674409866333,
          -1.2174997329711914,
          -1.0607061386108398,
          -0.3305610418319702,
          0.12950140237808228,
          -0.8358126878738403,
          0.8324390649795532,
          0.7316437363624573,
          -0.7787235975265503,
          0.7587493062019348,
          0.05753650143742561,
          -2.4452900886535645,
          0.9180964827537537,
          0.5567507743835449,
          -1.329031229019165,
          -1.1815035343170166,
          0.2575027346611023,
          0.9148631691932678,
          0.807783305644989,
          -0.9919543862342834,
          0.7262721657752991,
          -0.5852397680282593,
          0.7050765752792358,
          1.1627295017242432
        ],
        [
          -0.13046729564666748,
          -0.10179806500673294,
          -1.3752384185791016,
          -1.0464754104614258,
          0.8753710389137268,
          0.24380402266979218,
          0.0389004684984684,
          -0.9893375635147095,
          -0.12453843653202057,
          0.6829714179039001,
          0.056573331356048584,
          0.6482363343238831,
          1.4483919143676758,
          0.18525007367134094,
          -1.9956400394439697,
          0.37435534596443176,
          1.1911633014678955,
          -0.14463280141353607,
          0.3776456117630005,
          -1.198893427848816,
          -1.3244857788085938,
          -0.8613095879554749,
          -1.1572927236557007,
          0.6527225375175476,
          -1.3329442739486694,
          0.33942702412605286,
          -0.6307223439216614,
          0.2849752902984619,
          -0.206892192363739,
          -1.2830383777618408,
          0.17611604928970337,
          0.502888560295105
        ],
        [
          0.1468842774629593,
          -0.20466573536396027,
          -0.9418656229972839,
          0.8596680760383606,
          -1.4564567804336548,
          0.4409722089767456,
          -1.3651865720748901,
          -1.613879919052124,
          0.7641769051551819,
          -0.38459283113479614,
          0.6297481656074524,
          0.5036455988883972,
          0.35089245438575745,
          -0.9282411932945251,
          -1.3807075023651123,
          0.41145849227905273,
          -0.7101159691810608,
          0.3424801528453827,
          0.426649272441864,
          -1.497823715209961,
          0.5881174802780151,
          -0.6855278015136719,
          0.7826427817344666,
          -0.378116637468338,
          -1.543365240097046,
          -1.7247284650802612,
          -0.36127257347106934,
          -0.8642076253890991,
          -1.3449983596801758,
          0.8510185480117798,
          0.06622066348791122,
          -0.8170098662376404
        ],
        [
          -0.31978559494018555,
          0.15620844066143036,
          -1.8630863428115845,
          -0.46763545274734497,
          -2.2167561054229736,
          -0.6813216805458069,
          1.6207058429718018,
          1.8120102882385254,
          -0.4187396466732025,
          -0.5256670117378235,
          -0.1806698590517044,
          -0.41737890243530273,
          -0.4704701900482178,
          0.9469693899154663,
          -1.4426552057266235,
          -0.9794941544532776,
          0.3173260986804962,
          -0.6833170652389526,
          -0.5840386748313904,
          1.295078158378601,
          -0.5600847601890564,
          0.4731416702270508,
          -0.19074690341949463,
          0.4753492772579193,
          1.8069789409637451,
          -1.9204856157302856,
          -1.612350344657898,
          -0.8844665884971619,
          -1.1427255868911743,
          -0.30413129925727844,
          -0.15488885343074799,
          -1.6436620950698853
        ],
        [
          -0.05276581272482872,
          -1.2448230981826782,
          -1.9048819541931152,
          -0.16295583546161652,
          -3.0501387119293213,
          0.07316359877586365,
          -0.2986329197883606,
          -1.2908276319503784,
          -2.0261754989624023,
          -1.4197157621383667,
          -0.6629436016082764,
          -0.7118136286735535,
          -0.25805917382240295,
          -0.3570687174797058,
          -1.5531489849090576,
          -1.421581745147705,
          -1.8763788938522339,
          -0.44755715131759644,
          -0.6791353821754456,
          -0.9208628535270691,
          -0.8068420886993408,
          -0.23877210915088654,
          -0.8067126274108887,
          -0.42151713371276855,
          -1.9053643941879272,
          -0.9369961023330688,
          -0.9845974445343018,
          -0.9296892881393433,
          -0.6297501921653748,
          -0.2454897165298462,
          -0.5717689990997314,
          -2.0199387073516846
        ]
      ],
      "bias": null
    }
  ],
  "metadata": {
    "task": "classification"
  }
}