{
  "benchmark_id": "S1",
  "series": "S",
  "architecture": "S1Net",
  "timesteps": 20,
  "precision": {
    "weight_bits": 4,
    "signed": true
  },
  "layers": [
    {
      "name": "fc1",
      "type": "linear",
      "in_features": 4,
      "out_features": 8,
      "weights": [
        [
          0.18425612151622772,
          -0.9191741943359375,
          0.49372366070747375,
          0.5054274797439575
        ],
        [
          0.22959734499454498,
          -0.5934289693832397,
          0.4518703520298004,
          -0.4913017153739929
        ],
        [
          1.0573445558547974,
          -0.15471547842025757,
          -0.01944231055676937,
          -0.41155382990837097
        ],
        [
          -0.020973337814211845,
          -0.21590717136859894,
          0.10878679901361465,
          0.556731104850769
        ],
        [
          -0.00854822900146246,
          0.9432170391082764,
          -0.566273033618927,
          0.6690587997436523
        ],
        [
          0.368878036737442,
          -0.659602165222168,
          0.2928069829940796,
          -0.31834936141967773
        ],
        [
          -0.5794444680213928,
          0.44369736313819885,
          0.16317172348499298,
          0.810565710067749
        ],
        [
          -0.46309396624565125,
          0.2933637499809265,
          0.702622652053833,
          0.29478633403778076
        ]
      ],
      "bias": null
    },
    {
      "name": "fc2",
      "type": "linear",
      "in_features": 8,
      "out_features": 3,
      "weights": [
        [
          -0.6133247017860413,
          -1.4835503101348877,
          0.9040431976318359,
          -0.4872097074985504,
          0.7492403388023376,
          -1.0007566213607788,
          -0.19315512478351593,
          -1.2885998487472534
        ],
        [
          0.7794097661972046,
          0.8660299777984619,
          0.12378302216529846,
          0.07294943183660507,
          -0.5563079118728638,
          1.0054950714111328,
          -0.9971877932548523,
          -0.8355599045753479
        ],
        [
          0.4640936255455017,
          -0.7333438396453857,
          -1.3244775533676147,
          0.48391100764274597,
          0.31155943870544434,
          -0.9060387015342712,
          0.5935044288635254,
          0.8589532375335693
        ]
      ],
      "bias": null
    }
  ],
  "metadata": {
    "task": "classification"
  }
}