{
  "benchmark_id": "S1",
  "series": "S",
  "architecture": "S1Net",
  "timesteps": 20,
  "precision": {
    "weight_bits": 4,
    "signed": true
  },
  "layers": [
    {
      "name": "fc1",
      "type": "linear",
      "in_features": 4,
      "out_features": 8,
      "weights": [
        [
          -0.030136268585920334,
          0.44046616554260254,
          -0.046078555285930634,
          0.8084821701049805
        ],
        [
          0.45645925402641296,
          -0.6634992361068726,
          0.15009212493896484,
          -0.47486090660095215
        ],
        [
          0.43698960542678833,
          -0.772478461265564,
          0.30402418971061707,
          -0.48064473271369934
        ],
        [
          0.5257632732391357,
          -0.530616044998169,
          0.6056886315345764,
          0.65605628490448
        ],
        [
          0.3101080656051636,
          0.4263666272163391,
          -0.14312170445919037,
          -0.29856792092323303
        ],
        [
          0.9634513258934021,
          -0.7164063453674316,
          -0.15249215066432953,
          -0.41029906272888184
        ],
        [
          0.15602336823940277,
          0.2016829252243042,
          -0.3784632980823517,
          -0.27767878770828247
        ],
        [
          0.027417637407779694,
          0.3253501355648041,
          -0.38115179538726807,
          -0.2295900583267212
        ]
      ],
      "bias": null
    },
    {
      "name": "fc2",
      "type": "linear",
      "in_features": 8,
      "out_features": 3,
      "weights": [
        [
          0.16701696813106537,
          -0.6293811202049255,
          -0.4544008672237396,
          -0.593357503414154,
          0.2714408338069916,
          0.42928823828697205,
          0.7854918837547302,
          0.8068174123764038
        ],
        [
          -0.7027273774147034,
          0.4416396915912628,
          0.6514298319816589,
          0.47109514474868774,
          -0.5298887491226196,
          0.647672712802887,
          -0.40560582280158997,
          -0.3477853536605835
        ],
        [
          0.8317137956619263,
          -1.2295329570770264,
          -0.44104576110839844,
          0.968664824962616,
          -0.5043298602104187,
          -0.7361274361610413,
          -0.8944257497787476,
          -0.4251823425292969
        ]
      ],
      "bias": null
    }
  ],
  "metadata": {
    "task": "classification"
  }
}