{
  "benchmark_id": "L2",
  "series": "L",
  "architecture": "L2Net",
  "timesteps": 25,
  "precision": {
    "weight_bits": 4,
    "signed": true
  },
  "layers": [
    {
      "name": "fc1",
      "type": "linear",
      "in_features": 4,
      "out_features": 32,
      "weights": [
        [
          0.8165034055709839,
          -1.6376482248306274,
          2.295794725418091,
          0.00500267930328846
        ],
        [
          -0.9476218819618225,
          0.43705224990844727,
          -0.3126620054244995,
          1.0226314067840576
        ],
        [
          -0.7719235420227051,
          0.06826097518205643,
          -1.2204030752182007,
          1.15071702003479
        ],
        [
          -1.4099605083465576,
          -1.8016363382339478,
          -2.756056785583496,
          2.628291130065918
        ],
        [
          0.6195430755615234,
          1.2730165719985962,
          -0.0668623149394989,
          -1.05331289768219
        ],
        [
          -1.4986742734909058,
          -0.13185419142246246,
          -4.026088237762451,
          1.0902801752090454
        ],
        [
          -0.377947598695755,
          -0.6105805039405823,
          0.7748680114746094,
          3.2775328159332275
        ],
        [
          -1.0615249872207642,
          0.27374696731567383,
          -2.238584518432617,
          0.9060631394386292
        ],
        [
          -0.8006227612495422,
          -0.9666813611984253,
          1.960263967514038,
          -0.1943950653076172
        ],
        [
          0.6182615756988525,
          1.5103071928024292,
          -0.5514619946479797,
          2.75929856300354
        ],
        [
          0.6279623508453369,
          0.9179748892784119,
          0.20480568706989288,
          -0.863353967666626
        ],
        [
          -0.2658050060272217,
          1.6086311340332031,
          0.49588295817375183,
          2.189272880554199
        ],
        [
          -0.30034339427948,
          -0.06790106743574142,
          0.5325550436973572,
          0.1342065930366516
        ],
        [
          -0.9381248950958252,
          -1.0589274168014526,
          0.8095187544822693,
          3.6106815338134766
        ],
        [
          -1.9993882179260254,
          -1.570753574371338,
          -2.5386338233947754,
          -1.0882582664489746
        ],
        [
          -1.9501605033874512,
          1.2477160692214966,
          0.5100156664848328,
          0.31869572401046753
        ],
        [
          -0.8243242502212524,
          1.2036703824996948,
          0.5409913063049316,
          2.116919994354248
        ],
        [
          -3.4529662132263184,
          1.8765475749969482,
          -1.7080342769622803,
          2.1793997287750244
        ],
        [
          3.052467107772827,
          -2.5094616413116455,
          -1.6171822547912598,
          0.12922453880310059
        ],
        [
          0.39363929629325867,
          1.6667637825012207,
          -0.16053447127342224,
          -1.2832973003387451
        ],
        [
          -0.9230493307113647,
          0.19335311651229858,
          -0.2759341597557068,
          1.7393611669540405
        ],
        [
          -0.144196555018425,
          0.012508753687143326,
          0.874567985534668,
          1.3775910139083862
        ],
        [
          0.7058240175247192,
          1.2660406827926636,
          -0.05157484486699104,
          -1.0630279779434204
        ],
        [
          -1.0977052450180054,
          0.24060814082622528,
          -1.8963665962219238,
          0.9883567094802856
        ],
        [
          -2.6024951934814453,
          2.378167152404785,
          -1.0759071111679077,
          0.8150299787521362
        ],
        [
          -0.8039816617965698,
          1.1739002466201782,
          0.5975309014320374,
          2.0947983264923096
        ],
        [
          0.3418887257575989,
          -3.7288413047790527,
          0.7596619725227356,
          -0.7703739404678345
        ],
        [
          -1.3430019617080688,
          -1.009177565574646,
          2.5131304264068604,
          -0.1518712043762207
        ],
        [
          -1.7448153495788574,
          1.1430838108062744,
          0.33693960309028625,
          0.38796502351760864
        ],
        [
          -1.530269980430603,
          0.25325486063957214,
          -2.7499232292175293,
          1.2587794065475464
        ],
        [
          -1.4900894165039062,
          -0.6489182710647583,
          0.5234103798866272,
          -0.6387505531311035
        ],
        [
          0.12387488037347794,
          2.060676097869873,
          -0.5491566061973572,
          -1.4055908918380737
        ]
      ],
      "bias": null
    },
    {
      "name": "fc2",
      "type": "linear",
      "in_features": 32,
      "out_features": 4,
      "weights": [
        [
          3.88542103767395,
          1.2279582023620605,
          0.8809760212898254,
          -2.0471744537353516,
          -4.293561935424805,
          0.8705571889877319,
          -1.7113147974014282,
          1.4052348136901855,
          -2.7864606380462646,
          -0.02428409829735756,
          -4.405489921569824,
          1.0142362117767334,
          0.09266313165426254,
          -1.6633473634719849,
          -0.5938259363174438,
          3.871990203857422,
          0.37408649921417236,
          -0.9666207432746887,
          2.6811976432800293,
          -2.8259518146514893,
          1.908860445022583,
          -0.08655685931444168,
          -3.8609039783477783,
          1.4129891395568848,
          0.015893936157226562,
          0.24532288312911987,
          1.8208719491958618,
          -2.259364128112793,
          2.2581074237823486,
          0.9316540956497192,
          1.28130304813385,
          -2.2919790744781494
        ],
        [
          -3.0105679035186768,
          -2.336310386657715,
          -1.9076694250106812,
          3.501847505569458,
          0.24484439194202423,
          -2.7987287044525146,
          3.730304479598999,
          -2.793569326400757,
          2.219766616821289,
          -2.568016529083252,
          0.7838209271430969,
          -2.85943603515625,
          -0.6264812350273132,
          3.744560718536377,
          1.4636168479919434,
          -2.16792893409729,
          -2.0469136238098145,
          4.2967963218688965,
          3.593076705932617,
          -0.39587074518203735,
          -2.8651740550994873,
          2.257714033126831,
          0.11971348524093628,
          -2.880600929260254,
          4.525129795074463,
          -1.4336483478546143,
          -1.1447944641113281,
          2.417710065841675,
          -1.9220759868621826,
          -2.962653636932373,
          -2.1800708770751953,
          -1.210705041885376
        ],
        [
          1.5434082746505737,
          -2.1045374870300293,
          -2.593514919281006,
          -4.756519794464111,
          0.4190864562988281,
          -1.9097087383270264,
          -3.1470980644226074,
          -3.67500901222229,
          -0.6970902681350708,
          3.075315475463867,
          0.6688533425331116,
          2.1637039184570312,
          0.00564624834805727,
          -3.8574328422546387,
          -0.5606468319892883,
          -3.0544729232788086,
          2.9496655464172363,
          -4.918568134307861,
          -1.747556209564209,
          0.8907726407051086,
          -7.080101490020752,
          -2.873748302459717,
          0.8009037375450134,
          -4.18819522857666,
          -3.141572952270508,
          2.8596298694610596,
          1.2820419073104858,
          -0.9030812978744507,
          -2.2700083255767822,
          -3.3598365783691406,
          1.8919250965118408,
          0.8923779726028442
        ],
        [
          -4.90362024307251,
          -1.5254300832748413,
          -0.8968644142150879,
          -3.0774195194244385,
          0.9828873872756958,
          -1.9181495904922485,
          -6.251336574554443,
          -0.40704649686813354,
          -1.2336395978927612,
          -0.8544280529022217,
          0.9357666969299316,
          -0.07929950952529907,
          0.051983918994665146,
          -5.448331356048584,
          1.245491623878479,
          -0.8137134313583374,
          -5.2709879875183105,
          -1.6871662139892578,
          -5.311462879180908,
          0.8176644444465637,
          -8.934422492980957,
          -3.5806047916412354,
          0.6940985918045044,
          -1.6297857761383057,
          -3.095423936843872,
          -3.420278549194336,
          -0.8193276524543762,
          0.9057379961013794,
          -0.6950685381889343,
          -0.11724607646465302,
          -2.083138942718506,
          1.3138408660888672
        ]
      ],
      "bias": null
    }
  ],
  "metadata": {
    "task": "classification"
  }
}