{
  "benchmark_id": "N2",
  "series": "N",
  "architecture": "N2Net",
  "timesteps": 20,
  "precision": {
    "weight_bits": 4,
    "signed": true
  },
  "layers": [
    {
      "name": "fc1",
      "type": "linear",
      "in_features": 8,
      "out_features": 64,
      "weights": [
        [
          0.2545369565486908,
          0.07747682929039001,
          0.06393612921237946,
          0.0033633641432970762,
          -0.18030086159706116,
          -0.33242031931877136,
          0.08115977048873901,
          -0.12518660724163055
        ],
        [
          0.022330844774842262,
          -0.1941138505935669,
          0.3369039297103882,
          0.17322643101215363,
          0.5276334285736084,
          0.01556692086160183,
          0.2768455743789673,
          0.19034165143966675
        ],
        [
          0.19012226164340973,
          0.23372885584831238,
          0.2222442477941513,
          0.21621061861515045,
          0.28305453062057495,
          -0.29488304257392883,
          0.15019822120666504,
          0.06338004767894745
        ],
        [
          -0.19593217968940735,
          -0.16516636312007904,
          -0.13012924790382385,
          -0.007316556293517351,
          -0.09108215570449829,
          0.13790671527385712,
          -0.1692471206188202,
          -0.06730208545923233
        ],
        [
          0.2664201259613037,
          -0.16560277342796326,
          0.07807062566280365,
          -0.007629522122442722,
          0.06384497135877609,
          0.009228941053152084,
          0.01455183606594801,
          0.16922983527183533
        ],
        [
          0.24146902561187744,
          -0.01494480762630701,
          0.2818368077278137,
          0.11290664225816727,
          -0.03512074425816536,
          0.12489842623472214,
          0.3930667042732239,
          0.10790114849805832
        ],
        [
          0.28475189208984375,
          -0.07769342511892319,
          0.020961886271834373,
          0.4678937792778015,
          0.05904826521873474,
          -0.1250627040863037,
          0.1328534185886383,
          0.3448318839073181
        ],
        [
          0.22389471530914307,
          -0.05553831532597542,
          -0.08127012848854065,
          -0.05370452255010605,
          0.13463051617145538,
          -0.11991458386182785,
          0.009912483394145966,
          0.01420911867171526
        ],
        [
          0.10423635691404343,
          -0.44943204522132874,
          -0.11217252910137177,
          -0.28922417759895325,
          -0.09505218267440796,
          0.2722161114215851,
          0.16233408451080322,
          -0.23065823316574097
        ],
        [
          -0.29433736205101013,
          -0.11886016279459,
          -0.32903963327407837,
          -0.1565452218055725,
          -0.003269713604822755,
          0.136394664645195,
          -0.12633274495601654,
          -0.2409345656633377
        ],
        [
          0.13710685074329376,
          -0.30419817566871643,
          -0.14512899518013,
          -0.013185299932956696,
          0.18490555882453918,
          -0.11355593055486679,
          0.15879884362220764,
          -0.01151217706501484
        ],
        [
          -0.28193598985671997,
          0.42136141657829285,
          -0.18757157027721405,
          0.5023909211158752,
          0.03998442739248276,
          -0.3275490999221802,
          0.15842165052890778,
          0.31218209862709045
        ],
        [
          -0.07060937583446503,
          0.15216737985610962,
          0.19911010563373566,
          0.5106855034828186,
          0.13342459499835968,
          -0.31234538555145264,
          0.02967802993953228,
          0.19530846178531647
        ],
        [
          -0.08616188168525696,
          0.4291791021823883,
          -0.19991028308868408,
          0.11467771977186203,
          0.3550387918949127,
          -0.23162348568439484,
          0.03884563222527504,
          0.2604275345802307
        ],
        [
          -0.20515213906764984,
          -0.09898767620325089,
          -0.15178677439689636,
          0.2649913728237152,
          -0.2532345950603485,
          0.18144312500953674,
          0.38526540994644165,
          -0.04982903599739075
        ],
        [
          0.2776128351688385,
          -0.16737806797027588,
          0.05601531267166138,
          -0.07818400859832764,
          0.07981657236814499,
          -0.22663754224777222,
          -0.03699801489710808,
          0.064429871737957
        ],
        [
          -0.17369873821735382,
          -0.33348560333251953,
          -0.8954241871833801,
          0.050577741116285324,
          0.4143573045730591,
          0.21201080083847046,
          0.08571890741586685,
          0.41471585631370544
        ],
        [
          -0.37361958622932434,
          0.10607346147298813,
          -0.17917779088020325,
          -0.25306135416030884,
          0.13156990706920624,
          0.3496771454811096,
          -0.28209733963012695,
          -0.09158729016780853
        ],
        [
          0.13915930688381195,
          -0.3932059705257416,
          0.0038732956163585186,
          -0.3644876182079315,
          0.26801609992980957,
          -0.008115937002003193,
          -0.259405255317688,
          0.18733662366867065
        ],
        [
          -0.18207399547100067,
          -0.4045894742012024,
          -0.17988674342632294,
          -0.2788994312286377,
          -0.31259819865226746,
          -0.01270222943276167,
          -0.25239071249961853,
          -0.40428629517555237
        ],
        [
          0.19552306830883026,
          0.18949918448925018,
          -0.09909806400537491,
          -0.15916180610656738,
          -0.04390818625688553,
          0.38130733370780945,
          0.20548002421855927,
          0.17728587985038757
        ],
        [
          0.09442095458507538,
          -0.2989158034324646,
          -0.07888782024383545,
          -0.11747871339321136,
          -0.12519340217113495,
          0.3947497308254242,
          -0.09442056715488434,
          -0.09664001315832138
        ],
        [
          -0.7016424536705017,
          0.05509323999285698,
          -0.243178129196167,
          0.3366714119911194,
          0.36699965596199036,
          0.0008923319401219487,
          -0.023928504437208176,
          0.25185084342956543
        ],
        [
          -0.0318378321826458,
          0.20656779408454895,
          -0.13054558634757996,
          -0.40776753425598145,
          -0.5405376553535461,
          0.14389699697494507,
          -0.16197268664836884,
          0.12364134192466736
        ],
        [
          -0.32572007179260254,
          -0.35830169916152954,
          0.058715157210826874,
          0.025046074762940407,
          -0.41662830114364624,
          0.27499568462371826,
          -0.0684259757399559,
          0.06755635887384415
        ],
        [
          -0.19633348286151886,
          0.09510325640439987,
          0.014427900314331055,
          0.27726513147354126,
          0.052969664335250854,
          0.32144418358802795,
          -0.3121870756149292,
          -0.30327314138412476
        ],
        [
          -0.4771066904067993,
          -0.5184268355369568,
          -0.017366809770464897,
          0.15298578143119812,
          0.3711661696434021,
          0.4671489894390106,
          0.02372732199728489,
          0.48939916491508484
        ],
        [
          -0.3056294023990631,
          -0.1456022411584854,
          -0.01037233043462038,
          0.2835143804550171,
          -0.10763857513666153,
          0.2551540732383728,
          0.20570601522922516,
          -0.03444860875606537
        ],
        [
          0.2810188829898834,
          0.24982118606567383,
          -0.06878376752138138,
          0.3729737102985382,
          0.17315861582756042,
          0.18868488073349,
          0.27390289306640625,
          0.3187570869922638
        ],
        [
          0.33274903893470764,
          -0.07104095816612244,
          -0.09018564224243164,
          -0.13561245799064636,
          0.03104424849152565,
          -0.0940261110663414,
          0.28193891048431396,
          -0.07329925149679184
        ],
        [
          -0.4877990484237671,
          -0.03818964213132858,
          -0.24824780225753784,
          -0.28144586086273193,
          0.09883859008550644,
          0.23375719785690308,
          -0.3697705864906311,
          -0.15847599506378174
        ],
        [
          -0.3421640694141388,
          0.627434492111206,
          -0.8933277726173401,
          0.22413545846939087,
          -0.011620922014117241,
          0.06497564911842346,
          0.030917758122086525,
          0.9053322076797485
        ],
        [
          -0.14426672458648682,
          -0.10105964541435242,
          0.08613105118274689,
          -0.020210081711411476,
          0.28301769495010376,
          -0.15530918538570404,
          -0.015787603333592415,
          -0.3436891734600067
        ],
        [
          -0.2801397144794464,
          -0.03348570689558983,
          -0.3550291061401367,
          0.27737078070640564,
          0.05202929303050041,
          0.164822056889534,
          0.0520317517220974,
          0.011596065014600754
        ],
        [
          0.13887786865234375,
          -0.16268950700759888,
          0.04481130465865135,
          0.03798242658376694,
          0.1482905000448227,
          0.012228786014020443,
          -0.03798177093267441,
          -0.007435292471200228
        ],
        [
          0.2877780497074127,
          0.28991296887397766,
          -0.19174061715602875,
          0.15332233905792236,
          -0.25419318675994873,
          0.6387701034545898,
          -0.10127671808004379,
          0.28193584084510803
        ],
        [
          0.15292677283287048,
          0.0006998085300438106,
          -0.024762947112321854,
          0.146994486451149,
          -0.3339230716228485,
          0.011623739264905453,
          -0.14577336609363556,
          0.19530829787254333
        ],
        [
          -0.2745729982852936,
          0.27853888273239136,
          -0.2830301821231842,
          0.3426715135574341,
          -0.40507209300994873,
          0.038696546107530594,
          0.24505868554115295,
          -0.33603474497795105
        ],
        [
          0.24695385992527008,
          -0.32381799817085266,
          0.14428947865962982,
          -0.3527982234954834,
          0.05813034996390343,
          0.35902225971221924,
          -0.1337430775165558,
          -0.22937630116939545
        ],
        [
          -0.310517817735672,
          -0.2293073982000351,
          0.10315117985010147,
          -0.11108716577291489,
          -0.33829084038734436,
          0.36458316445350647,
          -0.14833898842334747,
          -0.2216232568025589
        ],
        [
          0.30197227001190186,
          0.0368831567466259,
          0.0066984412260353565,
          -0.2775956690311432,
          -0.06932038068771362,
          0.15627452731132507,
          -0.09843696653842926,
          0.1893978714942932
        ],
        [
          0.26868507266044617,
          -0.24120299518108368,
          -0.01332230493426323,
          -0.17207717895507812,
          0.2641456127166748,
          -0.2026910036802292,
          -0.002068537287414074,
          0.025781970471143723
        ],
        [
          -0.3729327917098999,
          0.12359323352575302,
          -0.12296799570322037,
          0.4949735105037689,
          -0.46067312359809875,
          0.20729756355285645,
          0.28691521286964417,
          -0.07279142737388611
        ],
        [
          0.23091229796409607,
          0.2809358835220337,
          0.05930878967046738,
          0.22088143229484558,
          0.31844013929367065,
          0.12918797135353088,
          0.2697637677192688,
          0.1375991255044937
        ],
        [
          0.210579052567482,
          0.08754387497901917,
          0.08910287916660309,
          0.003989586140960455,
          -0.1413731724023819,
          -0.28211885690689087,
          0.08563486486673355,
          -0.1520058959722519
        ],
        [
          -0.2902258038520813,
          -0.22500811517238617,
          -0.03888722136616707,
          0.1373426914215088,
          0.20175965130329132,
          0.5415263175964355,
          0.11894386261701584,
          0.4453096091747284
        ],
        [
          -0.16384653747081757,
          0.15061627328395844,
          -0.33881375193595886,
          -0.09162577986717224,
          0.4417656362056732,
          0.4173121452331543,
          0.18272189795970917,
          0.5133459568023682
        ],
        [
          -0.16773389279842377,
          -0.03515814617276192,
          0.2861630618572235,
          0.25680288672447205,
          -0.009498880244791508,
          -0.1901143193244934,
          0.019346138462424278,
          0.07559002190828323
        ],
        [
          -0.13944977521896362,
          -0.4332740902900696,
          -0.10863398760557175,
          -0.35203397274017334,
          0.31917592883110046,
          0.16233278810977936,
          -0.13330520689487457,
          -0.13639980554580688
        ],
        [
          0.23600821197032928,
          -0.23403003811836243,
          -0.40394356846809387,
          0.2460058331489563,
          -0.2223728448152542,
          0.37610217928886414,
          -0.14572928845882416,
          -0.11609448492527008
        ],
        [
          -0.35365429520606995,
          -0.1200188547372818,
          -0.0007165856077335775,
          0.4785691201686859,
          0.3171568512916565,
          -0.18792222440242767,
          -0.025320952758193016,
          -0.036906469613313675
        ],
        [
          -0.004163390025496483,
          -0.21754959225654602,
          0.3210611045360565,
          -0.11403495818376541,
          -0.033484477549791336,
          -0.3438737094402313,
          0.311331182718277,
          -0.40702807903289795
        ],
        [
          -0.032611921429634094,
          -0.03612105920910835,
          -0.04452132433652878,
          0.04029213264584541,
          -0.3584743142127991,
          -0.0013257075333967805,
          0.2781984508037567,
          0.2975347936153412
        ],
        [
          -0.38565635681152344,
          -0.21902117133140564,
          -0.028413129970431328,
          -0.26797252893447876,
          0.20091953873634338,
          -0.15737177431583405,
          -0.07526145130395889,
          -0.37224307656288147
        ],
        [
          -0.2242763191461563,
          0.45158860087394714,
          -0.1135120764374733,
          0.08887577801942825,
          0.10783862322568893,
          0.2982129454612732,
          0.06995121389627457,
          0.16764912009239197
        ],
        [
          0.2425466924905777,
          0.12033983319997787,
          0.09111598134040833,
          -0.05921594426035881,
          -0.1251973658800125,
          -0.3080621659755707,
          0.11395841836929321,
          -0.11490635573863983
        ],
        [
          -0.10781023651361465,
          0.48828810453414917,
          0.21314950287342072,
          0.5707101225852966,
          0.13546565175056458,
          0.032438576221466064,
          0.06597047299146652,
          0.17424514889717102
        ],
        [
          0.40280723571777344,
          -0.13592062890529633,
          0.21669474244117737,
          -0.128386989235878,
          -0.08008156716823578,
          -0.04744448512792587,
          0.20414264500141144,
          0.007812013849616051
        ],
        [
          -0.18216417729854584,
          -0.0005789456772617996,
          -0.1135743111371994,
          0.31875768303871155,
          -0.4609220027923584,
          0.14976352453231812,
          0.3605443239212036,
          0.48116955161094666
        ],
        [
          -0.6702834963798523,
          -0.23084986209869385,
          0.061331607401371,
          0.19577959179878235,
          0.0656280443072319,
          0.2504783570766449,
          0.27615123987197876,
          0.5372198820114136
        ],
        [
          -0.25416696071624756,
          0.485137939453125,
          0.4406326711177826,
          0.2538902759552002,
          -0.3851505219936371,
          0.5314486026763916,
          0.34725454449653625,
          0.04778500273823738
        ],
        [
          0.4490817189216614,
          0.005567799787968397,
          -0.066792793571949,
          -0.22682318091392517,
          0.09008055925369263,
          -0.06889216601848602,
          0.23677842319011688,
          -0.07438433915376663
        ],
        [
          -0.7640730738639832,
          0.13041125237941742,
          0.3157116770744324,
          0.3560735583305359,
          0.2220337688922882,
          0.44864851236343384,
          -0.2239895910024643,
          -0.01993112824857235
        ],
        [
          0.3610985279083252,
          -0.05756581574678421,
          8.178855932783335e-05,
          -0.09938671439886093,
          0.022020479664206505,
          -0.07178734987974167,
          0.11829571425914764,
          -0.1177058294415474
        ]
      ],
      "bias": null
    },
    {
      "name": "fc2",
      "type": "linear",
      "in_features": 64,
      "out_features": 6,
      "weights": [
        [
          0.3769523501396179,
          0.002911669434979558,
          0.03756677731871605,
          -0.8422284126281738,
          0.6750641465187073,
          0.018706953153014183,
          0.14815637469291687,
          0.38645830750465393,
          -1.375546932220459,
          -1.2204008102416992,
          0.2413472980260849,
          0.11181849241256714,
          0.12435272336006165,
          0.32529523968696594,
          -0.8204978108406067,
          0.32351869344711304,
          -1.5248486995697021,
          -0.7496217489242554,
          -0.627949595451355,
          -2.1477410793304443,
          -0.492114782333374,
          -1.188978910446167,
          -0.34780779480934143,
          -1.4620305299758911,
          -0.24768033623695374,
          -0.12420633435249329,
          -1.398531198501587,
          -0.2842048704624176,
          -0.07049115747213364,
          0.4164387285709381,
          -0.6312049031257629,
          -1.3181096315383911,
          0.20730793476104736,
          -0.07477184385061264,
          0.22509591281414032,
          -0.741458535194397,
          -0.10572384297847748,
          -1.3690783977508545,
          -0.31269165873527527,
          -1.0953810214996338,
          -1.9633711576461792,
          1.4160832166671753,
          -1.488214135169983,
          0.10046626627445221,
          0.2842049300670624,
          -0.5407123565673828,
          -0.3687320351600647,
          0.2966000735759735,
          -1.1791305541992188,
          -0.1863100379705429,
          0.16759727895259857,
          0.359422892332077,
          -0.2002711445093155,
          -0.15371663868427277,
          -0.1625179797410965,
          0.479726105928421,
          0.08553643524646759,
          1.134476900100708,
          -0.7378936409950256,
          -0.8761834502220154,
          -0.7734180688858032,
          0.42722180485725403,
          -1.071787714958191,
          0.12789027392864227
        ],
        [
          -0.515045166015625,
          0.29892322421073914,
          0.2833925485610962,
          -0.49763619899749756,
          -0.2899852991104126,
          0.012212974950671196,
          0.3368431329727173,
          -0.6176235675811768,
          -0.7895078063011169,
          -0.9021257162094116,
          -0.13267846405506134,
          0.2239941954612732,
          0.27218735218048096,
          0.34156256914138794,
          0.2521977424621582,
          -0.540176510810852,
          0.06157563999295235,
          -0.650118887424469,
          -0.4520232677459717,
          -3.1929543018341064,
          -0.08179965615272522,
          -0.7156842350959778,
          0.28392264246940613,
          -1.5155444145202637,
          -0.23878130316734314,
          0.15773144364356995,
          0.24051332473754883,
          0.22955822944641113,
          0.21196964383125305,
          -0.4627882242202759,
          -0.5052229762077332,
          1.5785694122314453,
          -0.3712177574634552,
          0.29175466299057007,
          -0.1592208296060562,
          0.16013985872268677,
          -0.0032650853972882032,
          0.918596088886261,
          -0.4782799780368805,
          -1.235237717628479,
          -1.1511245965957642,
          -0.894127368927002,
          1.137714147567749,
          0.2458287626504898,
          -0.473354309797287,
          0.3239227831363678,
          0.1715853363275528,
          0.023791417479515076,
          -0.6915514469146729,
          -0.08378191292285919,
          0.33244332671165466,
          -0.38213855028152466,
          -0.040142834186553955,
          -0.5386571288108826,
          0.2915130853652954,
          -0.4823821485042572,
          0.2597188651561737,
          -0.888843297958374,
          0.7158772349357605,
          0.7812618017196655,
          0.3822091817855835,
          -0.4331696033477783,
          0.8108253479003906,
          -0.6397330164909363
        ],
        [
          0.857649564743042,
          -0.6920061707496643,
          -0.33133795857429504,
          -0.018043411895632744,
          -0.0808480903506279,
          0.5981006622314453,
          -0.5913892984390259,
          -0.5962107181549072,
          0.21149195730686188,
          -0.025420941412448883,
          -0.24685846269130707,
          -1.518782377243042,
          -0.5063250660896301,
          -1.2356288433074951,
          0.29270878434181213,
          -0.18521711230278015,
          -1.302545428276062,
          -1.5610802173614502,
          -0.6768078207969666,
          0.36753472685813904,
          0.1536073088645935,
          0.6997779607772827,
          -0.7857378721237183,
          0.20408007502555847,
          0.29054316878318787,
          -0.2393823266029358,
          -1.0720722675323486,
          0.06101646646857262,
          -0.31920647621154785,
          0.21728532016277313,
          -1.0857999324798584,
          -0.29347482323646545,
          -0.46369749307632446,
          -0.5195100903511047,
          -0.6600368618965149,
          0.2719375789165497,
          0.20149318873882294,
          0.3938983082771301,
          0.2453601062297821,
          0.2698840796947479,
          0.13848038017749786,
          -1.3272801637649536,
          0.2353041172027588,
          -0.6226793527603149,
          0.2805083692073822,
          -1.276500940322876,
          -1.610457420349121,
          -0.938364565372467,
          -1.1176948547363281,
          0.18904739618301392,
          -0.37655913829803467,
          0.15817371010780334,
          0.1721762865781784,
          -0.2969526946544647,
          -0.20499762892723083,
          0.2320316731929779,
          -0.4578225016593933,
          0.05475287511944771,
          0.13381658494472504,
          -0.04961187765002251,
          2.7454442977905273,
          0.19288329780101776,
          -1.4736872911453247,
          0.2672175467014313
        ],
        [
          -1.839415192604065,
          0.16193930804729462,
          -0.11356361955404282,
          -0.3424299359321594,
          0.10606348514556885,
          0.26821520924568176,
          0.13569629192352295,
          0.30552420020103455,
          0.354996919631958,
          -0.6729211211204529,
          0.2747676372528076,
          -0.6195297241210938,
          -0.47548046708106995,
          -1.1242189407348633,
          -1.4016937017440796,
          0.23909267783164978,
          0.4157480299472809,
          -0.35931870341300964,
          0.35587266087532043,
          -2.3628430366516113,
          0.44395527243614197,
          0.23593614995479584,
          -0.3324059545993805,
          -0.9138039946556091,
          -0.7590977549552917,
          -0.2572871446609497,
          0.3018513023853302,
          -0.36148208379745483,
          0.2733079791069031,
          0.3540271818637848,
          -0.37873420119285583,
          -0.8799512982368469,
          -0.2546011209487915,
          -0.9178395867347717,
          0.1045524999499321,
          0.1533937156200409,
          -0.046788670122623444,
          -2.433682441711426,
          0.2208346128463745,
          -0.6625603437423706,
          0.4656292498111725,
          0.2078130841255188,
          -2.3257572650909424,
          0.4086504578590393,
          -2.3109052181243896,
          0.30203524231910706,
          0.4209359884262085,
          -0.7542614936828613,
          0.37513139843940735,
          0.1921885758638382,
          -0.6371674537658691,
          -0.6012153625488281,
          -0.22175848484039307,
          -0.49663108587265015,
          -0.3324171304702759,
          -1.4871925115585327,
          -0.553215742111206,
          0.3115778863430023,
          -0.05677111819386482,
          -0.3209901750087738,
          -3.4549617767333984,
          0.2669355571269989,
          -0.5174295902252197,
          0.25784412026405334
        ],
        [
          -0.3013642132282257,
          0.13106772303581238,
          -0.48663491010665894,
          0.5616543889045715,
          -0.06343089044094086,
          -0.5947761535644531,
          -0.4727882146835327,
          -0.2368021160364151,
          0.2917439341545105,
          1.2274377346038818,
          0.20680925250053406,
          -0.4627114534378052,
          -0.4055922031402588,
          -0.7764910459518433,
          -0.188136488199234,
          -0.22575677931308746,
          0.05844302475452423,
          0.48744893074035645,
          0.3076119124889374,
          0.038094501942396164,
          -0.5544993877410889,
          0.2244866043329239,
          0.11914294213056564,
          -0.16856153309345245,
          0.5869325399398804,
          0.4387415945529938,
          0.1410459578037262,
          0.2094496786594391,
          -0.44836166501045227,
          -0.7214205861091614,
          0.28451380133628845,
          -2.1911978721618652,
          0.5592312812805176,
          0.7074300050735474,
          -0.014400782063603401,
          -0.6442702412605286,
          -0.17124441266059875,
          -0.39376217126846313,
          0.16111327707767487,
          0.29540035128593445,
          -0.879487156867981,
          -0.07099086046218872,
          -0.5197591781616211,
          -0.5782073140144348,
          -0.29899972677230835,
          0.18238040804862976,
          0.1384086310863495,
          -0.40407299995422363,
          0.17375916242599487,
          0.17956185340881348,
          0.18485650420188904,
          -0.13905148208141327,
          -0.3037128746509552,
          0.37491604685783386,
          -0.2467358559370041,
          -0.3116469383239746,
          -0.5681679248809814,
          -0.5559702515602112,
          -0.5183364748954773,
          0.28868377208709717,
          -2.3536956310272217,
          -0.6373280882835388,
          0.3089781105518341,
          -0.5766656398773193
        ],
        [
          -0.25011250376701355,
          -0.20318657159805298,
          -0.2828412353992462,
          -0.1872824728488922,
          -0.1770571917295456,
          -0.3557772636413574,
          -0.2849445044994354,
          -0.26329678297042847,
          -0.3416104018688202,
          -0.41076815128326416,
          -0.1421467661857605,
          -0.4885402023792267,
          -0.30624285340309143,
          -0.5314383506774902,
          -0.3420041799545288,
          -0.11806672811508179,
          -0.4316645860671997,
          -0.5738111138343811,
          -0.14571139216423035,
          -0.4421471059322357,
          -0.405885249376297,
          -0.4824348986148834,
          -0.3807535171508789,
          -0.2457892745733261,
          -0.2477152794599533,
          -0.14187513291835785,
          -0.4262596368789673,
          -0.06335041671991348,
          -0.2601529657840729,
          -0.36721867322921753,
          -0.19828678667545319,
          -1.877543330192566,
          -0.13090267777442932,
          -0.2923397421836853,
          -0.14745494723320007,
          -0.32762646675109863,
          -0.023482192307710648,
          -0.4397466778755188,
          -0.33048611879348755,
          -0.1768621951341629,
          -0.4807122051715851,
          -0.4065532386302948,
          -0.3249766528606415,
          -0.27947521209716797,
          -0.16547977924346924,
          -0.21424129605293274,
          -0.4693796932697296,
          -0.4564056396484375,
          -0.38167887926101685,
          -0.13110487163066864,
          -0.24370445311069489,
          -0.26575949788093567,
          -0.24775652587413788,
          -0.19155728816986084,
          -0.10861562192440033,
          -0.48078209161758423,
          -0.21661651134490967,
          -0.43699342012405396,
          -0.28086814284324646,
          -0.28244152665138245,
          -2.381986379623413,
          -0.20601129531860352,
          -0.33282724022865295,
          -0.19516904652118683
        ]
      ],
      "bias": null
    }
  ],
  "metadata": {
    "task": "classification"
  }
}