{
  "benchmark_id": "E1",
  "series": "E",
  "architecture": "E1Net",
  "timesteps": 20,
  "precision": {
    "weight_bits": 4,
    "signed": true
  },
  "layers": [
    {
      "name": "fc1",
      "type": "linear",
      "in_features": 8,
      "out_features": 32,
      "weights": [
        [
          -0.0,
          -0.0,
          -0.0,
          0.0,
          -0.0,
          -0.0,
          0.0,
          -0.0
        ],
        [
          -0.0,
          -0.0,
          -0.0,
          0.0,
          0.0,
          -0.0,
          0.3948521018028259,
          0.4621572494506836
        ],
        [
          -0.0,
          1.2038555145263672,
          -0.0,
          -0.594366729259491,
          0.6736913919448853,
          -0.173166885972023,
          -0.0,
          0.0
        ],
        [
          -0.0,
          -1.164851427078247,
          -0.7485679984092712,
          0.0,
          -0.0,
          -0.0,
          0.0,
          -0.0
        ],
        [
          -0.0,
          -0.0,
          -1.1522380113601685,
          -0.0,
          -0.0,
          -0.0,
          0.0,
          0.0
        ],
        [
          -0.0,
          0.617634654045105,
          -0.0,
          -0.0,
          -0.3936687111854553,
          0.5408199429512024,
          1.7298749685287476,
          0.0
        ],
        [
          -0.3684471845626831,
          -0.3707742989063263,
          -0.0,
          0.8217526078224182,
          -0.0,
          -0.0,
          0.0,
          0.0
        ],
        [
          0.0,
          0.10986622422933578,
          0.0,
          0.0,
          -0.7176130414009094,
          0.0,
          0.0,
          -0.0
        ],
        [
          -0.0,
          0.0,
          -1.1210497617721558,
          -0.0,
          0.0,
          0.03327988088130951,
          -0.0,
          0.0
        ],
        [
          -1.6501970291137695,
          0.0,
          -0.0,
          -0.0,
          0.0,
          0.6435978412628174,
          -0.0,
          0.0
        ],
        [
          0.8331749439239502,
          -0.0,
          0.0,
          -0.0,
          -0.0,
          0.0,
          0.0,
          -0.0
        ],
        [
          -0.7811093330383301,
          -0.0,
          -0.0,
          0.0,
          -0.0,
          -0.7845757603645325,
          0.0,
          0.0
        ],
        [
          0.0,
          0.3826608955860138,
          0.0,
          0.0,
          -0.0,
          0.0,
          -0.0,
          -0.0
        ],
        [
          0.8731153011322021,
          0.0964825302362442,
          0.0,
          0.0,
          0.0,
          0.5357370376586914,
          -0.0,
          -0.0
        ],
        [
          -0.0,
          -0.8821922540664673,
          -0.0,
          0.0,
          -0.0,
          -0.0,
          0.0,
          0.0
        ],
        [
          0.0,
          0.0,
          0.0,
          0.0,
          -1.042829155921936,
          0.0,
          -0.0,
          -0.5737119913101196
        ],
        [
          -0.0,
          -0.08270382136106491,
          -0.0,
          0.0,
          -0.3972679078578949,
          -0.45624488592147827,
          0.09434473514556885,
          -0.0
        ],
        [
          0.0,
          -0.0,
          -0.0,
          0.0,
          -0.0,
          -0.47392579913139343,
          0.44548866152763367,
          -0.0
        ],
        [
          0.0,
          -0.0,
          -0.0,
          -0.06299102306365967,
          -0.0,
          0.0,
          -0.0,
          -0.12247797846794128
        ],
        [
          -0.6364760994911194,
          0.0,
          -1.2726866006851196,
          -0.0,
          2.167025327682495,
          0.0,
          -1.2006042003631592,
          0.0
        ],
        [
          -0.5081707835197449,
          -0.0,
          -0.0,
          -0.0,
          0.0,
          -0.0,
          -0.24909082055091858,
          0.7864612936973572
        ],
        [
          -0.0,
          0.03646860271692276,
          -0.4797062277793884,
          -0.8867385387420654,
          0.0,
          -0.0,
          0.0,
          0.0
        ],
        [
          0.0,
          0.0,
          0.0,
          0.0,
          0.0,
          0.0,
          -0.0,
          -2.113389492034912
        ],
        [
          0.7230470776557922,
          -0.0,
          0.0,
          -0.0,
          -0.0,
          0.0,
          0.0,
          -0.0
        ],
        [
          -0.0,
          0.0,
          -0.0,
          -0.26010337471961975,
          -0.0,
          0.0,
          -0.0,
          -0.16165250539779663
        ],
        [
          0.0,
          -0.0,
          0.006537549663335085,
          0.35399624705314636,
          -0.49824586510658264,
          -0.48457464575767517,
          0.0,
          -0.0
        ],
        [
          0.6409382224082947,
          0.5766831636428833,
          -0.0,
          0.643545389175415,
          0.0,
          -0.0,
          -0.0,
          0.0
        ],
        [
          0.0,
          0.0,
          0.0,
          0.0,
          0.0,
          1.324451208114624,
          -0.0,
          -0.747399628162384
        ],
        [
          0.1164105236530304,
          0.0,
          -0.0,
          0.0,
          0.0,
          -0.0,
          -0.0,
          0.0
        ],
        [
          0.03982679918408394,
          0.0,
          -0.0,
          1.5567351579666138,
          0.0,
          -0.0,
          -0.0,
          0.0
        ],
        [
          -1.5641266107559204,
          0.0,
          -0.0,
          -0.0,
          0.0,
          -0.19520549476146698,
          0.0,
          0.0
        ],
        [
          -0.0,
          0.8848590850830078,
          -0.0,
          -0.0,
          0.0,
          -1.0866544246673584,
          -0.0,
          0.0
        ]
      ],
      "bias": null
    },
    {
      "name": "fc2",
      "type": "linear",
      "in_features": 32,
      "out_features": 4,
      "weights": [
        [
          0.01830345392227173,
          0.7510887980461121,
          -3.4464221000671387,
          1.1650725603103638,
          0.0,
          0.0,
          0.0,
          0.3988373875617981,
          0.0,
          0.0,
          -3.2801191806793213,
          0.7939048409461975,
          -0.0,
          -0.0,
          1.0580594539642334,
          0.0,
          0.475588321685791,
          2.3944203853607178,
          -0.0,
          -2.67515230178833,
          -0.0,
          -0.0,
          -4.552252292633057,
          -0.0,
          -0.0,
          0.41007912158966064,
          -0.0,
          -2.3964154720306396,
          -0.0,
          0.6672109365463257,
          0.8218873739242554,
          0.0
        ],
        [
          -0.0,
          -0.0,
          0.0,
          -0.0,
          -0.7856975793838501,
          -3.043454647064209,
          -0.0,
          -0.0,
          0.0,
          -0.0,
          0.0,
          -0.0,
          0.0,
          1.043887972831726,
          -0.0,
          -0.0,
          -0.0,
          -0.0,
          -0.0,
          0.0,
          -0.0,
          -0.0,
          -0.0,
          -0.0,
          -0.0,
          -0.0,
          1.393191933631897,
          0.0,
          -0.0,
          1.5550415515899658,
          -5.322598457336426,
          -0.0
        ],
        [
          -0.0,
          0.0,
          0.0,
          -3.719698190689087,
          0.0,
          0.0,
          -0.0,
          -0.0,
          0.7061167359352112,
          2.1377813816070557,
          -0.0,
          0.0,
          -0.10785459727048874,
          -0.0,
          -0.0,
          -2.702169179916382,
          -0.0,
          -0.0,
          -0.0,
          0.0,
          1.1959564685821533,
          1.3280694484710693,
          -4.802796840667725,
          -0.0,
          0.0,
          -2.582151174545288,
          -0.0,
          -2.2890238761901855,
          -0.0,
          -0.0,
          0.0,
          0.5758107900619507
        ],
        [
          0.0,
          -3.4004924297332764,
          -1.9975515604019165,
          -0.0,
          -0.0,
          0.0,
          -1.7954761981964111,
          1.2046791315078735,
          -0.0,
          -2.2422287464141846,
          1.2988886833190918,
          -3.391177177429199,
          -0.0,
          0.5190273523330688,
          -2.7180638313293457,
          0.0,
          -0.0,
          -0.0,
          0.0,
          -3.0007193088531494,
          -0.0,
          -0.0,
          0.0,
          1.1550780534744263,
          0.0,
          -0.1658722162246704,
          -0.0,
          0.0,
          0.0,
          -2.449791193008423,
          -0.0,
          -0.0
        ]
      ],
      "bias": null
    }
  ],
  "metadata": {
    "task": "classification"
  }
}