{
  "benchmark_id": "N4",
  "series": "N",
  "architecture": "N4Net",
  "timesteps": 20,
  "precision": {
    "weight_bits": 4,
    "signed": true
  },
  "layers": [
    {
      "name": "fc1",
      "type": "linear",
      "in_features": 16,
      "out_features": 128,
      "weights": [
        [
          0.24705266952514648,
          -0.17852629721164703,
          0.07187024503946304,
          0.0256979800760746,
          0.13091199100017548,
          -0.08286059647798538,
          0.10920733213424683,
          0.08973830938339233,
          0.13090330362319946,
          0.036035675555467606,
          0.1548905223608017,
          -0.10721258074045181,
          -0.09435015171766281,
          0.017496125772595406,
          0.21015864610671997,
          0.04793380945920944
        ],
        [
          -0.04397164657711983,
          0.0891648605465889,
          -0.10287098586559296,
          0.0387565940618515,
          -0.21563924849033356,
          -0.22265410423278809,
          -0.2033330500125885,
          0.2020762860774994,
          0.11385968327522278,
          -0.06252603977918625,
          0.2615157961845398,
          0.03170735388994217,
          -0.1828204244375229,
          -0.20542146265506744,
          -0.13485309481620789,
          0.2076876163482666
        ],
        [
          -0.08284226804971695,
          0.06715020537376404,
          0.018949337303638458,
          0.11942236870527267,
          -0.15433314442634583,
          0.14544256031513214,
          0.09259588271379471,
          -0.025299975648522377,
          -0.10574553161859512,
          -0.025788161903619766,
          -0.14279113709926605,
          0.19832298159599304,
          -0.261121928691864,
          -0.16895602643489838,
          -0.0034991137217730284,
          -0.1522975116968155
        ],
        [
          0.035293951630592346,
          0.19658325612545013,
          -0.17504720389842987,
          0.28608468174934387,
          0.05532050132751465,
          0.17012687027454376,
          -0.196971133351326,
          -0.11868511140346527,
          -0.09164904057979584,
          -0.2303353101015091,
          -0.19487302005290985,
          0.11410733312368393,
          -0.07699757814407349,
          0.16315995156764984,
          -0.11181272566318512,
          0.222963348031044
        ],
        [
          -0.020786084234714508,
          -0.15481047332286835,
          -0.17613404989242554,
          0.24769745767116547,
          0.023801637813448906,
          -0.18017452955245972,
          -0.001287957769818604,
          0.11866389960050583,
          0.049921441823244095,
          0.10067696124315262,
          -0.132616326212883,
          -0.15475082397460938,
          0.1453867405653,
          0.03415253385901451,
          0.042780861258506775,
          -0.18420879542827606
        ],
        [
          0.157237708568573,
          0.1704893410205841,
          0.23778235912322998,
          0.040310971438884735,
          -0.2209690660238266,
          0.19142243266105652,
          0.02586701698601246,
          -0.0037152653094381094,
          -0.12197007238864899,
          -0.038375627249479294,
          0.09137023985385895,
          -0.04692515730857849,
          0.0875961184501648,
          0.18693912029266357,
          0.07700502872467041,
          0.19462470710277557
        ],
        [
          0.047878511250019073,
          -0.08998694270849228,
          0.06635409593582153,
          0.12437649816274643,
          0.26678892970085144,
          0.11869709193706512,
          0.1641349345445633,
          0.18569831550121307,
          -0.15911248326301575,
          -0.19994626939296722,
          0.20844055712223053,
          -0.18570762872695923,
          -0.018604986369609833,
          0.13208472728729248,
          0.02344571053981781,
          -0.2409369796514511
        ],
        [
          -0.022849688306450844,
          -0.06178395822644234,
          0.04046458378434181,
          0.167500302195549,
          -0.24773839116096497,
          0.09738203138113022,
          -0.23661492764949799,
          -0.20200622081756592,
          0.22782546281814575,
          -0.08148147910833359,
          0.05732247605919838,
          -0.24698254466056824,
          -0.1049424335360527,
          0.04847811162471771,
          -0.014738650061190128,
          -0.10412591695785522
        ],
        [
          0.2247852087020874,
          0.1807764172554016,
          0.23360726237297058,
          0.0505550280213356,
          -0.24668718874454498,
          0.19980664551258087,
          0.043218545615673065,
          0.17302079498767853,
          -0.1271953582763672,
          0.1968475878238678,
          0.011521906591951847,
          -0.045317504554986954,
          0.13950109481811523,
          0.06771634519100189,
          0.11678227037191391,
          -0.16324125230312347
        ],
        [
          -0.22884677350521088,
          0.0035187278408557177,
          -0.16993287205696106,
          -0.07841694355010986,
          0.16871266067028046,
          -0.0031808994244784117,
          0.06765364855527878,
          -0.1299355924129486,
          0.08080887049436569,
          0.20510955154895782,
          0.2377273589372635,
          0.1859831064939499,
          0.13272899389266968,
          0.04052330553531647,
          -0.14501424133777618,
          0.14032915234565735
        ],
        [
          -0.1529812216758728,
          0.10366803407669067,
          -0.20893612504005432,
          -0.08027273416519165,
          0.2328367978334427,
          -0.17992538213729858,
          -0.2669810652732849,
          0.22268003225326538,
          0.09406547248363495,
          -0.008349410258233547,
          0.04048099368810654,
          -0.10637423396110535,
          0.2161664068698883,
          -0.07807206362485886,
          -0.047988854348659515,
          0.10476134717464447
        ],
        [
          -0.030781473964452744,
          0.14462819695472717,
          0.15342505276203156,
          0.1368575394153595,
          -0.04895146191120148,
          0.2039707601070404,
          0.08078119158744812,
          0.21241232752799988,
          -0.1964009702205658,
          -0.14814983308315277,
          0.16931363940238953,
          0.08981756865978241,
          0.06600499898195267,
          -0.20543725788593292,
          -0.1182512417435646,
          -0.18260891735553741
        ],
        [
          0.045452579855918884,
          -0.04699729010462761,
          -0.011439740657806396,
          0.2581225335597992,
          -0.13923658430576324,
          -0.09594319760799408,
          -0.023738456889986992,
          0.1737123280763626,
          0.12597864866256714,
          -0.0784895196557045,
          0.13786713778972626,
          0.1372411847114563,
          -0.11545532941818237,
          0.2276679426431656,
          -0.1689315289258957,
          0.10496839880943298
        ],
        [
          0.21599818766117096,
          -0.24249623715877533,
          -0.17147117853164673,
          0.13462558388710022,
          -0.11491414159536362,
          0.007157116662710905,
          -0.05502985417842865,
          -0.02547081559896469,
          0.1317380964756012,
          -0.035147394984960556,
          -0.20726194977760315,
          0.023098690435290337,
          -0.13163751363754272,
          -0.11513419449329376,
          -0.18459294736385345,
          -0.13788771629333496
        ],
        [
          0.10244623571634293,
          0.11875120550394058,
          -0.19136811792850494,
          0.058982476592063904,
          0.2567998766899109,
          0.01664459891617298,
          0.01859290339052677,
          0.23319783806800842,
          0.2648830711841583,
          -0.08763603121042252,
          0.12414409965276718,
          0.16629163920879364,
          0.2493889182806015,
          0.1669258028268814,
          0.09330547600984573,
          0.23090402781963348
        ],
        [
          0.23435546457767487,
          0.21262182295322418,
          -0.10843057930469513,
          -0.08866146206855774,
          0.20664943754673004,
          -0.14711850881576538,
          -0.17845718562602997,
          -0.029648516327142715,
          0.21128717064857483,
          0.18778236210346222,
          -0.15900643169879913,
          0.14360207319259644,
          -0.2827731966972351,
          -0.10274405032396317,
          0.0564575269818306,
          -0.1919054538011551
        ],
        [
          0.12577785551548004,
          -0.0866231843829155,
          0.00029462826205417514,
          -0.1716105192899704,
          0.009749330580234528,
          0.1619756668806076,
          0.11140506714582443,
          -0.17327740788459778,
          0.057322997599840164,
          0.02615019865334034,
          -0.21451976895332336,
          0.07683011889457703,
          0.03241994231939316,
          -0.23532305657863617,
          0.10436495393514633,
          0.11628538370132446
        ],
        [
          -0.16212761402130127,
          0.0957740768790245,
          -0.230482816696167,
          -0.22343896329402924,
          -0.15874086320400238,
          0.021767523139715195,
          0.08118294179439545,
          0.1470034122467041,
          -0.17134299874305725,
          0.0769554078578949,
          -0.14526671171188354,
          -0.08781629800796509,
          0.028490306809544563,
          -0.18446657061576843,
          0.06583032757043839,
          0.05433151125907898
        ],
        [
          -0.012898634187877178,
          -0.08647160232067108,
          -0.0035541674587875605,
          -0.05462568998336792,
          -0.02755354903638363,
          -0.2702710032463074,
          -0.06964001059532166,
          -0.019273487851023674,
          -0.06879497319459915,
          -0.10820704698562622,
          0.24688439071178436,
          -0.18080970644950867,
          -0.1824711710214615,
          -0.048497412353754044,
          0.23253479599952698,
          -0.02249862812459469
        ],
        [
          0.05930301547050476,
          -0.05918604135513306,
          0.056293800473213196,
          0.1985279619693756,
          0.03613540902733803,
          0.2345031499862671,
          -0.22210296988487244,
          0.24821677803993225,
          -0.11450311541557312,
          -0.04002734646201134,
          -0.22209765017032623,
          0.21271589398384094,
          -0.1260504424571991,
          0.0742715448141098,
          -0.0940747931599617,
          -0.014059243723750114
        ],
        [
          0.07704117894172668,
          -0.1281479448080063,
          0.23384827375411987,
          0.10814277827739716,
          0.06667870283126831,
          -0.12079770117998123,
          0.14709751307964325,
          -0.149358332157135,
          0.14519613981246948,
          -0.16025985777378082,
          -0.25709956884384155,
          -0.01870354264974594,
          0.08283862471580505,
          -0.15781261026859283,
          0.044700849801301956,
          -0.060938555747270584
        ],
        [
          0.058102358132600784,
          -0.02355438470840454,
          -0.19207602739334106,
          -0.14157997071743011,
          -0.10629913955926895,
          -0.08472747355699539,
          0.15156663954257965,
          -0.06911689788103104,
          -0.22325627505779266,
          0.17108982801437378,
          0.24253451824188232,
          0.02172037586569786,
          -0.15254758298397064,
          -0.17400863766670227,
          -0.02830754779279232,
          0.15381769835948944
        ],
        [
          0.2249997854232788,
          -0.2557302415370941,
          0.041883111000061035,
          0.038514140993356705,
          -0.20358921587467194,
          0.03989653289318085,
          0.13975699245929718,
          0.04753853753209114,
          -0.14414870738983154,
          -0.26385965943336487,
          0.0961701050400734,
          -0.15253756940364838,
          -0.09513605386018753,
          -0.12520264089107513,
          -0.016912449151277542,
          -0.2790089249610901
        ],
        [
          -0.21183785796165466,
          0.19892507791519165,
          0.12664300203323364,
          -0.09162002801895142,
          -0.14773628115653992,
          -0.006725595332682133,
          0.07229814678430557,
          -0.014242282137274742,
          -0.18761244416236877,
          -0.09325473010540009,
          0.08702261745929718,
          -0.19682563841342926,
          0.09480475634336472,
          -0.025205198675394058,
          0.24518388509750366,
          -0.0020945172291249037
        ],
        [
          0.004650935996323824,
          -0.07804611325263977,
          -0.08876160532236099,
          -0.17292840778827667,
          -0.05036807432770729,
          -0.1015905812382698,
          0.04783472791314125,
          -0.1989620178937912,
          -0.04413321986794472,
          0.18756185472011566,
          0.08776433020830154,
          0.15879568457603455,
          0.03080032207071781,
          -0.22866208851337433,
          -0.06628264486789703,
          -0.06061083823442459
        ],
        [
          0.05479175224900246,
          0.22701218724250793,
          -0.05398229509592056,
          0.07018781453371048,
          0.20008915662765503,
          0.06348302215337753,
          -0.18593354523181915,
          0.20044367015361786,
          0.07639319449663162,
          -0.19451038539409637,
          0.0597684271633625,
          -0.18970228731632233,
          0.1317606270313263,
          -0.17454326152801514,
          0.12385525554418564,
          -0.007120909634977579
        ],
        [
          0.10611359030008316,
          0.13128456473350525,
          0.05614273622632027,
          0.21531379222869873,
          -0.0317244678735733,
          0.26714232563972473,
          -0.1201506033539772,
          -0.0431322306394577,
          0.19917641580104828,
          -0.1140289232134819,
          -0.09749647974967957,
          -0.2000998854637146,
          0.08051536977291107,
          -0.11358101665973663,
          -0.10139527171850204,
          -0.1759660840034485
        ],
        [
          0.04433251917362213,
          0.26451486349105835,
          -0.07563488185405731,
          0.05958021804690361,
          -0.1080305203795433,
          -0.12305974960327148,
          -0.20010840892791748,
          -0.21601948142051697,
          0.023000482469797134,
          0.2094959020614624,
          0.024109775200486183,
          -0.005426262971013784,
          -0.16343334317207336,
          0.16720134019851685,
          0.24018074572086334,
          -0.11489129066467285
        ],
        [
          -0.05471821874380112,
          0.1578257530927658,
          0.023046841844916344,
          0.05361182242631912,
          0.1037849709391594,
          0.14647915959358215,
          -0.2384372055530548,
          0.10639142990112305,
          0.12932774424552917,
          -0.20616838335990906,
          -0.0534876212477684,
          -0.12980444729328156,
          0.19538746774196625,
          -0.21143874526023865,
          -0.16302579641342163,
          0.03013785369694233
        ],
        [
          0.035984061658382416,
          -0.2554824948310852,
          0.1763143688440323,
          0.12412720173597336,
          -0.15777571499347687,
          -0.039736028760671616,
          -0.09097699820995331,
          -0.10828877985477448,
          0.17457039654254913,
          0.22861452400684357,
          -0.15123812854290009,
          0.019137315452098846,
          -0.24162037670612335,
          -0.0944274514913559,
          -0.18741992115974426,
          -0.1137903556227684
        ],
        [
          0.03862025588750839,
          -0.07981808483600616,
          -0.14992769062519073,
          -0.17509743571281433,
          -0.11073216050863266,
          -0.05505383387207985,
          -0.04142295569181442,
          0.14096060395240784,
          0.11952021718025208,
          -0.023274218663573265,
          -0.17397233843803406,
          -0.13903622329235077,
          -0.15614548325538635,
          -0.05836771801114082,
          -0.20989173650741577,
          0.07029294222593307
        ],
        [
          0.1379576176404953,
          -0.07472407817840576,
          -0.055736392736434937,
          -0.21263541281223297,
          -0.14878107607364655,
          0.1377442628145218,
          -0.04539402574300766,
          0.2219964861869812,
          -0.020957086235284805,
          0.039032407104969025,
          -0.02006891742348671,
          -0.09944149106740952,
          0.16953355073928833,
          -0.06605063378810883,
          -0.23014874756336212,
          -0.2564873695373535
        ],
        [
          -0.0398072674870491,
          -0.20204606652259827,
          -0.14847952127456665,
          -0.09503993391990662,
          -0.12771381437778473,
          0.17925146222114563,
          0.19910335540771484,
          -0.15962529182434082,
          -0.006912716664373875,
          -0.04502600058913231,
          -0.2080250233411789,
          0.05753440037369728,
          -0.08964380621910095,
          -0.15729302167892456,
          0.03301825374364853,
          -0.11232437193393707
        ],
        [
          -0.034583043307065964,
          -0.06076287478208542,
          -0.2345629781484604,
          -0.11249881237745285,
          -0.28541359305381775,
          0.06397858262062073,
          -0.12366881966590881,
          0.1847561001777649,
          0.07389466464519501,
          -0.143846794962883,
          0.21561060845851898,
          0.12043969333171844,
          0.1235290914773941,
          -0.1339775174856186,
          0.16631633043289185,
          0.009454162791371346
        ],
        [
          0.04668312519788742,
          0.2007857859134674,
          -0.09635576605796814,
          0.18067659437656403,
          0.11008689552545547,
          -0.2521817684173584,
          -0.08544183522462845,
          0.1590300351381302,
          0.2698141038417816,
          0.2519780695438385,
          -0.1701507866382599,
          0.1485145390033722,
          0.2511301636695862,
          0.1389378309249878,
          0.20458804070949554,
          0.2313927412033081
        ],
        [
          -0.14558528363704681,
          0.027405871078372,
          0.10073614865541458,
          -0.04540959745645523,
          0.02032342739403248,
          -0.07053616642951965,
          -0.17462722957134247,
          0.14597183465957642,
          0.24444164335727692,
          0.19157661497592926,
          0.19581034779548645,
          -0.01112333033233881,
          -0.22271516919136047,
          0.09403448551893234,
          -0.16907840967178345,
          -0.17291568219661713
        ],
        [
          -0.12277406454086304,
          -0.05252107232809067,
          -0.21904362738132477,
          -0.10103528201580048,
          0.010663062334060669,
          0.12817411124706268,
          -0.18918564915657043,
          -0.16912521421909332,
          -0.050480421632528305,
          -0.21998900175094604,
          -0.16161233186721802,
          0.23750850558280945,
          -0.2000078409910202,
          0.1093578040599823,
          -0.19262434542179108,
          -0.25913965702056885
        ],
        [
          -0.18794505298137665,
          -0.1645844429731369,
          -0.25733527541160583,
          -0.2010631263256073,
          0.09519565850496292,
          -0.059631798416376114,
          0.022473322227597237,
          0.004842327442020178,
          -0.1588742882013321,
          -0.09763503819704056,
          -0.014789224602282047,
          0.001979461405426264,
          -0.1800258755683899,
          0.024566203355789185,
          -0.15002572536468506,
          -0.19902370870113373
        ],
        [
          -0.06157512590289116,
          0.10021225363016129,
          -0.1647753119468689,
          -0.016599787399172783,
          0.0645066350698471,
          0.05051995813846588,
          0.10722082853317261,
          -0.22344858944416046,
          0.1947794258594513,
          0.02582479454576969,
          -0.11515062302350998,
          0.046685852110385895,
          0.019876796752214432,
          0.14180660247802734,
          0.12095967680215836,
          -0.13927511870861053
        ],
        [
          -0.11686843633651733,
          0.16604986786842346,
          0.017184294760227203,
          -0.09804660826921463,
          -0.01370386965572834,
          -0.18444181978702545,
          -0.23463666439056396,
          -0.09736199676990509,
          -0.02836981788277626,
          -0.2209063023328781,
          -0.015925996005535126,
          -0.1578839272260666,
          0.26870080828666687,
          -0.20576198399066925,
          0.24048340320587158,
          -0.2617878317832947
        ],
        [
          0.293805867433548,
          -0.07960300892591476,
          0.026114432141184807,
          0.12025979906320572,
          -0.15476302802562714,
          0.06928358972072601,
          0.14147470891475677,
          0.20027117431163788,
          0.19512905180454254,
          0.051085978746414185,
          -0.013728423044085503,
          -0.21066750586032867,
          -0.17457197606563568,
          -0.25908005237579346,
          0.21807311475276947,
          -0.10097310692071915
        ],
        [
          0.08567116409540176,
          -0.20265008509159088,
          -0.014030023477971554,
          -0.05521431937813759,
          -0.059003643691539764,
          -0.02072758972644806,
          -0.23699508607387543,
          -0.036605577915906906,
          -0.11665612459182739,
          -0.2641161382198334,
          -0.26166942715644836,
          -0.08622650802135468,
          -0.062208570539951324,
          -0.08386623114347458,
          0.0019648708403110504,
          -0.2074173241853714
        ],
        [
          0.08512946963310242,
          0.03613046556711197,
          -0.007269972003996372,
          0.0915524885058403,
          -0.019139735028147697,
          0.11791186779737473,
          -0.27319562435150146,
          0.019749071449041367,
          0.039343222975730896,
          -0.20587649941444397,
          0.09275298565626144,
          -0.0745140090584755,
          0.03225937485694885,
          -0.153496652841568,
          0.1273072063922882,
          -0.17103105783462524
        ],
        [
          0.055222272872924805,
          -0.2247147411108017,
          -0.09066559374332428,
          -0.23084722459316254,
          -0.2720639705657959,
          0.22478272020816803,
          0.008644890040159225,
          0.1713019609451294,
          0.1021348237991333,
          -0.13310478627681732,
          -0.21611066162586212,
          -0.20572614669799805,
          0.06976652890443802,
          0.08826389908790588,
          0.21197181940078735,
          -0.0598253533244133
        ],
        [
          0.07824885100126266,
          -0.03357042372226715,
          -0.06462399661540985,
          0.1299295872449875,
          -0.15352429449558258,
          0.1309492290019989,
          0.1540508270263672,
          -0.20734547078609467,
          -0.07028902322053909,
          0.047166839241981506,
          0.16946804523468018,
          -0.20470081269741058,
          -0.17245374619960785,
          -0.2723497748374939,
          0.21601518988609314,
          0.1199551522731781
        ],
        [
          0.2815239429473877,
          0.0030761719681322575,
          -0.15581536293029785,
          0.11792576313018799,
          -0.1431504786014557,
          0.03478805348277092,
          0.07114822417497635,
          0.09987499564886093,
          0.16422773897647858,
          0.06286309659481049,
          0.11883020401000977,
          -0.06170258671045303,
          -0.06790973991155624,
          -0.07156603783369064,
          -0.17861686646938324,
          0.16720207035541534
        ],
        [
          0.19540634751319885,
          -0.012928120791912079,
          -0.14962205290794373,
          -0.14472118020057678,
          -0.0016888976097106934,
          -0.014251853339374065,
          0.25935792922973633,
          -0.19154785573482513,
          -0.1608099490404129,
          0.21006327867507935,
          -0.15321992337703705,
          -0.25438734889030457,
          0.2817089557647705,
          -0.15303121507167816,
          -0.08193494379520416,
          0.2614747881889343
        ],
        [
          0.16172261536121368,
          0.10279610753059387,
          0.08838941156864166,
          -0.20643600821495056,
          0.0879395380616188,
          0.20477253198623657,
          0.15623384714126587,
          0.1228947564959526,
          -0.01797526702284813,
          -0.10208212584257126,
          -0.24330036342144012,
          -0.24703142046928406,
          -0.0279763825237751,
          -0.06945475190877914,
          0.209492027759552,
          0.149305060505867
        ],
        [
          0.04115493968129158,
          0.15576641261577606,
          -0.08987724781036377,
          0.20332308113574982,
          -0.13989005982875824,
          -0.10287638753652573,
          0.14702630043029785,
          -0.17812448740005493,
          0.034113235771656036,
          -0.03385859727859497,
          -0.22992092370986938,
          -0.15090161561965942,
          0.1453286111354828,
          -0.17450743913650513,
          -0.18936294317245483,
          -0.11163153499364853
        ],
        [
          0.04046841710805893,
          0.0005336092435754836,
          0.0993516594171524,
          -0.2790347933769226,
          -0.10766305029392242,
          -0.24069049954414368,
          0.18464167416095734,
          -0.1541699469089508,
          -0.04843386262655258,
          0.1846274584531784,
          0.006903516128659248,
          -0.13708166778087616,
          0.18859028816223145,
          0.07930777966976166,
          0.1728866547346115,
          0.05263131111860275
        ],
        [
          0.03294435143470764,
          -0.20485100150108337,
          0.21526353061199188,
          -0.23749123513698578,
          0.061909157782793045,
          0.08721698075532913,
          0.04476834088563919,
          0.1291869878768921,
          0.12117058038711548,
          -0.03237394988536835,
          0.058731477707624435,
          -0.01994810439646244,
          -0.2303517758846283,
          0.232354536652565,
          -0.04822196811437607,
          -0.18423619866371155
        ],
        [
          0.05841841548681259,
          0.1705397516489029,
          -0.03051372803747654,
          -0.020012974739074707,
          0.07195193320512772,
          0.012092361226677895,
          0.2407352477312088,
          -0.04362829029560089,
          0.1372486650943756,
          -0.04711272194981575,
          -0.2625201940536499,
          0.0191288311034441,
          0.18737052381038666,
          0.16328006982803345,
          0.1426621675491333,
          0.2630852162837982
        ],
        [
          -0.19796234369277954,
          0.21950390934944153,
          0.10714595019817352,
          0.05888226628303528,
          0.08777197450399399,
          -0.16981512308120728,
          -0.0791800245642662,
          0.10685225576162338,
          -0.21064393222332,
          -0.15472322702407837,
          -0.17865760624408722,
          0.03837890177965164,
          -0.09333467483520508,
          -0.12540221214294434,
          0.11013904213905334,
          0.22999653220176697
        ],
        [
          0.05608991160988808,
          0.18356460332870483,
          0.007975826971232891,
          0.04253671318292618,
          -0.08700067549943924,
          -0.0776023417711258,
          0.16488710045814514,
          0.03997984528541565,
          0.05533188208937645,
          -0.05640068277716637,
          0.12723365426063538,
          -0.025426216423511505,
          0.23118071258068085,
          0.07487277686595917,
          -0.10085440427064896,
          0.017598217353224754
        ],
        [
          0.0436982698738575,
          -0.11811031401157379,
          0.05023134499788284,
          -0.23682665824890137,
          0.1156364381313324,
          -0.26166144013404846,
          -0.022196268662810326,
          0.06120570749044418,
          -0.20351016521453857,
          0.04935057461261749,
          -0.1992851048707962,
          -0.016560830175876617,
          -0.15282122790813446,
          -0.14194102585315704,
          0.06115769222378731,
          -0.1108565405011177
        ],
        [
          0.19264556467533112,
          -0.12675289809703827,
          0.15529483556747437,
          -0.03399217128753662,
          -0.15778404474258423,
          0.02732880599796772,
          -0.021080132573843002,
          -0.1580071598291397,
          0.19051919877529144,
          0.22705484926700592,
          -0.1738843470811844,
          -0.08950956165790558,
          0.13645443320274353,
          0.09681793302297592,
          0.1573263257741928,
          0.019184088334441185
        ],
        [
          0.03624431788921356,
          -0.04738103225827217,
          0.08688850700855255,
          -0.20253895223140717,
          -0.15906718373298645,
          -0.12388905137777328,
          0.022056879475712776,
          0.08345808833837509,
          -0.2259286791086197,
          -0.10003232955932617,
          -0.10921691358089447,
          0.005791311152279377,
          0.11920098215341568,
          -0.2081306278705597,
          -0.19338493049144745,
          0.031530581414699554
        ],
        [
          0.1002010926604271,
          0.1572374552488327,
          0.24128448963165283,
          0.11699272692203522,
          0.14095790684223175,
          0.07826226949691772,
          0.15955281257629395,
          -0.20707309246063232,
          -0.0728072002530098,
          0.0007749958895146847,
          0.14636868238449097,
          -0.12380017340183258,
          0.12435697764158249,
          -0.06969723105430603,
          0.11938126385211945,
          0.1705285757780075
        ],
        [
          0.10045358538627625,
          -0.19835977256298065,
          0.054432470351457596,
          -0.0819767564535141,
          0.04667626693844795,
          0.17040079832077026,
          0.16443757712841034,
          0.18069766461849213,
          -0.04331757500767708,
          0.2286979705095291,
          0.16501784324645996,
          0.017567787319421768,
          -0.15235620737075806,
          -0.05507607385516167,
          -0.09075550734996796,
          -0.24345968663692474
        ],
        [
          0.04463875666260719,
          -0.06845967471599579,
          0.2495465874671936,
          -0.17717979848384857,
          -0.15036284923553467,
          -0.25372421741485596,
          -0.13686338067054749,
          -0.14527641236782074,
          0.027218276634812355,
          0.027524160221219063,
          -0.0608527809381485,
          0.005616416689008474,
          0.226487934589386,
          0.17533737421035767,
          0.07737493515014648,
          0.22352050244808197
        ],
        [
          0.13704407215118408,
          -0.07918965816497803,
          -0.1607407033443451,
          -0.052668120712041855,
          0.054959483444690704,
          -0.09373415261507034,
          -0.03320610523223877,
          -2.0822242731810547e-05,
          0.05678773671388626,
          -0.06495489180088043,
          0.12186314910650253,
          0.20386531949043274,
          0.14398184418678284,
          0.232218399643898,
          0.10413393378257751,
          0.1926148682832718
        ],
        [
          0.05455634370446205,
          0.0015099890297278762,
          0.1481373906135559,
          0.11751903593540192,
          0.0495043620467186,
          0.17894235253334045,
          0.20339007675647736,
          -0.23799113929271698,
          0.10149214416742325,
          0.021786928176879883,
          0.0634663999080658,
          0.1656295508146286,
          -0.2677091062068939,
          -0.18214213848114014,
          0.1233166828751564,
          0.20624732971191406
        ],
        [
          0.02387305349111557,
          0.12643082439899445,
          0.14787571132183075,
          -0.006333527155220509,
          0.2956291139125824,
          -0.07927219569683075,
          -0.23226864635944366,
          0.16249974071979523,
          0.05745065584778786,
          -0.10029862821102142,
          -0.05888606607913971,
          -0.17974312603473663,
          0.028634117916226387,
          -0.03307414799928665,
          -0.1374204158782959,
          0.12982667982578278
        ],
        [
          -0.04063981771469116,
          -0.21794956922531128,
          0.22763805091381073,
          0.07229121774435043,
          0.09137978404760361,
          0.018131796270608902,
          -0.1492350846529007,
          0.18968158960342407,
          0.08269798010587692,
          0.20614275336265564,
          -0.1096409410238266,
          0.14296215772628784,
          -0.22259877622127533,
          -0.22772076725959778,
          -0.1552814394235611,
          -0.2909192144870758
        ],
        [
          -0.052949726581573486,
          0.16168883442878723,
          0.18035613000392914,
          -0.07838394492864609,
          0.0054650818929076195,
          0.24594244360923767,
          0.1510508805513382,
          0.0483417734503746,
          0.19799524545669556,
          -0.2633965313434601,
          0.05521547049283981,
          -0.12769877910614014,
          -0.1556248813867569,
          -0.030002277344465256,
          -0.23972220718860626,
          -0.04377494007349014
        ],
        [
          0.17383316159248352,
          -0.13246861100196838,
          0.08639871329069138,
          -0.024964220821857452,
          -0.07046565413475037,
          0.07308758050203323,
          -0.023963352665305138,
          -0.03514401614665985,
          0.2164912074804306,
          0.20621810853481293,
          0.2478221207857132,
          0.058342527598142624,
          -0.013211362063884735,
          0.07453339546918869,
          0.194318488240242,
          0.01869295723736286
        ],
        [
          -0.07698557525873184,
          0.022641584277153015,
          0.20916661620140076,
          -0.24768714606761932,
          0.2245367020368576,
          -0.030440635979175568,
          -0.061788029968738556,
          0.20521287620067596,
          -0.07598800957202911,
          0.13145855069160461,
          0.23988717794418335,
          -0.03266824781894684,
          0.005839107092469931,
          -0.11696954816579819,
          0.13830474019050598,
          -0.1281118541955948
        ],
        [
          -0.15651588141918182,
          0.11170005798339844,
          0.21049505472183228,
          -0.14927025139331818,
          -0.09643571078777313,
          0.09792998433113098,
          0.046453941613435745,
          0.10010457038879395,
          -0.17851592600345612,
          -0.2772024869918823,
          0.005190591793507338,
          -0.07428520172834396,
          -0.057184189558029175,
          0.049749910831451416,
          -0.20671795308589935,
          -0.20023879408836365
        ],
        [
          -0.0806407555937767,
          -0.08834520727396011,
          -0.10479749739170074,
          0.09955599904060364,
          -0.09853266179561615,
          0.24979262053966522,
          -0.17044316232204437,
          -0.1963224560022354,
          0.16553759574890137,
          0.1884082853794098,
          -0.19189414381980896,
          0.08634448796510696,
          0.2000441551208496,
          0.03985055908560753,
          -0.15827517211437225,
          0.1463223546743393
        ],
        [
          0.12865972518920898,
          0.025276757776737213,
          0.1192852258682251,
          -0.21502891182899475,
          -0.019421163946390152,
          0.18581266701221466,
          -0.225730299949646,
          -0.009794824756681919,
          0.20858094096183777,
          -0.14399820566177368,
          -0.16135719418525696,
          0.22203300893306732,
          0.08979162573814392,
          -0.24978680908679962,
          -0.25384923815727234,
          0.1295468658208847
        ],
        [
          0.06877481192350388,
          0.16856203973293304,
          0.24888305366039276,
          0.07786612957715988,
          -0.21156063675880432,
          -0.0475815050303936,
          0.1897743195295334,
          -0.06679660826921463,
          -0.23254342377185822,
          0.0998891070485115,
          -0.1353590190410614,
          0.08011181652545929,
          0.19520388543605804,
          -0.11608658730983734,
          0.04218999296426773,
          -0.2171522080898285
        ],
        [
          0.15600067377090454,
          -0.2390936017036438,
          0.05959141626954079,
          0.26783138513565063,
          0.04763161391019821,
          0.031724218279123306,
          0.1848626285791397,
          -0.16837652027606964,
          0.009713361039757729,
          0.15077754855155945,
          -0.17792026698589325,
          0.08576793223619461,
          0.18891526758670807,
          0.11015266180038452,
          0.020687127485871315,
          -0.15847259759902954
        ],
        [
          -0.06730212271213531,
          -0.11469649523496628,
          0.13122569024562836,
          0.0703207328915596,
          0.030172821134328842,
          0.16937518119812012,
          0.03620831295847893,
          -0.2578541040420532,
          -0.06896479427814484,
          0.06141302362084389,
          -0.04573509097099304,
          -0.014787833206355572,
          0.16524580121040344,
          -0.14649325609207153,
          0.2258613109588623,
          -0.22365444898605347
        ],
        [
          0.22778648138046265,
          0.05041852220892906,
          -0.14552859961986542,
          -0.20490390062332153,
          -0.25497135519981384,
          0.12120440602302551,
          -0.057373639196157455,
          0.11010313034057617,
          -0.013751793652772903,
          0.12859824299812317,
          -0.12512628734111786,
          0.15250404179096222,
          0.09754926711320877,
          0.04455840587615967,
          0.145619198679924,
          -0.1767788678407669
        ],
        [
          -0.09429478645324707,
          -0.21019043028354645,
          0.048769157379865646,
          0.07168455421924591,
          0.042744677513837814,
          0.13520511984825134,
          -0.09064105153083801,
          0.15939460694789886,
          -0.042739033699035645,
          -0.2644987106323242,
          0.07821069657802582,
          -0.06642048805952072,
          0.12737824022769928,
          -0.08526401221752167,
          -0.09788493067026138,
          0.2112879455089569
        ],
        [
          -0.10033466666936874,
          0.13196292519569397,
          -0.0643424540758133,
          -0.05089830979704857,
          0.18116474151611328,
          0.11175473779439926,
          -0.13303004205226898,
          0.04629012942314148,
          0.16810117661952972,
          -0.10706713795661926,
          -0.15442635118961334,
          -0.0749407485127449,
          -0.017417725175619125,
          -0.03721673786640167,
          0.1352435201406479,
          -0.026564128696918488
        ],
        [
          0.17418523132801056,
          -0.2277018427848816,
          0.14308331906795502,
          0.16213183104991913,
          -0.21930989623069763,
          0.24271152913570404,
          -0.10891696065664291,
          0.25719118118286133,
          -0.181051567196846,
          -0.035997726023197174,
          -0.16217000782489777,
          0.07250381261110306,
          -0.15672218799591064,
          0.09335853159427643,
          0.06007697060704231,
          -0.19072546064853668
        ],
        [
          0.14061498641967773,
          0.00033379090018570423,
          0.04973302781581879,
          0.049692850559949875,
          -0.09585253894329071,
          0.06357479840517044,
          -0.16094985604286194,
          0.17523381114006042,
          -0.10917048901319504,
          -0.08429352939128876,
          -0.15753474831581116,
          0.09431954473257065,
          -0.15907125174999237,
          -0.000705105485394597,
          0.19221870601177216,
          0.21925777196884155
        ],
        [
          0.07520393282175064,
          -0.10014545917510986,
          0.22522835433483124,
          -0.0012068005744367838,
          -0.2129095047712326,
          0.16438442468643188,
          0.20403902232646942,
          -0.15849971771240234,
          0.11607594788074493,
          0.02643531933426857,
          0.018879691138863564,
          -0.08552907407283783,
          0.2549906075000763,
          0.24615180492401123,
          0.26909664273262024,
          0.19883041083812714
        ],
        [
          0.21147237718105316,
          -0.2701425552368164,
          -0.11619392782449722,
          -0.06159486994147301,
          -0.19247613847255707,
          0.05268030986189842,
          -0.0030070976354181767,
          0.17818625271320343,
          0.08287928998470306,
          0.029366509988904,
          -0.06964491307735443,
          0.17983072996139526,
          0.0063955215737223625,
          0.18980810046195984,
          -0.1603647768497467,
          0.05985226854681969
        ],
        [
          0.1374770551919937,
          -0.2031869739294052,
          0.04926183074712753,
          -0.13114169239997864,
          0.09076732397079468,
          0.18578840792179108,
          -0.04977654665708542,
          0.09628856182098389,
          0.1533849835395813,
          0.1259714514017105,
          0.14754460752010345,
          -0.02738115005195141,
          0.08415340632200241,
          -0.07466340810060501,
          0.008988380432128906,
          -0.15541522204875946
        ],
        [
          0.04147059842944145,
          0.06244825944304466,
          0.18010671436786652,
          0.19767872989177704,
          0.16268350183963776,
          -0.022191710770130157,
          0.2486930638551712,
          0.006334593519568443,
          0.08647722005844116,
          0.21852195262908936,
          -0.1163509413599968,
          0.2443220317363739,
          -0.21902762353420258,
          0.010189037770032883,
          0.13593803346157074,
          0.1727367490530014
        ],
        [
          -0.2629773020744324,
          -0.24708262085914612,
          -0.027480274438858032,
          -0.10933956503868103,
          -0.20918457210063934,
          0.1259973645210266,
          -0.09253768622875214,
          -0.06069258227944374,
          -0.18599431216716766,
          -0.06655693054199219,
          0.11464851349592209,
          -0.11999531090259552,
          0.0571940615773201,
          0.12339815497398376,
          0.06731020659208298,
          0.09922115504741669
        ],
        [
          -0.09629689157009125,
          0.0015506814233958721,
          -0.16847877204418182,
          0.1859007179737091,
          -0.07675456255674362,
          0.06412793695926666,
          0.20124706625938416,
          -0.021263254806399345,
          -0.1715242862701416,
          0.14170655608177185,
          0.0945788249373436,
          0.09626482427120209,
          0.2106042206287384,
          0.051684897392988205,
          -0.1822834312915802,
          0.2203715741634369
        ],
        [
          0.17054866254329681,
          -0.013772152364253998,
          0.08500906825065613,
          -0.20991398394107819,
          0.03325020521879196,
          0.171929270029068,
          0.09054455906152725,
          0.13945075869560242,
          0.12881921231746674,
          0.1316416710615158,
          0.06303921341896057,
          -0.07482147961854935,
          0.25373396277427673,
          -0.035221487283706665,
          0.11342096328735352,
          -0.14329250156879425
        ],
        [
          0.025179771706461906,
          -0.1557987481355667,
          -0.13281552493572235,
          0.08723320811986923,
          0.13382430374622345,
          0.275888592004776,
          0.1778540164232254,
          -0.053477246314287186,
          -0.04956614971160889,
          0.01322498545050621,
          -0.16284698247909546,
          -0.24504752457141876,
          0.13790355622768402,
          0.17553949356079102,
          0.1110503152012825,
          0.16803063452243805
        ],
        [
          -0.03296797350049019,
          -0.15345457196235657,
          -0.07829183340072632,
          0.14935532212257385,
          -0.23732337355613708,
          -0.1553497314453125,
          0.23991376161575317,
          0.15743771195411682,
          -0.24226894974708557,
          -0.16863106191158295,
          -0.05988870561122894,
          -0.16284850239753723,
          -0.18580582737922668,
          0.22612826526165009,
          0.12408248335123062,
          -0.1425226330757141
        ],
        [
          0.005651868414133787,
          -0.003432383993640542,
          0.0618167407810688,
          -0.003028733190149069,
          -0.007909460924565792,
          -0.09283903986215591,
          -0.047020114958286285,
          -0.014165962114930153,
          -0.1255880743265152,
          -0.057670921087265015,
          -0.17594534158706665,
          0.26117244362831116,
          0.26115986704826355,
          -0.037260595709085464,
          -0.13668128848075867,
          -0.10614795982837677
        ],
        [
          0.21382753551006317,
          0.15031009912490845,
          -0.0018916241824626923,
          0.20416328310966492,
          0.1653868705034256,
          -0.25574740767478943,
          -0.1502831131219864,
          0.004084900487214327,
          -0.09851907193660736,
          -0.20188668370246887,
          0.13600555062294006,
          0.12309608608484268,
          0.08982284367084503,
          0.25387272238731384,
          0.2771942913532257,
          0.01632266491651535
        ],
        [
          -0.13655291497707367,
          0.18171021342277527,
          0.001954179024323821,
          0.12983013689517975,
          0.15912452340126038,
          -0.13110102713108063,
          -0.039519112557172775,
          0.011030660010874271,
          -0.055337708443403244,
          0.1464298963546753,
          -0.23664261400699615,
          0.03960278257727623,
          0.11419832706451416,
          0.12400981038808823,
          -0.09023905545473099,
          0.23233042657375336
        ],
        [
          0.22301724553108215,
          -0.2513520419597626,
          -0.17290550470352173,
          0.16088011860847473,
          0.20529809594154358,
          -0.06014745682477951,
          -0.033136382699012756,
          -0.002616445068269968,
          0.1813363879919052,
          0.27635127305984497,
          0.2035130113363266,
          -0.09014256298542023,
          -0.23905611038208008,
          -0.04597397521138191,
          -0.14484238624572754,
          0.06059928610920906
        ],
        [
          -0.19707466661930084,
          -0.22599391639232635,
          -0.17955905199050903,
          -0.05891792103648186,
          0.055917028337717056,
          -0.05044149234890938,
          0.25894907116889954,
          -0.04555444046854973,
          -0.18855014443397522,
          -0.11144249886274338,
          -0.2178751677274704,
          0.09100186824798584,
          0.12865327298641205,
          0.21037118136882782,
          0.14297892153263092,
          0.19934752583503723
        ],
        [
          -0.22212101519107819,
          -0.09504467248916626,
          -0.007732280995696783,
          0.1323765367269516,
          0.15208351612091064,
          0.10012884438037872,
          0.15303762257099152,
          -0.2654297947883606,
          -0.19033528864383698,
          -0.0691538006067276,
          -0.24953579902648926,
          0.257561057806015,
          -0.23239167034626007,
          0.0075431340374052525,
          -0.17424291372299194,
          0.005976344924420118
        ],
        [
          -0.06465379148721695,
          0.12276694923639297,
          -0.1871604472398758,
          0.19951151311397552,
          0.19551385939121246,
          -0.19375625252723694,
          0.10201158374547958,
          0.10239048302173615,
          0.14652928709983826,
          -0.12753069400787354,
          -0.18194010853767395,
          -0.004071522504091263,
          -0.09620016813278198,
          0.23111209273338318,
          -0.07747474312782288,
          0.1911279261112213
        ],
        [
          0.04271085932850838,
          0.06620772927999496,
          0.04359112307429314,
          -0.18636365234851837,
          0.062029287219047546,
          -0.07923878729343414,
          -0.23194099962711334,
          -0.05495699867606163,
          0.21383686363697052,
          -0.2744036614894867,
          -0.13032719492912292,
          -0.26961708068847656,
          0.05307774618268013,
          -0.026506055146455765,
          -0.166205033659935,
          -0.05279477685689926
        ],
        [
          0.2435716688632965,
          -0.16945481300354004,
          0.10072308033704758,
          -0.2474537193775177,
          0.0904371365904808,
          0.12492059916257858,
          0.06605003029108047,
          -0.013557118363678455,
          0.08182162046432495,
          0.02903197705745697,
          -0.20623156428337097,
          -0.04893855005502701,
          -0.023388059809803963,
          0.1088128387928009,
          -0.1733936220407486,
          -0.1529051661491394
        ],
        [
          -0.061233941465616226,
          0.005763883236795664,
          -0.06895560771226883,
          -0.1873868703842163,
          -0.0298293624073267,
          -0.23052577674388885,
          -0.04011787846684456,
          -0.20421501994132996,
          0.0992092713713646,
          -0.22657839953899384,
          -0.031570468097925186,
          -0.14203475415706635,
          -0.25858771800994873,
          0.018750598654150963,
          -0.17752745747566223,
          -0.012663859874010086
        ],
        [
          -0.10412313789129257,
          -0.1729990690946579,
          0.10760940611362457,
          -0.05949981138110161,
          0.005220100283622742,
          -0.15438315272331238,
          0.03585834428668022,
          0.17096678912639618,
          0.18665827810764313,
          0.02902660146355629,
          -0.021281933411955833,
          -0.1698768138885498,
          0.0773731991648674,
          -0.2101263701915741,
          -0.2195907086133957,
          -0.12336143106222153
        ],
        [
          0.2426055520772934,
          0.06996234506368637,
          0.18022964894771576,
          -0.1912752240896225,
          -0.07962701469659805,
          -0.11129584908485413,
          0.1012256070971489,
          0.20877698063850403,
          -0.21746893227100372,
          -0.061669740825891495,
          -0.051706984639167786,
          0.030770348384976387,
          0.16902808845043182,
          -0.10212792456150055,
          0.027604514732956886,
          0.022864190861582756
        ],
        [
          -0.1268022656440735,
          0.24867530167102814,
          0.25499212741851807,
          -0.2457946538925171,
          0.22188960015773773,
          0.19044528901576996,
          -0.143880233168602,
          -0.07885531336069107,
          -0.05224931985139847,
          0.16590775549411774,
          0.07654556632041931,
          0.016921233385801315,
          -0.18067869544029236,
          -0.07760158181190491,
          -0.1764020174741745,
          0.14938703179359436
        ],
        [
          0.07057474553585052,
          0.20312833786010742,
          -0.1736096888780594,
          0.21365568041801453,
          0.1364879310131073,
          0.07983013987541199,
          0.21851786971092224,
          -0.1213500127196312,
          0.05913577973842621,
          -0.13251721858978271,
          -0.05221259966492653,
          0.27153170108795166,
          0.1578376144170761,
          -0.006703986786305904,
          0.00778777152299881,
          0.00019975141913164407
        ],
        [
          0.05840011686086655,
          -0.18370458483695984,
          0.10051947832107544,
          -0.19698083400726318,
          0.09213295578956604,
          0.20578813552856445,
          0.05686924606561661,
          0.12560205161571503,
          0.23269672691822052,
          0.1809782087802887,
          -0.18409743905067444,
          0.12936604022979736,
          0.1042240634560585,
          0.2479494959115982,
          -0.1976594626903534,
          0.053169913589954376
        ],
        [
          0.1795189082622528,
          0.21344493329524994,
          -0.25130489468574524,
          -0.12129107862710953,
          -0.03917011618614197,
          0.26982125639915466,
          0.1667761206626892,
          -0.16595804691314697,
          -0.04197581112384796,
          -0.0755993202328682,
          -0.1688961237668991,
          0.25454920530319214,
          -0.024899180978536606,
          -0.22904101014137268,
          0.18752117455005646,
          -0.23289979994297028
        ],
        [
          -0.08492018282413483,
          -0.2005145251750946,
          -0.15971672534942627,
          -0.2047540843486786,
          0.18401338160037994,
          0.229153573513031,
          -0.06635743379592896,
          0.11045993119478226,
          0.07895556092262268,
          0.21996434032917023,
          -0.1465892493724823,
          0.17326702177524567,
          0.24763207137584686,
          -0.23395447432994843,
          0.131519615650177,
          -0.1976102590560913
        ],
        [
          0.15663883090019226,
          -0.12340332567691803,
          -0.08716731518507004,
          -0.12632068991661072,
          0.023126617074012756,
          -0.17886456847190857,
          -0.003953796811401844,
          -0.20111531019210815,
          -0.13697920739650726,
          0.18043717741966248,
          -0.15643788874149323,
          -0.04939870163798332,
          -0.01904580183327198,
          0.19189323484897614,
          -0.24238508939743042,
          -0.16684043407440186
        ],
        [
          0.12142111361026764,
          0.15136002004146576,
          -0.1229255422949791,
          0.05453254655003548,
          0.12312721461057663,
          -0.18701882660388947,
          -0.24647437036037445,
          0.07010525465011597,
          0.13783860206604004,
          0.2010258287191391,
          0.08089977502822876,
          -0.21180547773838043,
          0.18949055671691895,
          -0.21209563314914703,
          -0.05520222708582878,
          -0.1798996478319168
        ],
        [
          -0.0961843952536583,
          -0.14422376453876495,
          -0.2560092508792877,
          0.17851492762565613,
          -0.050164006650447845,
          -0.13804824650287628,
          0.02069571241736412,
          -0.24658475816249847,
          0.05690917372703552,
          -0.035233743488788605,
          -0.012219061143696308,
          -0.10369321703910828,
          -0.1083073765039444,
          0.16095617413520813,
          0.2642574906349182,
          -0.18970441818237305
        ],
        [
          0.2189067304134369,
          -0.13670869171619415,
          0.1452641636133194,
          -0.026259347796440125,
          0.11534125357866287,
          0.04595985636115074,
          -0.08697644621133804,
          0.05187124013900757,
          -0.07217217236757278,
          -0.11713515967130661,
          -0.22979959845542908,
          -0.17786218225955963,
          -0.10116253793239594,
          -0.1776181012392044,
          -0.1715325266122818,
          -0.07709859311580658
        ],
        [
          0.02297182008624077,
          -0.2520467936992645,
          0.0108711002394557,
          -0.13748827576637268,
          0.07793688774108887,
          -0.23643316328525543,
          0.22263190150260925,
          0.12214480340480804,
          0.1868554651737213,
          0.11404205858707428,
          -0.16185924410820007,
          -0.1953970044851303,
          -0.2718797028064728,
          0.15888407826423645,
          -0.13110268115997314,
          0.06216617301106453
        ],
        [
          0.06847856938838959,
          0.22055695950984955,
          0.214992955327034,
          0.18812432885169983,
          0.141140878200531,
          -0.21674172580242157,
          0.14179041981697083,
          0.08475901186466217,
          -0.19741831719875336,
          -0.059516362845897675,
          0.14182411134243011,
          -0.07339782267808914,
          0.012389911338686943,
          -0.18934299051761627,
          0.13704711198806763,
          -0.21356399357318878
        ],
        [
          0.1358354687690735,
          -0.012796797789633274,
          0.23325392603874207,
          0.18374331295490265,
          0.05189316347241402,
          -0.05234178528189659,
          -0.22974179685115814,
          -0.043409619480371475,
          0.18474362790584564,
          0.028364533558487892,
          -0.19786295294761658,
          -0.2562108039855957,
          -0.059765562415122986,
          -0.16551892459392548,
          0.13830162584781647,
          0.0711793303489685
        ],
        [
          -0.018867231905460358,
          -0.18006859719753265,
          0.011453386396169662,
          0.01075943186879158,
          -0.009576673619449139,
          -0.195770263671875,
          -0.13100096583366394,
          -0.2595267593860626,
          -0.06497502326965332,
          -0.15900343656539917,
          0.03945454955101013,
          0.20572178065776825,
          -0.16460730135440826,
          -0.19195806980133057,
          -0.14262911677360535,
          -0.079262375831604
        ],
        [
          -0.11105560511350632,
          0.12814861536026,
          -0.07690422236919403,
          0.2099466472864151,
          0.18109555542469025,
          -0.13253307342529297,
          0.15433083474636078,
          -0.265140563249588,
          -0.07816622406244278,
          -0.022075679153203964,
          0.14922121167182922,
          -0.22895875573158264,
          0.2057766616344452,
          0.049122441560029984,
          0.19926540553569794,
          -0.037051692605018616
        ],
        [
          0.03311273828148842,
          0.11284496635198593,
          -0.030893677845597267,
          -0.08284875750541687,
          -0.18106049299240112,
          0.20525231957435608,
          -0.06030244752764702,
          -0.1292903870344162,
          -0.08192048966884613,
          0.008543084375560284,
          -0.22168086469173431,
          0.011121961288154125,
          0.12304306775331497,
          -0.18792809545993805,
          0.2542937397956848,
          -0.002013266319409013
        ],
        [
          -0.12435287237167358,
          0.0811506137251854,
          -0.13767176866531372,
          0.07218464463949203,
          0.2055884748697281,
          -0.02867848239839077,
          0.20908968150615692,
          -0.022010089829564095,
          -0.0972883403301239,
          -0.23369134962558746,
          0.08634144812822342,
          0.17813324928283691,
          -0.08003479987382889,
          0.19359584152698517,
          -0.18667154014110565,
          0.06997943669557571
        ],
        [
          -0.23510587215423584,
          0.22712232172489166,
          -0.1843803972005844,
          -0.2305884063243866,
          -0.07670950889587402,
          -0.06979797035455704,
          0.2260620892047882,
          -0.12423162907361984,
          0.007647891528904438,
          0.1620025485754013,
          0.1271270513534546,
          -0.17555038630962372,
          0.17346452176570892,
          0.040609389543533325,
          -0.1457921415567398,
          -0.20599159598350525
        ],
        [
          0.23997902870178223,
          -0.023942891508340836,
          0.19883233308792114,
          0.1007814109325409,
          0.16901279985904694,
          -0.26180195808410645,
          0.23766139149665833,
          -0.13950617611408234,
          0.2176535427570343,
          -0.1638747900724411,
          0.04333767294883728,
          -0.24834387004375458,
          -0.01490860152989626,
          0.12541349232196808,
          0.1510312259197235,
          0.003000306896865368
        ],
        [
          0.1080140769481659,
          -0.22184152901172638,
          -0.09763158857822418,
          0.024688012897968292,
          -0.1982785314321518,
          0.13102063536643982,
          -0.041168730705976486,
          -0.2320886105298996,
          -0.018565775826573372,
          -0.04114881157875061,
          -0.15213267505168915,
          -0.07206631451845169,
          0.10218875855207443,
          -0.037223752588033676,
          -0.24024605751037598,
          -0.0616782009601593
        ],
        [
          -0.15046527981758118,
          0.023479176685214043,
          -0.012468533590435982,
          -0.18196021020412445,
          0.1428755521774292,
          -0.10109779983758926,
          0.22749266028404236,
          0.13906320929527283,
          -0.2621092200279236,
          0.030012456700205803,
          0.12257210910320282,
          -0.21186883747577667,
          -0.20606844127178192,
          -0.19735991954803467,
          0.222352534532547,
          -0.005513118114322424
        ],
        [
          0.1912010759115219,
          -0.26032018661499023,
          0.13373960554599762,
          -0.2520097494125366,
          -0.006349038798362017,
          -0.09539180994033813,
          0.18781618773937225,
          -0.15834775567054749,
          0.030414680019021034,
          -0.09645302593708038,
          0.015974832698702812,
          -0.21107259392738342,
          0.12568296492099762,
          -0.09038222581148148,
          0.1419786810874939,
          -0.11394194513559341
        ],
        [
          0.17630504071712494,
          -0.16935481131076813,
          0.13101786375045776,
          -0.14890480041503906,
          -0.022805266082286835,
          0.10489495098590851,
          0.280064195394516,
          -0.1027890294790268,
          -0.19178202748298645,
          0.14142078161239624,
          -0.1145072728395462,
          -0.19393198192119598,
          -0.19892658293247223,
          0.2693323791027069,
          -0.03239872679114342,
          -0.021631790325045586
        ],
        [
          0.2270176112651825,
          0.051458731293678284,
          -0.1533084511756897,
          0.028362605720758438,
          -0.1739802360534668,
          -0.0618680976331234,
          0.10963833332061768,
          0.15200752019882202,
          -0.04632427543401718,
          -0.1776694506406784,
          0.2343055158853531,
          0.014072008430957794,
          -0.12255804240703583,
          0.01995404064655304,
          0.252812922000885,
          -0.048737384378910065
        ],
        [
          -0.15546977519989014,
          -0.16884613037109375,
          -0.1381608545780182,
          0.035996969789266586,
          0.17551776766777039,
          -0.19658809900283813,
          -0.0018049711361527443,
          0.06862249970436096,
          0.06860047578811646,
          0.036170054227113724,
          -0.20137330889701843,
          0.24545159935951233,
          -0.1794671267271042,
          0.08413927257061005,
          -0.08862102776765823,
          0.04837865009903908
        ],
        [
          0.03984161093831062,
          -0.1091039776802063,
          -0.08475169539451599,
          0.06960853189229965,
          -0.02054251730442047,
          -0.055201783776283264,
          -0.07243146747350693,
          -0.09087380021810532,
          -0.2680869400501251,
          0.17437055706977844,
          -0.1954692155122757,
          0.16629047691822052,
          -0.11436319351196289,
          0.12432678043842316,
          -0.10702268779277802,
          -0.17634627223014832
        ],
        [
          0.0277596153318882,
          0.23137180507183075,
          -0.14300407469272614,
          0.07983369380235672,
          0.022092219442129135,
          0.006073302589356899,
          0.16901445388793945,
          -0.24145010113716125,
          0.0858927071094513,
          0.23672296106815338,
          0.13375867903232574,
          -0.06939707696437836,
          0.21753831207752228,
          0.17794381082057953,
          0.11969803273677826,
          -0.17781297862529755
        ],
        [
          -0.02944757603108883,
          -0.00552450492978096,
          -0.16757503151893616,
          -0.04181377589702606,
          -0.2144080102443695,
          -0.22008319199085236,
          -0.2562836706638336,
          0.1102292388677597,
          -0.1265406459569931,
          0.25140899419784546,
          -0.0557413250207901,
          -0.07006380707025528,
          0.08463238924741745,
          0.15584605932235718,
          0.2429373860359192,
          -0.17800520360469818
        ],
        [
          -0.25249001383781433,
          0.16115830838680267,
          -0.2099047601222992,
          -0.05917567014694214,
          0.15870599448680878,
          -0.14975962042808533,
          -0.019494034349918365,
          0.2513333559036255,
          -0.12990202009677887,
          -0.2596857249736786,
          -0.06229222193360329,
          0.13436298072338104,
          0.20130735635757446,
          0.223139688372612,
          -0.03910868614912033,
          -0.07563066482543945
        ],
        [
          0.053440529853105545,
          0.13828237354755402,
          -0.16727833449840546,
          0.12357427924871445,
          0.1207861378788948,
          0.21191120147705078,
          0.1389731615781784,
          0.20400962233543396,
          -0.04103628918528557,
          0.005340587813407183,
          0.08435601741075516,
          -0.014759987592697144,
          0.11989758908748627,
          0.21391698718070984,
          0.24570070207118988,
          0.11648038029670715
        ]
      ],
      "bias": null
    },
    {
      "name": "fc2",
      "type": "linear",
      "in_features": 128,
      "out_features": 128,
      "weights": [
        [
          -0.0030732126906514168,
          0.0490354560315609,
          0.01363670825958252,
          0.09852711856365204,
          0.051593370735645294,
          0.00900657381862402,
          0.11070467531681061,
          0.022266916930675507,
          0.05976197123527527,
          0.02044178545475006,
          0.04602307826280594,
          0.004779352806508541,
          0.002198220696300268,
          0.005803560838103294,
          -0.04074399918317795,
          0.09615770727396011,
          -0.05420593544840813,
          0.03428564593195915,
          0.11981747299432755,
          0.08968425542116165,
          0.08875034749507904,
          0.054732151329517365,
          0.049028586596250534,
          0.02736862562596798,
          0.03108944557607174,
          -0.046795036643743515,
          -0.00416664918884635,
          -0.04335620254278183,
          -0.040098268538713455,
          0.1292116940021515,
          0.04625631496310234,
          -0.08946841210126877,
          -0.05787470564246178,
          0.028471721336245537,
          0.0790473222732544,
          0.017931990325450897,
          0.056319497525691986,
          -0.0037708841264247894,
          -0.015476273372769356,
          -0.06078454852104187,
          0.07646096497774124,
          -0.03253795951604843,
          -0.0502123199403286,
          -0.08334819227457047,
          -0.08983144164085388,
          0.061754267662763596,
          -0.052028682082891464,
          0.02979135885834694,
          -0.013941740617156029,
          0.006149081513285637,
          -0.022454245015978813,
          0.10270277410745621,
          -0.02917361445724964,
          0.002702270168811083,
          0.07579295337200165,
          0.032624732702970505,
          -0.022358110174536705,
          0.002535061677917838,
          0.0050588673911988735,
          -0.048100680112838745,
          0.11751195043325424,
          -0.046650685369968414,
          0.03139060363173485,
          0.09668586403131485,
          0.08385758846998215,
          0.0792243555188179,
          -0.04839777946472168,
          0.0598113089799881,
          -0.03780936449766159,
          -0.03525698557496071,
          0.06997399032115936,
          0.05126839503645897,
          -0.025515366345643997,
          -0.078040711581707,
          -0.005179927218705416,
          -0.11771277338266373,
          -0.06344009190797806,
          -0.06636720150709152,
          0.08096467703580856,
          -0.01425117626786232,
          0.09155955165624619,
          0.10109928995370865,
          0.014808732084929943,
          -0.04801945760846138,
          0.005278262309730053,
          -0.010668831877410412,
          0.004202487412840128,
          0.07153701037168503,
          0.06861624866724014,
          0.06892562657594681,
          0.00506383553147316,
          -0.0004561233799904585,
          -0.0500408373773098,
          -0.007295217830687761,
          -0.0215618796646595,
          -0.035675130784511566,
          -0.015875965356826782,
          -0.060652464628219604,
          0.07591515779495239,
          0.08502992987632751,
          0.0735902190208435,
          -0.08203648775815964,
          -0.10222452133893967,
          -0.016906118020415306,
          0.054318271577358246,
          0.0007311207591556013,
          0.026324385777115822,
          0.04526461660861969,
          0.11381100863218307,
          -0.01732848398387432,
          0.01705385372042656,
          0.1116783395409584,
          0.09945226460695267,
          -0.1123693436384201,
          0.1096864640712738,
          0.039806246757507324,
          0.008939430117607117,
          -0.039802514016628265,
          -0.005302705802023411,
          -0.07302087545394897,
          -0.006107521243393421,
          -0.002510438673198223,
          0.017685405910015106,
          0.06836360692977905,
          0.059444181621074677,
          -0.04029674828052521,
          0.10630340129137039,
          0.0012472412781789899
        ],
        [
          0.08381854742765427,
          -0.0016228207387030125,
          -0.025447668507695198,
          0.026217352598905563,
          -0.011589958332479,
          0.05307343974709511,
          -0.01981266774237156,
          -0.06474717706441879,
          -0.024342648684978485,
          0.07247551530599594,
          0.011213411577045918,
          0.053260911256074905,
          -0.029314102604985237,
          0.022679489105939865,
          -0.06325367093086243,
          0.06387174874544144,
          0.011689508333802223,
          0.11636214703321457,
          -0.011483728885650635,
          -0.04730382561683655,
          -0.04939059540629387,
          0.08551135659217834,
          0.04120074585080147,
          -0.05091601237654686,
          -0.03411601483821869,
          0.11015885323286057,
          0.05812253803014755,
          0.10977785289287567,
          -0.04043768346309662,
          0.019996032118797302,
          0.005648897960782051,
          0.03192031383514404,
          -0.0534462109208107,
          0.04844699427485466,
          -0.057589948177337646,
          0.06159704551100731,
          0.08436422049999237,
          0.05215226858854294,
          0.08262564986944199,
          0.11801407486200333,
          0.09671646356582642,
          0.02092713862657547,
          -0.013406871818006039,
          -0.029596026986837387,
          0.11657781898975372,
          0.09285474568605423,
          0.0844099223613739,
          -0.013122465461492538,
          -0.04776732251048088,
          0.07776016741991043,
          0.05980411544442177,
          -0.08695295453071594,
          -0.040197525173425674,
          0.08055579662322998,
          0.09781144559383392,
          -0.061481814831495285,
          -0.015907399356365204,
          -0.025080006569623947,
          0.07202252745628357,
          -0.10146050155162811,
          0.02108037658035755,
          0.010928167961537838,
          -0.03421684727072716,
          -0.005471189972013235,
          -0.056458938866853714,
          0.04292246326804161,
          -0.027745353057980537,
          0.04896698519587517,
          0.05482631176710129,
          0.030779561027884483,
          0.002094858093187213,
          -0.08212009817361832,
          -0.02509673871099949,
          0.03565681353211403,
          -0.07525263726711273,
          0.019074920564889908,
          -0.04929297789931297,
          -0.024083467200398445,
          -0.014676321297883987,
          -0.06395170092582703,
          0.034764502197504044,
          -0.0621894896030426,
          -0.06100323051214218,
          0.06694582849740982,
          0.11154446750879288,
          -0.05945243313908577,
          -0.020488208159804344,
          -0.033207762986421585,
          -0.042446818202733994,
          0.037157367914915085,
          0.026408229023218155,
          -0.052871983498334885,
          -0.09466353058815002,
          -0.07527244091033936,
          0.03855852037668228,
          0.03553643450140953,
          0.03678784891963005,
          0.09618619829416275,
          0.050745680928230286,
          0.024585653096437454,
          0.005578349344432354,
          -0.08921646326780319,
          0.014189469628036022,
          0.07857394963502884,
          0.05447175353765488,
          0.014242144301533699,
          0.008103691041469574,
          -0.007757116109132767,
          0.08434008061885834,
          0.09853390604257584,
          0.007642692420631647,
          -0.0356171652674675,
          0.054917000234127045,
          0.12358948588371277,
          0.054120469838380814,
          0.08043446391820908,
          0.01366475224494934,
          -0.08022989332675934,
          0.10446128994226456,
          0.06704974174499512,
          -0.05839310958981514,
          0.10100467503070831,
          -0.003764087799936533,
          -0.029758116230368614,
          0.07151990383863449,
          0.022840209305286407,
          -0.020597783848643303,
          0.08001338690519333
        ],
        [
          -0.027214104309678078,
          0.03944140300154686,
          -0.007519623264670372,
          -0.0011716157896444201,
          -0.009301767684519291,
          -0.0755714550614357,
          0.09924762696027756,
          0.03328366577625275,
          -0.12487279623746872,
          0.051702141761779785,
          0.11346043646335602,
          -0.0191046055406332,
          -0.039028678089380264,
          -0.0022978612687438726,
          0.1169104129076004,
          -0.05922900140285492,
          -0.07256342470645905,
          -0.019778035581111908,
          -0.009156904183328152,
          0.07366777956485748,
          0.06099969148635864,
          -0.1159348264336586,
          0.10309810936450958,
          -0.015833478420972824,
          -0.07588841766119003,
          0.06262842565774918,
          -0.007903749123215675,
          -0.008728362619876862,
          0.05483948066830635,
          0.06900255382061005,
          0.028893236070871353,
          0.0973753109574318,
          -0.05114554241299629,
          -0.07874705642461777,
          0.026896430179476738,
          0.007582254242151976,
          -0.01811211183667183,
          0.09914001077413559,
          0.039886604994535446,
          0.016782168298959732,
          -0.08597349375486374,
          0.11441797763109207,
          -0.0353388786315918,
          0.09832651913166046,
          -0.020076531916856766,
          -0.06331276893615723,
          -0.06639157235622406,
          -0.07994671165943146,
          0.005097953137010336,
          -0.10718702524900436,
          0.09689594060182571,
          -0.03260967135429382,
          -0.009226908907294273,
          -0.008797728456556797,
          0.0538746602833271,
          0.03173284977674484,
          -0.07693171501159668,
          -0.033125415444374084,
          0.09106497466564178,
          0.031505078077316284,
          0.04788236320018768,
          0.015699172392487526,
          -0.03169352188706398,
          0.0492473766207695,
          0.05201013758778572,
          -0.07566709816455841,
          0.061558641493320465,
          0.0646890252828598,
          0.021983478218317032,
          0.004339877981692553,
          0.019935693591833115,
          -3.5011558793485165e-05,
          -0.02634059451520443,
          -0.09618069231510162,
          0.04724954813718796,
          0.026446381583809853,
          -0.03713396564126015,
          0.055069081485271454,
          0.014376562088727951,
          -0.023907216265797615,
          -0.02538391202688217,
          -0.006652264855802059,
          -0.005495203658938408,
          -0.10155076533555984,
          -0.08666692674160004,
          -0.00924334954470396,
          -0.008837198838591576,
          0.017883604392409325,
          -0.025669049471616745,
          0.09380020946264267,
          -0.04437216743826866,
          0.06433478742837906,
          -0.0382949523627758,
          0.09064118564128876,
          0.1133933812379837,
          -0.0002858084626495838,
          0.11879923194646835,
          0.0833425223827362,
          -0.03479074314236641,
          0.10018554329872131,
          -0.0014479650417342782,
          -0.019331522285938263,
          -0.015247369185090065,
          0.020806066691875458,
          0.028170868754386902,
          0.015767842531204224,
          0.11253251135349274,
          0.05239029973745346,
          -0.008261572569608688,
          -0.07137717306613922,
          -0.03334304317831993,
          -0.03524952754378319,
          0.09096155315637589,
          -0.06259159743785858,
          -0.03934352472424507,
          -0.010803389362990856,
          -0.046707551926374435,
          0.10066764801740646,
          -0.03130852431058884,
          -0.073521688580513,
          0.059144120663404465,
          -0.008545822463929653,
          0.00993258971720934,
          0.03084515407681465,
          0.032984860241413116,
          0.07397235929965973,
          0.04233832284808159,
          0.07429064810276031
        ],
        [
          -0.0780058354139328,
          -0.03611833229660988,
          -0.030390603467822075,
          -0.03270488604903221,
          -0.0007299352437257767,
          0.0670572817325592,
          0.005388975143432617,
          -0.05959859490394592,
          -0.04569384828209877,
          0.01539499033242464,
          -0.10646837204694748,
          0.07072186470031738,
          -0.06299081444740295,
          -0.00037319547845982015,
          0.09083915501832962,
          0.10749206691980362,
          -0.044961318373680115,
          0.10340052843093872,
          0.08980296552181244,
          -0.11335287988185883,
          -0.12130045890808105,
          -0.049653004854917526,
          0.017583509907126427,
          0.1042194738984108,
          0.051933590322732925,
          -0.10418502986431122,
          -0.10973311960697174,
          0.0906674712896347,
          -0.028868716210126877,
          -0.029709508642554283,
          -0.06373479962348938,
          -0.0826353207230568,
          0.0479997843503952,
          0.012556864880025387,
          0.046385087072849274,
          -0.0081174336373806,
          0.0031766879837960005,
          -0.06045515462756157,
          -0.003239874029532075,
          0.06832952797412872,
          0.042885225266218185,
          0.022884583100676537,
          0.023834405466914177,
          -0.10226690769195557,
          0.07979179173707962,
          -0.11542315781116486,
          0.04882774502038956,
          -0.055331986397504807,
          -0.11426756531000137,
          0.02895614318549633,
          0.015470463782548904,
          4.199565864837496e-06,
          -0.022464046254754066,
          -0.05916469916701317,
          0.07997182756662369,
          -0.11977823078632355,
          -0.0070740473456680775,
          -0.017479250207543373,
          -0.04701251536607742,
          -0.002854221034795046,
          0.012366259470582008,
          0.031980421394109726,
          -0.0960463285446167,
          -0.03132367879152298,
          -0.008466110564768314,
          0.046439241617918015,
          0.03247874230146408,
          0.010544340126216412,
          -0.026050804182887077,
          -0.09473101049661636,
          0.0090121915563941,
          -0.03657137230038643,
          0.03987637162208557,
          0.037003498524427414,
          -0.060037996619939804,
          -0.0515759214758873,
          0.041080597788095474,
          0.06972625851631165,
          0.07146129757165909,
          0.042257651686668396,
          0.007533628027886152,
          0.05037393793463707,
          -0.035899147391319275,
          -0.02186375856399536,
          -0.018077239394187927,
          -0.12209074944257736,
          0.051664527505636215,
          -0.023105544969439507,
          0.0628003403544426,
          -0.03657585009932518,
          -0.032745905220508575,
          -0.020145170390605927,
          0.10192763805389404,
          0.06777217984199524,
          -0.04057026654481888,
          0.006802732590585947,
          -0.042576033622026443,
          -0.08190061897039413,
          0.0016066267853602767,
          0.03393886610865593,
          0.1117614209651947,
          -0.03749261796474457,
          0.07041137665510178,
          0.058492522686719894,
          0.013086015358567238,
          -0.11489962041378021,
          0.09022708237171173,
          0.03326191008090973,
          -0.005971955135464668,
          0.0275911595672369,
          -0.005656938999891281,
          -0.017449108883738518,
          0.07099973410367966,
          0.0954044908285141,
          0.04900364950299263,
          0.03392598032951355,
          0.0709223672747612,
          -0.01788106933236122,
          -0.05309702828526497,
          -0.007029301952570677,
          0.029161320999264717,
          -0.011593242175877094,
          0.0812990665435791,
          -0.002434876747429371,
          0.04722539335489273,
          -0.030919283628463745,
          0.048500221222639084,
          0.03552880510687828
        ],
        [
          0.0029628239572048187,
          0.06802704185247421,
          -0.07302991300821304,
          0.024718016386032104,
          -0.11086637526750565,
          0.07305151224136353,
          0.04494743421673775,
          -0.07447642087936401,
          0.05635553225874901,
          0.08679532259702682,
          -0.12428461015224457,
          0.05730203166604042,
          -0.03383434936404228,
          0.02934771031141281,
          0.033913806080818176,
          0.07487963885068893,
          -0.0032148128375411034,
          0.021701080724596977,
          0.054652705788612366,
          -0.050593920052051544,
          -0.04959746450185776,
          -0.03356971591711044,
          -0.01864132471382618,
          0.10723003000020981,
          -0.06093874201178551,
          0.04055263102054596,
          0.02526979334652424,
          0.10713454335927963,
          -0.010330284014344215,
          0.016211429610848427,
          -0.012324249371886253,
          -0.12066876143217087,
          0.02120303176343441,
          -0.05071703717112541,
          0.08093566447496414,
          0.08238567411899567,
          0.006067837588489056,
          0.005230513866990805,
          0.07498947530984879,
          -0.04421694949269295,
          -0.022564273327589035,
          0.02208498679101467,
          -0.10281338542699814,
          0.008658593520522118,
          -0.10713622719049454,
          -0.0888509526848793,
          0.029041891917586327,
          -0.12197834998369217,
          -0.013327187858521938,
          -0.016353117302060127,
          0.03523837402462959,
          0.05836479365825653,
          -0.027696946635842323,
          0.030055470764636993,
          0.001357376342639327,
          0.05407698079943657,
          -0.12094026803970337,
          0.08908173441886902,
          -0.07795767486095428,
          0.056392163038253784,
          -0.020379627123475075,
          0.11965365707874298,
          -0.03472322225570679,
          -0.10666457563638687,
          -0.051290854811668396,
          -0.058419689536094666,
          0.08303545415401459,
          0.10434693843126297,
          -0.03579890727996826,
          -0.030967924743890762,
          -0.02744048647582531,
          0.039052002131938934,
          -0.04800225794315338,
          -0.004800471942871809,
          -0.0303893331438303,
          0.014774185605347157,
          -0.06934918463230133,
          -0.07993358373641968,
          0.019906165078282356,
          -0.06106886640191078,
          -0.0273906160145998,
          0.05976074934005737,
          0.006706115789711475,
          0.09136766195297241,
          0.0008758095209486783,
          -0.005554844159632921,
          0.04438884183764458,
          -0.0061675775796175,
          -0.003323553130030632,
          0.0787060558795929,
          -0.03016318567097187,
          -0.04493611305952072,
          -0.062442876398563385,
          0.014162360690534115,
          -0.004828500561416149,
          -0.10529697686433792,
          -0.06206415593624115,
          -0.02298000082373619,
          -0.0012629246339201927,
          0.11293388158082962,
          0.0076922401785850525,
          0.011359254829585552,
          -0.10694776475429535,
          -0.07314353436231613,
          -0.00985881220549345,
          -0.11968039721250534,
          -0.03328751400113106,
          0.012104269117116928,
          0.039301566779613495,
          0.02494676038622856,
          -0.07558076083660126,
          -0.043659962713718414,
          0.00822199322283268,
          -0.06421587616205215,
          0.005721210967749357,
          0.10323016345500946,
          -0.04970286041498184,
          0.03785000368952751,
          -0.09208254516124725,
          -0.0722520649433136,
          -0.05714699253439903,
          -0.0008842892711982131,
          -0.06233719363808632,
          -0.025020234286785126,
          0.09631472080945969,
          -0.10313323140144348,
          -0.02327597327530384,
          0.10510723292827606
        ],
        [
          -0.03078778088092804,
          -0.080593541264534,
          0.0658465176820755,
          -0.053766362369060516,
          0.10363288223743439,
          -0.09112636744976044,
          -0.08398441970348358,
          0.10743246972560883,
          -0.08690215647220612,
          0.10212733596563339,
          -0.07154520601034164,
          -0.004886755719780922,
          0.01206580176949501,
          -0.06873109936714172,
          -0.10987722873687744,
          -0.024480212479829788,
          0.04042131453752518,
          0.1094135269522667,
          0.019672954455018044,
          -0.053912170231342316,
          0.024633171036839485,
          -0.015058658085763454,
          -0.0053214323706924915,
          -0.06889819353818893,
          0.05234096571803093,
          0.022023307159543037,
          -0.06138090416789055,
          0.10480847954750061,
          -0.017293671146035194,
          -0.03000555746257305,
          0.00909610465168953,
          0.09321257472038269,
          0.07985982298851013,
          0.12215600907802582,
          0.018339283764362335,
          -0.05695178732275963,
          0.06850893795490265,
          0.04440692067146301,
          -0.05119619145989418,
          -0.01232048962265253,
          -0.0632365420460701,
          0.024596046656370163,
          0.011669006198644638,
          0.009411849081516266,
          0.012819649651646614,
          0.018293796107172966,
          -0.028788553550839424,
          0.034986693412065506,
          -0.027269180864095688,
          0.12515190243721008,
          0.08819705992937088,
          0.004797733388841152,
          -0.000227444848860614,
          0.03125970810651779,
          0.11386611312627792,
          0.0517389252781868,
          0.04206816479563713,
          -0.011071302928030491,
          0.035645194351673126,
          0.06162148341536522,
          -0.0877280980348587,
          0.11859482526779175,
          -0.08614256978034973,
          0.0476912260055542,
          0.07482311129570007,
          -0.028587469831109047,
          0.0293765589594841,
          -0.09126122295856476,
          0.07696421444416046,
          -0.039574626833200455,
          0.05437619611620903,
          0.051288098096847534,
          0.08165410161018372,
          -0.0013878158060833812,
          -0.06465326249599457,
          0.051245298236608505,
          -0.009013278409838676,
          -0.0864793062210083,
          -0.026271115988492966,
          0.016664881259202957,
          -0.019622772932052612,
          0.047847930341959,
          -0.08465010672807693,
          -0.07237443327903748,
          0.08957567811012268,
          0.047605711966753006,
          -0.03945283591747284,
          0.04848388954997063,
          -0.01597699709236622,
          -0.10511453449726105,
          0.0696183517575264,
          0.07983092963695526,
          -0.045003701001405716,
          -0.09235279262065887,
          0.03322385996580124,
          0.06518504023551941,
          0.033864181488752365,
          0.06598448753356934,
          0.009483401663601398,
          0.012706033885478973,
          0.07116533815860748,
          0.03761699050664902,
          0.05640775337815285,
          0.053857915103435516,
          0.04098348692059517,
          0.06822092086076736,
          0.028937676921486855,
          0.07041466236114502,
          -0.04411666840314865,
          0.024778107181191444,
          0.08507581800222397,
          0.04792862758040428,
          -0.017740091308951378,
          -0.011119328439235687,
          0.006168931256979704,
          0.0040125856176018715,
          0.07527673244476318,
          0.0973084345459938,
          0.01263557467609644,
          0.03296937793493271,
          -0.01041406113654375,
          0.03437944874167442,
          -0.022518722340464592,
          0.1195124089717865,
          -0.025850921869277954,
          0.07715679705142975,
          0.03912036493420601,
          -0.11000770330429077
        ],
        [
          -0.03401654586195946,
          0.00558598805218935,
          -0.0619954951107502,
          0.07540620118379593,
          0.07532484084367752,
          0.08845273405313492,
          0.06498877704143524,
          0.034191884100437164,
          -0.06912276893854141,
          -0.09562625735998154,
          0.08852605521678925,
          0.030811216682195663,
          0.04591714218258858,
          0.07001976668834686,
          -0.06298890709877014,
          0.05018533766269684,
          -0.05698529630899429,
          -0.07839442044496536,
          -0.0775771513581276,
          -0.006884518079459667,
          0.10458996891975403,
          -0.0435456819832325,
          0.04266645014286041,
          -0.043070126324892044,
          -0.035936616361141205,
          -0.08271250128746033,
          0.086215078830719,
          0.07843582332134247,
          -0.06672372668981552,
          0.04427657648921013,
          0.07573111355304718,
          -0.058353934437036514,
          0.01590123400092125,
          0.0646248310804367,
          0.05860307440161705,
          0.09097651392221451,
          -0.01856984570622444,
          0.07595928758382797,
          -0.06321639567613602,
          0.07301001995801926,
          0.0714864656329155,
          0.10386556386947632,
          -0.005746371112763882,
          0.012071317061781883,
          0.035871852189302444,
          0.0635325163602829,
          0.07817584276199341,
          0.07960449159145355,
          0.08466103672981262,
          -0.040461115539073944,
          0.04882179573178291,
          0.03280476853251457,
          -0.06918831914663315,
          -0.011363723315298557,
          0.031334709376096725,
          0.061825476586818695,
          0.021774902939796448,
          -0.09363067895174026,
          0.05499650910496712,
          -0.016358349472284317,
          0.03841793164610863,
          0.05677921697497368,
          -0.006658955477178097,
          -0.012893491424620152,
          0.08325646817684174,
          -0.04870672523975372,
          0.014646485447883606,
          -0.04301336407661438,
          0.1105910912156105,
          -0.0708821639418602,
          0.09559762477874756,
          0.07544329017400742,
          0.03171098232269287,
          -0.030587123706936836,
          -0.005181215237826109,
          -0.025431646034121513,
          -0.019820313900709152,
          0.06278707832098007,
          0.07468012720346451,
          -0.02801770530641079,
          0.06604350358247757,
          0.05697804316878319,
          0.026621028780937195,
          -0.10283003002405167,
          -0.038220420479774475,
          0.02571672573685646,
          0.019115066155791283,
          0.09513259679079056,
          0.05665532499551773,
          0.09886753559112549,
          0.06199770048260689,
          0.05678819492459297,
          -0.04199695587158203,
          0.01705414429306984,
          0.07675542682409286,
          0.0975186675786972,
          0.03515417128801346,
          -0.008877669461071491,
          -0.029467692598700523,
          -0.11247869580984116,
          -0.07103775441646576,
          0.09244127571582794,
          -0.1001920998096466,
          -0.036025211215019226,
          0.01614557020366192,
          0.01246681623160839,
          -0.004423083737492561,
          -0.0002395370975136757,
          0.1155010238289833,
          -0.030848007649183273,
          -0.048659007996320724,
          -0.04846059903502464,
          0.05048626288771629,
          -0.06324749439954758,
          -0.037885889410972595,
          -0.045719537883996964,
          0.07529730349779129,
          0.04605138674378395,
          -0.08565450459718704,
          0.05205254629254341,
          -0.0020222968887537718,
          0.028784098103642464,
          0.028130343183875084,
          0.019277477636933327,
          -0.024301163852214813,
          -0.009303447790443897,
          -0.0006088397931307554,
          0.0340498685836792
        ],
        [
          0.09903396666049957,
          -0.018757570534944534,
          0.039914559572935104,
          -0.032233573496341705,
          0.08961310237646103,
          0.0035570531617850065,
          -0.013646215200424194,
          0.09565895050764084,
          -0.013297377154231071,
          -0.006277278997004032,
          0.05434850603342056,
          0.05911240354180336,
          0.09133665263652802,
          0.017155850306153297,
          -0.07936739921569824,
          0.038207702338695526,
          -0.04022153839468956,
          0.013366247527301311,
          0.09604663401842117,
          -0.046076834201812744,
          0.046157389879226685,
          0.04487159475684166,
          0.11542071402072906,
          -0.046231504529714584,
          -0.06287041306495667,
          0.04758293554186821,
          0.014947331510484219,
          0.036681320518255234,
          -0.11027424037456512,
          0.03257104009389877,
          -0.09301071614027023,
          0.09359235316514969,
          -0.09623769670724869,
          -0.10545352846384048,
          -0.05393453687429428,
          0.10636594891548157,
          0.00697894673794508,
          0.003908238373696804,
          0.020862197503447533,
          0.04715970531105995,
          0.14086593687534332,
          -0.006824098527431488,
          -0.021954117342829704,
          -0.01619383506476879,
          -0.022209590300917625,
          0.020909203216433525,
          -0.02970009855926037,
          -0.03162390738725662,
          0.021511135622859,
          -0.005857520271092653,
          -0.015013227239251137,
          -0.04737543314695358,
          0.015671174973249435,
          0.03710504621267319,
          0.04714148864150047,
          -0.05175645276904106,
          -0.01783110201358795,
          0.12539000809192657,
          0.035928186029195786,
          0.025911832228302956,
          0.03957922384142876,
          -0.05947813391685486,
          0.053997576236724854,
          -0.07046698033809662,
          -0.0020827860571444035,
          0.0309099443256855,
          -0.024224156513810158,
          0.07788801938295364,
          -0.02034986950457096,
          -0.12134267389774323,
          -0.006422070786356926,
          0.038386985659599304,
          0.03379980847239494,
          -0.031139986589550972,
          0.02536487951874733,
          -0.02822941541671753,
          0.05600826442241669,
          0.03933995962142944,
          0.03386765718460083,
          -0.03844286501407623,
          -0.022553224116563797,
          0.0232124961912632,
          0.028409840539097786,
          0.003617517650127411,
          0.09712044149637222,
          -0.10668159276247025,
          0.014997946098446846,
          -0.03351988270878792,
          0.08698073774576187,
          -0.005702076945453882,
          0.030371088534593582,
          -0.10622963309288025,
          -0.08383835852146149,
          0.06752652674913406,
          0.06893131136894226,
          0.0031152302399277687,
          0.033325448632240295,
          0.048987388610839844,
          0.11517249792814255,
          0.12380285561084747,
          -0.04908500984311104,
          -0.1314711570739746,
          -0.04541958495974541,
          -0.09170348942279816,
          0.02616216614842415,
          -0.07486779987812042,
          0.008089966140687466,
          0.06182437762618065,
          -0.05909978225827217,
          0.04220373183488846,
          0.08681982010602951,
          0.031204497441649437,
          0.07308010756969452,
          0.04005167633295059,
          -0.06510339677333832,
          0.0767926573753357,
          0.004620897583663464,
          -0.09160710126161575,
          0.07277897745370865,
          0.10860434174537659,
          0.02908613532781601,
          0.0662519782781601,
          0.015621005557477474,
          -0.02684841863811016,
          -0.06812197715044022,
          -0.05883390083909035,
